437 100
plane 0.2876 -0.74463 0.084414 -0.28839 0.47335 0.24773 -0.57708 -0.026224 -0.014287 0.70171 -0.60182 0.12296 -0.050482 -0.026212 -0.45133 -0.63575 0.11117 -0.011008 -0.37988 -0.44998 -0.67825 0.24743 0.0068379 -0.12665 -0.016181 -0.65817 -0.16384 0.52357 -0.61738 -0.54764 0.22823 -0.51062 -0.09909 0.56415 0.058821 0.27939 -0.33952 -0.71127 0.39001 -0.58327 0.66991 -0.26528 0.17408 -0.43013 0.33886 -0.11961 -0.57438 -0.64487 0.036731 0.2326 0.31956 0.59029 -0.40495 0.026871 0.564 -0.41297 0.35504 0.25311 -0.30024 -0.31554 -0.43321 0.35198 0.37035 0.33426 -0.38168 -0.2807 0.093269 0.0073895 -0.66093 -0.30915 -0.16848 0.11753 -0.74816 -0.63555 -0.31208 0.12042 -0.0027789 -0.10076 -0.0047704 -0.26681 -0.031854 0.32748 0.82052 0.11683 0.1275 0.3105 -0.42954 -0.40087 -0.14865 -0.080317 0.18602 0.18128 0.25149 0.8123 -0.52644 0.29384 0.13661 -0.062694 -0.22921 -0.34314
stupid -0.049973 0.16744 0.28515 0.035043 0.65384 0.30701 0.58229 0.22804 -0.12271 0.48595 -0.21988 0.089651 -0.31011 -0.011001 0.21324 0.2727 -0.32119 0.13936 -0.26853 -0.061181 -0.12973 -0.1386 0.097677 -0.12812 -0.15279 -0.46178 0.085713 -0.48755 -0.53262 0.14276 0.30629 -0.067072 0.0071453 0.14103 0.11603 0.20188 -0.81888 0.079067 0.049818 -0.3881 -0.11646 0.10777 -0.35844 -0.17415 0.20885 0.19197 0.24998 0.2177 0.30081 0.57714 0.40195 0.11218 -0.10052 0.66479 0.70329 -3.3913E-5 0.18041 0.159 0.12249 -0.17514 -0.041237 -0.003512 0.30965 0.28569 0.19569 0.30479 0.34351 -0.15983 -0.26616 0.084302 0.56904 0.13764 -0.50272 -0.3184 0.091351 0.054804 0.2002 0.32578 -0.18448 0.65362 0.55584 -0.14867 0.14226 -0.13152 -0.15327 0.95914 0.31056 -0.37162 0.19508 -0.51883 0.26314 0.57417 0.48318 1.0904 0.51574 -0.24634 0.3828 -0.73329 0.021775 -0.30177
egg -0.11385 0.12043 -0.041357 -0.70263 0.11885 0.29943 -0.16084 -0.35569 0.44424 0.4164 0.63408 0.032223 0.34525 -0.43456 -0.64731 0.0034502 1.0348 0.59877 -0.30472 -0.14299 0.24909 0.70127 0.0071489 0.1553 -0.17198 -1.1301 0.29838 0.32747 0.05497 -0.28995 0.46793 0.070612 0.13036 0.7327 0.12141 -0.20018 -0.27463 0.26174 0.24633 -0.71468 -0.10135 0.24767 -0.24017 -0.25518 0.51926 -0.078805 -0.29694 -0.50079 0.36249 0.31336 0.85111 -0.14369 -0.040218 0.026806 0.25854 -0.013426 -0.11908 0.70253 0.25849 -0.16237 0.12464 0.28116 -0.2909 -0.40874 -0.25132 0.27294 0.42826 -0.28901 -0.21624 0.20936 0.55198 -0.36705 -0.49903 -0.08902 -0.45926 0.42391 -0.10181 0.12503 -0.0279 0.27249 0.34576 -0.20675 -0.17186 0.59024 0.28319 0.063958 0.019479 -0.54536 -0.055851 -0.35225 0.81739 0.255 -0.070046 0.3599 0.8358 -0.82838 -0.064205 -0.07407 -0.35908 -0.57679
year -0.1369 -0.52509 -0.14246 -0.25183 -0.25589 0.024691 -0.37818 0.052086 -0.26448 0.0096265 0.0031893 -0.13235 -0.10353 0.059085 0.18401 -0.40618 8.4666E-4 0.46289 -0.29236 -0.30875 -0.11899 0.22684 -0.20027 -0.48218 -0.59213 -0.54779 0.34064 0.3842 0.55111 0.01185 0.13908 -0.27299 -0.19928 0.59633 0.36989 -0.21806 -0.0010404 -0.094366 0.19473 -0.47669 -0.11072 -0.070548 -0.81421 0.25252 0.060716 0.18149 0.048074 -0.011034 -0.25191 0.18215 0.41086 -0.45942 -0.25324 0.14518 0.40227 -0.070725 -0.061091 -0.33526 0.036206 0.14906 0.11775 0.041584 0.39186 0.09923 0.41891 -0.19641 0.01259 0.43325 0.14489 -0.24578 0.2648 0.20826 0.20225 -0.02055 0.18556 0.25278 -0.071333 0.051204 0.067532 0.23534 0.066512 0.020571 -0.1165 0.68907 -0.020921 0.20882 0.23629 -0.042355 0.094583 -0.33643 0.080862 0.28219 -0.21258 0.71007 -0.49389 -0.033173 0.022856 -0.60691 -0.2267 -0.23106
psychiatry 0.018495 0.32467 -0.79022 0.017256 -0.3374 0.12174 -0.067328 0.010222 -0.18508 0.83753 -0.0054931 0.34799 -0.083946 -0.14766 -0.15167 0.14924 0.23428 -0.1649 -0.23759 0.47823 0.098135 -0.044925 -0.1523 0.17508 -0.3565 -0.64375 -0.01601 -0.332 0.080509 -0.50528 -0.36401 -0.19957 -0.45508 1.0124 -0.081666 -0.78122 -0.20501 -0.13774 0.033538 -0.53876 0.32728 0.21847 -0.017198 0.26038 0.39233 0.042241 0.39423 0.41466 0.14682 0.40311 0.083268 0.24745 -0.68566 -0.15527 -0.061944 -0.10348 0.44254 -0.097399 0.18622 -0.38791 -0.47289 0.21262 0.19425 0.231 -0.45504 -0.39702 -0.30068 -0.013714 0.075511 -0.10198 0.19687 0.39231 -0.44461 -0.11553 -0.51789 0.75279 -0.025624 0.34582 -0.46735 0.17374 -0.0042167 0.063614 -0.28308 0.014628 -0.31371 0.43654 0.17696 0.010947 0.2673 -0.8372 0.49392 0.49439 -0.35318 0.5027 0.41066 -0.2225 -0.096242 -0.13894 0.091406 0.192
asylum -0.29482 0.0047984 -0.037996 -0.32276 0.13932 0.27957 -0.39088 -0.062289 -0.38502 1.0071 -0.029232 0.17989 -0.7821 0.45973 -0.67656 -0.18368 -0.075589 0.56752 -0.21396 -0.16191 -0.31089 -0.12818 0.52503 -0.48067 0.11493 -0.67004 -0.24238 0.52512 0.44303 0.38943 -0.42826 -0.74662 -0.51444 0.73227 0.23677 -0.12182 -0.57973 -0.42556 -0.035889 -0.44376 0.3788 0.13073 -0.0068631 0.65817 -0.28735 0.36348 -0.41135 0.30985 0.27448 0.63139 -0.050967 0.020614 -0.82929 -0.32884 0.22604 -0.45968 0.25739 0.27889 0.042409 -0.22388 -0.49543 0.12696 0.17113 -0.0069983 0.2046 0.24281 -0.52695 0.30395 -0.30837 -0.39643 0.57457 -0.058036 -0.40292 -0.18389 0.18418 0.38276 -0.040455 -0.50444 -0.0080832 0.1353 -0.66205 -0.91406 0.15491 -0.16884 0.28824 0.22291 -0.41825 -0.72127 0.19591 -0.12833 0.039184 0.1245 0.42587 0.69985 0.53269 0.1838 0.23775 -0.77719 -0.19831 -0.23513
manslaughter -0.075374 -0.088923 -0.34036 -0.51359 -0.056338 -0.62489 -0.25825 -0.20176 -0.069023 0.46978 0.14016 -0.031575 -0.62861 -0.085043 -0.73645 -0.23915 0.064604 0.14623 0.090561 -0.11242 -0.20294 -0.22205 -0.60485 -0.40521 -0.13983 -0.78723 0.022444 0.08776 -0.032478 -0.032184 -0.6959 -0.20576 0.16862 0.061757 0.74356 -0.35445 -0.029932 -0.29218 0.14218 0.12715 0.20001 0.27943 0.48882 0.57386 0.285 0.083018 0.16248 0.67924 0.084826 0.31819 0.44588 0.088223 -1.0315 -0.32727 1.1832 -0.95978 0.065688 -0.22082 0.20673 0.41248 -0.99339 -0.40113 -0.11991 0.55735 0.36492 -0.17871 0.19356 0.11873 -0.77306 0.77527 0.33004 0.76155 -0.82502 -0.16319 -0.19392 0.36467 0.32611 1.1798 -0.92956 0.0015641 -0.092622 -0.11914 -0.3816 0.32452 0.053611 0.45953 -0.15882 -0.88685 0.035568 -0.41958 0.25732 -0.30465 0.2653 0.54295 0.1056 -0.2661 -0.0018893 -0.45164 -0.46592 0.095826
music 0.72971 0.61622 -0.93865 0.34292 0.028147 0.34992 -0.38835 -0.19974 0.19647 0.54888 0.38691 0.23288 0.012466 -0.62407 -0.15302 0.12458 0.31097 0.60556 -0.02319 0.21811 -0.32208 -0.24151 -0.088591 -0.38697 -0.11649 -0.54223 0.51617 -0.21356 0.17137 -0.08994 -0.47681 -0.021642 0.14497 0.572 -0.05222 0.068981 -0.43736 -0.063202 0.43246 -0.093448 0.50002 0.27273 -0.18428 -0.10802 0.37427 0.26507 0.19333 0.36444 -0.074353 -0.1603 0.244 -0.53339 -0.19685 0.07916 0.42865 -0.51868 0.33155 0.15229 -0.55581 -0.96474 0.55944 -0.037419 0.73322 -0.070232 0.02828 0.012146 0.12433 -0.19447 -0.16409 -0.49722 0.16718 0.16288 -0.48865 -0.39548 0.16957 -0.18596 0.038577 -0.2084 -0.47758 0.33063 0.082469 -0.37399 -0.18129 0.21159 -0.23007 1.0638 0.066264 -0.3115 -0.12047 -0.56118 0.44112 0.18111 -0.10219 -0.0090828 -0.70901 -0.17962 -0.024176 -0.17645 -0.50583 0.043363
record 0.55723 -0.42123 -0.3255 0.1639 0.13219 0.29995 -0.21861 -0.14271 0.081438 0.071781 -0.066059 -0.084814 -0.22396 0.015528 -0.52665 0.2015 -0.087599 0.4845 -0.11085 -0.3035 -0.27814 0.15205 -0.052086 -0.92804 0.23577 -0.56744 -0.039892 0.48232 0.6336 0.49854 -0.51907 0.16489 -0.22632 0.40759 0.38995 0.61738 0.045249 0.37236 0.8438 -0.19504 0.08406 -0.17902 -0.25959 0.11132 0.28762 -0.055079 0.09607 -0.074487 0.21147 0.19303 0.50679 -0.19974 -0.48086 -0.13474 0.37908 0.046963 0.030055 -0.44909 -0.28148 0.079855 0.070366 0.0099373 0.30512 -0.06974 0.42516 -0.32892 0.21746 0.16945 -0.10273 -0.4277 0.12609 0.059014 0.19513 0.28589 -0.35309 -0.0586 -0.32175 0.17972 -0.05952 -0.10844 0.27879 -0.039696 0.16341 0.73426 -0.1778 0.65116 0.18617 0.6466 0.24173 -0.073588 0.3461 0.55818 0.13846 0.30034 -0.24519 -0.24718 -0.10766 -0.95421 0.0033445 -0.14805
energy 0.19458 -0.65296 -0.48198 -0.35762 0.085103 0.38834 -0.26654 0.26733 0.37636 0.83065 -0.080038 -0.44928 0.047433 -0.20376 -0.074072 0.37015 0.32029 0.63526 0.32813 0.18318 0.093838 -0.039575 -0.4469 0.069393 -0.19586 -0.93764 0.7757 0.1443 -0.10779 0.52121 -0.25869 -0.057134 -0.1292 0.20279 -0.25236 -0.022412 -0.093197 0.14164 0.45884 -0.2498 -0.027479 0.04717 -0.72494 -0.8584 0.50276 0.09459 0.35479 0.26488 0.28471 0.53616 0.086148 0.42583 -0.17676 -0.15929 -0.090628 -0.18466 -0.266 0.11755 -0.081468 -0.85136 -0.060269 0.49003 0.082309 -0.26921 0.48518 -0.07402 0.12879 0.23943 0.23081 -0.67969 0.4437 -0.041617 -0.36876 -0.2776 0.085133 0.48955 0.061361 0.5745 -0.13463 -0.24166 -0.4249 -0.056127 0.079819 0.80359 -0.3533 0.70142 0.36026 -0.83019 0.15565 -0.20337 0.17829 -0.13016 -0.17592 0.22559 -0.299 0.30761 0.32309 -0.25664 0.17474 0.28449
announcement -0.1397 -0.15096 -0.21661 -0.62866 0.073975 -0.2609 -0.060893 -0.3066 -0.12497 0.14414 -0.04908 -0.033755 -0.02105 -0.28185 0.25038 -0.23108 -0.051091 0.42103 0.42852 -0.19649 0.29392 0.3915 -0.51148 -0.15289 -0.51337 -0.76562 -0.37896 0.36979 -0.061448 -0.35074 0.39626 0.1296 -0.53399 0.48101 0.51683 0.25231 -0.13732 -0.18545 -0.17538 -0.23078 0.37849 0.35757 -0.49185 0.16161 0.31514 0.53824 0.2475 -0.048578 0.078145 0.075078 -0.061944 0.092952 0.0013537 -0.37629 -0.09667 -0.5847 -0.09174 -0.17539 -0.73778 -0.17283 -0.060138 0.50006 -0.088739 0.16816 0.57847 -0.3162 0.33147 0.46575 -0.32453 -0.18429 0.33889 0.14077 -0.23881 -0.24244 -0.17702 -0.1861 -0.44193 -0.25762 0.40003 -0.11676 0.5009 0.28239 0.010184 0.29383 -0.22521 0.66208 0.12576 -0.16313 0.098086 -0.3846 0.10403 0.55998 0.44271 0.41428 -0.45217 0.36982 0.049933 -0.58536 -0.38666 -0.11892
mile -0.018265 -0.76874 -0.075912 -0.12953 0.44018 0.070637 0.15415 -0.49625 0.38324 0.84155 0.27633 -0.78608 -0.41591 -0.34448 -0.18221 -0.64394 0.048872 0.14412 -0.13769 -0.24561 -0.48897 0.17238 -0.37878 0.096824 0.1031 -1.1765 0.55851 0.36834 -0.015679 -0.38142 0.037879 -0.37554 -0.11343 0.46559 0.19028 0.018006 -0.53736 -0.58961 0.60096 -0.27033 -0.08941 0.076643 0.12779 -0.2113 0.2644 -0.27789 0.51783 -0.4219 -0.056694 -0.34567 0.46434 0.29675 -0.12591 0.18383 0.67523 -0.13037 0.49287 0.0986 0.018043 0.24454 -0.31146 -0.52608 -0.1445 -0.16668 0.074255 0.016241 0.15465 -0.093071 -0.22312 -0.095015 -0.085528 0.36372 0.40801 0.32371 -0.19708 0.41549 0.082947 -0.11849 0.28127 0.30293 0.013756 -0.10623 0.28715 0.24036 0.28487 -0.19299 0.08137 -0.15843 -0.24095 -0.74494 -0.49029 0.39932 0.029828 0.33024 -0.16316 0.41467 -0.031751 -0.80921 0.59077 -0.22781
airport 0.0853 -0.18013 -0.071539 -0.47791 0.56444 0.32653 -0.31583 0.14255 0.36441 0.68465 -0.58551 -0.19208 -0.24077 -0.064718 -0.26594 -0.73325 -0.10521 0.32303 -0.45741 -0.46124 -0.4348 0.46705 -0.28181 -0.065432 -0.28313 -0.76042 0.046868 0.40522 -0.36593 -0.48881 -0.29693 -0.26714 -0.17914 0.38706 0.2088 -0.012776 -0.11015 -0.51298 0.27005 -0.43444 0.14871 0.070709 0.23237 -0.3366 0.22336 0.030138 -0.73133 0.12665 -0.072956 0.13035 0.70651 0.34166 -0.38967 -0.25645 0.030493 -0.93162 0.077908 0.16124 -0.088055 -0.22993 -0.34994 0.085529 0.19248 0.42734 -0.54701 0.039447 -0.13949 0.14121 -0.85785 -0.37151 -0.0094828 0.13533 -0.24229 -0.21734 -0.064129 0.24915 0.15106 -0.39702 0.059943 -0.43368 -0.39995 -0.22255 0.94903 -0.0053226 0.20445 0.30069 -0.27329 -0.32848 -0.35368 -0.36098 0.11558 0.46249 0.037595 1.0606 -0.39951 0.74297 -0.07069 -0.18303 -0.12798 -0.35798
population 0.056315 -0.32057 -0.30836 -0.75162 0.51066 0.64357 0.035758 0.25261 0.013332 0.67002 0.094174 0.033466 -0.71853 -0.21004 -0.1493 -0.086763 -0.15062 0.37416 -0.28229 -0.19625 0.53561 0.20697 -0.32037 -0.03439 0.0083678 -0.7302 0.29735 0.33947 0.24206 0.019735 -0.12514 -0.58622 -0.14219 0.61555 0.63899 -0.43599 -0.32278 -0.35116 0.45465 -0.4948 0.25418 0.15765 -0.64611 0.51987 0.062649 -0.049672 0.13677 -0.24083 -0.23395 0.20348 0.066653 -0.48138 -0.55635 -0.10335 0.2273 0.089802 -0.21248 0.4512 -0.1536 -0.23458 -0.68882 0.080011 0.95951 0.013876 -0.12619 0.1481 0.052009 -0.3252 -0.093347 -0.30747 -0.031471 -0.12055 -0.13068 -0.64532 -0.41597 1.011 -0.19816 -0.45539 0.17367 0.33887 -0.15822 -0.85519 0.0081563 0.35209 0.0092035 -0.067969 0.083915 -0.30129 -0.23126 0.056003 0.050566 0.048683 -0.72506 0.13503 0.62233 -0.14586 -0.14616 -0.79658 0.31384 0.083738
planning 0.053734 0.034411 0.016869 -0.6596 0.077725 0.63984 -0.3313 0.22176 -0.22804 0.21723 -0.45838 -0.4316 0.3605 0.11817 -0.031464 -0.045688 0.059438 0.24814 -0.412 0.22405 -0.59956 0.055467 -0.45372 -0.11173 -0.31118 -0.79337 0.19415 -0.1429 -0.089241 0.18592 0.26084 -0.083528 -0.25239 0.34281 0.20707 -0.12198 0.046123 -0.16259 0.3264 -0.24421 0.019764 0.5384 -0.32184 0.085579 0.36737 0.42548 -0.21032 0.36271 -0.029238 -0.023806 -0.12219 1.0815E-4 -0.439 0.008626 0.11584 -0.52969 -0.035834 -0.065647 -0.31984 -0.31082 -0.082732 0.23596 0.092993 -0.10095 0.37565 -0.0066873 0.038266 0.73602 -0.29733 -0.33838 0.3059 0.35189 -0.41027 -0.31686 -0.37038 0.30675 -0.0013644 0.24524 -0.14347 -0.22012 -0.17366 0.023569 -0.15291 0.082369 0.13553 0.43702 0.06953 -0.22645 -0.12022 -0.57678 -0.18277 0.56057 0.020916 0.29115 0.0057915 0.40944 0.23463 -0.31601 -0.41206 -0.17585
canyon 0.28887 -0.25481 -0.11063 -0.36378 0.10081 0.030862 -0.36196 -0.27352 0.55179 0.962 -0.0071026 -0.099161 -0.33494 0.18801 -0.27571 -0.62249 -0.033575 0.56431 -0.67881 -0.14698 -0.15148 0.049194 -0.059267 -0.26947 0.5987 -0.84538 0.29116 0.5134 0.016711 -0.50638 0.35773 -0.041672 -0.086551 0.84102 -0.30375 0.14322 -0.42287 -0.53024 0.74265 0.05328 0.12653 0.33897 0.014418 -0.70331 0.16268 -0.26422 0.56887 -0.36033 0.3641 0.22667 0.31557 0.22217 0.0030249 0.074227 0.67114 -0.3667 0.16976 0.17174 -0.29188 -0.43818 -0.38059 -0.1895 0.34626 -0.22829 -0.46973 -0.077737 0.53904 -0.38493 0.0035517 0.012695 -0.13893 0.17488 -0.11076 0.11179 -0.34672 0.15406 0.086383 0.032434 0.10652 0.25056 0.16433 -0.17974 0.097747 -0.053388 -0.054936 0.0055922 0.40703 0.023973 -0.28615 -0.60603 -0.42824 -0.10266 -0.005103 0.013934 -0.051081 0.50917 0.097542 -0.62277 0.17222 -0.24603
delay -0.39111 -0.070939 -0.2134 -0.67765 -0.033237 -0.053011 -0.19314 -0.14818 0.012752 0.54875 -0.61022 -0.062286 -0.10859 -0.38326 -0.49063 0.33552 0.078466 0.39887 0.22608 -0.026239 -0.33805 0.18732 -0.28806 -0.17785 -0.27548 -0.61609 -0.19401 0.32126 -0.10526 -0.016382 0.21917 -0.36552 -0.36554 0.34709 0.39007 0.13546 -0.034796 0.052053 0.27584 -0.10976 6.1854E-4 0.17131 -0.69668 0.12477 0.15891 -0.067098 -0.41654 -0.29783 -0.31984 -0.03232 -0.095121 0.46425 -0.15611 -0.088151 -0.095856 -0.73805 -0.13289 -0.31791 -0.75104 -0.066239 -0.14207 -0.22056 -0.026182 -0.13992 0.70149 -0.42809 0.41199 0.53521 -0.19611 -0.39425 0.14347 0.28527 -0.28566 -0.74175 -0.40834 0.10064 -0.1089 0.23463 0.017078 0.22667 0.20673 -0.13511 -0.21637 -0.23077 0.10804 0.84379 0.15028 -0.3461 0.35921 -0.5615 0.134 0.090861 0.37876 0.89944 0.069808 0.22046 -0.37064 -0.29093 -0.50056 -0.2447
size -0.23561 -0.56482 -0.14652 -0.29087 0.0085506 0.23794 -0.21119 0.26372 0.1069 0.37814 -0.065715 0.098711 -0.028061 -0.93256 -0.13815 -0.34455 -0.056458 0.18367 -0.83037 -0.14965 0.066502 0.022662 -0.59344 0.12304 -0.080238 -0.82213 0.38975 0.31742 0.029138 -0.16613 0.13367 -0.062833 -0.094081 0.26054 0.61755 0.16347 -0.16612 -0.11784 0.4956 -0.21347 0.21694 0.080458 -0.5161 -0.18207 -0.034282 -0.42125 0.17067 -0.27744 0.039675 0.027894 0.0089363 -0.24495 -0.22958 0.3288 0.10941 -0.32368 0.061092 0.18519 0.17073 -0.28154 -0.16613 0.042231 0.3606 -0.23159 0.30655 -0.12777 0.25978 -0.159 -0.1484 -0.11495 0.34689 0.13278 -0.19571 -0.26651 -1.0357 0.43474 -0.43447 -0.30264 0.27696 -0.12022 0.67088 -0.16691 0.19653 0.47497 0.11065 0.16344 0.3746 -0.16337 -0.61227 0.023659 0.50883 -0.13054 -0.32681 0.26397 0.35356 0.078186 0.29877 -0.3597 -0.017399 -0.14267
peace -0.053817 -0.60188 -0.084675 -0.72701 0.22936 0.064648 -0.059678 -0.052179 0.31234 0.59323 0.0022009 0.67404 -0.81489 0.35964 0.025073 -0.22608 0.18985 0.0040933 -0.4576 0.30913 0.26809 0.66244 0.38476 -0.58875 0.5038 -0.80945 0.44456 0.34206 0.062444 -0.62652 -0.44556 -0.041598 -0.84881 0.15224 -0.16671 -0.12449 -0.49932 0.46547 0.016813 -0.2754 -0.41964 0.51759 -0.051799 0.22702 0.94786 1.1001 0.18894 0.50626 -0.25953 0.52052 0.53182 0.096276 0.097164 -0.59297 0.6064 -0.63046 0.41234 0.13616 -0.78374 -0.13535 0.073995 0.009029 0.31107 -0.38987 0.1478 0.19729 -0.018566 0.65594 -0.43936 -0.57159 0.71922 0.17187 0.07686 -0.68071 -0.12594 -6.9175E-4 -0.38395 -0.51507 -0.79673 -0.038236 -0.12418 0.044132 -0.078215 0.13693 -0.29907 0.44259 0.27168 -0.89717 -0.15861 -0.41924 -0.15858 -0.099155 0.47781 -0.030792 0.18268 -0.27217 0.040389 -0.37222 -0.48805 -0.16475
science 0.36674 -0.13497 -0.43468 0.055384 0.091735 0.59092 -0.10118 -0.35187 -0.26995 0.95774 0.098135 -0.0055691 -0.095723 -0.62441 0.20973 -0.10552 0.17418 0.28535 -0.19219 0.57062 -0.23404 0.23401 -0.028708 -0.15607 -0.47079 -0.41993 0.068927 -0.40047 -0.19492 -0.13143 -0.49002 -0.12507 -0.55698 0.5011 -0.30344 -0.044747 -0.43074 -0.22321 -0.18709 -0.56875 0.2324 0.64347 -0.46653 0.005196 0.26376 -0.41323 0.14131 0.11092 -0.059901 0.80891 0.3686 0.26576 -0.52129 -0.13406 0.54989 -0.016695 0.21821 0.13303 -0.079509 -0.62297 -0.057566 0.62426 0.086572 0.090668 0.010141 -0.21309 -0.51031 -0.10525 0.12011 -0.847 0.55799 0.012235 -0.35692 -0.27875 -0.58746 0.72113 0.24417 0.23518 -0.64296 0.034686 0.12308 0.1305 -0.45421 0.23885 -0.5515 0.40338 0.51959 0.0058232 0.33812 -0.51348 0.20288 0.20782 -0.29199 0.22128 0.46255 -0.03805 0.22241 -0.15207 -0.17898 -0.25385
dawn -0.13361 -0.17499 -0.35659 -0.67811 0.013496 0.53051 -0.44426 -0.11516 -0.017824 0.85357 -0.19668 0.35934 -0.43068 -0.10211 -0.047324 -0.19313 0.13386 0.45301 0.017844 -0.045315 -0.52501 0.1473 0.016391 -0.22691 0.15875 -0.91279 0.053216 0.69814 -0.6589 -0.5328 0.4658 0.174 -0.0038633 0.39563 0.0090192 -0.15354 -0.4791 -0.6476 -0.084973 -0.018427 -0.019579 0.17064 0.033553 -0.19739 0.4955 0.64048 0.19656 0.018543 0.086959 0.16083 0.76145 -0.020477 -0.02565 0.069514 0.39242 -0.32932 -0.088408 -0.0339 0.17264 0.039334 -0.19879 0.20414 0.32391 0.22018 0.17454 -0.085259 0.87489 -0.24959 -0.50474 -0.35665 -0.41575 0.10394 0.28892 0.017394 0.060973 0.18305 -0.14504 -0.086223 -0.36793 0.042117 -0.0070203 -0.15891 -0.138 0.10928 -0.036195 0.41725 -0.29818 -0.21013 -0.062814 -0.4449 -0.11664 0.1167 -0.20677 0.16661 -0.2925 0.39566 0.059939 -0.44976 -0.27941 -0.58111
brother 0.13006 -0.25739 -0.11776 0.0055751 -0.019036 0.10292 0.12796 -0.021615 0.15578 0.40391 -0.04195 0.4749 0.15096 0.10238 -0.47047 -0.30015 -0.058679 -0.34807 -0.34638 0.49989 -0.096363 -0.099653 -0.52462 0.034084 -0.3493 -0.81237 -0.058158 0.015714 -0.063527 -0.38668 -0.18799 -0.8063 0.53344 0.57076 0.04803 -0.13141 -0.40339 -0.63166 -0.14343 -0.60251 0.38993 -0.29233 -0.046348 -0.17285 0.46065 0.6128 0.26867 -0.36313 0.19762 0.11078 -0.18251 -0.28692 -0.75326 -0.10885 0.31113 -0.31161 0.35316 -0.24233 0.10704 0.040796 -0.28424 0.11997 0.47241 0.41295 0.014648 0.027757 0.23353 0.32169 -0.52634 0.35308 0.090147 0.57532 0.20704 -0.1959 -0.18865 -0.29032 -0.22991 0.53371 0.078913 -0.31003 -0.34013 0.061177 -0.20425 -0.093198 0.05332 0.8171 0.16276 -0.38903 0.16721 -0.20663 0.39948 -0.049034 0.33499 0.23719 -0.23203 -0.56348 0.34288 -0.59695 -0.44257 -0.18703
wine 0.38707 0.20164 -0.52859 -0.091235 -0.093236 0.34688 -0.23883 0.53932 0.47261 0.61363 0.51346 0.022425 0.11621 -0.4119 -0.43021 -0.22011 0.34278 0.44185 0.10628 0.15224 0.17702 -0.27034 0.32889 -0.30522 -0.028092 -0.87434 0.60329 0.40903 0.12851 -0.36454 7.6716E-4 0.26235 0.26214 0.50147 0.34703 0.10443 -0.6485 -0.16012 0.29894 -0.48939 0.060664 -0.11475 -0.19121 -0.89519 0.26461 -0.38453 0.023808 0.30181 0.063192 0.28332 0.73717 -0.80961 -0.18622 -0.097974 0.23733 -0.33594 -0.1432 -0.24716 -0.32876 -0.37668 0.078476 0.32143 -0.091984 -0.44913 -0.24452 -0.076866 0.25979 -0.68593 -0.15179 0.067153 0.73685 0.11467 -0.79267 -0.09432 0.10559 -0.031074 -0.066932 -0.20113 -0.37189 0.19749 -0.4887 -0.099793 0.13219 0.64133 0.12752 -0.18094 0.5067 -0.67017 -0.29091 -0.65115 0.11175 0.27871 -0.30834 0.53258 -0.099232 -0.16301 0.028734 -0.015383 -0.12709 0.058852
object -0.46881 -0.27271 -0.49067 -0.10805 0.40957 0.13811 -0.15925 0.014791 -0.3354 0.87097 -0.2402 0.29576 0.0075623 -0.46379 -0.13677 -0.37417 -0.071766 0.41356 -0.22663 -0.15042 -0.22135 -0.015664 -0.15866 -0.54682 0.10318 -0.52848 0.19882 -0.10251 -0.10518 -0.24992 0.10905 -0.04463 -0.10281 0.27091 0.28451 0.17177 -0.33883 -0.064712 0.028192 -0.5243 0.30885 0.11999 -0.23199 -0.25395 0.062544 -0.27697 0.16183 -0.47345 0.34431 0.47744 0.24425 0.13208 -0.17049 0.17601 0.62082 -0.15756 0.508 0.59864 -0.047759 -0.63055 -0.058509 -0.12026 0.11714 -0.091512 0.32639 0.097961 0.57459 0.13832 -0.19077 -0.14027 0.24435 0.21348 -0.5184 0.13365 -0.47581 0.13126 0.025748 0.13759 -0.2224 -0.079314 0.3172 0.10458 -0.039021 -0.24347 -0.029679 0.2692 0.26531 -0.30077 -0.30448 -0.22995 0.28261 -0.051199 0.17877 0.30211 0.22168 0.19218 0.090995 -0.23354 -0.25561 -0.038293
attitude -0.15969 0.075803 -0.65768 -0.11676 0.14437 0.28818 0.53004 0.40539 -0.13118 0.71753 -0.13434 0.52408 -0.20273 -0.58217 -0.41164 0.27684 -0.18627 0.21557 -0.29031 -0.29229 0.29276 0.11513 -0.21727 0.048813 0.3302 -0.30015 0.29351 0.089012 -0.20294 -0.040469 0.055711 0.1948 0.10379 0.43557 0.03075 -0.2487 -0.52472 -0.29488 -0.051657 -0.64936 -0.058957 0.070898 -0.34131 0.2309 0.023544 0.45539 0.55311 0.58598 -0.093604 0.37175 0.2028 -0.15104 -0.49331 0.36387 0.33061 -0.013379 0.27098 0.040576 -0.33189 -0.37451 0.08413 0.13705 0.33115 -0.0029594 0.2636 0.2301 0.08786 0.22784 -0.34252 -0.28843 0.59745 0.20434 -0.5166 -0.14822 -0.24648 0.17401 -0.055873 0.16461 -0.020564 0.16424 0.26385 0.39569 0.47911 0.057 -0.43158 0.6434 0.23937 -0.10713 -0.15475 -0.28589 -0.11617 0.24237 0.61682 0.45947 0.3941 0.21146 0.34253 -0.56757 0.062636 0.0024348
treatment -0.40289 0.35142 -0.25152 -0.4844 -0.18333 -0.53005 0.10269 0.143 -0.02298 0.66452 0.30663 0.30486 -0.43286 -0.31973 -0.44556 0.28165 0.27911 0.19518 -0.28985 0.19399 0.10372 0.12058 -0.17783 -0.072275 -0.21892 -0.83549 0.047245 -0.093591 0.19811 0.25235 0.052456 -0.13179 -0.38141 0.70791 0.035074 -0.3958 -0.26063 -0.30582 0.58709 -1.0285 0.37066 0.0075897 0.25717 0.11811 -0.10983 0.43498 -0.17053 0.18459 -0.046106 0.52662 -0.33342 0.27339 -0.74434 0.038145 0.018466 -0.49509 -0.4338 0.13238 -0.19023 0.13275 -0.14934 0.29354 -0.22553 -0.15562 0.25442 -0.25232 -0.12633 0.62022 -0.067198 -0.26696 -0.3208 0.22684 -0.366 0.21568 -0.11109 0.63701 0.020154 -0.14312 -0.39568 0.27399 0.030579 -0.27013 0.17733 0.079232 0.018357 0.42889 0.14544 -0.72162 0.080865 -0.52963 -0.0070419 0.40166 -0.085355 0.94658 0.38453 0.13257 -0.19291 -0.41764 0.26294 0.46158
flight 0.13738 -0.18049 -0.13471 -0.30246 0.12645 0.31125 -0.42119 -0.13007 0.22099 0.45557 -0.58973 0.055699 0.29225 -0.075611 -0.38414 -0.47306 0.35004 0.27045 -0.33073 -0.50876 -0.83412 0.6761 0.068617 0.026284 -0.16236 -0.60162 -0.057545 0.41955 -0.45683 -0.82229 -0.21585 -0.71149 -0.33841 0.41605 0.27556 0.35315 -0.067841 -0.67577 0.50551 -0.63064 0.44749 -0.14762 0.040142 0.10192 0.15991 -0.16108 -0.43035 -0.22972 -0.090943 0.44001 0.44072 0.34459 -0.42337 -0.0113 0.28528 -0.43883 0.19961 -0.10678 -0.12403 -0.14899 -0.21355 0.025132 0.036953 0.20992 -0.42811 -0.10754 -0.071271 0.031787 -0.77554 -0.51021 -0.055878 0.1831 -0.63229 -0.53419 -0.61902 0.40658 0.17543 -0.038911 -0.12717 -0.15405 -0.046296 0.11476 0.86287 0.22112 -0.064665 0.50092 -0.37016 -0.36655 -0.081428 0.16588 -0.041117 0.21095 0.15765 1.0063 -0.31733 0.66875 -0.35397 -0.040664 -0.61266 -0.42669
forest 0.5503 -0.13066 0.12979 -0.57804 0.03804 0.29044 -0.79329 -0.02477 0.48008 0.73412 -0.22526 0.29041 -0.60468 0.32186 -0.14358 -0.30599 0.25972 0.53508 -0.56309 -0.14381 0.072171 0.042246 -0.23016 -0.35138 0.11713 -1.0189 0.9871 0.55441 -0.092556 0.17419 0.27063 -0.20169 -0.28799 0.4589 0.053762 -0.39284 -0.38642 -0.24301 0.54171 0.023074 0.16873 0.76505 -0.27783 -0.77316 0.39167 -0.054628 0.27274 -0.073679 0.34429 0.61836 0.091687 0.07225 0.063271 -0.43111 0.28784 -0.33514 0.21652 0.25833 -0.077954 -0.51419 -0.38967 0.24652 0.44651 -0.44907 -0.43901 0.41954 0.50609 0.042625 -0.14485 -0.21599 0.18756 0.055614 -0.43068 0.11525 -0.16051 0.37222 0.25754 0.013795 0.22461 0.11606 0.13651 -0.52329 -0.042358 0.12618 -0.13345 -0.029992 0.12006 -0.29771 0.04749 -0.30745 -0.25328 -0.10709 -0.31778 -0.20701 0.1604 0.051942 -0.072543 -0.67585 0.47809 -0.34291
abuse 0.029769 0.053532 -0.45846 -0.49213 0.0080935 0.022885 -0.33905 0.32087 -0.03277 0.57132 -0.015536 0.27087 -0.80931 -0.25338 -0.45749 0.26396 -0.094493 0.41419 -0.29302 0.4817 -0.086148 0.079744 -0.35011 -0.28129 0.10032 -1.0145 -0.034862 -0.2671 0.32841 0.037942 -0.27182 0.10171 -0.12395 0.38248 0.49722 0.14208 -0.28988 -0.0025229 -0.39207 -0.37926 0.36356 -0.13739 0.21493 0.47633 -0.079968 0.19993 0.158 0.58062 0.16251 0.96339 0.29877 -0.010995 -0.94261 0.34608 0.38554 0.0040051 -0.59741 0.22014 0.0072574 -0.12674 -0.79361 -0.33246 0.18476 -0.22714 0.50023 -0.10279 -0.30993 0.34526 -0.65978 0.30769 -0.32525 -0.05834 -0.9672 0.033171 0.087092 0.62003 -0.052432 0.31768 -0.03168 -0.0098423 0.019917 -0.12559 -0.31956 -0.31942 0.13511 1.0207 -0.016457 -0.2932 -0.11268 -0.49918 0.33944 -0.061513 0.30108 0.3562 0.10249 -0.38989 0.13934 -0.72032 0.16025 0.047684
criterion -0.33758 0.24992 -0.26508 -0.076687 0.2031 0.23235 0.010287 -0.065038 -0.054025 0.43081 -0.24461 0.2258 0.06496 -0.29607 -0.16419 -0.0076856 0.12617 0.269 -0.2059 0.096179 -0.01159 -0.025671 -0.22654 -0.25543 0.10217 -0.68421 0.073492 -0.12324 0.1814 0.13604 -0.084987 -0.0017407 -0.17821 0.31664 0.15877 0.11527 -0.259 0.029457 0.23753 -0.65228 0.065006 0.1791 -0.2448 0.034274 -0.036414 0.2149 0.21194 0.22175 0.056803 0.45972 0.12123 0.15474 -0.37788 0.034318 0.25068 -0.2 0.10698 -0.21665 -0.21419 -0.27604 -0.044352 0.073741 0.10674 -0.27645 0.40751 -0.022499 0.073411 0.19126 -0.034502 -0.47045 0.49605 0.1053 -0.31635 -0.15354 -0.38799 0.50882 -0.15013 -0.17471 -0.066383 0.26895 0.094038 -0.021422 -0.17153 0.068711 -0.060761 0.34921 0.34891 -0.30144 -0.20431 -0.39362 0.15817 0.17666 0.20676 0.41107 0.20048 -0.025434 -0.12053 -0.2555 -0.069178 -0.051535
sea 0.42745 -0.43126 -0.018533 -0.50538 0.088872 0.42346 -0.67088 0.41753 0.70352 0.9105 0.29033 0.081383 -0.43319 -0.12157 0.12575 -0.50379 0.2325 0.67441 -0.32946 -0.22019 -0.50906 0.51244 0.26735 -0.4132 0.59751 -1.3506 0.31356 0.77636 -0.176 -0.13151 0.24877 -0.42138 0.16082 0.34071 -0.26383 -0.034848 -0.33818 -0.42572 0.55089 -0.27422 0.1187 0.23156 -0.23187 -0.29578 0.033598 -0.42082 -0.23311 -0.15655 -0.19139 0.50845 0.1706 -0.2662 0.080608 -0.20792 0.35684 -0.28118 0.088283 0.27641 -0.073774 -0.16835 -0.52185 0.14414 0.61383 -0.35047 0.024071 -0.077167 0.34909 -0.454 -0.18535 -0.3269 0.28719 -0.1126 -0.32568 0.08125 -0.25103 0.54886 0.1521 0.30695 -0.53856 0.19502 0.33219 -0.079709 0.44978 0.36383 -0.007391 -0.038323 0.47213 -0.13869 -0.15633 -0.18113 -0.055385 -0.17306 0.41791 0.080532 0.093204 0.18339 0.16409 -0.29302 0.042172 -0.22856
dollar 0.24371 -0.93499 0.1767 -0.80187 0.2823 0.31435 0.1137 0.23208 0.643 0.34873 -0.28613 0.052312 -0.0498 0.013067 -0.67306 0.1126 0.20748 0.73108 0.40963 -0.61756 0.31914 -0.034389 0.84357 0.021581 -0.24908 -0.70097 -0.1705 -0.015392 0.092373 0.1087 -0.058185 0.39198 -0.298 0.67584 -0.18515 0.16168 -0.068452 0.13814 0.51967 0.50819 0.8638 -0.36847 -0.51658 -0.15756 -0.074572 -0.05418 0.10923 -0.28313 0.23719 0.65691 0.54894 -0.48757 -0.34127 0.089276 -0.13312 -0.68546 0.1133 -0.51208 -0.11771 -0.0080899 0.1976 -0.21086 0.16523 0.098198 0.37264 0.2002 0.16263 0.094482 0.6446 0.10766 0.78274 0.30147 -0.27376 -0.29704 -0.42652 0.81803 -0.51392 0.10333 -0.35472 -0.16417 -0.18628 -0.25162 0.75095 0.82023 -0.88981 0.38106 -0.31521 -0.02653 -0.67181 0.20822 -0.02429 0.14776 0.32307 0.41889 -0.57329 -0.80172 0.23409 -0.92984 -0.12384 0.036217
example -0.30412 0.0069725 -0.29172 -0.12458 0.017859 0.51157 0.29839 0.24757 -0.17909 0.37056 -0.082928 0.23238 0.1155 -0.10679 -0.084143 -0.054833 0.20234 0.20515 -0.19536 -0.17307 -0.19494 0.15084 -0.55839 -0.23464 -0.13875 -0.5249 0.19083 -0.11985 0.28712 -0.32861 0.31234 -0.23776 -0.19853 0.49899 0.51234 -0.16846 -0.2273 -0.15847 0.47494 -0.53196 0.067952 0.028988 -0.33788 -0.29095 0.060674 -0.0070288 0.13358 0.22745 0.2005 0.40254 0.088398 0.052668 -0.27428 0.25264 0.1927 -0.2091 0.38827 -0.31194 -0.37713 -0.2426 -0.18131 0.20567 -0.01375 -0.30852 0.38146 -0.077379 0.20861 0.10056 -0.11156 -0.30266 0.26476 0.14483 -0.17834 0.024957 -0.031632 0.11242 0.041923 -0.20957 0.1529 0.13749 0.034046 -0.23391 -0.14451 0.11668 -0.38651 0.31743 0.14748 -0.20194 -0.076134 -0.22845 0.41019 0.33372 -0.0035765 0.51672 0.26451 0.13877 0.22022 -0.26518 -0.044173 -0.14518
journal -0.21831 0.024074 -0.82016 -0.16636 -0.73232 0.61163 -0.322 0.33195 -0.39623 1.0664 0.33722 0.02853 0.043931 -0.12681 0.80228 0.78917 0.98138 0.57212 -0.20408 0.18113 0.55644 0.12074 0.22553 0.34345 -0.35321 -0.4979 -0.78757 0.58251 0.50592 -0.15182 -0.245 0.1703 -0.49732 0.55256 -0.027671 -0.37467 -0.49556 -0.96539 -0.16004 -0.36983 0.86254 0.029719 -0.21476 0.68358 0.65951 -0.17609 0.018512 -0.17172 0.33729 0.4503 -0.19834 -0.061779 -0.63427 -0.37731 0.44255 -0.18505 0.50308 0.069941 0.25064 0.015604 -0.32255 -0.15585 0.12071 0.097601 -0.36289 -0.71624 -0.43089 -0.32511 0.093587 -0.239 0.37564 -0.017569 -0.79845 -0.17979 -0.16716 0.44431 0.2295 -0.10484 -0.49066 0.19812 1.0826 0.15895 -0.52232 0.19909 -0.71141 -0.058863 0.93054 -0.37628 0.35913 -0.49621 1.0124 0.58067 0.0083338 0.45934 0.10177 0.083562 0.18966 -0.5778 0.24417 -0.26678
laundering -0.13569 -0.42937 -0.075388 -0.60185 0.22892 0.2165 -0.61983 0.035395 0.074188 0.18897 0.1112 -0.13332 -0.74594 0.6489 -0.56288 0.43983 0.38695 0.57131 -0.68445 0.3441 -0.30825 -0.69403 -0.39247 0.15511 -0.19032 -1.0474 0.18297 -0.17888 0.52693 0.10246 -0.74869 0.063523 0.10148 0.51428 1.0551 0.19505 -0.097196 0.2956 -0.1371 0.37436 0.095784 0.15121 -0.26975 -0.20349 0.44263 0.29979 -0.25634 0.39088 0.31145 0.62653 0.34173 -0.092042 -0.52415 0.33685 0.69232 -0.88258 -0.25037 -0.38949 0.40407 0.13169 -0.54659 -0.3573 -0.5576 0.66272 0.31721 -0.0011079 -0.42829 0.2782 -0.50573 0.29546 0.3882 0.097722 -0.48337 0.021695 -0.031084 0.77282 0.15947 0.38017 -0.5584 -0.39302 -0.45614 -0.49532 0.11161 -0.10527 -0.46278 0.42162 0.089005 -0.84357 -0.28511 -0.29712 0.24261 0.3263 0.4514 0.83406 0.11546 -0.56082 0.43726 0.0065491 -0.13202 -0.12211
hotel 0.3717 -0.10536 -0.054199 -0.24903 -0.053997 0.24181 -0.028023 0.71622 0.39461 0.19283 -0.17153 -0.12884 0.14526 -0.12633 -0.21677 -0.58182 -0.017489 0.72686 -0.38427 0.0033402 -0.33747 -0.13265 -0.16236 -0.40846 0.17095 -0.97523 0.38845 0.24017 -0.093756 -0.49753 0.24615 0.16203 -0.20033 0.37035 0.017301 0.10371 -0.23778 -0.34596 0.070804 -0.43453 0.17344 0.11948 0.56984 -0.089294 0.24079 0.0053142 -0.0098571 0.20922 0.46783 -0.14078 0.38283 0.29001 -0.68299 -0.10431 0.36763 -0.84595 -0.044025 -0.26255 0.14073 -0.28407 -0.2163 0.44417 0.33237 -0.10091 -0.45203 -0.14256 0.12867 -0.068414 -0.4853 -0.23324 0.2836 0.49529 -0.22568 0.14742 0.20919 -0.202 -0.23709 -0.12743 -0.10346 -0.24004 -0.37512 -0.66211 0.80685 0.40152 0.3717 0.11085 0.18815 -0.25636 -0.68757 -0.51913 -0.067679 0.41881 -0.18436 0.72424 -0.43479 0.33095 -0.1487 0.0089704 -0.63071 -0.15453
term -0.4939 -0.086055 -0.0035926 -0.10091 0.11929 0.056147 0.3223 0.002995 -0.042989 0.45896 -0.3355 -0.1688 -0.53688 0.24047 -0.28767 -0.53016 -0.046796 0.45588 0.045393 0.19415 0.012863 0.30875 -0.26035 -0.27918 -0.028205 -1.0075 -0.37621 0.32784 0.33065 0.05524 0.03076 -0.54304 0.093357 0.34389 0.53545 -0.24123 -0.032804 -0.14948 0.11851 -0.3427 -0.33501 -0.33789 -0.88418 0.24564 0.58753 0.14024 0.46341 0.16574 0.1136 0.59043 0.37625 -0.095029 -0.43085 0.36979 0.036952 -0.47952 -0.76413 -0.49635 -0.036588 0.27743 0.22038 0.17888 0.083665 0.020535 0.25025 0.37586 0.45954 0.32666 0.020987 -0.4575 0.78584 0.2461 0.096437 0.069435 -0.59619 0.4484 -0.20098 -0.017845 -0.45415 0.18296 0.33478 -0.39168 -0.57193 -0.10277 -0.057386 0.19721 0.38195 -0.43563 0.088173 -0.33155 0.058879 0.39633 -0.033107 0.58705 0.0072714 0.079212 0.2195 -0.12788 -0.43312 0.68529
listing 0.27698 0.023081 0.043343 -0.11958 0.033481 0.34397 -0.214 -0.085064 0.19427 0.29928 -0.11463 -0.21792 0.3828 0.18609 -0.17367 -0.18861 0.26561 0.51777 -0.39975 0.15604 -0.10214 0.0086043 -0.070962 -0.353 0.044548 -0.48247 -0.1684 0.52094 0.42795 0.0050544 0.14406 -0.065141 -0.40002 0.2765 0.45973 0.49442 0.13738 -0.1866 0.28022 -0.23034 0.6456 0.3388 -0.067596 0.0045649 -0.016502 0.12339 0.23805 -0.22092 0.16457 0.43662 0.36795 0.019161 -0.44279 -0.64335 -0.19261 -0.47695 0.40154 -0.45418 -0.17486 -0.15022 -0.18284 0.13731 -0.052118 -0.18895 0.19982 0.072684 0.35412 0.42102 0.05725 -0.063485 0.66182 0.33918 -0.42842 -0.041066 -0.18693 0.38767 -0.54866 -0.50094 0.064061 -0.24535 0.43021 -0.29186 -0.060644 0.19255 -0.24862 0.24077 0.30299 -0.31203 -0.67164 -0.34448 0.07348 0.95072 0.14244 0.56826 0.11106 0.23757 -0.39552 0.10714 -0.26781 -0.050872
chemistry 0.12292 0.21738 -0.34912 0.34817 -0.4096 0.26843 -0.026011 -1.3962E-4 -0.32536 0.83266 0.12238 0.09986 0.056423 -0.58145 -0.16439 -0.17379 0.18877 0.32131 -0.44779 0.4009 -0.013844 0.16871 -0.18574 -0.058755 -0.37243 -0.57171 0.51751 0.0074862 -0.058045 -0.35495 -0.73972 -0.1512 -0.21689 0.61696 -0.21717 -0.17134 -0.15578 -0.14357 0.28095 -0.55524 0.15335 0.33434 -0.37672 -0.24639 0.379 0.015986 0.29885 0.10287 0.11589 0.85805 0.15847 0.16664 -0.34151 -0.36345 0.62605 -0.11129 0.39674 0.026754 -0.12795 -0.37311 0.32487 0.4841 -0.053866 0.026622 -0.0047555 -0.18312 -0.21436 -0.22452 0.16381 -0.76569 0.19356 -0.20697 -0.25882 -0.1556 -0.67038 0.19397 -0.069335 0.52695 -0.8128 0.15727 0.17572 0.4712 -0.39599 0.45625 -0.14736 0.44147 0.45041 -0.14634 0.2268 -0.53756 0.51066 0.056504 -0.22034 0.3671 0.52503 -0.1312 -0.034104 0.064595 0.1484 -0.21035
seafood 0.52183 0.18374 -0.04724 -0.47118 -0.032262 0.3288 -0.032366 0.43798 0.83736 0.67488 0.53598 -0.13764 0.18693 -0.41454 -0.19257 0.080123 0.5644 0.48575 -0.25876 -0.31834 -0.072725 -0.11595 0.24363 -0.051382 -0.14164 -0.98328 0.28437 0.50385 0.046517 -0.14321 0.32076 0.13733 0.25603 0.94484 0.19973 -0.049881 -0.47137 -0.034269 0.1766 -0.35503 0.10537 0.38262 -0.30114 -0.74515 0.024298 -0.33791 0.068815 0.24563 -0.10689 0.55857 0.60332 -0.36493 -0.28938 0.037201 0.015736 -0.20644 -0.16333 -0.22796 -0.4583 -0.23096 -0.38581 0.65171 -0.12434 -0.35668 -0.38592 -0.23421 0.14837 -0.74077 -0.16694 -0.044393 0.56418 0.12866 -0.64139 -0.40827 0.017715 0.15834 0.33821 0.039456 -0.44063 0.059087 -0.27061 -0.28412 0.13714 0.74182 -0.073743 -0.25642 0.44314 -0.27462 -0.66431 -0.38051 -0.071978 0.35334 0.22283 0.34006 0.29802 -0.077418 -0.08945 -0.047833 -0.12833 -0.10231
CD 0.26489 0.36895 0.037138 0.18825 -0.1059 0.044726 -0.45925 -0.13614 -0.19273 0.37753 0.34838 0.11808 -0.030906 -0.4438 -0.20004 0.27041 0.90489 0.50305 -0.26315 -0.13665 -0.18905 0.19261 0.066406 0.014468 0.12006 -0.63382 0.35446 -0.26703 0.63615 0.23733 -0.1356 -0.005133 0.4963 0.21605 0.17522 0.47596 -0.2471 -0.071535 0.72182 0.084515 0.76288 0.086505 0.26114 -0.24911 0.21955 0.26371 0.11655 -0.25869 0.43269 -0.28525 0.31975 -0.41016 -0.33626 0.046612 0.35997 -0.34447 0.22134 -0.19647 -0.49112 -0.3785 0.81378 -0.20223 0.48688 0.25687 0.13681 0.13716 -0.131 0.014852 -0.097343 -0.67664 0.57894 0.60076 -0.54045 -0.53332 0.49161 -0.17381 -0.23125 -0.17637 -0.13545 0.27657 0.35857 -0.47332 0.080156 0.62334 -0.18336 1.0788 0.19155 -0.16045 -0.18134 -0.44634 0.94617 0.21586 -0.090879 -0.13821 -0.79129 -0.38269 0.037298 -0.45575 -0.75221 -0.21421
mind -0.10495 -0.10759 -0.33357 0.042819 0.27 0.30137 0.34782 0.34012 -0.10047 0.45845 0.061444 0.42827 0.092319 -0.189 -0.13229 -0.3104 0.25483 0.39277 -0.40634 0.13774 -0.12788 -0.037569 0.056968 -0.24143 0.043347 -0.40251 0.29502 0.041963 -0.16634 0.0063835 -0.016511 -0.038505 0.1426 0.11516 0.18175 -0.16481 -0.62189 -0.18013 0.2977 -0.27368 0.12859 0.21289 -0.10877 -0.242 0.10027 0.45 0.35289 -0.2032 0.42676 0.25079 0.4418 0.0039178 -0.3004 0.051955 0.16179 -0.52817 0.057569 -0.083253 -0.016811 -0.53784 0.096869 0.12873 0.50925 -0.16891 0.080238 -0.14537 0.23395 0.35522 -0.30266 -0.25388 0.77607 0.34035 0.043365 -0.21898 -0.36954 0.071037 -0.40212 0.23504 -0.16954 0.33523 0.49103 0.37558 -0.26555 -5.8783E-4 -0.0502 0.6463 0.086052 -0.13566 0.0022381 -0.38222 -0.076437 0.079397 0.31989 0.61007 0.31948 -0.086351 0.15295 -0.38966 0.018739 -0.22229
sex 0.23342 -0.085821 -0.21005 0.079169 0.2107 0.22405 -0.058934 0.49485 -0.30844 0.4393 0.10925 -0.026293 0.13246 0.023591 -0.8539 0.1074 -0.27978 0.73293 -0.26919 -0.11341 -0.058905 0.26311 0.014391 -0.16576 -0.039191 -1.0897 0.068753 -0.31653 0.28292 -0.28675 -0.15331 0.022081 -0.16244 0.47897 0.23454 -0.073902 -0.76365 -0.217 -0.12298 -0.4996 0.41395 0.25643 0.36537 0.40383 0.090542 0.1615 0.36202 0.42672 0.1176 0.56801 0.47618 -0.13601 -0.87899 0.2244 0.60359 -0.072946 -0.44471 -4.2743E-4 0.11464 -0.29624 -0.63433 -0.26156 -0.060941 -0.36262 0.32161 0.43246 -0.06484 0.21359 -0.52778 0.14299 0.3035 -0.29401 -0.76354 0.35325 -0.21118 0.34761 0.15797 -0.079859 -0.70238 0.058188 0.03949 -0.22809 -0.37397 -0.30164 0.11043 0.78701 -0.29349 -0.46916 -0.24261 -0.69482 0.47954 -0.20356 0.21946 0.38462 0.20322 -0.40832 -0.50677 -0.15296 0.037525 -0.37654
food 0.38231 -0.1256 -0.42936 -0.50728 0.15551 0.24965 0.022453 0.55104 0.90742 0.40996 0.52933 -0.031427 -0.16031 -0.49559 -0.14068 0.32143 0.55055 0.66064 -0.28394 0.071912 -0.26804 -0.073773 0.30332 0.0051399 -0.33701 -0.78112 0.24155 0.27797 0.2822 -0.012928 0.14625 -0.052854 0.2349 0.63559 0.044539 -0.36157 -0.29002 0.25315 -0.019732 -0.65028 -0.094624 0.39115 -0.18674 -0.61743 0.3561 -0.60706 -0.32122 0.037996 -0.20713 0.73761 0.61216 0.1839 -0.60036 -0.09079 -0.28199 0.014867 -0.25725 -0.16182 -0.24496 -0.27034 -0.30147 0.47948 0.37982 -0.16009 0.15998 0.11649 -0.0012307 -0.2529 -0.13958 -0.40372 0.32501 0.031377 -0.63736 -0.61695 0.31733 0.33648 0.12571 -0.17654 0.097344 0.30254 -0.43062 -0.060921 0.094577 0.82831 0.29472 0.40407 0.13755 -0.58244 -0.24735 -0.63453 0.11291 0.042096 -0.13094 0.28254 0.19307 -0.17805 0.050781 -0.23697 -0.18235 -0.32869
precedent -0.34913 0.17194 -0.53931 -0.42135 0.19742 0.21395 -0.27089 -0.38426 -0.31865 0.70894 -0.34102 0.51373 -0.20527 -0.27475 -0.20564 -0.094831 -0.18798 0.44591 -0.055823 0.076048 -0.11029 -0.16338 -0.21161 -0.65811 0.16003 -0.48152 -0.041044 0.0013715 0.30609 0.34057 0.070096 -0.0055667 -0.18548 0.21401 0.35984 0.093764 -0.15805 0.087645 0.28576 -0.30352 -0.11582 -0.030157 -0.5331 -0.20832 0.093298 0.0043154 0.54057 0.42171 0.27363 0.26574 0.36929 0.1146 -0.4509 -0.16337 0.27468 -0.68941 0.32744 -0.047905 -0.63743 -0.12157 -0.13777 0.49958 0.31803 0.058727 0.58021 -0.036795 0.31771 0.50118 -0.26536 -0.14521 0.56265 0.082835 -0.54882 -0.374 -0.28018 0.21866 0.023847 -0.089556 -0.16731 0.38349 0.12632 -0.22208 -0.062002 -0.39767 -0.30416 0.27804 0.12494 -0.41587 -0.09366 -0.10306 0.031974 0.21306 0.59849 0.63508 0.47058 -0.064321 0.091508 -0.40064 -0.13714 0.018815
series 0.13131 0.035616 -0.12999 -0.63469 -0.24892 0.36142 -0.26411 0.18579 -0.23861 0.11385 -0.48062 0.14311 -0.35581 -0.21527 0.10355 0.01834 -0.27105 0.36048 -0.7307 0.12147 -0.38397 -0.21069 -0.071436 -0.016338 -0.51537 -0.35439 -0.22387 0.29424 0.29794 -0.48344 -0.015543 -0.033994 0.091865 0.34115 -0.18742 0.14388 0.092823 0.040597 0.62265 -0.83653 0.11624 0.10363 -0.36331 -0.04772 0.0023408 0.37838 0.55557 0.065783 0.11251 -0.2313 0.44213 0.19953 -0.073086 0.43276 0.61986 -0.42801 -0.37124 -0.25526 -0.42147 -0.054898 0.077137 0.3268 0.019393 -0.34349 0.28462 -0.40731 0.047943 0.76842 -0.1735 -0.37151 0.026321 0.14301 -0.6375 0.074832 0.22994 0.31892 0.076812 0.21139 -0.050875 -0.24177 0.47084 -0.041442 -0.19525 -0.32479 -0.37488 0.55656 0.20955 0.13409 -0.070077 -0.18045 0.43571 0.38089 -0.063692 -0.049054 -0.178 -0.22814 -0.57792 -0.34889 -0.51962 -0.64967
kilometer -0.095099 -0.49388 0.077682 -0.50698 0.28564 0.11821 -0.38184 -0.11862 0.22881 0.70333 0.12832 -0.35361 -0.62739 -0.08253 -0.089556 -0.40397 -0.097667 0.08397 -0.10839 -0.48856 -0.25933 0.1484 -0.25685 -0.12541 0.011922 -1.0866 0.48407 0.24526 -0.13882 -0.12335 -0.16844 -0.25298 -0.12789 0.68421 0.2572 0.2704 -0.38569 -0.31764 0.54686 -0.1736 0.28234 -0.1017 -0.27956 -0.2772 0.23877 -0.27497 0.056865 -0.29005 0.0062818 -0.30054 0.25432 0.45848 -0.1527 0.018197 0.49368 -0.22807 0.27421 0.035049 -0.0025979 0.17867 -0.17357 -0.24002 -0.14596 -0.43838 0.06063 -0.1507 0.21345 -0.26266 0.24556 -0.34822 -0.24223 0.01657 0.24401 0.28192 -0.45067 0.33664 -0.080077 -0.12119 0.11945 -0.097848 -0.003455 -0.2228 0.13329 0.22417 0.13613 -0.25765 0.2851 -0.42283 -0.24384 -0.34516 -0.43759 0.1709 -0.15179 0.23572 -0.30332 0.36794 -0.43726 -0.74661 0.42374 -0.39427
grocery 0.43344 -0.28062 -0.30279 -0.17719 0.34122 0.33612 0.27236 0.31669 0.52235 0.71399 0.55438 -0.43549 0.26399 -0.19543 -0.058032 -0.1012 0.59283 0.31481 -0.48094 -0.10741 0.19138 -0.20273 -0.3366 0.16396 -0.2774 -0.58046 0.13697 0.27506 -0.020023 -0.35843 0.30758 0.19713 0.087642 0.79165 0.33785 -0.30213 -0.16872 0.14551 0.10799 -0.078921 -0.099691 0.24058 0.15483 -0.64969 0.22283 -0.42365 -0.10269 0.13716 0.40039 -0.028681 0.85493 -0.28102 -0.57293 -0.069454 4.3215E-4 0.049989 -0.13022 -0.31097 -0.30567 -0.29276 -0.11825 0.028468 0.26592 -0.15124 -0.28224 -0.24402 0.20718 -0.18716 -0.2241 0.14011 0.21802 0.51977 -0.52982 -0.33131 0.12348 0.14176 -0.14578 -0.1872 0.20634 0.070239 -0.46264 -0.41039 -0.058898 0.56351 0.405 0.60928 -0.12305 -0.68392 -0.81507 -0.94215 0.1082 0.52136 -0.59102 0.50213 -0.29408 -0.1887 0.30647 -0.18377 -0.49553 -0.23165
wizard -0.10311 0.17765 -0.25908 -0.012922 -0.23096 0.68517 -0.17829 -0.055217 0.087725 0.06185 0.30076 0.38448 -0.084775 -0.31084 0.0098778 -0.023896 -0.16198 0.41271 -0.31801 0.26543 -0.15926 -0.22544 -0.26386 -0.67705 -0.38684 -0.30576 0.23079 -0.099173 0.059394 -0.35776 0.10689 -0.5049 0.26799 0.36913 -0.10186 -0.10914 -0.73496 -0.28742 0.353 -0.28574 0.48086 0.28185 -0.33414 -0.15815 0.26298 0.27952 0.51269 -0.084798 0.4567 0.070947 0.15378 -0.34041 -0.14448 0.34877 0.76801 -0.23145 0.38896 0.035669 0.31422 -0.40822 0.11797 0.15407 0.10062 0.028609 0.08195 0.17122 -0.10748 0.15055 -0.40626 -0.35866 0.17129 0.6666 -0.44694 0.087657 -0.30464 0.19464 -0.21192 0.43428 -0.20086 -0.11411 0.3988 8.5623E-4 -0.16627 -0.13629 -0.11499 0.75019 -0.18769 -0.11615 0.030056 -0.064903 0.55876 0.3147 0.13266 -0.1489 0.047387 -0.61751 0.045151 -0.37825 -0.56528 -0.017156
information -0.19593 0.089881 -0.25706 -0.3478 0.26126 -0.38963 0.021482 0.31143 0.26929 0.44632 -0.171 -0.80132 0.071393 0.21169 -0.067625 0.2208 1.0584 0.39611 -0.094481 0.33994 -0.22554 -0.28361 -0.2744 0.054222 0.30224 -0.5881 0.24018 -0.11898 0.18518 -0.046565 -0.44878 0.17297 -0.24904 0.65617 1.1078 0.53583 -0.51408 -0.42129 -0.57246 -0.63567 0.44997 0.4828 0.41706 -0.028593 -0.065564 -0.26009 0.06301 0.017087 0.7587 0.59241 -0.20372 0.37176 -0.092173 -0.1164 0.4182 -0.37331 0.35453 -0.15936 -0.54128 -0.45423 -0.074885 0.41195 -0.2719 -0.046106 0.14759 -0.35067 -0.082632 0.39063 0.038542 -0.11189 -0.012179 0.020887 0.015599 -0.079073 0.1144 0.51943 0.11373 -0.50424 0.14835 0.25519 0.12525 -0.017828 -0.54519 0.23205 -0.52536 1.1447 -0.084473 -0.44175 -0.051967 -0.34153 -0.095907 0.74326 0.55533 0.3949 0.16627 0.14224 0.2404 -0.34257 0.069528 -0.22254
Israel -0.81414 -0.33973 -0.16897 -0.24352 0.56364 0.18417 -0.47913 0.47304 0.17637 1.2626 0.18478 0.65867 -0.69008 0.24144 0.16253 -0.3975 0.1402 -0.071983 -0.35539 -0.15217 0.40814 0.81981 0.88677 -0.22513 -0.0035908 -0.96007 -0.33628 -0.2038 -0.019877 -0.56246 -0.53484 0.27373 -0.42814 0.25813 -0.05671 0.18112 -0.23696 0.75309 -0.14314 -0.54489 0.15242 -0.047515 -0.30795 -0.035883 0.41405 0.84306 -0.11054 -0.014807 0.055357 0.088038 0.19799 0.40782 -0.40697 -0.015939 0.34939 -0.21098 0.43312 0.2336 -0.51729 -0.25587 -0.55999 -0.072394 0.21915 -0.30981 0.7541 -0.62095 0.19897 0.87977 -0.8217 -0.30746 0.96017 -0.24365 0.063882 -0.32043 -0.15032 0.0042283 0.27441 -0.11737 -0.14645 -0.23086 -0.10516 -0.51073 0.14665 0.28113 -0.36654 0.074734 -0.33875 -0.50098 -0.32456 -0.63007 0.050561 0.42737 -0.2185 -0.21655 0.36301 -0.028774 -0.24252 -0.51782 -0.27495 -0.018224
brandy 0.002787 0.31503 -0.10484 -0.44228 -0.143 0.3279 -0.0022338 0.17932 0.59204 0.58774 0.6339 0.20928 -0.2236 -0.12907 -0.42977 -0.14437 0.28518 0.14279 -0.19892 -0.040488 0.053592 -0.13162 0.045873 -0.055903 -0.1564 -1.0099 0.35181 0.44122 -0.16847 -0.38347 0.16064 0.014951 0.54441 0.62332 0.19799 -0.11017 -0.86224 -0.12064 0.25976 -0.37324 0.17239 -0.051817 -0.19854 -0.76572 0.14598 -0.042224 -0.2541 0.03783 0.10389 0.12571 0.50672 -0.24813 0.057517 0.31254 0.30771 -0.14169 -0.074753 -0.051978 0.093235 -0.17825 0.27912 0.29776 -0.36097 -0.43368 -0.14857 0.024774 0.4705 -0.59513 -0.35623 0.0090261 0.47306 0.26419 -0.40166 -0.02404 -0.073598 -0.097593 0.027124 0.14999 -0.17189 0.32724 0.017726 0.23109 0.10048 0.42993 0.29906 -0.027792 0.29044 -0.39479 -0.34349 -0.51388 0.32946 0.074497 0.12383 0.43675 0.076891 -0.33128 0.0088708 -0.26729 -0.097772 -0.11794
interview 0.30917 -0.31801 -0.36354 -0.25667 -0.45183 -0.45121 -0.036164 0.40728 -0.32103 0.61303 0.11685 0.073403 -0.12782 -0.10908 0.087578 0.47141 -0.1666 0.42172 -0.11458 0.29436 -0.017788 -0.05375 -0.16637 0.23434 -0.26365 -0.40693 -0.59274 0.18813 -0.053886 -0.93098 -0.24193 -0.17242 -0.41984 0.077266 0.5668 -0.072644 -0.62848 -0.46181 0.03544 -0.4801 0.11125 -0.40527 -0.19283 0.094929 0.80284 0.67906 0.32846 0.23948 0.21556 0.051008 -0.45801 0.032423 -0.38714 -0.068499 0.2342 -0.61983 0.11087 0.19405 -0.10728 -0.33001 -0.17135 0.46744 0.1335 -0.057079 0.053756 0.034013 0.34759 0.22033 -0.48759 -0.21116 0.50773 -0.035104 -0.42225 -0.12187 0.01197 0.1292 -0.34026 -0.16922 0.20597 0.085886 0.40164 -0.10247 -0.0025399 -0.098379 -0.10666 0.35035 0.010592 0.21038 0.32022 -0.57106 0.40009 0.7622 0.036592 0.727 -0.62028 0.28823 -0.04678 -0.15439 -0.32199 -0.14072
prominence 0.13801 -0.11865 -0.84114 -0.13983 0.043158 0.56076 0.010993 0.1716 -0.060376 0.20552 -0.072205 0.3943 -0.096872 -0.043046 -0.24005 -0.36995 0.021043 0.14383 -0.079945 0.27546 0.08529 -0.03962 -0.015135 -0.24142 -0.15327 -0.45239 -0.044944 0.33959 0.52937 -0.054451 -0.22327 -0.14305 -0.076451 0.71495 0.16061 0.016276 -0.091604 -0.19797 -0.011057 -0.49481 0.29895 0.22895 -0.54547 0.0077124 0.15692 0.54158 0.63955 0.19015 0.07485 0.22413 0.39854 -0.086506 -0.3639 -0.09799 0.52996 -0.1674 -0.0018421 0.042255 -0.16322 -0.28967 0.092177 0.27152 0.28989 -0.23331 0.64984 -0.080295 0.36659 0.12629 -0.054711 -0.50763 0.17852 0.13865 -0.31327 0.23658 -0.38005 0.26069 -0.4078 -0.072666 -0.02449 0.17592 -0.36061 -0.077884 0.17546 0.21169 -0.1164 0.70132 -0.092052 0.12393 0.1774 -0.09833 0.48318 0.31166 0.30012 -0.077535 -0.54264 -0.19077 0.26949 -0.22207 -0.05172 0.12166
bed 0.37201 -0.13466 0.19818 -0.13016 -0.1996 -0.11395 0.17835 0.25117 0.026382 0.511 0.24574 0.48388 -0.11101 -0.11456 -0.4322 0.0096804 0.5272 0.5357 -0.46192 0.2913 -0.15162 0.30199 0.0038891 -0.10916 0.045045 -1.1581 0.11647 0.27604 -0.037425 -0.53954 0.32186 -0.23622 0.29543 0.26423 -0.48279 -0.18314 -0.9387 -0.42919 0.39932 -0.14762 0.21299 -0.048123 0.52556 -0.24857 0.19857 -0.17099 -0.16951 -0.28277 0.44574 0.060065 0.088531 0.27545 -0.32046 -0.011748 0.40381 -0.10252 -0.089104 -0.0015084 0.026465 -0.37514 0.052345 0.054125 0.1374 -0.056349 -0.022479 0.17879 0.42452 -0.080622 -0.58875 0.017811 0.13504 0.23113 -0.19736 0.20303 0.19165 0.3626 -0.21398 0.40979 -0.18957 -0.052139 0.074454 -0.2006 0.064504 0.18264 0.29348 0.33551 0.3631 -0.15988 -0.1565 -0.67109 0.1598 -0.27469 -0.28382 1.0093 -0.1813 -0.015478 0.075916 -0.52436 -0.40614 -0.23902
furnace -0.042388 -0.056712 0.15969 -0.42117 0.031515 0.23159 -0.16169 0.031545 0.23096 0.825 0.081016 -0.070374 -0.18152 -0.33888 -0.38783 -0.37456 0.39937 0.34858 -0.26168 -0.12556 -0.29107 0.24816 -0.47089 0.13632 -0.17341 -0.87362 0.32749 0.49051 -0.11825 -0.24838 0.11244 -0.094186 0.2621 0.13384 -0.14099 0.27191 -0.46174 0.069802 0.57239 -0.0076045 0.50173 0.0090341 -0.14695 -0.65229 0.15004 -0.22756 0.063532 -0.24524 0.16014 0.34461 0.2982 0.71749 -0.1652 -0.048964 0.34839 -0.094333 0.19023 0.25737 -0.13545 -0.22401 -0.10563 0.19053 0.068164 -0.28047 0.034386 -0.11975 0.45972 0.22207 0.12453 -0.22849 -0.21421 0.047067 -0.18152 -0.019092 0.057577 0.11473 0.12679 0.48828 -0.03738 -0.040046 -0.082938 0.064999 -0.01604 0.50365 0.2146 0.57233 0.51868 -0.33095 -0.26216 -0.53204 0.081431 0.038692 -0.47798 0.22836 0.038678 -0.039814 0.16601 -0.36118 -0.11457 0.052132
evidence -0.38901 -0.064162 -0.35187 -0.95154 -0.11724 0.0077638 -0.032957 0.37723 -0.41255 0.76689 -0.0045448 0.1393 0.053063 -0.35701 -0.45847 0.0068235 0.25855 0.60104 -0.25057 0.21698 -0.084586 -0.57342 -0.28053 -0.1865 0.50605 -0.65651 -0.40757 -0.16141 0.34538 0.069301 -0.29417 0.022641 -0.14966 0.26008 0.63338 0.048017 -0.41363 -0.040566 -0.099874 -0.44245 0.12023 0.24882 0.35567 -0.0335 -0.080809 -0.084355 -0.086833 -0.05658 0.49391 0.59949 -0.01047 -0.085712 -0.41937 -0.41159 0.74102 -0.66141 0.19937 0.066397 -0.53277 -0.11325 -0.33148 0.3535 0.0044188 0.25375 0.57798 -0.2556 0.25995 0.12888 -0.25146 -0.43629 0.28614 -0.25815 -0.67767 -0.11839 -0.4003 0.73563 0.26922 0.32419 -0.046459 0.37164 0.068651 0.4952 -0.1842 0.057992 -0.23852 0.36412 0.10364 -0.01494 0.29823 -0.65193 0.16852 -0.20156 -0.083777 0.32733 0.023391 -0.1505 0.48421 -0.21243 -0.25663 -0.35964
sprint -0.1629 -0.027941 -0.45144 -0.14839 -0.033544 0.35907 -0.56228 -0.49049 0.34687 0.5904 0.33198 -0.19806 -0.3243 0.10984 -0.2209 -0.0017125 -0.53665 0.73681 0.051589 -0.64703 -0.47056 0.092029 0.21554 -0.34372 -0.061199 -0.50827 -0.12834 0.10447 -0.2416 -0.15724 -0.70432 -0.38536 -0.38225 0.31589 -0.12041 -0.082312 -0.73208 -0.29868 1.0454 -0.55298 -0.26763 0.1194 -1.2946E-4 -0.17161 0.37625 0.2662 0.59221 0.14842 -0.050287 -0.43547 0.49808 0.18251 -0.66642 0.17513 0.79908 -0.35772 0.10054 -0.2185 -0.050604 0.23582 0.62506 -0.017017 -0.38753 -0.15572 0.020623 -0.23182 -0.1285 -0.10568 0.15219 0.16953 0.088019 -0.11859 -0.10533 0.62857 -1.2509 0.50142 -0.28582 0.18996 0.16074 0.18424 0.013729 0.26501 0.035515 0.1234 0.54912 0.42704 0.14563 -0.61586 0.3066 -0.13859 -0.14062 0.34787 0.60894 0.40462 -0.57611 0.10756 0.071749 -0.49947 0.35594 -0.61592
emergency -0.13888 -0.18936 -0.19103 -0.24671 0.062607 -0.69312 -0.73865 -0.068843 0.0063676 0.18235 -0.47704 0.38652 -0.65542 -0.012999 -0.20108 0.19957 0.10083 -0.17335 -0.050161 0.16493 -0.62459 0.18667 0.03225 -0.12532 -0.34621 -1.0062 -0.16695 0.36596 -0.24411 -0.10738 0.75607 0.2985 -0.34707 0.61224 0.15031 0.0069437 -0.15905 -0.20577 0.62342 -0.60387 0.23314 0.14328 -0.10249 -0.23197 -0.038362 -0.2061 -0.26562 0.36659 0.1481 0.63621 0.047011 0.68938 -0.35538 -0.085174 -0.20738 -0.81084 -0.33052 -0.44271 -0.264 -0.8872 -0.32855 0.24316 0.36998 0.056434 0.10216 0.13296 0.173 0.12919 0.077267 -0.14835 -0.40776 0.10681 0.01426 -0.63265 0.17813 0.79465 -0.30529 -0.23037 0.21856 -0.3473 -0.30121 -0.22894 0.28314 0.055758 0.16047 0.30003 -0.11473 -0.33781 -0.0099224 -0.93655 0.51225 0.1676 0.070971 0.67003 0.033877 0.34391 0.0030092 -0.59767 -0.64681 0.080362
Jackson 0.25662 0.58826 -0.37373 -0.17071 -0.38086 -0.44522 -0.35964 -0.63558 0.12217 0.18798 -0.45496 0.20157 0.055259 0.097934 -0.22426 0.20942 -0.32717 -0.005925 -0.30044 0.27314 -0.093934 -0.45625 -0.038428 -0.059829 0.2791 -0.66952 0.011663 -0.75049 0.56441 -0.51488 -0.15225 0.019919 0.059779 0.52095 -0.20723 0.10485 -0.46933 0.052146 0.44329 -0.47994 0.36334 0.20703 0.22744 -0.20984 -0.025124 0.088632 0.36827 -0.42785 -0.19177 0.15117 0.18904 -0.2386 -0.3562 0.010573 0.28576 -0.43581 0.25985 -0.085601 -0.1885 -0.24104 -0.74997 -0.040642 0.52315 0.019025 0.43491 -0.41371 0.20728 0.5291 -0.42834 -0.14815 0.20737 0.57728 -0.11851 0.070603 -0.64656 -0.35302 -0.39552 0.42676 0.11214 -0.22546 0.21756 -0.18788 0.25565 0.47168 0.17231 0.88632 0.11908 -0.41707 0.295 -1.0101 0.55126 0.21437 -0.14822 0.026277 -0.66803 -0.33825 -0.48377 -0.40805 -0.17393 -0.26928
institution -0.048657 0.093456 -0.7495 -0.048475 -0.056513 0.33615 0.094775 -0.18681 -0.025247 0.64149 -0.30356 0.26511 -0.21509 -0.39221 -0.16485 -0.47213 0.5574 0.30816 -0.1177 0.14339 -0.34364 0.13329 -0.33099 -0.35095 -0.033762 -0.84734 0.10256 -0.35715 0.16481 -0.086246 0.15719 0.17867 -0.42668 0.58298 0.2297 0.14248 -0.25808 0.20086 0.067817 -0.34427 0.021886 0.1788 -0.29383 0.34757 0.15075 0.29661 0.55037 0.27514 0.031821 0.18694 0.22637 0.0278 -0.5128 0.10191 0.50519 -0.23568 -0.11439 -0.29041 0.21507 -0.67325 -0.304 0.11644 0.58194 0.43717 -0.10386 0.3063 -0.13603 0.50719 0.036077 0.010334 0.42901 0.040406 -0.28544 -0.20065 -0.38493 0.6215 0.09479 -0.59858 0.025464 -0.070662 -0.2015 -0.1046 -0.09961 0.078902 -0.26384 -0.025185 0.45726 -0.1721 -0.39611 -0.11037 0.40548 0.5226 -0.054994 0.39672 0.35487 -0.23819 0.01049 -0.23458 -0.39985 0.67497
bird 0.28326 0.09308 0.14522 -0.67152 0.13599 0.546 -0.3079 0.24939 0.59323 0.48608 0.33706 0.13685 0.1918 -0.23148 0.23568 0.04678 0.29127 0.20476 -0.66972 -0.61278 -0.20037 0.44243 0.35212 -0.65148 0.16122 -0.77225 0.07805 0.27587 0.089012 -0.047912 0.42331 -0.23135 0.027894 0.66725 0.36993 -0.43319 -0.52187 -0.34353 0.57511 -0.62131 0.4974 0.45677 -0.2422 -0.10435 -0.12597 -0.18848 -0.31665 -0.38854 0.18133 0.77098 0.75455 -0.20958 -0.045005 -0.14696 0.2396 -0.27115 0.19237 0.62375 -0.12314 -0.57551 -0.28817 0.046362 7.4265E-4 -0.066298 -0.77738 -0.19766 0.68244 0.0046076 -0.088953 0.20681 -0.26023 -0.15793 -0.43861 -0.010318 -0.5029 0.6142 -0.10646 -0.0077848 -0.062985 0.18145 0.22807 -0.33567 0.061506 0.45662 -0.48782 0.037645 -0.054565 -0.030657 0.013744 -0.28605 0.15163 0.0038078 0.18875 0.081757 0.32902 -0.22544 -0.18646 -0.51512 -0.30866 -0.43959
Brazil 0.10416 -0.070607 -0.48701 -0.23896 -0.16815 0.18739 -0.79041 0.52208 -0.048707 0.5244 -0.28247 0.16435 -0.28807 0.27642 -0.20352 0.1655 0.15698 0.020486 -0.46594 -0.58393 0.38282 0.56955 -0.32614 -0.39515 -0.41343 -0.94495 0.088044 0.29537 0.49999 -0.095168 -0.46687 0.10778 -0.37376 0.22361 -0.31409 0.43943 -0.23377 -0.34877 0.51128 -0.76669 0.33381 0.31473 -0.45691 -1.1541 -0.040895 0.51483 0.19365 -0.068608 0.098516 0.14532 0.15765 -0.42906 -0.54667 0.47193 0.063964 -0.17775 -0.16269 -0.09876 -0.021325 -0.1572 -0.34765 0.061598 -0.051162 -0.076448 0.32557 0.15619 0.32476 -0.20892 0.12668 -0.45311 0.52209 -0.58003 -0.38889 -0.24955 -0.087886 -0.094796 0.37401 -0.14262 0.3633 -0.4751 -0.3806 -0.10082 -0.067188 0.39331 -0.25501 0.18077 -0.40007 -0.57909 0.15886 0.32218 -0.52953 -0.099576 0.40637 0.66204 -0.27698 -0.063584 0.16754 -0.44082 -0.12045 -0.44127
warning -0.12469 -0.28653 -0.47097 -0.65213 0.079914 -0.023817 -0.57079 0.47184 -0.059128 0.75473 -0.03884 0.026152 -0.60942 -0.21349 0.4686 -0.0027194 0.067373 0.16372 0.15435 -0.10024 -0.40841 0.10615 -0.03004 -0.32973 0.26532 -0.82993 -0.53882 0.30765 -0.11039 0.18788 0.65001 -0.26694 0.028859 0.65162 0.7009 0.032735 -0.25852 0.18265 0.27262 -0.37486 0.16752 0.42964 -0.34596 -0.0521 -0.058931 0.096643 -0.11355 0.20063 0.3044 0.19194 0.46774 -0.18926 -0.19244 -0.12603 -0.31909 -0.14641 -0.10248 -0.28073 -0.24543 -0.38969 -0.052407 0.10818 0.24679 0.097971 0.63072 0.03465 0.51369 0.26574 -0.4037 -0.050149 -0.12686 0.17368 -0.47931 -0.35947 -0.20865 0.033693 -0.13542 0.16437 1.2769E-4 0.36335 0.22382 0.50119 0.39667 -0.3067 -0.43035 0.79366 0.25989 -0.064266 -0.026793 -0.60758 0.072045 0.55859 0.10735 0.22697 0.092011 0.60302 0.14457 -0.18029 -0.31839 0.082767
implement -0.47259 -0.39162 -0.37156 -0.31147 0.17417 0.27322 -0.53902 -0.10081 -0.19873 0.084152 -0.56803 -0.34183 -0.28087 0.10081 0.047661 0.17405 0.61979 -0.038256 -0.48737 0.1883 -0.030155 0.063314 -0.28005 -0.20039 -0.058395 -0.2253 0.28119 0.44257 -0.077253 0.21814 -0.25029 -0.042676 -0.4789 0.61896 0.41314 -0.2677 -0.5898 0.46568 0.44041 -0.22201 -0.25744 0.14647 -0.4534 -0.030194 -0.058529 0.24856 0.26062 0.4883 -0.17562 0.52813 -0.33097 0.66459 -0.33056 -0.013768 -0.082718 -0.3887 -0.13257 -0.26927 -0.57192 -0.019608 0.15234 0.45746 0.20318 -0.039915 0.35662 0.24701 -0.028747 0.35918 -0.21777 -0.18718 0.44242 0.31046 -0.3048 -0.65753 -0.20426 0.64311 0.014757 -0.20914 -0.36367 -0.43035 0.18714 -0.22334 -0.29161 0.036296 -0.17204 0.49975 0.52372 -0.44493 -0.35577 -0.53014 0.13872 0.20947 0.38885 0.59388 0.3904 0.40686 0.093639 -0.45595 -0.26143 -0.010383
train -0.065053 -0.13461 -0.43238 -0.26307 0.29763 0.40179 -0.11287 0.013429 0.14153 0.69144 -0.55353 -0.62033 -0.14266 -0.05198 -0.36457 -0.62755 0.28191 0.015783 -0.15575 -0.23426 -0.69941 0.40362 0.049324 -0.31868 -0.24049 -0.56259 0.1972 0.14185 -0.39413 -0.78321 -0.0069267 -0.28444 0.28426 0.43521 -0.01546 -0.17974 -0.54325 -0.025209 1.0313 -0.50953 0.14009 0.2318 -0.20086 -0.076822 0.2249 0.070799 -0.27208 0.44905 0.21679 0.14419 0.35271 0.60917 -0.7686 0.10852 0.38133 -0.56226 0.34661 0.086207 -0.33774 -0.26493 -0.019693 -0.2638 0.16123 0.093415 -0.19684 0.22679 0.014305 0.1371 -0.24232 0.078411 -0.54436 0.10117 0.038638 -0.25053 0.12513 0.24723 0.084462 -0.12773 -0.3433 0.025627 0.061604 0.24863 0.51173 0.01409 0.02553 0.48721 -0.13697 -0.4521 -0.31394 -0.049259 -0.16487 0.39777 -0.059829 0.41377 -0.57997 0.33567 0.38581 -0.048719 -0.242 -0.60632
area 0.19772 -0.14977 -0.30804 -0.70641 0.46293 -0.23244 -0.093113 0.26822 -0.035135 0.88707 0.091412 -0.069815 -0.16771 -8.7055E-5 -0.11722 -0.2949 0.1482 0.3964 -0.68871 0.0056299 -0.26812 -0.3037 -0.31373 0.068491 0.2384 -1.0727 0.1884 0.3238 0.0075648 -0.49626 0.10704 -0.1738 -0.098848 0.31028 0.3303 -0.10784 -0.017998 -0.071437 0.10521 -0.38869 0.15952 0.75252 -0.21912 -0.21336 -0.30163 -0.15256 0.5604 0.045095 0.082708 0.18224 0.13336 0.086534 -0.39767 -0.061732 0.31033 -0.50626 0.21848 0.24365 -0.33093 0.082941 -0.20621 0.015553 0.5173 0.041648 -0.39237 -0.021047 0.48955 0.056645 -0.13879 -0.42873 -0.4003 0.22373 0.021224 -0.021743 -0.15328 0.010262 -0.15242 -0.33193 -0.10616 -0.13296 -0.22543 -0.31835 0.072484 -0.047473 0.030883 -0.085794 0.075858 -0.020029 -0.38296 -0.31403 -0.11808 0.25788 -0.34952 0.37042 -0.096163 0.5326 -0.04808 -0.6486 0.15694 0.027238
image 0.075004 -0.040742 -0.40246 -0.48143 0.50938 0.15109 0.25572 0.60031 -0.33409 0.70224 -0.21062 0.38178 -0.35995 -0.11891 -0.099072 -0.10982 0.29635 0.50517 -0.44242 -0.37121 0.12187 0.091234 -0.44672 -0.25755 -0.12167 -0.082659 0.24996 0.090345 0.15507 -0.075069 -0.14352 -0.25227 0.29684 0.50962 0.27351 0.35092 -0.7402 -0.31973 -0.0068792 -0.45048 0.53307 0.023461 0.035084 -0.1798 0.28928 0.2018 0.3411 0.086965 0.052453 0.32187 0.22521 -0.17354 -0.16211 0.31153 0.7751 -0.22616 0.25254 0.27177 -0.15171 -0.45764 0.016094 0.38049 0.40843 -0.43692 3.579E-4 0.10384 0.078953 0.4537 -0.17793 -0.31602 0.13856 0.057635 -0.3038 0.42515 -0.58057 0.27405 -0.065429 -0.39274 0.087558 -0.31831 0.37855 0.17494 0.23352 0.11947 -0.17174 0.76375 0.35873 -0.029392 -0.11486 -0.43013 0.28278 0.19488 0.50086 -0.083191 0.096042 -0.1661 0.54593 -0.091532 -0.54726 0.45852
murder -0.056414 -0.19593 -0.31591 -0.57436 0.075877 0.095258 0.2164 0.039182 -0.3891 0.67058 0.57143 0.58391 -0.76703 0.081443 -0.17531 -0.38348 0.17063 0.1133 0.17814 0.39473 -0.3476 -0.38125 -0.48805 -0.51903 -0.33547 -0.92738 0.047684 0.030474 0.35812 -0.44417 -0.84543 -0.27276 0.17253 0.13687 0.71216 -0.014774 0.10331 -0.40176 0.24264 0.0071114 -0.08151 0.38852 0.53177 0.53121 0.44864 0.27284 0.019451 0.61728 0.087418 0.48911 0.43079 0.12016 -0.6931 -0.1742 1.1568 -0.79014 -0.24939 0.15277 0.022765 0.2254 -0.88492 -0.17627 -0.10878 0.40397 -0.065271 -0.1046 0.34589 0.011103 -0.58268 0.62556 0.50087 0.42535 -0.85012 -0.30473 -0.16828 0.23156 0.011458 0.73597 -0.55714 -0.10727 0.0038877 -0.44082 -0.56836 0.17233 0.050324 0.4642 -0.17474 -0.74816 -0.080149 -0.031077 0.33821 -0.21153 -0.0014191 0.13659 -0.20906 -0.34923 0.42073 -0.46998 -0.53942 -0.43893
journey 6.0793E-4 -0.084609 -0.22208 -0.38 0.012215 0.61004 0.26907 -0.37319 0.15003 0.45589 -0.11018 -0.048679 -0.4077 -0.57474 -0.3971 -0.20903 0.36034 0.23496 -0.083148 -0.37996 -0.72839 0.49109 0.082721 -0.26235 -0.094478 -0.44716 0.53673 0.48846 0.17034 -0.83882 -0.28773 -0.50827 -0.076257 0.36753 -0.22559 -0.23313 -0.58691 -0.72561 0.56689 -0.65283 0.045143 -0.13675 -0.050855 -0.094974 0.66095 0.20521 0.31862 -0.19773 -0.40017 0.21272 0.14298 0.0025459 -0.19948 0.067384 0.60931 -0.64568 0.25059 -0.40566 -0.37497 -4.1125E-4 -0.24116 -0.22789 0.1611 -0.332 -0.17674 0.14624 -0.22484 0.23353 -0.6068 -0.073338 -0.032102 0.047741 -0.30148 -0.058627 -0.35627 0.19372 -0.087067 -0.021081 0.13805 0.072913 0.34479 0.044768 -0.021667 -0.20465 -0.090994 0.18073 -0.21555 -0.65502 0.10483 -0.23343 -0.38491 0.41592 0.35438 0.32095 -0.17258 0.80998 0.030083 -0.51792 -0.16049 -0.36834
minister 0.0057956 -0.33483 -0.0072274 -0.61657 -0.15231 0.59734 -0.2307 0.18644 0.27314 0.52281 -0.42124 -0.14782 -0.77015 0.57747 -0.24632 0.019175 -0.13861 -0.16674 0.3744 0.1613 -0.0414 -0.13109 -0.19329 0.15789 -0.49334 -1.3565 -0.87533 0.17136 -0.3391 0.16416 -0.32546 -0.13148 -0.30625 0.43121 0.022535 -0.65119 -0.80992 -0.19556 -0.57623 -0.59021 -0.10637 -0.013473 -0.65452 -0.24265 0.13887 0.69594 -0.30096 0.474 -0.15933 0.57193 0.12993 0.083588 -0.44124 -0.57569 0.66805 -0.23398 0.17931 0.32775 -0.21973 -0.81902 -0.10271 0.61195 0.062962 -0.03608 0.26372 -0.157 -0.04419 0.10666 -0.46725 0.058295 1.0356 0.224 0.036205 -0.18909 -0.10255 -0.17323 -0.45552 0.1539 0.1665 -0.60944 -0.53064 -0.43203 -0.3206 -0.24146 -0.033585 0.49244 0.19411 0.11832 -0.10751 0.14308 0.62535 -0.063303 0.2418 0.29543 -0.23629 0.14857 0.032041 -0.63867 -0.48619 0.31217
planet 0.17165 -0.22884 -0.16844 -0.37894 0.36569 0.15046 -0.46108 0.092541 0.29586 0.60451 0.039217 -0.034574 -0.35097 -0.13949 0.3614 0.058349 0.35263 0.68108 -0.28613 -0.085126 0.0087262 0.55415 -0.44878 -0.49968 0.13009 -0.87264 0.4835 -0.28175 -0.23081 -0.020968 -0.26092 -0.41361 0.15207 -0.23383 -0.16717 0.036965 -0.86029 -0.47781 0.15065 -0.23337 0.32146 -0.081015 -0.38508 -0.36272 0.07962 -0.13216 0.71998 -0.72546 -0.14422 0.67956 0.72539 -0.18693 -0.05743 0.14325 0.87089 -0.066781 0.39124 0.23679 0.24292 -0.3944 -0.41158 0.32191 0.76532 -0.44679 -0.083546 0.084254 0.4077 0.11884 0.1002 -0.66312 0.36218 -0.26427 -0.14574 0.024548 -0.46735 0.37094 0.18708 0.017296 -0.28857 0.091185 0.1198 -0.071453 -0.14759 0.46353 -0.56871 0.31224 0.5365 -0.67807 0.30941 0.14659 -0.065569 -0.14694 -0.15286 0.36365 0.48113 0.49158 0.028059 -0.29107 -0.13674 -0.4946
article 0.22882 -0.085782 0.16141 -0.26738 -0.11585 0.11023 0.58271 0.54919 -0.64692 0.7669 0.095103 -0.10921 -0.12617 -0.14609 0.65393 0.030115 -0.030721 0.13533 0.059198 -0.18978 0.014753 -0.16868 0.14953 0.039323 -0.049252 0.078206 -0.42934 0.2593 -0.1805 -0.50436 -0.14241 0.41414 -0.0018129 0.38809 0.051765 0.34256 -0.7778 -0.60428 -0.12932 -0.24409 0.31082 -0.21522 -0.95629 0.46609 0.55701 -0.10185 0.16855 -0.14194 0.31178 0.68797 0.056181 0.16264 -1.033 0.14221 0.11989 -0.48813 0.70864 0.086229 0.15138 0.448 -0.35087 -0.12983 0.20248 0.044164 0.16684 -0.33893 -0.23418 -0.33449 -0.37564 0.16668 0.49505 0.082123 -0.54517 -0.15031 0.33935 0.2823 0.279 -0.35116 -0.041491 0.1158 1.0442 -0.12222 -0.68196 0.47697 -0.78754 0.02013 0.48557 -0.56857 0.12475 -0.41017 1.2115 0.93015 0.69939 0.87355 -0.38403 -0.030736 -0.13002 -0.72582 -0.015402 0.21967
anxiety -0.5014 0.12553 -0.67702 -0.48647 0.2186 -0.025176 0.45351 0.69945 0.3164 0.64061 -0.019933 0.58558 -0.15446 -0.35684 -0.38586 0.29946 -0.10647 0.4476 0.16092 0.28548 0.26819 0.17054 -0.052156 0.13601 0.049659 -0.81767 0.27193 -0.031092 -0.074166 -0.25608 0.061012 0.0053259 -0.07772 0.94441 -0.17346 -0.09868 0.016252 -0.32504 0.018438 -0.59108 0.30678 -0.19816 -0.35459 0.19001 -0.13913 0.18629 0.26514 -0.12781 0.3183 0.53444 0.42121 0.41113 -0.48639 -0.067642 0.010442 -0.25676 -0.15169 -0.29087 -0.31999 -0.49976 -0.41334 -0.57906 0.30928 -0.23847 0.46018 -0.12596 -0.33674 0.13188 -0.19631 -0.062857 -0.093316 -0.21141 -0.46579 -0.21571 -0.41403 0.44355 -0.3557 0.30816 -0.27129 0.78186 0.089204 0.4551 0.14748 0.23377 -0.1838 1.0256 0.35974 0.062144 -0.070504 -0.3558 0.013489 0.14631 -0.031081 0.50825 0.088597 0.0043965 0.0084252 -0.31887 -0.22734 0.079275
month -0.15223 -0.49911 -0.12825 -0.52601 -0.32881 -0.099545 -0.45082 0.1736 -0.45722 0.16313 0.020734 -0.11436 0.13769 0.12471 0.34102 -0.16206 0.019269 0.52235 -5.4981E-4 -0.35908 -0.29775 0.059 -0.18144 -0.20238 -0.75848 -0.69458 0.10479 0.59218 0.52014 -0.21539 0.2178 -0.25534 -0.37438 0.56353 0.5641 -0.12655 -0.02496 -0.15673 0.11894 -0.48834 -0.045619 -0.1881 -0.46369 0.31641 0.22119 0.18091 0.029893 0.066138 0.03167 0.1111 0.3736 -0.29826 -0.31886 0.12089 0.31506 -0.25617 0.13935 -0.30566 -0.066507 0.24678 -0.076987 -0.084006 0.35249 0.0012384 0.52002 -0.10002 0.29907 0.62877 0.029433 -0.32665 0.45079 0.37407 0.13523 -0.13471 0.17287 0.09412 0.053356 -0.075679 0.22903 0.012558 -0.11542 0.27971 0.071259 0.32074 0.046782 0.18984 0.11234 0.11858 0.10635 -0.48459 0.021659 0.071465 -0.32653 0.59204 -0.50128 -0.02957 -0.048284 -0.61558 -0.43603 -0.077776
carnivore 0.10905 0.20326 -0.069642 -0.24251 0.10068 0.43098 -0.15423 0.11042 0.19002 0.56081 0.021129 0.19435 -0.10025 -0.12096 0.080133 -0.11161 0.16358 0.18176 -0.26189 -0.037535 0.067557 0.074949 -0.1933 -0.25023 -0.068118 -0.65701 -0.050529 0.086941 0.15702 -0.18589 0.12987 -0.17531 0.071066 0.38527 -0.0079252 0.025716 -0.43183 -0.15251 0.15677 -0.38255 0.19903 0.17315 -0.12463 -0.23105 -0.13754 -0.014696 0.1891 -0.14298 -0.012683 0.086383 -0.013126 -0.069808 0.10219 0.069582 0.30087 -0.20563 0.3743 -0.13397 0.20236 -0.27144 -0.28453 0.12197 0.060208 -0.25644 -0.15394 -0.077228 0.39849 -0.22512 0.087317 -0.22079 0.15289 0.12936 -0.34934 -0.017197 -0.27789 0.16592 0.047766 0.15803 0.052379 0.062628 0.082833 -0.11894 -0.22325 0.35161 -0.020261 0.2007 0.22231 -0.14129 -0.13349 -0.34426 -0.046337 0.3314 -0.096144 0.17488 0.25569 -0.21795 0.11923 -0.077542 0.0045003 -0.2784
party 0.036023 -0.34799 0.10408 -0.19288 0.42339 0.62347 0.35115 -0.37758 0.13248 0.34542 -0.44645 0.0049854 -0.10177 0.62465 0.030274 0.030054 0.060663 0.32503 -0.20947 0.1424 0.070367 -0.32203 -0.42324 -0.43402 -0.060711 -1.0527 -0.10278 0.30549 -0.17568 0.055343 -0.07328 0.17039 -0.10663 0.3182 0.015608 -0.12848 -0.40568 -0.11664 -0.40431 -0.8664 -0.27059 -0.040246 -0.52242 0.45243 0.18481 0.67328 -0.028487 -0.035264 0.24787 -0.15298 0.53428 -0.091771 -0.57574 -0.053543 0.62728 -0.18541 -0.17258 0.22155 -0.5214 -0.71745 0.22089 0.094217 0.23532 0.005989 0.1478 -0.2829 0.39928 0.0068945 -0.014316 -0.066055 0.40645 0.48861 -0.51876 -0.23342 -0.55685 0.056658 -0.036739 -0.34453 0.087649 0.043443 -0.40334 -0.033943 0.23145 0.17117 0.60981 0.33928 0.43306 -0.35464 -0.22523 -0.48775 0.46438 -0.21541 0.4685 0.27609 -0.36453 0.071793 0.043779 0.2781 -0.52111 0.04534
production -0.2333 -0.14011 0.12922 -0.3957 -0.34973 0.41681 -0.18079 -0.15401 0.19056 0.24389 -0.087274 -0.59935 -0.020629 -0.86724 -0.56991 -0.30316 0.05335 0.34258 -0.42198 -0.14221 0.32491 0.26114 0.21479 0.069661 -0.81105 -0.57044 0.37697 0.38185 0.36387 0.43235 -0.30095 -0.3664 0.35028 0.36212 0.22935 -0.19442 0.012871 0.07888 0.80978 0.0057591 0.24619 0.20215 -0.72426 -0.73056 0.27565 0.59816 0.39747 0.25389 -0.49464 0.26177 -0.32604 -0.014138 -0.31535 -0.022521 0.060438 -0.35079 0.093713 0.32504 -0.5794 -0.38285 -0.14338 0.34641 0.16981 -0.0033046 -0.01943 -0.51516 0.18858 0.02555 0.045433 -0.66955 0.048496 -0.41748 -0.95639 -0.219 0.11781 0.34895 0.1822 0.20484 -0.084461 -0.30237 0.10878 0.11652 -0.062978 0.54629 -0.11657 0.7597 0.13095 -0.51859 -0.11355 -0.44419 -0.18724 0.080229 -0.71941 0.2646 -0.61949 -0.33807 -0.12788 -0.30689 -0.33319 0.10656
importance -0.024577 0.13628 -0.55214 -0.72449 0.48591 0.1492 0.12422 0.64825 0.2344 0.55254 -0.40431 0.16314 0.18945 -0.73209 -0.10998 0.46986 0.1658 0.18987 -0.3878 0.47827 0.15325 -0.042653 -0.16912 0.12744 0.1343 -0.47898 0.15621 0.13597 0.41423 -0.062115 -0.27158 0.034614 -0.22929 0.18706 0.1039 -0.19652 -0.11916 -0.10029 0.031993 -0.60798 -0.025519 0.44394 -0.35758 -0.046941 0.27869 0.24982 0.32447 0.21717 0.094301 0.5506 0.2251 0.10025 -0.4802 -0.19929 0.18867 -0.12097 0.25046 -0.4526 -0.32947 -0.7157 0.033764 0.31012 0.41397 -0.32789 0.42977 -0.28161 0.16544 0.037885 -0.37036 -0.37934 0.45225 -0.20058 0.081802 -0.45193 -0.63669 0.4812 -0.41977 -0.15095 -0.23827 -0.26516 0.41947 0.53033 -0.27596 0.0032073 -0.42489 0.13692 0.1172 -0.14443 0.15522 -0.13955 0.19402 0.057143 0.39967 0.42185 0.026711 0.0091015 0.34485 -0.73567 0.065176 0.20538
inmate -0.094369 0.22461 -0.17034 -0.21482 -0.030627 -0.35575 -0.09371 -0.32351 -0.13888 1.0886 0.30988 -0.084338 -0.35026 -0.069328 -0.23512 -0.44029 -0.14688 0.23595 -0.23462 -0.20618 -0.20998 -0.016683 -0.40344 -0.49639 -0.16377 -1.1711 -0.37002 0.243 0.34123 -0.2862 0.060194 -0.48003 0.077549 0.35362 0.68042 -0.2058 -0.27264 -0.26638 0.61011 -0.10478 0.032352 -0.013448 0.40409 0.35485 0.5602 0.11185 -0.36222 0.24129 0.33212 0.49415 -0.11023 0.017475 -0.53341 -0.048973 0.17684 -0.49102 -0.40884 0.12037 0.2488 0.12559 -0.84624 -0.092787 0.31116 0.26719 -0.15796 -0.20266 0.022649 0.40974 -0.13772 -0.11439 0.18936 0.68733 -0.40806 0.050724 -0.30539 0.53543 -0.09053 0.44722 0.14639 0.23996 -0.38914 -0.68961 0.088339 -0.071301 0.023765 0.5817 -0.24322 -0.69512 2.355E-4 -0.22328 0.86833 -0.21417 -0.23468 0.25277 0.54627 -0.47543 -0.22326 -0.34037 -0.27235 0.19754
Harvard 0.01324 -0.22928 -1.0725 0.21175 -0.44594 0.29903 -0.031862 -0.33119 -0.38023 0.81731 -0.42877 -0.061263 0.056365 -0.13542 0.076084 -0.32139 0.078357 -0.25354 -0.10239 0.42063 0.49187 0.18573 0.050765 -0.083635 -0.14378 -0.74486 -0.24821 -0.26195 0.08361 -0.86529 -0.17134 -0.26053 -0.57678 0.97284 -0.15865 -0.35984 0.14419 -0.20602 -0.31184 -0.34058 0.1516 0.23071 -0.10469 0.22752 0.60019 -0.11444 0.1547 0.045716 0.37076 0.27965 0.31478 -0.13206 -0.60398 0.26785 0.12736 -0.084825 0.34733 -0.26631 0.7999 -0.458 0.13615 0.23848 -0.12169 0.22773 -0.15368 -0.30522 -0.58226 -0.35713 0.29267 -0.13423 0.52741 0.12858 -0.21804 -0.25208 -0.36746 0.36451 -0.057227 0.14119 -0.35954 0.010356 0.058274 -0.27658 -0.11992 -0.018395 -0.58978 0.48833 0.37594 0.16557 0.46851 -0.7156 0.94363 0.63379 -0.2907 0.56113 0.36467 -0.46071 0.15748 -0.24113 -0.0096534 -0.14225
psychology 0.24292 0.056642 -0.75078 0.19587 -0.22056 0.62169 0.1195 0.10518 -0.45227 1.0668 -0.015105 0.22285 -0.10106 -0.39302 -0.23124 -0.070474 0.13509 0.22683 -0.011589 0.50339 -0.010188 -0.055676 -0.11326 0.20132 -0.055011 -0.39039 0.3033 -0.3843 -0.079629 -0.42327 -0.49342 -0.035408 -0.50657 0.92698 -0.14464 -0.59746 0.022918 -0.35389 -0.11334 -0.50492 0.12506 0.46093 -0.23736 0.12798 0.38345 -0.098447 0.61397 0.56766 0.32482 0.55971 0.31517 0.038391 -0.58591 -0.21067 0.3051 -0.27785 0.52625 -0.20236 -0.062564 -0.61034 -0.097013 0.1147 0.10653 0.23331 -0.34043 -0.14111 -0.42683 -0.21904 0.054717 -0.25215 0.40236 0.064877 -0.45862 -0.24137 -0.67897 0.66571 0.015706 0.46152 -0.31165 0.33556 0.13007 0.18867 -0.32503 0.10653 -0.45244 0.64514 0.37479 0.19544 0.17976 -0.39426 0.43023 0.36686 -0.29798 0.34306 0.52443 -0.22847 0.038801 -0.17095 0.17127 0.13176
medal 0.18694 -0.20384 -0.62084 -0.70379 -0.041247 0.088528 -0.19333 -0.062643 0.5598 0.34513 0.26353 0.28803 -0.23784 0.42086 -0.11709 -0.33441 -0.46549 0.85318 -0.15969 -0.39519 -0.32185 0.071968 0.3705 -0.47063 -0.19995 -0.54907 -0.23235 0.29733 -0.066736 -0.23394 -1.1888 -0.36924 -0.53758 0.10228 0.068371 0.23801 -0.33883 -0.0030261 1.0433 -0.61498 0.41595 0.044944 0.27545 -0.081202 0.78411 0.18119 0.63947 0.10583 -0.014447 0.39324 0.57096 -0.22137 -0.59659 -0.06931 0.43364 0.25609 0.37073 -0.14263 0.33582 -0.37804 1.1049 0.13999 -0.23357 0.5015 0.27868 -0.60741 -0.048362 -0.1116 0.047638 0.34064 0.32104 -0.13056 -0.092564 0.47478 -1.2295 0.34153 -0.21607 0.0069325 -0.10546 0.14124 0.053241 0.22596 0.11907 0.36891 1.0134 -0.16273 0.44962 -0.92331 0.2686 0.46566 0.28103 0.36996 0.75017 0.49386 -0.18064 -0.32707 0.30799 -0.94059 0.015203 -0.48401
company 0.20409 0.046129 -0.36585 -0.038611 0.031044 0.20566 -0.16598 -0.14265 0.39287 0.27295 -0.2426 -0.60235 0.004851 -0.3016 -0.069809 -0.089841 0.3573 0.31757 -0.27971 0.031909 0.15131 -0.036477 -0.50772 -0.058234 -0.27189 -0.45329 -0.17682 0.42292 0.013341 -0.035712 0.20656 0.11004 -0.40852 0.49859 0.67592 7.4382E-4 -0.021371 0.085403 0.36184 0.055639 0.59776 0.0054871 -0.5282 -0.099557 -0.096328 0.2761 -0.052672 -0.22396 -0.050025 0.10913 -0.087605 -0.027944 -0.4001 -0.11623 0.094793 -0.319 0.55116 -0.39554 -0.16591 -0.3629 -0.06462 0.49083 0.34859 -0.046996 -0.12288 -0.040455 0.16984 0.53909 -0.21483 -0.27976 0.4494 0.11321 -0.40868 0.10137 -0.11218 0.19599 0.3619 0.10995 0.0026893 -0.3385 -0.12009 0.060106 -0.1701 0.63056 0.01864 0.6241 -0.033863 -0.50848 -0.44662 -0.23424 0.10199 0.57636 -0.33291 0.53864 -0.3468 -0.2496 0.24564 0.01831 -0.28084 0.17032
live 0.28554 0.085905 -0.12029 -0.24999 0.20762 0.053514 0.015914 -0.0027071 -0.098054 0.67081 0.25375 0.18436 -0.11008 -0.042292 -0.038933 0.21088 0.21454 0.46636 -0.4069 0.09326 -0.41835 0.25699 -0.14311 -0.044101 -0.39657 -0.57605 0.3677 0.019012 0.075271 -0.58111 -0.36125 -0.23863 -0.07503 0.052303 -0.082597 0.082676 -0.41343 0.14464 0.17431 -0.68961 -0.0058521 -0.082615 0.127 0.27385 -0.13093 0.58172 0.50024 -0.15726 0.12325 0.18572 -0.39483 -0.18285 -0.17436 0.15705 0.52647 -0.42558 0.25199 0.1365 -0.46054 -0.61467 -0.32962 0.22077 0.35538 -0.22839 0.10452 0.43825 0.58096 -0.21636 -0.3816 -0.076447 -0.080707 0.19481 0.29928 -0.19936 0.020195 0.32248 -0.0087066 -0.54208 -0.012448 0.40633 0.28365 -0.98799 -0.14227 0.48729 0.040803 0.73103 0.49128 -0.31284 -0.094348 -0.26277 -0.45155 0.39647 -0.37104 0.36241 0.084686 0.029107 -0.58542 -0.51592 -0.28697 -0.50216
holy -0.44996 0.34741 -0.061575 -0.81727 0.51477 0.89492 -0.39293 -0.28344 0.64246 0.84222 0.2693 0.11814 -0.53708 -0.10891 0.15917 -0.20617 0.13219 0.14055 -0.50211 0.43129 -0.055636 0.20969 0.36515 -0.72285 -0.22893 -0.60725 0.21634 -0.20708 0.072447 -0.50446 -0.074831 0.30169 -0.28289 0.41619 -0.04816 -0.18542 -0.6185 -0.35135 -0.27393 -0.30317 0.1696 -0.13881 -0.15754 -0.005852 0.9102 -0.013887 -0.015909 0.48579 0.2546 0.82357 0.43897 -0.048876 -0.28032 0.088842 0.65793 -0.16366 0.1125 -0.08142 0.3662 0.27417 0.21622 -0.41303 0.32474 -0.70809 0.24272 -0.16152 1.0077 0.34279 -0.78959 -0.45505 0.1984 0.081045 0.24942 -0.60068 -0.12103 -0.03348 0.019285 -0.21565 0.0052384 0.23472 -0.028854 0.070392 -0.04037 -0.24439 -0.27881 0.056951 0.1041 -0.72959 0.18026 -0.69248 -0.13143 0.75085 -0.49381 -0.25564 -0.17059 -0.2394 -0.37039 -1.2156 -0.36391 0.064075
ticket 0.15297 -0.62512 0.059132 0.14748 0.64603 0.19642 0.15908 -0.12176 0.046284 -0.025925 -0.66573 -0.34649 -0.024922 -0.048866 -0.20725 -0.097843 0.015568 0.61327 -0.16684 -0.61508 -0.16397 0.0036279 0.22689 -0.38037 -0.11295 -0.34302 0.43415 0.087403 0.23957 -0.37685 -0.2602 -0.22822 0.40018 0.45561 0.31347 0.41572 0.47886 0.17607 0.40795 -0.65538 0.34238 0.11123 -0.0723 -0.24332 0.50836 -0.21255 -0.27811 -0.051453 0.5957 -0.0066608 0.8831 -0.5099 -0.55581 -0.12765 0.29352 -0.24636 0.028251 -0.056761 -0.47439 -0.55827 0.2167 -0.21128 -0.10174 -0.15835 0.02116 0.11897 0.11583 0.19791 -0.20169 -0.3211 0.46017 0.48148 -0.19424 -0.25668 -0.16232 0.22424 -0.38886 -0.35395 -0.078364 0.06727 -0.14268 -0.25517 0.6977 0.41784 0.74475 0.51308 -0.035911 -0.18759 -0.1802 -0.4489 0.2233 0.8689 0.34535 0.96543 -0.61722 0.035273 0.050522 -0.14784 -0.20182 -0.32346
victory 0.23072 -0.35732 -0.19901 -0.81986 -0.33615 0.18092 0.021209 -0.32753 -0.061213 0.66372 -0.2526 0.42351 -0.73786 0.17476 0.22852 -0.13565 -0.22494 0.15396 0.34594 -0.24271 0.44494 -0.1217 -0.065689 0.12193 -0.24775 -0.19186 -0.2005 0.62876 -0.089182 -0.24516 -0.45972 -0.024419 -0.25357 0.58986 -0.039919 0.60924 -0.26314 0.13326 0.42502 -0.52843 -0.46176 0.072796 -0.23026 0.33698 0.39663 0.53013 0.69014 -0.087219 0.21514 -0.23964 0.61464 -0.064118 -0.54067 0.0030949 0.82454 -0.39135 0.14278 -0.83864 -0.47894 -0.10576 0.43721 0.32828 -0.32024 -0.068109 0.18538 -0.31522 0.2925 0.20097 -0.69212 -0.46004 -0.41046 0.65713 -0.074571 -0.16294 -0.97065 0.27416 0.1283 -0.077637 0.48036 0.15649 0.074101 -0.13615 0.43985 0.24588 0.45757 0.18157 0.3148 -0.41032 0.55406 0.097608 0.42794 0.2247 0.82995 0.4146 -0.022935 -0.029237 0.083904 -0.64252 0.32958 -0.10874
football 0.36798 -0.1096 -0.75769 0.4619 -0.35082 0.43914 -0.28404 -0.03051 0.11119 0.56319 0.098644 0.16982 -0.36889 -0.38655 -0.16547 -0.19702 -0.17752 0.45711 -0.52251 0.11105 -0.15982 0.40348 -0.59889 -0.32797 -0.029434 -0.72992 -0.017917 -0.055776 -0.61217 -0.506 -0.14779 0.093041 0.090052 -0.35181 0.087036 -0.21105 -0.15782 0.27071 0.11405 -0.65366 0.11824 0.4334 -0.28809 -0.34012 0.032532 0.21835 0.11024 0.50759 0.31827 0.75723 0.46188 -0.75859 -0.52416 0.43487 0.82332 -0.54097 -0.26291 -0.082421 -0.15786 -0.59885 0.22518 0.10875 0.41421 0.098219 -0.039272 -0.052886 -0.33211 0.14018 0.023691 -0.12881 0.086384 0.53816 -0.25641 -0.35224 -0.66283 0.16409 0.087002 -0.17343 -0.060605 -0.29933 0.13584 0.019108 0.083925 0.32816 0.3674 0.542 0.35899 0.087397 0.03927 -0.086305 -0.24373 0.43197 0.3259 0.13785 -0.38607 -0.6145 -0.20784 -0.60945 0.27684 -0.30261
seepage -0.018248 0.09241 -0.071993 -0.36405 0.010403 0.19215 -0.063784 0.069954 0.27776 0.6075 -0.10208 0.10794 -0.11789 -0.08772 -0.10431 -0.091461 0.11797 0.35037 -0.26033 -0.15487 -0.088859 0.094419 -0.18596 -0.050012 0.093751 -0.65949 0.19019 0.27889 0.15813 -0.036655 0.28267 -0.13721 0.080568 0.32611 0.098964 0.15717 -0.21798 0.052752 0.3941 -0.36468 0.087068 0.26824 -0.2632 -0.30921 -0.012427 0.043787 0.065512 -0.0038038 0.12001 0.28672 0.11857 0.25057 -0.031856 0.13544 0.20363 -0.32207 0.15818 -0.25372 0.0063792 -0.3479 -0.31687 -0.054169 0.045454 -0.34271 0.12209 -0.15865 0.19625 0.003558 -0.039832 -0.26303 -0.047541 -0.014583 -0.24413 -0.064454 -0.15901 0.22535 -0.022101 -0.042487 -0.0017023 0.017639 0.14859 0.091705 0.045328 0.19395 -0.1145 0.22773 0.44079 -0.18222 -0.31779 -0.47544 0.014631 0.21634 -0.062054 0.21775 0.1023 0.061025 0.045137 -0.23163 -0.011561 -0.15326
rook -0.060161 0.14352 0.10942 -0.023756 -0.0492 0.30606 -0.011349 0.018438 0.1192 0.62493 0.0039302 0.28132 -0.17319 0.085013 0.11823 -0.028574 0.0070617 0.018646 -0.17164 -0.058034 -0.15564 0.18 -0.13245 -0.38461 0.032075 -0.53007 0.081248 -0.01175 -0.12787 -0.12875 -0.023695 -0.27928 0.18379 0.51091 -0.12746 0.0539 -0.58411 0.0014755 0.2988 -0.45506 0.12725 0.14723 -0.18993 -0.15834 -0.0010952 0.076608 0.17918 0.18936 0.11763 0.06652 0.06482 -0.27619 -0.035032 0.14685 0.068428 -0.27359 0.31443 -0.061939 0.15521 -0.29369 -0.30007 0.19532 -0.047296 -0.020898 -0.24308 -0.034203 0.39314 0.0032903 0.13135 -0.20287 0.33592 0.22068 -0.27176 0.024531 -0.27474 0.17492 -0.014953 0.25966 -0.073179 -0.064864 -0.001164 -0.097026 -0.17452 0.18832 0.18806 0.39634 0.13892 -0.17866 -0.17182 -0.42233 0.11093 0.34449 -0.029573 0.20744 0.16035 -0.19262 0.12016 -0.1376 -0.19246 -0.32539
stroke 0.19788 -0.10442 -0.41436 -0.24658 -0.41656 -0.22006 -0.13098 0.58473 0.35759 0.48167 0.0077732 0.75005 -0.42864 -0.061162 -0.051515 -0.38205 0.19519 -0.14107 0.45952 0.010753 0.17038 0.054595 0.12527 -0.090506 -0.038804 -0.9653 0.039986 0.34781 -0.26872 0.08182 -0.031269 -0.66408 -0.2741 0.63964 0.018635 -0.30413 0.04614 -0.1722 0.56725 -0.93003 0.53943 0.50794 0.18511 0.27149 0.052672 0.83944 -0.031135 -0.68159 0.13256 -0.13795 0.17664 0.24249 -0.81406 0.31386 0.36872 -0.11633 -0.11448 -0.10925 -0.28653 0.10367 0.11843 -0.02486 0.31774 -0.48151 -0.020054 -0.47655 -0.023694 0.12306 0.3534 0.34372 -0.26046 0.36508 -0.44794 0.31462 -0.8954 0.32754 -0.48565 0.4806 -0.24624 0.46749 0.17104 -0.28905 0.1001 0.5718 -0.56483 0.38899 0.35134 -0.44227 0.31318 -0.74528 0.21856 -0.027309 -0.10519 0.87261 0.17374 -0.022627 -0.28165 -0.048643 -0.1372 -0.052425
environment 0.24725 0.016124 0.0094357 -0.33382 0.20834 0.065325 -0.23019 0.47843 0.24502 0.73576 -0.21808 0.014179 -0.12126 -0.055667 -0.056797 0.60161 0.21155 0.68939 -0.49863 -0.23614 -0.080859 0.18071 -0.50518 -0.057711 -0.10833 -0.83973 0.55702 0.090364 0.010546 0.28336 -0.089025 -0.11551 -0.039829 0.21297 0.032139 -0.40865 -0.3039 0.17679 -0.1493 -0.50724 -0.16269 0.24848 -0.56993 -0.18185 0.21291 -0.026094 0.58313 0.32152 -0.36311 0.35757 0.071079 0.23477 -0.52826 -0.63771 0.144 -0.080802 0.086323 0.04191 -0.13958 -0.43883 -0.22693 0.75511 0.38428 -0.27037 -0.094197 0.384 -0.022604 0.1511 -0.28727 -0.56483 0.58305 -0.053292 -0.18019 -0.092313 -0.41872 0.51294 0.10183 0.19398 -0.15768 0.23829 0.051168 -0.043469 -0.36754 0.29161 -0.43123 0.82516 0.64366 0.022792 -0.27412 -0.1488 -0.20167 0.20713 0.15418 0.56321 0.14406 0.42077 0.16068 -0.29444 0.05072 0.2133
coffee 0.50779 -0.15379 -0.49615 -0.24605 0.09111 0.34 0.26506 0.45221 0.57351 0.67669 0.46692 0.027803 0.08136 -0.42386 -0.40805 -0.023691 0.50395 0.52385 -0.12371 0.13117 0.21948 0.068217 -0.12145 0.023792 -0.2807 -0.88709 0.26638 0.46424 -0.23347 -0.6639 0.046796 0.24831 0.21467 0.64413 0.26576 -0.069232 -0.74148 0.046912 0.076973 0.054775 0.11029 -0.098436 0.25146 -0.66273 0.35591 -0.13902 -0.30947 0.061198 0.25384 0.09156 0.69362 -0.47538 -0.30008 0.16314 -0.045252 -0.087765 -0.10625 -0.095585 -0.045526 -0.25063 0.25516 0.36742 -0.16904 -0.5356 -0.1537 -0.055429 0.40109 -0.44327 -0.27407 -0.16446 0.31418 0.27251 -0.574 -0.16934 0.051423 0.011068 -0.062595 -0.26887 -0.30319 0.37806 -0.5151 -0.1491 -0.11466 0.33898 0.26489 0.37978 0.030705 -0.45616 -0.39397 -0.62935 0.095864 0.33045 -0.23387 0.68964 -0.15729 -0.11221 0.16783 -0.022876 -0.22319 -0.20419
baby 0.10822 0.063424 0.11269 -0.59971 -0.2341 0.084241 0.22194 0.19829 -0.069871 0.60728 0.28958 0.25095 0.17811 -0.16541 -0.32862 0.20059 0.29116 0.234 -0.39584 -0.02557 0.019048 0.64527 -0.34395 0.12119 -0.063542 -0.8305 -0.23661 0.14355 -0.0095656 -0.16408 0.34932 -0.25247 0.1332 0.59218 -0.23365 -0.44972 -0.54319 -0.58331 0.48943 -0.74375 0.38683 0.16237 0.33973 0.0098553 0.14274 -0.3874 -0.010133 -0.50708 -0.14856 0.63495 0.33316 -0.31512 -0.28541 -0.029552 0.037858 0.28412 0.0058328 -0.005634 -0.067045 -0.43918 -0.21136 0.026164 0.58041 0.14948 0.087605 0.17659 0.54462 0.17739 -0.55112 0.28865 0.087665 0.23988 -0.24322 0.081226 -0.096659 0.15295 0.025539 0.49799 -0.1732 -0.17994 0.19073 -0.071296 -0.1307 0.59006 0.66273 0.68469 -0.050679 -1.1893 -0.31266 -0.45201 0.45743 -0.23622 0.049214 0.30173 0.17823 -0.59832 0.18559 -0.27944 -0.74398 -0.42082
personnel 0.012812 0.076712 -0.089204 -0.26513 0.026054 -0.30099 -0.9588 0.14794 0.64759 0.63111 -0.67297 -0.068797 -0.17413 -0.13556 -0.10003 -0.49425 0.16409 0.11196 -0.54152 -0.054819 0.072179 -0.30567 -0.049052 -0.067107 -0.0016807 -0.68406 0.26326 0.31846 -0.21197 -0.25867 0.18338 0.044579 0.074323 0.23619 0.77867 0.029093 0.10306 -0.078557 0.2293 -0.62592 0.17391 0.15791 -0.0031394 0.20663 -0.066714 0.076189 -0.4403 0.60805 -0.069499 0.4866 -0.26509 0.59155 -0.69468 0.068209 0.26697 0.075892 0.22186 0.13107 -0.14182 -0.38488 -0.51636 0.38507 0.483 0.32035 0.29223 -0.57422 -0.35731 0.31435 0.15719 -0.315 -0.031102 0.18369 -0.035962 -0.31587 -0.13863 0.76948 -0.17497 -0.28053 -0.43053 -0.29622 0.0758 -0.03843 0.22814 0.061272 0.29741 0.78659 -0.35459 -0.2639 -0.40804 0.051923 0.066358 0.44387 -0.095516 0.45102 -0.10967 0.12827 0.50706 -0.85437 0.046531 -0.2617
family 0.34745 -0.080953 -0.13151 -0.10742 0.24889 0.11291 0.13688 0.0717 0.22707 0.56336 0.047706 0.24015 0.32964 -0.21297 -0.65396 -0.15582 0.22803 -0.077456 -0.51289 0.4888 -0.27323 -0.29125 -0.32034 -0.24877 -0.15092 -0.76379 0.21591 0.28074 0.2795 -0.38831 0.26641 -0.23387 -0.16553 0.39341 0.082165 -0.25405 -0.12876 -0.36878 -0.15483 -0.70067 0.17858 -0.275 0.052054 0.063209 0.22779 0.36897 0.10479 -0.31303 0.29873 0.28961 -0.089748 -0.22075 -0.51267 -0.16529 0.21158 -0.21187 0.11412 -0.3024 -0.11407 -0.66502 -0.54616 0.16594 0.52041 0.057861 -0.29954 0.12511 0.014773 0.39949 -0.48527 0.15679 0.13809 0.45443 -0.36658 -0.095478 -0.30022 -0.18636 -0.13792 0.08392 0.21579 0.006626 -0.2339 -0.155 -0.21156 0.18309 0.19453 0.44509 0.1532 -0.58606 -0.15536 -0.20332 -0.032844 0.062363 0.0045444 0.15905 -0.25624 -0.17207 -3.7706E-4 -0.56856 -0.287 -0.39183
hypertension -0.37264 0.1707 -0.32422 -0.27541 0.10377 -0.019854 -0.049249 0.49275 0.17207 0.40825 -0.0011178 0.56618 -0.35899 -0.23554 -0.42173 0.3728 0.32784 -0.058208 -0.15495 0.085509 0.55655 0.20836 -0.27147 0.23836 -0.28263 -1.158 0.057873 -0.077452 0.18743 0.12195 -0.046362 -0.25017 -0.068733 1.059 0.12857 -0.48645 -0.028117 -0.2294 0.52111 -0.79711 0.61137 -0.11442 0.053247 0.068935 -0.044953 0.11918 -0.037397 -0.10607 -0.023361 0.48241 0.14043 0.27132 -0.78485 -0.12364 0.18033 -0.079135 -0.015019 -0.13355 -0.014895 0.20073 -0.25457 -0.26912 0.21048 -0.28518 0.015009 -0.28408 -0.071255 -0.090916 0.39861 0.16964 -0.10075 -0.12986 -0.54142 -0.25177 -0.63584 0.68126 -0.24196 0.17969 -0.68297 0.54879 0.27857 -0.085162 0.0068117 0.48641 -0.20974 0.54044 0.43585 -0.39263 -0.081156 -0.6477 0.3741 0.07809 -0.30907 0.66893 0.20458 -0.0038343 -0.41057 -0.31904 0.29015 0.083846
president 0.10222 -0.2706 -0.82654 0.031483 0.1152 0.24139 0.078066 -0.02169 -0.16339 0.11664 -0.70655 0.12676 -0.47904 0.077214 0.20747 0.036803 -0.091288 0.26381 -0.036483 0.043293 0.37983 0.27895 -0.313 -0.2049 -0.25373 -0.64543 -0.52432 0.26293 -0.23813 -0.34441 -0.070154 -0.58068 -0.26963 0.51403 0.61526 -0.055389 0.0059757 -0.10669 0.03937 -0.4368 -0.22613 -0.11295 -0.045484 -0.27893 0.63786 0.50398 0.05417 0.45512 0.043345 0.033806 0.036121 -0.2004 -0.27048 0.31167 -0.072766 -0.063047 0.15214 -0.10549 -0.31549 -0.46879 -0.090682 0.60678 0.59989 0.16038 -0.28938 -0.54472 0.47671 0.16978 -0.089247 -0.14039 0.78466 0.40361 -0.077491 -0.55599 -0.10696 0.26132 -0.23909 -0.20346 0.037936 -0.54075 -0.12156 0.11101 -0.26259 -0.014038 0.28974 0.57018 0.43169 -0.33914 0.29983 -0.30855 -0.038935 0.29651 0.31334 0.55401 0.011044 -0.16515 0.7906 -0.086804 -0.27808 0.58867
atmosphere 0.13345 -0.12176 -0.74753 -0.64029 -0.11895 0.25108 -0.080201 0.080974 0.12472 0.5403 -0.12254 0.45282 -0.0493 -0.40266 0.10916 -0.11532 -0.080505 0.84244 -0.082607 -0.49322 0.063889 0.2378 -0.44772 -0.37247 0.070436 -1.0761 0.87345 0.27809 -0.23881 -0.4404 -0.51186 0.36471 0.44359 -0.13619 -0.007173 0.18315 -0.11303 -0.19609 -0.055534 -0.14603 0.11151 -0.1179 -0.51939 -0.019042 0.45917 -0.028341 0.60176 -0.11664 -0.055712 0.39521 0.33736 0.35742 -0.11342 -0.072192 0.74815 -0.32678 -0.17368 0.52609 -0.1363 -0.41199 -0.18856 0.61311 0.35186 -0.36232 -0.032844 0.14769 0.23612 -0.11923 -0.36423 -0.77124 0.24552 -0.13649 -0.13431 -0.12487 -0.16675 -0.033322 0.14202 0.17338 -0.30201 0.39473 -0.067733 0.38765 0.41358 0.27697 -0.15924 0.51705 0.81427 -0.23678 -0.11205 -0.48915 -0.16216 -0.21717 -0.0019205 0.41377 0.097446 0.5374 -0.27864 -0.2699 0.24454 -0.19143
practice 0.086033 0.71188 -0.50166 0.10059 -0.27605 -0.16642 -0.30833 -0.34505 -0.18676 0.53853 -0.15838 0.32497 0.090945 -0.11372 -0.42731 -9.3645E-4 0.32723 0.44757 -0.43486 -0.054804 -0.3455 -0.019541 -0.37831 -0.20884 0.051571 -0.29672 -0.18314 0.14718 -0.10304 -0.030991 0.076681 0.26656 -0.62222 0.25085 0.087955 -0.45114 -0.50549 -0.08266 -0.13893 -0.58655 -0.2213 0.35186 -0.36199 -0.043245 0.093528 0.21748 0.18092 0.33444 0.047118 0.2456 0.16619 0.22194 -0.79357 0.24757 0.35393 -0.32686 -0.017202 -0.37672 0.058616 -0.082842 0.15604 0.2115 0.095531 -0.18298 0.3092 -0.43358 0.38547 0.49835 -0.23359 -0.21995 0.15524 0.23701 -0.30875 -0.28881 -0.47492 0.3825 -0.24846 0.0091402 -0.1601 0.052603 0.12848 0.19707 0.17933 -0.034165 -0.48068 0.55868 -0.10279 -0.10882 -0.32039 -0.69035 -0.013619 0.31475 -0.36627 0.58923 0.11066 -0.1331 -0.17329 -0.55678 0.52508 -0.11784
movie 0.22875 0.075258 -0.10933 0.040338 0.15781 0.26918 0.32139 -0.093045 0.012896 0.12212 -0.088812 -0.08016 -0.27829 -0.5656 -0.0034833 -0.29857 -0.44424 0.67572 -0.32782 -0.091155 0.23924 -0.10321 0.47783 -0.80323 -0.53084 -0.66078 0.23333 -0.13147 -8.046E-5 -0.16933 -0.12915 -0.56402 0.29784 0.4198 -0.091933 -0.046751 -0.27825 -0.53915 0.42215 0.0010398 0.56415 0.036682 -0.085486 -0.5349 0.2836 0.24749 0.65361 -0.050942 0.0107 0.22812 0.39363 -0.19832 -0.13201 0.18559 0.36773 -0.48295 0.0016792 0.17156 -0.52501 -0.58025 0.05832 0.42951 0.54987 0.16293 0.027098 -0.28939 -0.2955 0.19964 -0.4216 -0.55976 0.26055 0.4338 -0.71084 0.33267 0.016559 0.025944 0.16616 -0.25755 -0.3065 0.086971 0.19887 -0.43782 -0.14296 -0.043618 0.019437 0.67094 -0.2008 -0.34458 -0.23595 -0.43721 0.3303 0.62684 -0.14979 0.20248 -0.33582 -0.62199 -0.23445 -0.20267 -0.57437 -0.55612
popcorn 0.071085 0.19658 -0.11952 -0.34526 -0.12204 -0.013885 0.26102 0.0084876 0.54386 0.33661 0.49995 0.078217 0.10807 -0.43714 -0.034994 0.061415 0.31035 0.40859 -0.40279 -0.014551 0.23102 0.063205 0.051574 -0.22746 -0.65837 -0.75712 0.30576 0.15133 -0.14396 -0.25747 0.37162 -0.061592 0.54448 0.86303 0.10938 -0.091421 -0.54666 0.042343 0.22634 -0.1391 0.49188 -0.16755 0.10436 -0.74479 0.21301 -0.16292 -0.031731 -0.3257 0.2697 0.40246 0.68663 -0.24835 0.11106 0.3537 0.21629 0.011088 -0.16928 0.040786 -0.17532 -0.50547 0.136 0.31665 -0.1291 -0.27962 0.12104 -0.34861 0.36764 -0.32903 -0.17787 -0.14404 0.11695 0.25179 -0.40939 -0.11436 -0.088928 0.063199 0.020742 0.19192 -0.47723 0.34606 0.23019 -0.051464 0.14536 0.45161 0.39394 0.49153 0.39379 -0.39332 -0.36899 -0.61368 0.52939 0.31423 -0.3183 0.56766 0.048964 -0.41276 -0.18734 -0.032022 -0.19592 -0.442
recommendation -0.33951 0.063599 -0.3832 -0.16334 0.1177 -0.34374 -0.15742 -0.30181 -0.16844 0.19329 -0.1213 0.093473 0.31838 -0.23645 0.23723 -0.25511 0.43997 0.0085968 -0.16024 0.0073555 0.11098 0.084202 -0.098204 -0.1389 -0.082954 -0.76872 -0.35929 0.28386 0.12395 -0.0024006 0.29672 0.21402 0.0025019 0.36262 0.64573 -0.12046 -0.27427 -0.009897 0.41319 -0.33393 0.39424 -0.065196 -0.14202 0.21862 0.13259 -0.15419 0.10083 0.28565 0.089133 0.26411 -0.17256 -0.22477 -0.62884 -0.40794 -0.22167 -0.12213 -0.036445 -0.12991 -0.36754 -0.0066604 -0.1414 0.41657 -0.087733 -0.015714 0.68176 -0.011309 0.16052 0.45256 -0.062964 -0.38236 0.85448 0.38384 -0.53256 -0.45509 -0.29344 0.46102 -0.60131 0.057256 -0.047565 0.0079347 0.19034 0.52411 -0.30909 0.036384 -0.17455 0.11874 0.26985 -0.28277 -0.03427 -0.54776 0.09365 0.41222 0.36792 0.77371 0.089576 0.2961 0.10388 -0.42852 -0.35696 -0.23964
focus -0.12682 -0.1269 -0.66132 -0.34765 0.64232 0.25332 -0.044532 0.31028 -0.095794 0.5918 -0.18331 0.029235 0.023124 -0.50087 -0.17522 0.19973 0.31747 0.44607 -0.55631 0.30222 0.15602 -0.099914 -0.11411 0.2409 -0.23998 -0.33811 0.16957 0.062937 0.36795 -0.12805 -0.10576 0.28702 -0.11402 0.23515 -0.043334 -0.38459 -0.31027 -0.093409 0.14797 -0.37503 -0.25975 0.63014 -0.48362 -0.087869 0.093695 0.39309 0.3797 -0.026602 0.067713 0.1442 -0.12141 0.3401 -0.31005 0.052322 0.23194 -0.29081 -0.083599 -0.56396 -0.24022 -0.14514 -0.06076 0.28683 0.37841 -0.19436 0.49614 -0.26134 0.12631 0.20415 0.083923 -0.40632 0.39873 0.15387 -0.26662 -0.17845 -0.42406 0.4897 -0.12151 -0.052227 -0.13946 -0.33841 0.20286 0.19884 -0.19795 0.01734 -0.23136 0.8026 0.13935 -0.14745 -0.07001 -0.19193 -0.0015662 0.13677 0.20022 0.57888 -0.15561 0.24818 0.32781 -0.25439 -0.14621 -0.22997
attempt -0.37346 -0.27354 -0.45817 -0.35925 0.16963 0.26533 0.083656 0.010433 -0.23437 0.19141 0.17401 0.017563 -0.11562 0.60095 -0.10439 -0.38169 -0.035608 0.28763 -0.023469 -0.042787 -0.25639 -0.074609 -0.10133 -0.4205 -0.030526 -0.66601 -0.037543 0.50022 -0.0078302 0.056474 0.37998 -0.23491 -0.21006 0.45551 0.18883 0.5906 0.009612 0.03945 0.081527 -0.36849 -0.31881 0.47686 -0.14911 -0.12913 0.19982 0.20061 -0.12612 -0.062889 -0.53474 0.056021 -0.019836 0.27393 -0.68257 0.50061 0.57892 -0.71026 0.0021266 0.39541 -0.02051 -0.12159 0.089321 0.1728 0.43572 -0.61284 0.3227 0.15116 0.18871 0.42652 -0.4746 -0.35932 -0.053664 0.27325 -0.54654 -0.12799 -0.6795 0.21024 0.13689 0.26382 0.23482 -0.10509 -0.12397 0.42886 -0.097787 -0.11105 -0.33802 0.45114 -0.0034522 -0.22856 0.013346 -0.31627 0.50438 0.59622 0.33347 0.40156 0.14165 0.15661 0.074239 -0.37534 -0.52825 -0.2922
approach -0.17825 -0.24791 -0.87123 -0.17814 0.17643 0.15455 0.22228 0.11178 -0.22377 0.35725 -0.23946 0.25315 -0.10082 -0.49495 0.0049146 0.26431 0.088945 -0.086517 -0.26985 -0.18071 0.030473 -0.067713 -0.1641 -0.25658 0.39559 -0.43306 0.33783 0.20496 -0.11638 0.061125 0.3854 0.26628 -0.094352 0.65158 -0.023484 -0.33862 -0.41366 -0.086787 0.43988 -0.39045 -0.13583 0.44146 -0.64815 0.13462 0.069992 0.37894 0.23121 0.10286 -0.020704 0.067466 -0.093772 0.14078 -0.41604 0.097633 0.31859 -0.095627 0.16564 -0.15585 -0.33102 -0.038291 0.21574 0.60581 0.06289 -0.39342 0.2281 -0.0070822 0.098165 0.48364 -0.18223 -0.45677 0.50443 0.22382 -0.4486 -0.12912 -0.35481 0.46045 0.086653 0.14416 -0.068818 -0.23256 0.26189 0.17911 0.050632 -0.21289 -0.62056 0.39116 0.029455 -0.1818 -0.34913 -0.42475 0.18458 0.28785 0.28796 0.6874 0.33029 0.51946 0.24465 -0.332 -0.056159 0.14701
number 0.11225 0.019927 -0.19756 -0.51232 0.29208 0.067032 -0.54139 0.42848 0.22389 0.41793 -0.43375 0.0091988 -0.16005 -0.24877 -0.23167 -0.39739 -0.52621 0.19988 -0.41651 -0.2157 0.21647 -0.063712 -0.39325 -0.35158 0.12779 -0.71508 0.28693 0.34385 0.38918 0.23605 0.063486 -0.23074 -0.054573 0.47396 0.35927 -0.038232 -0.0037059 0.23859 0.24156 -0.75425 0.29164 0.18886 -0.18069 0.42724 -0.24589 -0.025927 -0.16192 -0.060527 0.4229 -0.021554 0.25891 -0.25594 -0.64767 0.03431 0.15247 -0.088359 -0.0029814 -0.22551 -0.33482 -0.042592 0.15146 0.24516 0.2445 -0.15397 0.54959 -0.32863 0.20537 0.1093 0.029219 -0.11015 0.075323 -0.22139 -0.20536 -0.16043 0.30137 0.29627 -0.69544 -0.026923 0.18232 0.064491 0.49785 -0.30559 -0.03916 0.13218 -0.23225 0.42168 -0.059623 -0.25727 -0.096563 -0.052259 0.53688 0.50058 -0.50274 0.30204 0.16236 0.20466 -0.037791 -0.19307 -0.33613 -0.50186
property 0.086983 -0.17595 0.07736 -0.24818 0.584 0.10914 -0.29059 0.12189 0.25459 0.57252 -0.23338 -0.016152 -0.19552 0.22344 -0.65491 -0.21468 0.2598 0.71577 -0.43691 0.37577 -0.21489 -0.30537 -0.24437 0.19549 0.44332 -0.78669 0.63948 0.37542 0.34311 0.40615 0.31973 0.075568 -0.67452 0.03987 0.26018 0.2954 0.43521 -0.1841 -0.10554 -0.2594 0.13569 0.27505 -0.048739 -0.44628 -0.20898 -0.1202 0.38551 -0.19473 0.21094 0.20456 0.62261 -0.091898 -0.73864 -0.1582 0.41331 -0.6713 0.54377 -0.077381 -0.24815 -0.3227 -0.46285 0.099844 0.026491 0.28499 0.14037 0.35276 0.18616 0.53176 -0.25455 0.13927 0.3826 0.5615 -0.45732 0.33796 -0.19546 -0.0032585 -0.313 0.090822 -0.15288 -0.15541 -0.23475 -0.83309 0.058189 0.3193 -0.091104 0.37657 0.55317 -0.086012 -0.4546 -0.4507 -0.19811 0.3907 -0.48669 0.21737 -0.12098 -0.29405 -0.034142 -0.21926 -0.19813 0.3401
fingerprint -0.49592 0.29984 -0.18408 -0.17471 -0.0063659 0.034605 -0.60837 0.45488 -0.30727 0.91131 -0.021768 0.10665 -0.0049715 -0.18292 -0.049245 0.08235 0.46678 0.34363 -0.50901 0.042468 -0.29601 -0.23713 -0.46071 -0.22468 0.021217 -0.58472 0.026558 0.22744 0.4527 0.050168 -0.36339 -0.27883 0.013423 0.46312 0.69958 0.2142 -0.38911 -0.015673 0.19987 -0.37451 0.59932 0.25981 0.22368 -0.088549 -0.01067 -0.16351 -0.33352 0.081339 0.543 0.60196 0.12737 0.18509 -0.22647 -0.13012 0.56687 -0.28915 0.43854 0.26477 -0.083864 -0.047641 -0.034718 0.10861 -0.1805 -0.21021 -0.14077 0.051266 0.082166 0.20202 -0.2361 -0.30135 0.053271 0.073819 -0.385 0.026068 -0.49942 0.48778 -0.14998 0.085066 -0.15924 -0.087865 0.39673 -0.059988 -0.19402 0.01191 -0.23509 0.48971 0.069074 -0.3485 -0.19565 -0.60053 0.60691 0.029018 -0.24714 0.23508 0.19571 -0.14122 0.11429 0.031882 -0.28203 -0.50383
reservation 0.037264 0.14307 0.28267 -0.02235 0.34797 -0.13301 -0.17688 -0.15007 0.20637 0.52506 -0.23115 -0.47069 -3.3654E-4 -0.16192 -0.14347 -0.31403 0.32084 0.12937 -0.30861 -0.2109 -0.46073 0.26235 -0.15749 -0.065535 0.28808 -0.69475 0.37089 0.51039 0.15479 -0.27187 0.091382 0.015334 -0.21131 0.62907 0.37522 0.29857 -0.18873 -0.15955 0.13314 -0.49705 0.27066 0.3797 0.075612 -0.32479 -0.03149 0.018424 0.11223 0.071278 0.44371 0.13818 0.18647 0.048722 -0.49416 0.17892 0.22134 -0.55513 0.28614 -0.28539 -0.23725 -0.57406 -0.13802 -0.12141 0.15321 -0.24561 -0.33497 0.0085978 0.5123 0.009802 -0.35146 -0.13549 0.26494 0.081737 -0.18912 -0.48103 0.16292 0.074717 -0.21571 -0.31555 0.022034 0.12467 -0.053841 -0.61876 0.056635 -0.17136 0.083836 0.16343 -0.066871 -0.31554 -0.71014 -0.43349 -0.16786 0.49077 0.090984 0.61763 -0.07632 0.30888 -0.18023 -0.15152 -0.070341 -0.38999
block -0.26661 -0.31742 -0.29504 -0.493 0.20524 -0.054162 0.15325 -0.085334 -0.2514 0.90001 0.18587 -0.042216 0.18635 -0.082195 -0.15477 -0.39736 0.14218 0.16263 -0.29713 0.22157 -0.070772 -0.070215 -0.31315 -0.58126 0.023808 -0.70803 0.16506 0.50512 0.046009 0.19502 0.28284 0.13285 -0.18879 0.42152 0.10279 0.37304 -0.35606 0.48053 0.3075 0.0013894 -0.049591 0.28571 -0.081664 -0.31828 -0.29671 0.068941 0.27264 -0.15407 0.0094534 -0.05149 0.15502 0.36889 -0.32765 0.16011 0.023727 -0.64877 0.53058 0.38005 -0.2853 0.079648 -0.3207 -0.20281 -0.0037493 -0.15945 0.28589 -0.13678 0.66793 -0.076491 0.10085 -0.26354 -0.35275 0.21494 0.074162 0.032907 -0.28379 0.096194 -0.2874 -0.26123 -0.020273 -0.58176 -0.20591 -0.68555 -0.20367 -0.66758 0.10598 0.55997 0.54071 -0.42858 -0.21633 -0.69487 0.26603 0.32046 0.28999 0.80848 -0.16647 -0.033617 -0.27055 -0.058016 -0.27334 0.05983
fear -0.50965 0.047613 -0.55283 -0.58517 0.34855 0.286 0.2752 0.53731 0.16419 0.79242 -0.17449 0.17029 -0.25941 0.057952 -0.042465 -0.27024 -0.1769 0.49345 -0.15293 0.21378 0.051005 -0.096516 -0.16463 -0.45305 0.036021 -0.72869 0.15578 0.028546 0.07122 0.14296 0.26025 -0.14233 -0.05957 0.40686 0.01561 -0.24797 -0.13794 -0.089433 -0.16779 -0.3283 -0.11996 0.27285 -0.26671 -0.058922 -0.18392 0.25197 -0.017905 -0.0062689 0.39515 0.36171 0.3524 0.26609 -0.40768 -0.035405 0.082021 -0.38575 -0.0018948 0.013426 -0.34048 -0.77504 -0.27534 -0.37307 0.40146 -0.027456 0.40184 0.28175 0.41952 0.29905 -0.13762 -0.27526 0.089113 -0.19077 -0.28345 -0.39912 -0.19603 0.26806 0.045543 0.1599 -0.25571 0.69765 0.10861 0.29183 0.42949 -0.13353 -0.20564 0.82755 0.39587 -0.086639 0.24531 -0.079996 -0.22258 0.36334 0.10408 0.44494 0.29731 -0.4361 0.099906 -0.28882 -0.31569 -0.25687
surface 0.094605 0.0051961 -0.17166 -0.41981 0.16311 0.22977 -0.72825 0.014191 0.18807 0.8298 0.14784 0.17528 -0.22829 -0.44303 -0.12336 -0.3738 0.32396 0.5829 -0.41939 -0.20925 0.0012408 0.06419 -0.22422 -0.030027 0.2267 -0.98763 0.074776 0.54098 -0.19738 -0.32347 -0.26888 -0.23444 0.2276 0.13345 -0.05764 0.24501 -0.40832 -0.31842 0.61952 -0.071965 0.34572 0.031215 -0.49787 -0.48084 0.010103 -0.29924 0.43011 -0.6506 0.23728 0.64551 0.22375 0.31359 0.0049495 0.21711 0.68944 -0.074655 0.52447 0.38733 -0.29325 0.21018 0.0392 0.090453 0.24652 -0.48585 0.1582 -0.20402 0.34295 -0.012462 -0.040466 -0.28758 0.20379 -0.2503 0.096533 0.26922 -0.41149 0.56569 0.32171 0.19688 -0.28588 0.24068 0.48563 0.37325 0.16224 0.33772 -0.024166 0.31248 0.64448 0.031216 -0.080905 -0.47073 0.064819 -0.31338 0.076571 0.36957 0.25147 0.35197 0.037536 -0.10499 0.12795 -0.078207
