436 100
plane -0.34281 -0.23812 0.35303 -0.077171 -0.19051 0.01524 0.16346 0.11751 0.32404 -0.16629 0.55529 -0.21045 0.0081822 0.21273 -0.23652 -0.2231 0.14879 -0.064415 0.13419 -0.24084 0.13613 -0.24906 -0.19886 -0.4668 -0.046601 -0.50621 0.134 0.73071 0.1909 0.15741 0.3946 0.49375 -0.12555 0.014344 -0.29185 0.061724 0.10805 0.23293 -0.088503 -0.56711 0.32812 -0.38256 -0.0078646 -0.36377 0.10346 0.22882 0.57887 0.31387 0.050499 0.40252 -0.33192 0.35142 0.054683 -0.092983 0.043351 0.46947 0.51853 0.048659 -0.5413 -0.66316 -0.15965 0.10381 0.010841 0.03512 0.40769 0.73688 0.13021 0.26962 -0.16139 -0.12757 -0.12824 0.4379 -0.18641 -0.011738 -0.010814 0.1871 -0.40452 0.12322 -0.036999 0.10649 0.21468 -0.033506 -0.38717 0.054696 -0.20794 -0.021081 -0.17726 -0.11905 -0.10016 -0.033486 -1.1371 -0.030162 -0.34936 -0.040507 -0.12589 -0.30319 -0.4188 -0.051266 -0.3157 0.012462
stupid 0.13983 -0.066339 0.20825 0.13042 -0.14224 0.26487 -0.26989 -0.23441 0.58742 -0.37953 0.59991 -0.34082 -0.1668 -0.054138 -0.38365 0.16115 0.044987 0.0036756 0.29007 0.21248 -0.13191 -0.17261 0.10721 0.10549 -0.19372 -0.23562 0.078493 0.31956 0.12204 -0.0090274 0.11859 0.53214 -0.0089259 -0.1752 -0.4755 -0.35399 0.037426 -0.017755 -0.055855 -0.62314 0.092859 -0.23122 0.20179 -0.38687 -0.24521 0.2181 0.34795 0.1793 0.13366 0.053164 0.11375 0.23825 -0.21958 0.50083 -0.064753 0.38277 0.27193 0.53107 -0.15536 -0.59014 0.22009 0.40754 0.10356 -0.24047 -0.0037606 0.10026 0.30789 0.23614 0.04643 -0.6679 -0.08354 0.33412 -0.41137 -0.25648 0.13601 -0.012632 -0.2469 0.026976 -0.31525 -0.24282 0.18539 -0.30955 -0.10384 -0.43369 -0.091637 0.095356 -0.14201 0.12161 -0.071715 0.088354 -0.37795 0.05655 -0.26724 0.16503 -0.10971 -0.37635 -0.49816 -0.084956 0.49947 0.53094
egg -0.14983 0.23767 0.036361 -0.011078 -0.048685 0.044142 -0.10505 -0.2619 0.21932 -0.57469 0.57332 -0.13162 -0.17369 -0.34032 -0.031269 0.0037879 -0.11382 -0.089649 0.04392 0.11459 0.14652 -0.37764 0.17057 0.052781 -0.17484 -0.13886 0.13682 0.2885 0.13145 0.32236 0.042926 0.3886 -0.18407 -0.62116 -0.1749 -0.4193 0.10953 -0.29439 -0.065686 -0.3953 0.40375 -0.49909 0.13047 -0.23842 -0.44725 0.39854 0.40486 0.20354 0.086715 0.18275 -0.039034 0.048695 -0.21584 0.52229 -0.2052 0.60188 0.14591 0.44144 -0.39846 -0.39824 0.11825 0.25779 0.24871 -0.45874 0.44778 0.26076 0.12428 0.49262 0.17238 -0.71987 -0.15828 0.63616 -0.49632 -0.062707 0.25387 -0.11585 -0.24517 0.060113 -0.16125 -0.24487 0.15997 0.12573 0.31184 -0.24749 -0.18176 -0.075152 0.27029 0.088072 -0.06916 -0.13964 -0.49125 -0.021118 -0.2419 0.090412 -0.12644 -0.12767 -0.37377 0.021985 -0.2255 0.37632
year -0.35158 0.075119 -0.2458 0.22623 -0.03118 0.15644 -0.24142 0.0011121 0.5561 -0.12799 0.40183 0.099468 -0.1672 -0.13819 -0.52604 -0.27382 -0.0025059 -0.32341 0.13931 -0.23236 0.20266 0.32072 0.14806 0.11899 -0.024735 0.07465 0.19672 0.76278 0.17358 0.053719 0.094536 0.070299 0.14139 -0.12254 -0.023455 -0.028005 0.10116 0.25267 0.008091 0.04732 0.21057 -0.32335 -0.05244 0.040088 -0.16716 -0.075077 -0.24223 -0.16595 0.1634 -0.0031254 -0.067341 0.51672 -0.13166 0.28954 -0.1935 0.42735 0.19728 0.24195 -0.1797 -0.71402 0.10956 0.21232 0.38295 -0.084219 0.07963 0.23927 0.30551 0.014077 -0.6849 -0.45683 0.067344 -0.19312 -0.36233 -0.017568 0.17016 -0.088169 -0.71436 0.08155 -0.27485 -0.18149 0.67958 -0.21669 -0.46045 -0.18607 -0.12222 -0.20574 -0.075656 0.26119 -0.27752 0.037252 -0.62845 0.13329 -0.61138 0.017094 -0.1687 -0.24033 -0.15108 0.086414 -0.27769 0.68649
psychiatry -0.072384 -0.13899 0.10439 -0.0027804 -0.14835 0.019358 -0.11151 -0.35879 0.31583 -0.30588 0.26992 0.18187 0.1463 -0.14164 -0.42238 -0.13104 0.17371 -0.076681 0.19025 0.073813 0.083028 -0.090463 -0.19151 -0.19998 -0.19476 0.012098 0.21905 0.34074 0.23905 -0.028312 0.085748 0.36757 -0.095989 -0.080412 -0.16309 -0.21229 0.056612 0.10878 -0.15613 -0.22515 0.18989 -0.33449 0.066412 -0.17766 -0.29867 0.06623 0.21438 0.14951 0.10162 0.16131 -0.013105 0.07667 -0.20139 0.21975 6.9132E-4 0.34347 0.26795 0.23296 -0.2989 -0.30882 0.17469 0.30833 0.1999 -0.11166 -0.17197 0.29123 0.3663 0.01001 -0.025007 -0.54208 0.024956 0.33049 -0.065475 -0.13439 0.089386 0.023157 -0.33245 0.018549 -0.14644 -0.014682 0.44418 0.022645 -0.25501 -0.056885 -0.16508 0.0061381 -0.093846 0.09197 0.29606 0.0011084 -0.52471 0.057781 -0.2644 0.048315 -0.080116 -0.097035 -0.49429 0.0039171 0.25072 0.42464
asylum -0.072638 -0.19718 0.14155 0.0071135 -0.14675 -0.040875 -0.39432 -0.29066 0.4621 -0.17376 0.51735 -0.094601 0.075767 -0.03867 -0.50287 0.090591 0.064505 0.0038569 0.23847 -0.085603 0.13089 0.20724 -0.19846 -0.086165 -0.36256 -0.014983 0.20723 0.56267 0.13917 0.20069 0.16273 0.28605 0.0039044 -0.19297 -0.090703 -0.15985 0.12983 0.13534 -0.11799 -0.15728 0.046938 -0.54589 -0.015148 -0.27189 0.088854 0.33176 0.48268 0.020452 0.12433 0.1037 -0.13542 0.24225 -0.26035 0.36928 -0.1196 0.45501 0.17075 0.15914 -0.25192 -0.37035 0.17166 0.25669 0.20138 -0.16328 -0.05479 0.41771 0.6012 -0.025003 -0.0015506 -0.44546 -0.028423 0.040571 -0.048643 -0.10388 0.18934 0.24003 -0.19622 0.066131 -0.15676 -0.10055 0.49422 -0.018768 -0.29474 -0.17374 -0.30043 -0.091242 -0.074332 -0.083933 0.1682 0.25563 -0.69942 0.032348 -0.39527 0.051672 -0.33621 -0.32265 -0.45479 0.044158 0.11929 0.3327
manslaughter 0.023027 -0.24694 0.22683 -0.047363 -0.24118 0.060453 -0.23855 -0.13801 0.39932 -0.051712 0.34268 0.16298 0.076913 -0.013421 -0.62958 -0.23457 0.23989 0.059552 0.14946 0.11272 0.033797 0.064863 -0.22853 0.055317 -0.35008 -0.25133 0.26533 0.47106 0.22335 0.094388 0.27462 0.21472 -0.017599 -0.22242 -0.18177 -0.32222 0.13896 -0.051244 -0.076798 -0.20696 0.11468 -0.55133 0.050623 -0.13555 0.054318 0.2075 0.41244 -0.086828 -0.075316 0.15877 -0.13645 0.34006 -0.091102 0.4415 -0.10483 0.51642 0.31506 0.19399 -0.29739 -0.37937 0.13248 0.30814 0.25809 -0.22794 -0.26016 0.35862 0.52367 0.23645 0.10618 -0.60555 0.17372 0.11429 0.14112 -0.12664 0.13487 -0.0069099 -0.28205 0.27396 -0.086205 0.045886 0.72274 0.023485 -0.20671 -0.012153 -0.20077 -0.2244 -0.071667 -0.065531 0.049957 -0.049984 -0.57256 -0.06324 -0.54702 -0.11151 -0.056969 -0.10288 -0.41616 0.01498 0.07632 0.39734
music 0.027278 -0.27313 0.31691 0.24699 0.25205 0.17667 -0.20519 -0.46492 0.4829 -0.36094 0.24686 0.053466 0.017534 -0.19452 -0.15512 0.023312 0.13789 -0.27846 0.47359 -0.21964 -0.059911 -0.12454 -0.0056355 -0.19871 -0.20505 -0.17554 -0.1095 0.63036 0.4711 0.3332 -0.27626 0.6531 -0.37171 -0.28375 0.11691 -0.50298 0.092766 -0.21991 0.034251 -0.4486 0.093975 -0.21657 0.30185 -0.14409 -0.43368 0.067165 0.2548 0.33694 0.4494 -0.1816 0.19528 0.018176 -0.22612 0.24975 -0.16981 0.30931 0.23348 0.068492 -0.23222 -0.68166 -0.14569 0.58086 0.53407 -0.37634 -0.056384 -0.07328 0.22088 0.070567 0.19329 -0.94145 -0.097024 0.22522 -0.25847 -0.34363 0.018786 -0.36077 -0.3325 -0.35291 0.11387 -0.12602 0.1298 -0.5289 -0.072536 -0.20518 -0.37724 0.11436 -0.096453 0.3277 0.29117 -0.075224 -0.61921 0.35498 -0.68574 -0.054389 -0.12872 -0.21866 -0.65146 -0.0016594 0.25498 0.52823
record -0.063694 0.07369 -0.032219 -0.019484 -0.15592 0.20503 -0.14965 0.12105 0.2921 -0.11358 0.43594 -0.0046201 -0.01758 0.097604 -0.3519 -0.15302 0.031366 -0.18323 0.053815 -0.18907 0.074215 0.28705 -0.085398 -0.14851 0.21993 0.016532 0.14408 0.41267 0.029094 0.025713 -0.087222 0.082636 -0.30352 -0.2053 0.021827 -0.33329 -0.019979 0.17361 0.040422 -0.0082014 0.0010628 -0.57508 0.062559 0.022196 -0.1775 -0.17188 -0.13606 0.23973 0.20269 0.28247 -0.012213 0.42707 -0.21463 0.53822 -0.30891 0.49436 0.059724 0.34574 -0.037697 -0.49278 -0.16584 0.24951 0.59311 -0.35914 -0.04335 -0.056292 0.31178 -0.21325 -0.30242 -0.75668 0.054656 0.19095 -0.28346 0.22992 0.2954 -0.18621 -0.54084 -0.25698 -0.2834 -0.054837 0.49826 -0.14871 -0.62236 -0.034975 -0.17075 -0.21247 0.01877 0.1157 -0.27161 -0.23959 -0.37492 0.058601 -0.56741 0.10301 -0.30817 -0.26672 -0.47357 -0.026859 -0.38421 0.67408
energy 0.23261 -0.045017 -0.31176 -0.20765 -0.44405 -0.0035766 -0.46613 -0.21054 0.50428 -0.078096 0.64913 -0.056288 -0.12756 -0.067925 -0.10781 0.045554 0.14577 -0.4452 0.68788 -0.047189 0.11403 -0.11566 0.068758 -0.24965 -0.3772 0.19042 0.12764 0.22919 0.12767 0.39575 0.16903 0.22974 -0.033187 -0.09123 0.2388 0.0040196 0.53354 0.42525 -0.40464 -0.0467 0.099189 -1.2078 -0.087653 -0.55619 -0.56947 0.032845 0.32082 0.3923 0.35531 0.26153 0.14087 -0.070376 -0.7157 0.13756 0.0082089 0.48393 0.32496 0.28277 -0.42316 -0.6469 -0.08689 0.18261 0.24054 -0.086052 0.39323 0.10878 0.46206 -0.033983 -0.3712 -0.68186 0.052519 0.64843 -0.50308 0.11366 0.055437 -0.23019 -0.58468 0.053578 -0.52674 -0.3394 -0.073659 0.015091 0.1947 -0.54343 -0.19709 -0.090305 0.012605 -0.021327 0.35184 0.026884 -0.69725 -0.039549 -0.15612 0.062021 -0.27034 -0.1474 -0.38011 -0.23893 -0.087317 0.59193
announcement 0.043226 -0.19817 0.051494 0.15603 -0.28173 -0.15612 -0.24002 0.13794 0.66864 -0.30171 0.55591 0.14145 -0.11091 -0.021962 -0.47263 -0.020086 0.15385 -0.10976 0.30421 -0.052621 -0.076022 0.11265 -0.17696 -0.057837 -0.17444 -0.12682 0.069649 0.56932 0.085472 0.1642 0.2772 0.19852 0.036506 0.19965 -0.011457 -0.11911 0.21868 0.38981 -0.0098318 -0.071469 -0.04234 -0.47334 -0.023861 -0.20628 0.20462 -0.15885 0.18685 0.14352 0.14985 0.16458 -0.47227 0.32733 -0.36056 0.083129 -0.12659 0.22922 0.28033 0.19241 -0.30619 -0.59806 -0.020869 0.29868 0.2238 -0.21401 -0.17906 0.27219 0.14891 0.039351 -0.31907 -0.6599 0.13847 0.086541 -0.38609 0.013291 0.098868 -0.040822 -0.5281 0.027425 -0.26874 0.036771 0.55365 0.074224 -0.50442 -0.10747 -0.31108 -0.23379 -0.35673 0.062924 -0.01941 0.057082 -0.58343 -0.02037 -0.40407 0.10525 -0.19094 -0.070727 -0.56633 0.15702 0.35386 0.34836
mile -0.54065 0.12662 -0.042735 -0.18631 -0.14026 -0.1401 0.14175 -0.19371 0.1113 -0.11866 0.39931 0.13211 0.093933 -0.28734 -0.53764 -0.28219 0.15748 -0.058272 0.046158 -0.33463 0.16672 -0.0074642 0.01934 -0.10206 -0.0076577 -0.23036 0.073586 0.66704 0.16476 0.1663 0.065741 0.55161 -0.25197 -0.24132 -0.16707 0.094995 -0.055335 -0.026515 -0.034616 -0.4276 0.25012 -0.18421 -0.084361 -0.28907 -0.2587 0.08697 0.29273 0.13852 -0.18031 0.086211 -0.066402 0.29508 -0.28793 0.36649 -0.079834 0.3237 0.29694 0.076838 -0.3109 -0.44558 0.20395 -0.11898 0.32782 0.063599 0.46302 0.35369 0.03378 0.13319 -0.33077 -0.57267 0.013164 0.38814 -0.40551 0.15887 0.025591 -0.12962 -0.42385 0.054647 -0.29494 -0.29603 0.0094175 -0.40868 -0.24385 0.092042 -0.050571 -0.0021822 0.14411 -0.16429 -0.046762 0.055889 -0.69679 -0.10509 -0.25533 0.045298 0.19625 -0.32749 -0.1801 -0.26167 -0.77578 0.12859
airport -0.28041 -0.13451 0.074711 -0.20414 -0.17321 -0.11978 -0.030468 -0.26018 0.41854 -0.14298 0.5736 0.0079838 0.2355 -0.16553 -0.34945 -0.24951 0.26719 -0.08445 0.03973 -0.26167 0.11902 0.002575 -0.076355 -0.1046 -0.27942 -0.26004 0.054351 0.88038 0.33737 0.24323 0.41952 0.49095 -0.070702 0.08146 -0.033677 -0.1269 0.15818 0.2839 -0.15938 -0.21635 0.23825 -0.24885 0.042989 -0.41391 0.080405 0.091298 0.48878 0.2173 -0.14893 0.20985 -0.095123 0.4511 -0.17917 0.147 0.23989 0.21278 0.48745 -0.08712 -0.47361 -0.60715 0.078781 0.044238 0.33927 0.035912 0.24755 0.67266 0.29504 0.21008 -0.29418 -0.53393 -0.0071658 0.25903 -0.039614 -0.055936 -0.038136 0.13816 -0.24689 0.20219 0.14513 -0.22481 0.31286 -0.03339 -0.40761 0.13523 -0.088228 -0.1328 -0.18014 -0.29653 0.10742 -0.015346 -1.0483 -0.1547 -0.34693 -0.029458 -0.04746 -0.10985 -0.42082 -0.024334 -0.43069 -0.11106
population 0.2107 -0.10647 -0.093678 0.11051 -0.41734 0.36002 -0.28748 -0.23192 0.30629 0.1474 0.38712 -0.081964 0.046276 -0.37502 -0.52787 -0.24391 -0.1986 -0.22232 0.35776 0.1296 0.10003 0.053981 -0.079805 0.082828 -0.1495 0.2544 0.36895 0.5413 0.23132 0.4266 -0.015575 0.49207 0.026907 -0.26986 0.0015313 0.19284 -0.030192 0.12938 -0.10449 -0.071304 0.10287 -0.57985 -0.14353 -0.28609 -0.33173 0.16552 0.40496 0.058244 0.14585 0.22051 0.051583 0.23211 -0.31851 0.5657 0.062536 0.47912 0.054952 0.42418 -0.17046 -0.41866 0.3514 0.14333 0.26362 0.089962 0.12098 0.13329 0.47512 -0.22785 -0.24844 -0.66531 -0.22653 -0.007571 -0.17765 -0.23538 0.30702 -0.047714 -0.49234 0.0015769 -0.5898 -0.52014 0.47304 -0.19658 -0.089153 -0.2647 -0.22483 -0.22659 0.1215 0.1316 0.057591 0.49418 -0.65083 -0.044265 -0.42274 0.085014 -0.14241 -0.45542 -0.25334 -0.11414 -0.70146 0.44204
planning 0.071752 -0.16467 0.047048 -0.053212 -0.10377 -0.037701 -0.3987 -0.35667 0.56114 -0.31153 0.47846 -0.049583 -0.0015081 -0.19595 -0.47305 0.063497 0.21382 -0.05633 0.24977 -0.15105 -0.018481 -0.046608 0.017231 0.025644 -0.35551 -0.037165 0.073264 0.62975 0.23032 0.15988 0.23557 0.087634 0.11355 0.021371 -0.049798 -0.37058 0.28878 0.32893 -0.26254 -0.21398 0.089302 -0.52887 -0.06659 -0.22162 -0.040237 0.05986 0.42804 0.077757 0.15669 0.19595 -0.058349 0.19815 -0.35215 0.3105 -0.036766 0.39472 0.39473 0.13281 -0.46588 -0.61528 0.057301 0.33699 0.15589 0.079585 -0.0093318 0.30858 0.42194 0.22519 -0.24105 -0.54489 -8.2E-4 0.054401 -0.053495 -0.23759 0.27906 0.032752 -0.2883 0.17735 -0.075905 -0.15419 0.51388 0.078797 -0.30681 -0.27216 -0.12184 -0.17986 -0.2174 -0.046293 0.29599 -0.093669 -0.7906 0.045533 -0.49862 0.13385 -0.344 -0.22711 -0.62408 -0.087997 0.23531 0.17992
canyon -0.053577 -0.068122 0.075603 -0.037943 -0.12511 0.0037573 -0.13425 -0.21065 0.41815 -0.2309 0.41094 0.033027 0.024112 -0.10408 -0.39576 -0.048387 0.071704 -0.12534 0.2203 -0.035654 0.095232 0.021883 -0.069221 -0.088826 -0.18604 -0.11451 0.16359 0.57606 0.091256 0.15337 0.15221 0.26864 -0.098934 -0.088779 -0.076805 -0.091148 -0.0097225 0.12458 -0.070469 -0.20245 0.12522 -0.40171 -0.0092383 -0.19706 -0.25415 0.11802 0.35736 0.17253 0.096759 0.21498 -0.084817 0.14833 -0.19013 0.25524 -0.061606 0.36546 0.18186 0.1493 -0.32908 -0.32823 0.11245 0.25627 0.24617 -0.24947 0.019399 0.28243 0.333 0.14844 -0.028327 -0.58668 -0.0033377 0.31951 -0.22924 -0.074519 0.16115 0.0089987 -0.22878 0.03038 -0.14363 -0.14947 0.34415 -0.027737 -0.14697 -0.096654 -0.073924 -0.061652 0.0071612 -0.029 0.24699 0.0054436 -0.55036 0.03346 -0.37936 0.0014154 -0.1199 -0.21724 -0.46141 -0.079339 -0.14139 0.27082
delay 0.11279 -0.035893 -0.024366 -0.1268 -0.18538 -0.088705 -0.20988 0.15938 0.81394 -0.19829 0.62381 0.0074871 -0.18549 0.19508 -0.53876 0.026389 0.11526 -0.12059 0.38725 -0.17131 -0.051279 -0.030333 -0.030201 -0.088463 -0.45555 -0.15539 0.29683 0.50328 0.17142 0.22533 0.30935 0.087102 0.015508 -0.025836 -0.11823 -0.1751 -0.027509 0.31226 -0.13056 -0.2569 -0.10762 -0.64048 -0.030478 -0.34978 0.23972 -0.016345 0.20776 0.0031944 -0.0047151 0.32949 -0.2117 0.54645 -0.278 0.44314 -0.2368 0.38789 0.38598 0.25834 -0.40309 -0.6683 0.16952 0.14938 0.098248 -0.04242 -0.050944 0.43325 0.33833 0.19381 -0.15602 -0.65487 0.29848 0.036467 -0.28717 0.17608 0.2193 -0.13079 -0.50381 -0.050706 -0.26212 -0.018138 0.4978 -0.038452 -0.31941 -0.1377 -0.18246 -0.25934 -0.19628 -0.28414 -0.015607 -0.096618 -0.59869 0.080934 -0.47984 0.23636 -0.23013 -0.37323 -0.42547 0.0035819 0.14983 0.24509
size 0.21393 0.16454 0.010901 -0.071213 -0.28943 -0.034921 -0.11209 -0.10058 0.31663 -0.3103 0.41887 -0.022532 -0.3294 -0.13832 -0.61451 -0.076186 -0.21663 -0.16631 0.40957 0.0085963 0.010295 0.10521 0.21431 -0.13327 -0.15384 -0.022925 0.11351 0.39632 0.1842 0.26039 -0.10565 0.31948 -0.26087 -0.21989 0.12129 -0.046823 -0.11718 0.21577 -0.1762 -0.41941 0.13972 -0.63351 -0.26971 -0.46316 -0.081493 0.1755 0.25182 0.11157 0.046258 0.22864 -0.043543 0.30077 -0.4647 0.55424 -0.024354 0.44093 0.39705 0.3314 -0.34046 -0.50588 0.32321 0.28275 0.12319 -0.19461 0.18685 0.076842 0.1007 0.084457 0.016273 -0.62522 -0.040004 0.48228 -0.32668 -5.3799E-4 0.31655 -0.13063 -0.41398 0.0051008 -0.36082 -0.27413 0.29482 -0.20594 -0.0050404 -0.20339 -0.06253 -0.083081 0.019899 0.034659 0.048333 0.064508 -0.59841 0.061442 -0.46687 0.030494 -0.085272 -0.30144 -0.32539 -0.14257 -0.36859 0.32692
peace 0.41125 -0.3444 -0.034861 0.22127 -0.58021 -0.18277 -0.48336 -0.17729 0.86527 -0.076708 0.80642 -0.29705 0.48785 -0.23187 -0.14834 0.38803 0.52208 0.2159 0.64602 0.043237 0.082554 0.19781 -0.6996 -0.19813 0.0092481 -0.057606 0.4719 0.81118 0.17969 0.36569 -0.064054 0.55257 -0.27895 -3.6402E-4 -0.11532 -0.20338 0.21902 0.42226 -0.22327 -0.66369 -0.24582 -0.63155 0.41893 -0.49307 0.026614 0.036427 0.43822 0.24121 0.34579 -0.084241 -0.12013 0.40394 -0.74779 0.12272 -0.23757 0.05697 0.44952 0.22737 -0.095739 -0.88554 0.033651 0.37436 0.15033 -0.053618 0.1496 0.19889 0.68639 0.027999 -0.30886 -0.24692 0.19225 -0.08176 -0.1723 -0.00228 0.061279 -0.099466 -0.46875 -0.051159 -0.11242 -0.52051 0.4948 -0.19069 -0.44275 -0.6533 -0.21256 -0.23078 0.084065 -0.24175 0.30915 0.24657 -0.70467 0.040638 -0.4501 -0.054428 0.02344 -0.252 -0.21947 0.15592 0.34233 -0.059106
science 0.28245 -0.023532 0.0859 0.12391 -0.1367 0.33102 -0.34807 -0.54251 0.66328 -0.41795 0.21816 0.16572 0.095971 -0.26092 -0.3655 0.050363 0.11245 -0.12671 0.47568 0.29543 -0.24843 -0.20881 -0.027346 -0.055097 -0.49693 0.019068 0.27278 0.29159 0.07814 0.3995 0.0056481 0.4316 0.10579 -0.23148 -0.14652 -0.16204 0.22008 0.011546 -0.28232 -0.28787 -0.099363 -0.70974 0.27981 -0.36049 -0.59592 0.10765 0.34804 0.10977 0.19306 0.25917 -0.0067927 -0.065796 -0.4665 0.1915 0.015033 0.41958 0.24724 0.39088 -0.26597 -0.42173 0.3099 0.40655 0.06727 -0.16969 0.041115 0.074679 0.55887 0.12723 -0.0067759 -0.76064 0.03386 0.43019 -0.24224 -0.41493 -0.01178 -0.11641 -0.45672 -0.164 -0.24181 -0.040257 0.34011 -0.098692 -0.074235 -0.38893 -0.082922 0.11423 -0.14277 0.54073 0.50762 0.016758 -0.53722 0.32122 -0.29426 0.0091427 -0.12169 -0.24486 -0.74185 -0.24573 0.41708 0.6932
dawn -0.35245 -0.20849 0.27969 0.042426 -0.27998 -0.010908 -0.017605 -0.038509 0.44713 -0.12227 0.46959 0.21719 0.056819 -0.40213 -0.17217 -0.12374 0.17395 0.1804 0.10183 -0.20624 0.27918 -0.14453 -0.36215 -0.080282 -0.10718 -0.16006 0.20232 0.63356 0.35711 0.17047 0.17432 0.71595 -0.04178 -0.14354 -0.16332 0.10796 -0.10064 0.25525 0.04881 -0.27735 0.22658 -0.10371 0.17366 -0.26037 0.089139 0.35173 0.24376 0.15347 0.012567 0.21528 0.0092656 0.46017 -0.09903 0.23471 -0.20155 0.3435 0.28521 0.11058 -0.1804 -0.66772 0.15526 0.28017 0.40832 -0.043953 0.25029 0.52076 0.24036 0.1168 -0.013162 -0.3705 -6.3507E-4 0.22525 -0.27064 0.16024 -0.018334 0.15703 -0.15023 0.019367 -0.25344 -0.15139 0.35527 -0.021228 -0.36561 0.026878 -0.22161 -0.032899 -0.076548 -0.16584 -0.15578 0.063136 -0.70921 -0.047304 -0.41076 0.028152 0.11042 -0.27473 -0.29932 0.0051854 -0.27511 0.35818
brother -0.60223 -0.57022 0.44325 0.36242 -0.16779 0.023075 -0.11001 -0.54714 -0.025155 0.032938 0.38572 0.067034 0.048258 -0.094626 -0.60205 -0.18782 0.27628 -0.057254 0.16021 0.27793 0.1644 -0.2095 -0.451 -0.27864 -0.18229 -0.28985 0.32148 0.53981 0.11364 -0.15508 0.027218 0.41246 -0.1719 -0.22963 -0.28282 -0.30691 -0.076166 -0.10183 0.12175 -0.35808 0.18371 -0.2219 0.10768 -0.032772 -0.11761 0.2326 0.37434 0.17152 -0.16367 0.024903 0.19046 0.18284 0.012708 0.3907 0.062404 0.55659 0.54998 0.35586 -0.22037 -0.51482 -0.059101 0.56168 0.26526 -0.23421 -0.38894 0.29283 0.68149 0.04825 0.16106 -0.23225 0.081661 0.16504 0.11588 -0.17447 -0.039551 0.15402 -0.55397 0.179 -0.32926 0.42419 0.14712 -0.14062 -0.16727 -0.18236 -0.42858 -0.077782 -0.019483 -0.19786 -0.10136 0.32173 -0.31445 -0.080742 -0.25464 0.082681 0.053083 -0.067448 -0.1923 0.24806 0.41592 0.60622
wine -0.15861 -0.13748 0.19295 -0.1622 -9.7113E-4 0.017155 -0.07228 -0.34734 0.080432 -0.49491 0.37836 -0.14274 -0.095683 -0.60254 -0.13269 -0.086614 -0.002812 -0.079249 0.37688 -0.0011799 0.16526 -0.17975 0.1632 0.04001 -0.21355 0.20161 -0.10425 0.41236 0.3274 0.14782 0.019137 0.46406 -0.33459 -0.33655 0.0032585 -0.23816 0.20058 -0.36795 0.090104 -0.39142 0.44598 -0.26292 -0.13069 -0.45982 -0.47499 0.50262 0.29236 0.24409 0.083179 0.10441 0.28775 -0.040858 -0.19143 0.35219 0.21912 0.60665 -0.032895 0.28301 -0.26458 -0.68426 0.071851 0.266 0.3028 -0.5141 0.2699 0.10986 0.12332 0.10372 -0.074462 -0.78913 -0.25478 0.63258 -0.34674 0.0034662 -0.03422 -0.23611 -0.3547 -0.032432 -0.29307 -0.34032 0.080146 -0.25573 0.095056 -0.19182 -0.11754 0.10424 0.13536 0.16938 0.024492 -0.20149 -0.49445 0.048604 -0.42076 -0.013577 -0.037979 -0.13692 -0.28412 0.041817 -0.18802 0.3829
object 0.16281 -0.1754 0.22839 0.054835 -0.19607 0.12189 -0.26771 -0.215 0.43539 -0.34142 0.48574 0.023186 -0.071309 -0.099714 -0.24511 0.045494 0.13432 -0.027771 0.3173 0.025287 -0.15443 -0.1959 0.011693 -0.019759 -0.31408 -0.1011 0.077169 0.31244 0.18897 0.12726 0.049512 0.40107 -0.15121 -0.18349 -0.17257 -0.18251 -0.033113 0.05614 -0.10641 -0.36234 0.12987 -0.34601 -0.0025037 -0.36361 -0.15475 0.28792 0.30275 0.19171 0.094506 0.20788 0.026483 0.12991 -0.23183 0.34409 -0.072879 0.41199 0.26669 0.36552 -0.26763 -0.6405 0.098495 0.28212 0.15656 -0.1668 0.13224 0.32075 0.27538 0.26212 0.16545 -0.48747 -0.10068 0.41078 -0.3135 -0.043187 0.074107 0.11004 -0.24153 0.0096782 -0.23763 -0.085581 0.35523 -0.15728 -0.14994 -0.19276 -0.026819 -0.046645 -0.0089244 0.0021457 0.02031 0.055155 -0.55136 0.081161 -0.36423 0.012569 -0.10741 -0.30348 -0.41942 -0.092625 0.26938 0.34537
attitude 0.25544 -0.12798 0.21739 0.23535 -0.22886 0.043107 -0.30007 -0.16569 0.54789 -0.24999 0.55445 -0.17176 0.023268 -0.062865 -0.24186 0.21854 0.11881 -0.099551 0.31215 -0.02014 -0.16986 -0.10062 -0.041832 0.12146 -0.19692 -0.065716 0.22948 0.3973 0.025219 0.25492 0.11448 0.32504 -0.14103 -0.17632 -0.25804 -0.32099 0.14185 0.08073 -0.094267 -0.30208 0.21679 -0.49708 0.078502 -0.33812 -0.27631 0.24632 0.26081 0.21512 0.2679 0.22201 -0.0098627 0.19853 -0.1839 0.32465 -0.036443 0.38844 0.31186 0.43501 -0.14655 -0.66246 0.20922 0.44398 0.081329 -0.13791 -0.070717 0.16281 0.3483 0.13749 0.12966 -0.63333 -0.1485 0.38118 -0.3449 -0.1403 0.25566 0.021085 -0.30247 -0.005123 -0.2606 -0.12055 0.22511 -0.11738 -0.095694 -0.37322 -0.10587 -0.046444 0.048069 0.099411 0.039444 0.043424 -0.44948 0.074683 -0.37203 0.1283 -0.15683 -0.32471 -0.43224 0.041882 0.39201 0.48228
treatment -0.090898 0.20501 -0.071072 -0.12035 -0.15343 0.55301 -0.28934 -0.21631 0.41595 -0.10891 0.49196 0.040379 -0.07819 -0.026308 -0.65679 -0.029513 0.078091 -0.075163 0.46231 0.41079 -0.1299 0.034165 0.16454 -0.065342 -0.74607 -0.24261 0.49672 0.51257 -0.18515 0.39004 0.19325 0.24574 0.12403 -0.27362 -0.19837 -0.027571 -0.064825 -0.082963 -0.058221 -0.362 -0.017824 -0.81611 0.16612 -0.19503 -0.38992 -0.11308 0.51736 -0.065357 -0.024642 0.27167 -0.17687 0.32819 -0.38587 0.46839 0.001773 0.49281 0.28651 0.3249 -0.53805 -0.32989 0.39506 0.1081 -0.029026 -0.21579 0.1469 0.27725 0.73892 0.26121 0.13267 -0.65828 0.19207 -0.19211 0.077603 -0.2127 0.0025363 0.010616 -0.43262 0.12139 -0.37231 -0.082572 0.43559 -0.11681 0.096456 -0.26189 -0.2716 -0.15797 0.0097579 -0.16468 0.29706 0.13726 -0.52147 0.1091 -0.55956 0.031729 -0.19412 -0.20971 -0.3623 -0.16745 -0.11263 0.35739
flight -0.27215 0.090104 0.28897 -0.23155 0.0546 0.028148 0.17336 0.088628 0.55186 -0.3579 0.73384 -0.0049391 0.26966 -0.025327 -0.41863 -0.27353 0.12674 0.042277 0.024804 -0.21048 -0.0076647 -0.15526 0.074672 -0.21201 -0.25184 -0.49116 0.37267 0.82425 -0.04201 0.39176 0.19237 0.36188 -0.13979 0.13743 -0.18267 -0.10205 0.16181 0.21475 -0.042501 -0.58493 0.093197 -0.39641 0.33981 -0.17993 0.15523 -0.025406 0.38657 0.24062 0.14098 0.14537 -0.26578 0.52387 -0.072468 -0.067097 0.074379 0.42447 0.53806 -0.023557 -0.60797 -0.58928 -0.15506 -0.11482 0.30388 0.01784 0.26908 0.57332 0.22188 0.27163 -0.26442 -0.41312 0.09721 0.12192 -0.13386 0.026536 0.03712 -0.0091073 -0.37677 -0.057256 0.1681 0.10238 0.16538 -0.051224 -0.38694 -0.04988 -0.011699 0.075679 -0.30865 -0.12799 0.14764 0.0078351 -1.0979 -0.027642 -0.52526 0.089088 -0.094055 -0.22876 -0.26762 -0.14983 -0.47247 0.029386
forest 0.026249 -0.069897 0.036609 -0.090731 -0.33484 0.040162 -0.10521 -0.30814 0.24289 -0.17329 0.3886 0.057831 0.060948 -0.31742 -0.23683 -0.1961 -0.015899 -0.17124 0.24284 -0.20526 0.25567 -0.065585 -0.14612 -0.096093 -0.30769 -0.042786 0.1794 0.37636 0.30742 0.3496 0.037656 0.65959 -0.15383 -0.30626 -0.010615 0.26197 0.071839 0.034812 -0.1769 -0.28428 0.36418 -0.35439 -0.072374 -0.39854 -0.26211 0.39209 0.46 0.22432 0.049189 0.17405 0.14401 0.089971 -0.27668 0.2189 0.16047 0.32777 0.20601 0.20607 -0.35102 -0.54656 0.2546 0.08168 0.27025 -0.094312 0.40765 0.27462 0.26801 0.13917 0.1485 -0.65608 -0.16214 0.45598 -0.18701 -0.03418 0.087187 -0.031854 -0.21559 0.16094 -0.25468 -0.27415 0.31586 -0.11535 -0.17251 -0.0075363 0.031878 0.021173 0.07024 -0.049342 0.21816 0.046521 -0.7983 5.5396E-4 -0.297 -0.087504 -0.041432 -0.20731 -0.30218 -0.17036 -0.41476 0.21714
abuse 0.20987 -0.24065 0.22434 0.091191 -0.31424 0.55687 -0.41146 -0.31673 0.2719 0.088475 0.57127 0.031 0.17987 -0.18781 -0.54065 -0.11572 0.09225 0.093167 0.32979 0.30106 -0.10617 0.094983 -0.2607 0.30757 -0.83435 -0.094894 0.3326 0.49716 0.21015 0.41357 0.053273 0.37174 0.099334 -0.35964 -0.219 -0.2588 -0.1123 -0.10857 -0.03024 -0.17102 -0.040534 -0.76553 0.074139 -0.12733 -0.023445 0.45661 0.65361 -0.18449 -0.031745 0.2871 -0.090211 0.39058 -0.17097 0.56631 -0.28559 0.60936 0.35168 0.44883 -0.29581 -0.51998 0.23959 0.37269 0.54312 -0.27022 -0.22955 0.60628 1.0263 0.23215 0.42709 -0.75947 0.23622 -0.14996 0.18768 -0.30191 0.13351 -0.049002 -0.3529 0.045736 -0.31052 0.013037 0.82542 -0.23464 0.11603 -0.338 -0.29625 -0.336 0.043323 -0.044022 -0.028095 -0.061699 -0.59974 -0.14864 -0.81005 -0.27567 -0.15306 -0.27451 -0.51672 -0.0052585 0.33977 0.55174
criterion 0.059401 -0.18884 0.070235 -0.058806 -0.16907 0.059648 -0.25979 -0.16587 0.40986 -0.16101 0.39637 0.026876 0.0067883 -0.079547 -0.3416 -0.031731 0.06385 -0.067793 0.20838 -0.11229 0.11657 0.066498 -0.10481 -0.049771 -0.24614 0.055496 0.11873 0.47206 0.21441 0.27721 0.20926 0.35172 -0.082246 -0.10524 -0.15415 -0.17049 0.095574 0.16902 -0.064024 -0.20562 0.11627 -0.52493 -0.021126 -0.10443 -0.13279 0.11809 0.2283 0.097277 0.10221 0.19896 -0.076176 0.16483 -0.24113 0.22946 -0.10497 0.39367 0.31003 0.23251 -0.30314 -0.38481 0.15912 0.26615 0.24694 -0.10023 -0.056684 0.2584 0.29159 0.014659 -0.0047118 -0.54669 0.031022 0.16134 -0.09496 -0.11057 0.23319 -0.046206 -0.3746 -0.005014 -0.12263 -0.16397 0.42719 -0.043251 -0.20364 -0.1846 -0.13191 -0.16524 -0.02419 -0.032395 0.17147 0.045287 -0.5377 0.004369 -0.36464 0.089209 -0.1885 -0.20638 -0.44003 -0.045545 0.090947 0.34839
sea 0.076645 0.058299 -0.019263 -0.24626 -0.51057 0.27457 0.16529 0.051355 0.4161 -0.24997 0.25831 -0.0069495 0.2049 -0.38049 -0.049854 -0.32836 0.17994 0.2017 0.33106 -0.063592 0.25432 -0.19635 -0.29185 -0.048682 -0.36946 -0.18511 0.28295 0.43016 0.016976 0.45211 -0.030794 0.75185 -0.35389 -0.45899 -0.12496 0.21951 0.018568 0.062417 -0.41949 -0.71806 0.17134 -0.47671 0.034538 -0.61527 -0.28678 0.48427 0.63268 0.066726 -0.1504 0.40242 -0.08428 0.24227 -0.31205 0.042786 0.20041 0.22213 0.1191 0.34473 -0.33277 -0.8661 0.23483 -0.13984 0.52677 0.080842 0.49463 0.27629 0.13508 0.19008 0.0061364 -0.62314 -0.23037 0.5819 -0.38828 0.19375 0.010133 -0.024776 -0.20798 -0.17433 -0.37821 -0.234 0.042829 -0.077253 -0.12013 -0.26525 -0.19667 0.08658 0.18655 -0.19929 0.032512 0.22084 -0.61549 0.016184 -0.10252 -0.19163 -0.091729 -0.2038 -0.14268 -0.20209 -0.75253 0.36975
dollar 0.10409 -0.043036 -0.20834 -0.25707 -0.35808 0.085884 -0.15281 0.43102 -0.0084766 0.076856 0.71154 -0.13794 -0.069788 0.23002 0.10275 -0.0022467 -0.034186 -0.49671 0.42129 0.043 -0.01244 0.25001 0.059705 -0.017283 -0.079474 0.23038 0.27672 0.49758 0.13002 0.23384 0.10438 0.48635 -0.56338 -0.02208 0.33938 -0.14461 0.17 0.054098 0.29087 -0.10645 0.11603 -0.72319 -0.48855 -0.48702 0.067405 -0.10513 0.12266 0.065165 0.11756 0.0067994 -0.35736 0.38575 -0.38512 -0.13794 -0.025743 0.47292 0.17424 0.75151 -0.20017 -0.78945 -0.17266 0.038391 0.5631 -0.43231 0.022868 0.26099 0.23961 -0.36633 -0.43094 -0.75023 -0.14989 0.18443 -0.60059 0.3217 0.1777 -0.2085 -1.0445 0.12697 -0.65781 -0.26378 0.27263 -0.16633 -0.32192 -0.17049 -0.36747 -0.17155 -0.044111 -0.0453 -0.3507 0.1707 0.035772 -0.1951 -0.26485 -0.016934 -0.29318 -0.19247 -0.23028 0.15144 -0.63704 0.28358
example 0.11313 -0.26064 0.0073211 0.035192 0.12303 0.094036 -0.28537 -0.37521 0.43406 -0.33509 0.48546 -0.17233 -0.022815 -0.33916 -0.40037 -0.022101 -0.049442 -0.10862 0.25728 -0.043995 -0.15233 -0.029519 0.11338 0.014521 -0.29056 0.085183 0.31433 0.40235 0.25247 0.16504 0.013152 0.486 0.0064361 -0.13678 -0.12896 -0.013811 0.042836 -0.010329 -0.21644 -0.32758 -0.012463 -0.50327 -0.031956 -0.36886 -0.22689 0.0035422 0.21442 0.098739 0.15692 0.098409 0.034515 0.043862 -0.33793 0.24255 0.066485 0.44141 0.32345 0.16495 -0.1587 -0.41277 0.085306 0.31096 0.044676 -0.15756 -0.03837 0.16482 0.15073 0.074761 -0.1492 -0.51317 -0.097237 0.21675 -0.20628 -0.083615 0.062399 -0.13148 -0.40548 -0.085256 -0.3407 -0.10386 0.39318 -0.15245 -0.28322 -0.14842 -0.17951 -0.040368 -0.37513 0.21649 0.031852 0.27572 -0.59057 0.03592 -0.41809 0.025155 -0.30209 -0.18841 -0.37771 -0.17982 0.16169 0.49659
journal 0.19212 0.073724 -0.062325 0.076578 -0.049348 0.31692 -0.32077 -0.32699 0.45061 -0.29881 0.16901 0.34306 -0.0808 -0.069515 -0.39856 -0.3337 -0.070776 0.026597 0.54072 0.26713 0.017869 -0.028078 -0.014198 -0.1471 -0.54161 -0.14875 0.078982 0.61234 0.026242 0.47809 0.11075 0.50125 0.14968 -0.030579 -0.18091 0.029679 0.046563 0.12601 0.0033846 -0.18779 -0.16255 -0.43483 0.25714 -4.1871E-4 -0.46434 -0.19585 0.4681 -0.13842 -0.078174 0.31534 -0.57468 -0.095428 -0.41133 -0.19651 -0.1715 0.40706 0.142 0.04469 -0.52375 -0.064389 0.32869 0.12885 0.21267 -0.35717 -0.12555 0.55015 0.1701 0.044182 0.064502 -0.80148 -0.034422 0.17 -0.19544 -0.48918 -0.19899 -0.17473 -0.60712 0.034889 -0.049746 -0.0013658 0.67179 -0.074739 -0.31644 -0.10283 -0.43269 -0.14962 -0.44375 0.55587 0.32464 0.19795 -0.39984 0.286 -0.51713 0.10398 0.033085 0.062479 -1.0564 0.086933 0.1857 0.72309
laundering 0.10624 -0.18677 0.14 -0.039871 -0.15912 -0.028712 -0.32611 -0.16083 0.33875 -0.18266 0.50303 0.0066833 0.049152 -0.008929 -0.51975 0.0034443 0.12364 -0.057886 0.20453 -0.026846 0.071388 0.028353 -0.12055 0.039497 -0.38534 -0.039367 0.27147 0.39223 0.14026 0.17273 0.21248 0.20519 -0.053357 -0.19196 -0.12223 -0.33792 0.21526 0.015135 -0.20648 -0.099339 0.15669 -0.6074 -0.048476 -0.17308 -0.061877 0.23497 0.42784 -0.022577 0.033726 0.20891 -0.088755 0.15697 -0.17229 0.42203 -0.068586 0.5033 0.32777 0.29609 -0.29035 -0.44418 0.12828 0.32399 0.27331 -0.23414 -0.14125 0.32814 0.45317 0.15223 0.032907 -0.66145 -0.0090207 0.20637 0.0026978 -0.11589 0.27677 0.025926 -0.30867 0.20229 -0.12999 -0.11863 0.58848 0.051304 -0.15636 -0.14605 -0.18318 -0.20039 -0.048162 -0.041911 0.10215 -0.051636 -0.55929 -0.11122 -0.53739 0.011109 -0.19246 -0.21132 -0.50287 0.036132 0.039107 0.31664
hotel -0.62864 -0.24326 0.21778 -0.13349 -0.033683 -0.055619 0.043783 -0.51986 0.2699 -0.35627 0.4951 0.094135 0.17989 -0.54378 -0.2885 -0.23258 0.27223 -0.14356 -0.08043 -0.28808 0.17923 0.063882 -0.044451 0.18855 -0.13735 -0.048734 -0.044017 0.89522 0.45638 -0.030721 0.17107 0.64875 -0.09289 -0.089464 0.24219 -0.30994 0.097547 -0.057701 0.15832 -0.38202 0.068543 -0.069007 -0.03874 -0.59795 0.0068305 0.12271 0.25008 0.23436 0.060145 0.058457 -0.017615 0.328 -0.10841 0.30314 0.1056 0.25946 0.66696 -0.024424 -0.3369 -0.68496 0.059649 0.47596 0.41009 -0.17938 0.25614 0.43477 0.26708 0.17148 -0.011802 -0.57074 -0.10966 0.33827 -0.12865 -0.10169 -0.27069 -0.22495 -0.029488 0.2113 -0.097318 -0.1276 0.41322 -0.14328 -0.16748 0.13286 -0.011897 0.0093669 -0.31885 -0.19139 0.16853 0.031044 -0.78529 -0.18535 -0.40161 -0.17811 0.28227 0.12154 -0.54457 -0.031474 -0.25605 0.08233
term -0.20792 -0.28856 -0.13934 0.26898 -0.23989 -0.2342 -0.18513 -0.20795 0.52975 -0.14483 0.81549 -0.15506 -0.11761 -0.31274 -0.59121 -0.17574 0.16919 -0.042818 0.22818 0.10464 -0.02759 -0.0051454 0.054001 -0.092399 -0.1533 -0.10288 0.4137 0.35474 0.36866 0.0037473 0.063921 -0.27923 -0.036375 -0.47521 -0.13259 0.096779 0.13715 0.12101 -0.22499 -0.088702 -0.27938 -0.6849 0.19274 -0.37465 0.44147 0.027511 0.10529 0.058329 0.28962 0.0093534 -0.2312 0.69897 -0.35047 0.58136 -0.075823 0.52087 0.41583 0.48811 -0.17731 -0.63703 0.22526 0.30819 0.34368 -0.1138 -0.26078 -0.084292 0.66334 0.22634 -0.21033 -0.7397 0.47685 -0.07219 -0.27541 0.16035 0.41262 -0.20684 -0.8672 -0.042457 -0.50122 -0.34673 0.32119 -0.067499 -0.21001 -0.32627 -0.12617 -0.31942 -0.046125 -0.016326 0.13286 0.10049 -0.29107 0.15441 -0.28034 0.037894 -0.34715 -0.15288 -0.014126 0.09905 0.13834 0.33614
listing 0.11912 0.027046 0.03224 -0.020092 -0.088141 -0.11897 -0.29017 -0.1616 0.40313 -0.394 0.57414 -0.025924 0.080181 -0.079445 -0.39242 0.13946 0.048038 -0.11225 0.26435 -0.066594 -0.038626 0.026869 0.051985 -0.03671 -0.18122 0.073484 0.14067 0.40175 0.10984 0.29191 0.12346 0.0094226 -0.023963 -0.015009 -0.010297 -0.32526 0.082642 -0.0071613 -0.09937 0.006869 0.13299 -0.55064 -0.058067 -0.16536 -0.16889 -0.029255 0.38761 0.15952 0.15352 0.1532 -0.2127 0.11675 -0.32491 0.2117 -0.25077 0.39386 0.41654 0.10089 -0.40817 -0.41933 -0.042092 0.1848 0.30021 -0.21742 -0.20016 0.2831 0.18611 0.23102 -0.10954 -0.71216 -0.066156 0.24449 -0.27291 -0.071131 0.2727 -0.18401 -0.44545 0.13681 -0.14281 -0.11237 0.51547 -0.006873 -0.19081 -0.16 -0.2121 -0.14536 -0.17116 0.056032 0.1337 -0.044988 -0.57448 -0.017925 -0.52065 0.10308 -0.2692 -0.045136 -0.58188 -0.017802 0.098231 0.25484
chemistry 0.1963 -0.04811 0.14857 -0.037197 -0.21617 0.15411 -0.19571 -0.26699 0.4 -0.21088 0.32231 0.054143 0.010434 -0.088725 -0.48648 0.064741 0.12006 -0.16631 0.31384 0.090983 -0.10081 -0.10945 0.009095 -0.032675 -0.2536 -0.059943 0.25077 0.2557 0.21225 0.21516 0.063032 0.36471 -0.14091 -0.2155 -0.091319 -0.10798 0.20394 0.014914 -0.20725 -0.20101 0.23204 -0.48081 0.074986 -0.25878 -0.28257 0.054309 0.31609 0.10674 0.15593 0.11584 0.050333 0.080751 -0.29837 0.26121 0.027029 0.34334 0.30396 0.24912 -0.32421 -0.37535 0.23479 0.33711 0.10616 -0.16245 -0.025825 0.073933 0.40316 0.1584 0.030669 -0.59083 0.034278 0.27033 -0.059526 -0.18115 0.089013 -0.10552 -0.2764 0.02126 -0.22399 -0.14345 0.31385 -0.12563 -0.14951 -0.14994 -0.12846 0.032682 -0.040457 0.12176 0.25087 -0.011751 -0.45 0.098757 -0.43118 -0.031181 -0.062833 -0.23802 -0.43544 -0.044726 0.15104 0.42858
seafood 0.071826 -0.028337 0.10102 -0.15766 -0.10306 0.043581 -0.20915 -0.28911 0.41191 -0.29048 0.39161 0.057308 -0.058147 -0.1706 -0.28116 -0.13815 0.0015976 -0.20731 0.39767 -0.11975 0.034873 -0.098062 0.049387 -0.04488 -0.22591 -0.045696 0.12939 0.37748 0.1038 0.23394 0.041033 0.39075 -0.19388 -0.19349 -0.010165 -0.0021935 0.093611 0.014551 -0.21367 -0.29378 0.19463 -0.3539 0.0028377 -0.29224 -0.35755 0.20751 0.30739 0.19082 0.24401 0.15492 -0.068026 0.029127 -0.22669 0.14156 0.03283 0.39481 0.25548 0.24494 -0.32018 -0.34668 0.21437 0.23574 0.22306 -0.23971 0.1446 0.15479 0.13412 0.10425 0.0646 -0.63057 -0.1258 0.37194 -0.1931 -0.1329 0.027831 -0.059235 -0.25893 0.01106 -0.27101 -0.24855 0.21798 -0.06741 0.013012 -0.058944 -0.10079 0.044738 -0.015817 0.10072 0.21551 0.016992 -0.47036 0.024151 -0.35487 0.012725 -0.084866 -0.21118 -0.37897 -0.0026999 -0.059975 0.30631
CD -0.37711 -0.10904 0.21315 -0.090852 0.31108 0.11934 0.0066964 -0.20682 0.43186 -0.5838 0.33428 -0.30279 -0.41194 -0.16387 -0.02248 -0.34601 0.086432 -0.11473 0.48794 -0.16689 -0.26814 0.030646 0.43632 -0.17099 -0.049679 -0.37217 -0.31346 0.74042 0.1631 0.33077 0.094968 0.44655 -0.091642 -0.17561 -0.034655 -0.45928 -0.053731 -0.25944 0.089973 -0.67897 0.072279 -0.16693 0.18137 -0.099433 -0.24666 -0.12631 0.0091091 0.13312 -0.0022344 -0.25675 -0.14191 0.22629 -0.21298 0.12682 -0.19169 0.50104 0.12913 -0.086353 -0.11805 -0.62583 0.055452 0.16539 0.4211 -0.63469 0.20307 0.036561 -0.17857 0.22272 -0.017592 -0.73504 0.0043237 0.25513 -0.48912 0.16998 0.20174 -0.41094 -0.39465 0.059302 -0.38697 0.033569 0.14426 -0.34138 -0.26538 0.086888 -0.24622 0.42885 -0.038743 0.22471 0.077134 -0.20693 -0.3289 0.24505 -0.74315 -0.040286 -0.045174 0.13813 -0.5768 0.097632 0.28508 0.53747
mind 0.16536 -0.065817 0.14078 0.097355 -0.18185 0.11134 -0.21782 -0.27256 0.64292 -0.26078 0.75912 -0.23306 -0.022342 -0.21145 -0.3078 0.041719 0.31559 0.019642 0.49097 0.16932 -0.35357 -0.40325 0.067109 -0.23077 -0.2113 -0.3659 0.13364 0.37363 0.17139 -0.073291 -0.032942 0.57488 -0.20171 -0.057773 -0.29661 -0.23877 -0.13719 -0.33917 0.097504 -0.66221 -0.031891 -0.42437 0.31005 -0.5269 -0.13844 0.11873 0.30702 0.10394 0.1875 -0.016337 0.18469 0.38713 -0.14762 0.4739 -0.17567 0.44258 0.23773 0.47871 -0.10532 -0.82116 0.16946 0.46676 0.23707 -0.094046 0.014296 0.25523 0.39424 0.22751 -0.075804 -0.62386 -0.019842 0.36245 -0.29482 0.041938 0.27675 -0.065152 -0.34295 -0.062789 -0.16853 -0.16246 0.0081307 -0.24959 -0.25098 -0.22701 -0.055905 -0.07394 -0.16813 0.22171 -0.15271 0.0064777 -0.32706 0.2662 -0.30903 0.11932 -0.064797 -0.31528 -0.35988 -0.15004 0.41313 0.34686
sex 0.016872 -0.043889 0.37036 0.14353 0.067323 0.36058 -0.34053 -0.49083 0.050309 0.092833 0.5572 -0.12565 0.066566 -0.20139 -0.44464 -0.068381 -0.030462 0.062932 0.33062 0.5411 -0.046745 -0.17097 0.15991 0.15356 -0.71106 0.034967 0.30571 0.50464 0.53303 0.24407 -0.22996 0.40048 -0.19464 -0.53984 -0.19145 -0.56334 -0.023435 -0.31981 0.20002 -0.32063 -0.16383 -0.47346 0.38261 -0.23631 -0.13386 0.39194 0.53632 -0.082073 -0.04915 0.11404 0.09744 0.20512 -0.12318 0.73389 -0.27538 0.72173 0.15466 0.64323 -0.046219 -0.59839 0.15312 0.28238 0.34214 -0.32354 -0.25251 0.35987 0.82937 0.14766 0.30017 -0.70331 0.24812 -0.10856 0.054406 -0.45268 0.1243 -0.13033 -0.25872 -0.052463 -0.10111 -0.005101 0.45974 -0.41348 0.16082 -0.25131 -0.4937 -0.31691 -0.087226 0.037583 -0.095309 0.11809 -0.36339 0.026999 -0.87536 -0.22897 -0.088959 -0.25458 -0.35308 0.1023 -0.013745 0.59043
food 0.074685 0.18753 -0.16314 -0.21764 0.17183 0.6039 -0.25203 -0.23685 0.2254 -0.26787 0.69372 0.048079 0.02253 -0.4071 -0.057233 -0.17588 0.27931 -0.4682 0.38229 0.081142 0.25474 -0.053699 0.25927 -0.01274 -0.66744 0.14761 0.057124 0.27061 0.23541 0.23931 0.2298 0.59723 -0.10706 -0.23056 0.18525 -0.0042166 0.092881 0.046 -0.23468 -0.080706 0.34764 -0.86183 -0.051085 -0.54947 -0.47361 0.47528 0.30553 0.42142 0.28893 0.14874 0.27392 -0.061421 -0.13406 0.26872 0.037575 0.3266 0.13504 0.50014 -0.39201 -0.68204 -0.073226 0.25413 0.36304 -0.46229 0.51436 0.44596 0.51082 -0.074326 -0.17303 -0.64296 -0.21951 0.35436 -0.13379 -0.037433 -0.08487 -8.8238E-4 -0.40243 0.27404 -0.45272 -0.20128 0.1218 0.025288 0.19018 -0.54486 -0.2881 0.075392 -0.0063613 0.20858 0.037012 0.18963 -0.61767 0.18468 -0.43429 0.024537 -0.40422 -0.11252 -0.5064 -0.061773 -0.36351 0.30839
precedent 0.15118 -0.18988 0.13265 0.034981 -0.23452 0.023574 -0.25061 -0.17823 0.55369 -0.22569 0.51267 -0.077499 -0.010098 -0.068128 -0.47234 0.073614 0.075453 -0.081124 0.25673 -0.0075599 0.029421 -0.036186 -0.14218 0.042228 -0.22276 -0.032347 0.18993 0.45893 0.13229 0.10107 0.22642 0.34122 -0.022556 -0.081246 -0.16025 -0.24042 0.090181 0.13659 -0.13199 -0.23969 0.16383 -0.5331 0.048534 -0.27888 -0.081801 0.037746 0.29513 0.1991 0.20721 0.19717 -0.066456 0.2352 -0.23856 0.34839 -0.033111 0.43379 0.32443 0.31731 -0.25475 -0.47394 0.15123 0.32099 0.17757 -0.10056 -0.10313 0.26671 0.33356 0.096435 -0.020803 -0.62637 -0.009378 0.22972 -0.1557 -0.032338 0.14175 0.09335 -0.34856 -0.019309 -0.19263 -0.15154 0.3768 -0.10955 -0.23714 -0.26272 -0.11432 -0.094475 -0.075977 0.058645 0.088982 0.059413 -0.54847 0.027988 -0.32929 0.099733 -0.2006 -0.30635 -0.45226 -0.067037 0.28942 0.33278
series -0.023968 -0.17875 0.1136 -0.03217 -0.1983 0.17769 -0.11238 0.16784 0.81742 -0.25976 0.075733 0.34696 0.15892 -0.052455 -0.21241 -0.073955 0.073984 -0.19649 0.16269 -0.35327 -0.14281 0.23827 -0.34572 -0.048842 -0.21198 -0.21571 0.19981 0.65917 0.25439 0.40068 -0.15183 0.57323 -0.20951 -0.18861 -0.19607 -0.17001 0.13379 0.33333 -0.059645 -0.1841 0.2076 -0.19536 0.32482 0.11773 -0.15972 -0.17424 0.11904 -0.14295 0.17427 0.049215 -0.22413 0.32586 -0.37733 0.52073 -0.42444 0.52456 0.094105 -0.078284 -0.25908 -0.48455 -0.0071573 0.14725 0.37225 -0.0080438 -0.055488 0.17069 0.047979 -0.0087823 0.17844 -0.62771 0.23073 0.08034 -0.43853 0.07955 0.44952 -0.088688 -0.38382 -0.31772 -0.019861 0.033116 0.48285 -0.034643 -0.44913 -0.080593 -0.083538 0.01524 0.14647 0.1324 0.062368 -0.074349 -0.6541 0.21968 -0.85657 -0.11915 -0.21224 -0.1684 -0.74707 -0.26877 0.46908 0.62791
kilometer 0.068116 -0.11784 0.092801 -0.052119 -0.18799 -0.015163 -0.21975 -0.19538 0.35956 -0.16986 0.38648 0.10335 0.0064749 -0.11772 -0.48405 -0.042812 0.13039 -0.12255 0.18022 -0.029331 0.0075249 0.049967 -0.095703 -0.1202 -0.19377 -0.16632 0.21653 0.38571 0.12361 0.17875 0.082059 0.35663 -0.14249 -0.1799 -0.029817 -0.14659 0.042293 0.063942 -0.043471 -0.30434 0.12481 -0.48939 0.031497 -0.1137 -0.27285 0.047804 0.23586 0.14958 0.092034 0.045319 0.05004 0.1725 -0.24196 0.20781 0.0013469 0.40096 0.23749 0.10636 -0.32265 -0.32342 0.068298 0.25355 0.30076 -0.070955 -0.079058 0.17803 0.15905 -0.022582 -0.084191 -0.59087 0.082137 0.26768 -0.13873 -0.077185 0.11937 -0.057525 -0.32129 0.039658 -0.18624 -0.077051 0.2328 -0.076075 -0.18036 -0.065801 -0.101 -0.11962 -0.044554 -0.058075 0.13932 0.023455 -0.44976 -0.018328 -0.40338 0.069294 -0.093917 -0.15621 -0.37131 -0.13221 0.095865 0.41646
grocery -0.13748 0.003841 0.13927 -0.2304 0.035129 0.056964 -0.11963 -0.31298 0.22243 -0.44275 0.47506 0.076766 -0.10124 -0.31647 -0.26842 -0.11681 0.0033677 -0.24627 0.20389 -0.18991 0.13453 -0.15567 0.20854 -0.0096765 -0.20929 -0.1052 0.019071 0.50321 0.37553 0.21148 0.14583 0.48338 -0.073221 -0.15431 0.038753 -0.15191 0.054335 -0.14598 -0.12539 -0.28259 0.26571 -0.45291 -0.051391 -0.33838 -0.26661 0.10544 0.43774 0.26001 0.19125 0.17477 0.10908 -0.028003 -0.20086 0.32943 -0.13556 0.38799 0.24034 0.12518 -0.43678 -0.43287 0.1374 0.2922 0.31111 -0.22365 0.075452 0.25246 0.03648 0.25715 -0.015899 -0.72316 -0.038037 0.47602 -0.3266 -0.1089 -0.0088217 -0.11625 -0.28665 0.1655 -0.44387 -0.17014 0.20152 0.021374 -0.039718 0.0011927 -0.14478 0.069936 -0.20386 0.036728 0.21081 -0.091149 -0.64998 -0.0093829 -0.45738 0.033496 -0.097747 -0.10486 -0.52823 -0.006039 -0.19695 0.35796
wizard 0.10899 -0.13914 0.061189 0.031267 -0.14454 0.089288 -0.19811 -0.28089 0.36929 -0.25231 0.30188 0.12011 0.045374 -0.25016 -0.31711 -0.06168 0.061273 -0.036911 0.24593 0.026272 -0.015577 -0.0062764 -0.075025 -0.14751 -0.1764 -0.025042 0.10868 0.39947 0.12364 0.24206 0.088847 0.31522 -0.0308 -0.1156 -0.11582 -0.09688 0.10854 0.022119 -0.14064 -0.23828 0.14033 -0.33709 0.1418 -0.15976 -0.26056 0.17423 0.24321 0.11017 0.12413 0.089775 -0.075345 0.038496 -0.23496 0.21575 -0.09149 0.29416 0.19346 0.1998 -0.34347 -0.40011 0.049761 0.26976 0.29479 -0.1589 -0.044645 0.13848 0.21986 0.10436 0.040234 -0.57675 6.5115E-4 0.2684 -0.15599 -0.14394 0.1131 -0.035646 -0.34481 -0.016723 -0.10737 -0.024331 0.48906 -0.098571 -0.19895 -0.087652 -0.11579 0.06741 -0.061668 0.070816 0.18879 0.028809 -0.53894 0.034375 -0.50127 0.032127 -0.20104 -0.13279 -0.38736 -0.10055 0.18407 0.44434
information 0.17278 0.0449 -0.1349 0.01538 0.22081 0.12838 -0.31401 -0.25178 0.43099 -0.54931 0.67692 -0.26787 0.093064 0.1436 -0.61519 0.20319 -0.13679 0.026593 0.40165 0.38454 -0.20805 -0.10674 0.014913 -1.4294E-4 -0.4845 -0.092419 -0.084257 0.59216 0.16093 0.70482 0.12428 0.44903 0.4309 -0.033812 -0.28602 -0.25991 0.055792 -0.099244 -0.12632 -0.2678 -0.2407 -0.73642 -0.15367 -0.45905 -0.067255 -0.0494 0.94586 0.028218 -0.057166 0.08426 -0.12846 0.044919 -0.38119 0.27688 -0.41455 0.27714 0.23911 -0.28133 -0.32515 -0.21561 -0.29522 0.39455 0.0066077 -0.33098 0.033893 0.27638 0.19079 0.4159 -0.14184 -0.50084 0.021509 0.030066 -0.080206 -0.3719 0.18009 -0.4441 -0.46657 0.36136 -0.24816 0.021222 0.20598 -0.28329 -0.19694 -0.19368 -0.35386 -0.095817 -0.37745 -0.037845 0.32095 0.27916 -0.83835 -0.067929 -0.62076 0.01849 -0.16021 -0.039828 -1.0228 -0.19835 0.2933 0.042741
Israel 0.18281 -0.26869 0.062697 0.20617 -0.4618 0.01179 -0.61194 0.038784 0.55853 -0.11782 0.67173 -0.070165 0.1679 -0.052371 -0.17152 0.10725 0.43279 0.32182 0.52925 -0.052124 0.20847 0.091238 -0.41411 -0.32594 -0.14864 0.05365 0.37518 0.54995 0.40843 0.36643 0.079246 0.79124 -0.12587 -0.017551 -0.17159 -0.11379 0.26768 0.39025 -0.059246 -0.26647 -0.067878 -0.65322 0.43136 -0.39409 0.18207 0.24452 0.47633 0.098875 0.19528 0.27275 -0.23751 0.36115 -0.72325 -0.032903 -0.12882 0.25997 0.36998 0.21542 -0.20375 -0.55652 -0.067524 0.22067 0.03913 0.14755 0.098693 0.3772 0.70928 -0.28827 -0.19948 -0.10454 0.17536 -0.090411 0.12471 -0.016746 0.087222 -0.010567 -0.28113 0.060827 -0.31919 -0.6145 0.59242 -0.12651 -0.51918 -0.38469 -0.57106 -0.3549 -0.1209 -0.18409 0.23015 0.436 -0.80434 -0.12892 -0.37917 0.07585 0.10901 -0.040151 -0.40275 0.023863 0.19255 0.030573
brandy 0.014723 -0.27582 0.10572 -0.034071 -0.19812 -0.022957 -0.13486 -0.24363 0.34147 -0.33623 0.32768 0.037434 0.0038997 -0.089826 -0.3663 -0.065009 0.017673 -0.052898 0.27703 -0.054016 0.086583 -0.045379 -0.063143 -0.061543 -0.22356 -0.039419 0.18482 0.37058 0.070201 0.075138 0.12625 0.41016 -0.10039 -0.24838 -0.049596 -0.094082 0.017125 0.21331 -0.16265 -0.402 0.14809 -0.37667 0.012886 -0.24419 -0.29661 0.11238 0.25438 0.25751 0.11727 0.18218 -0.014332 0.21505 -0.23143 0.23075 0.070207 0.40213 0.20813 0.15273 -0.30359 -0.43133 0.20511 0.30059 0.28652 -0.16 -0.097828 0.15047 0.21627 0.067856 0.022533 -0.48042 0.061936 0.39234 -0.059874 -0.17576 0.058034 0.058952 -0.22384 0.054145 -0.16498 -0.10898 0.23869 -0.080988 -0.15559 -0.1308 -0.012912 0.013245 0.02904 -0.042588 0.15509 0.0042694 -0.53969 0.050789 -0.31146 -0.07839 -0.11679 -0.24226 -0.40277 -0.092488 0.28386 0.31705
interview -0.27636 -0.27829 0.2936 0.41552 -0.12218 0.07216 -0.12953 -0.031377 0.59039 -0.19282 0.65778 0.031859 -0.0084708 0.051793 -0.54862 -0.054691 0.29126 -0.13511 0.1397 0.13881 -0.12242 -0.024088 -0.42863 -0.081625 -0.19601 -0.38005 -0.1658 0.56247 0.15192 0.078522 0.33138 0.40907 0.10832 0.19435 -0.085693 -0.32723 0.31444 0.12544 0.19253 -0.033586 -0.064186 -0.066897 0.25727 -0.052885 0.027183 -0.15307 0.4331 0.080863 0.043684 0.12168 -0.37708 0.11784 -0.015749 -0.026347 -0.29075 0.52444 0.38172 -0.011663 -0.15713 -0.51511 -0.19895 0.18428 0.27315 -0.22539 -0.18973 0.40901 0.098678 0.23629 -0.12908 -0.6528 0.0011891 0.096193 -0.36172 -0.2331 -0.068555 -0.12842 -0.42786 0.011018 -0.0091564 0.25613 0.33799 -0.16481 -0.32659 -0.39308 -0.53313 -0.24413 -0.32746 0.3358 -0.12383 0.20864 -0.57804 0.063549 -0.26745 0.03996 0.19225 0.00891 -0.78145 0.25631 0.69346 0.47167
prominence 0.096291 -0.2162 0.15184 -0.024815 -0.16986 -0.012147 -0.26696 -0.20252 0.39431 -0.16769 0.41479 0.10823 0.082297 -0.10062 -0.47632 -0.099712 0.17511 -0.099317 0.26902 -0.059102 -0.025831 0.066712 -0.1695 -0.055975 -0.17926 -0.075602 0.23437 0.39389 0.13815 0.078633 0.1435 0.31398 -0.1471 -0.14568 -0.06949 -0.22961 0.089307 0.13998 -0.072797 -0.15255 0.18446 -0.45033 0.06583 -0.11431 -0.20436 0.032067 0.1379 0.090089 0.068628 0.20244 2.0589E-5 0.13347 -0.28156 0.21388 -0.065031 0.41929 0.24233 0.26096 -0.30067 -0.40347 0.11225 0.27491 0.26575 -0.11961 -0.20948 0.25517 0.3204 -0.0048399 -0.042535 -0.60599 0.036567 0.17174 -0.097337 -0.077897 0.12135 -0.020152 -0.40172 0.04863 -0.13319 -0.024639 0.46383 -0.018368 -0.22418 -0.12086 -0.16199 -0.1175 -0.10809 0.03643 0.1379 0.009529 -0.47956 -0.010494 -0.39309 0.045926 -0.14537 -0.19154 -0.38426 -0.049037 0.16507 0.40392
bed -0.75586 0.017344 0.10665 0.13806 -0.16906 0.063554 0.072686 -0.49164 0.23477 -0.12628 0.52394 -0.055198 -0.1447 -0.13542 -0.080034 0.0094613 0.29663 0.11654 0.12711 0.20296 0.19866 -0.33511 0.038467 -0.062565 -0.12752 -0.4051 0.034686 0.76518 0.086537 0.12637 0.077851 0.44069 -0.08986 -0.40788 -0.3373 -0.35086 -0.3114 -0.33777 0.19331 -0.54825 0.28694 -0.12283 0.16101 -0.458 -0.3047 0.48132 0.69125 0.28122 0.0069483 0.38776 -0.20845 0.38411 -0.054058 0.55387 -0.17721 0.37759 0.53855 0.2394 -0.29322 -0.66456 0.018049 0.5047 0.13032 -0.38437 0.57843 0.42813 0.35017 0.69977 -0.01759 -0.72432 -0.20855 0.60253 -0.40465 0.088811 0.02555 0.18269 -0.21747 0.025895 -0.29997 0.051763 0.089353 -0.095541 0.081442 -0.38456 -0.20206 -0.035912 0.16876 -0.23377 0.10141 -0.050509 -0.40492 0.19314 -0.079593 -0.12331 0.29465 -0.013893 -0.11007 0.057675 -0.33053 0.25466
furnace 0.040291 -0.093836 0.14317 0.024213 -0.14888 0.0011802 -0.1447 -0.19776 0.35926 -0.24956 0.34653 0.071321 0.035249 0.016833 -0.41465 -0.0927 0.13087 -0.13834 0.17404 -0.097833 0.1305 -0.10011 -0.10315 -0.11021 -0.25392 -0.20313 0.19537 0.37682 0.078618 0.15948 0.10316 0.38552 -0.062349 -0.11299 -0.12157 -0.13922 0.068832 0.09062 -0.1821 -0.23071 0.16625 -0.47058 0.056158 -0.19406 -0.24598 0.057712 0.39799 0.093876 0.0096029 0.1057 -0.035033 0.2309 -0.17573 0.17489 0.069398 0.37283 0.21122 0.18287 -0.3058 -0.3573 0.11535 0.33496 0.1391 -0.10074 -0.15029 0.23994 0.29232 0.042682 0.070531 -0.54318 0.0085587 0.35109 -0.069974 -0.074216 0.068672 -0.03355 -0.2472 0.090332 -0.23046 0.02486 0.2153 -0.055954 -0.32179 0.019871 -0.20999 0.016914 -0.048054 0.026023 0.20842 0.076041 -0.54354 -0.033489 -0.28012 -0.015787 -0.065432 -0.17567 -0.445 -0.036424 0.09973 0.36901
evidence 0.33557 -0.22836 0.16149 0.17627 -0.21878 0.47915 -0.38085 0.20789 0.54152 -0.17746 0.47593 0.039407 -0.10535 0.12372 -0.41915 -0.11557 0.072295 0.10391 0.36904 0.25608 -0.21997 -0.038278 -0.02449 0.28273 -0.75087 -0.3639 0.072512 0.24038 0.38731 0.23571 0.27168 0.38155 0.050166 -0.34199 -0.28086 -0.21474 0.29103 -0.014324 -0.124 -0.37661 -0.099859 -0.80106 -0.14958 -0.37731 0.046067 0.088578 0.51305 -0.24683 -0.12409 0.35197 -0.22337 0.50345 -0.22362 0.3012 -0.087858 0.31331 0.27938 0.3442 -0.12825 -0.71302 0.16277 0.3202 -8.1776E-4 -0.24167 -0.097111 0.30832 0.61465 0.32549 0.18675 -0.70567 0.074054 0.25051 0.021988 -0.015036 0.048348 -0.046799 -0.31474 0.036697 -0.27278 0.14147 0.58289 -0.12191 -0.24311 -0.3008 -0.3668 -0.18977 -0.47064 0.014795 0.012475 0.083603 -0.5511 -0.072607 -0.60747 -0.055592 -0.29183 -0.21099 -0.75445 -0.129 0.34913 0.60464
sprint -0.04033 -0.034443 0.18903 -0.094557 -0.19056 0.033108 -0.07256 -0.17507 0.50379 -0.29554 0.35652 0.11476 0.063991 -0.0087438 -0.3999 -0.043243 0.24739 -0.11018 0.17837 -0.20714 0.11271 0.0881 -0.24344 -0.14141 -0.02517 -0.17299 0.26643 0.50096 0.075477 0.0024987 -0.019438 0.33887 -0.31133 -0.1991 -0.3008 -0.27855 -0.015955 0.27427 -0.13898 -0.38122 0.40754 -0.27873 0.22432 -0.11714 -0.33248 0.047899 0.15021 0.13945 0.15246 0.16092 -0.021242 0.28375 -0.27334 0.3402 -0.024882 0.36707 0.20042 0.23672 -0.36948 -0.40456 0.054797 0.34439 0.33529 -0.17693 -0.11793 0.12317 0.11503 -0.015346 -0.10277 -0.58944 0.12618 0.27665 -0.087545 0.061166 0.12226 0.011399 -0.31455 -0.21216 -0.1577 -0.12927 0.36862 -0.037793 -0.24408 -0.019082 -0.065729 -0.017588 0.0081503 -0.077905 0.0060077 -0.14435 -0.42732 0.019294 -0.41858 -0.0010706 -0.14388 -0.25763 -0.34765 -0.049883 0.17677 0.43544
emergency -0.18476 0.03868 -0.20218 -0.091215 -0.4041 0.14088 -0.19387 -0.40516 0.58354 -0.14943 0.58437 0.047469 0.050413 0.02535 -0.58861 0.047129 0.11431 -0.077879 0.23975 -0.12562 0.078739 0.0093549 -0.042087 -0.055251 -0.55867 -0.10275 0.2367 0.68138 0.17513 0.29594 0.42327 0.16062 0.27527 0.20047 -0.06114 -0.071422 -0.093051 0.18391 -0.20871 -0.17558 0.093902 -0.81447 -0.053877 -0.33988 0.12062 0.035564 0.49344 0.21012 0.03994 0.35212 -0.26745 0.37978 -0.17762 0.27249 -0.10712 0.27245 0.63102 0.088387 -0.61301 -0.49396 0.2825 0.074136 0.12975 0.037388 0.16289 0.74847 0.59558 0.22124 -0.3783 -0.57667 0.043687 0.066931 -0.094634 0.016585 0.18931 0.24319 -0.29718 0.30835 -0.26516 0.031194 0.53434 0.1475 -0.21389 -0.22629 -0.089689 -0.35424 -0.020279 -0.19572 0.23513 -0.0078772 -0.83151 0.12759 -0.38136 0.054921 -0.36914 -0.13692 -0.40548 -0.049367 -0.12703 -0.035031
Jackson -0.42663 -0.2524 0.32637 0.14472 0.098904 0.18819 0.11314 -0.4297 0.29388 -0.23276 0.43343 0.23165 -0.0074077 0.18427 -0.84927 -0.25973 0.27417 -0.2635 0.082778 0.047399 -0.12741 0.017269 -0.2443 0.011481 -0.22134 -0.36504 0.33014 0.46886 0.13332 -0.18174 0.16798 0.48642 -0.084838 -0.017406 -0.22556 -0.36911 -0.077637 -0.25191 0.064256 -0.50235 0.16123 -0.16433 0.23852 -0.029615 -0.089506 -0.25925 0.16955 0.17553 0.0057337 -0.012488 0.033485 0.11303 -0.1112 0.39427 -0.089909 0.57545 0.44723 0.09503 -0.36554 -0.23107 0.026749 0.22232 0.29698 -0.2537 -0.36864 0.35635 0.33923 0.23827 0.048978 -0.60269 0.14746 0.11957 -0.010926 -0.047471 0.047939 -0.06307 -0.54778 0.080398 -0.18278 0.33036 0.44261 -0.096562 -0.34293 -0.074272 -0.51419 -0.020608 -0.019601 0.17514 -0.090157 0.018918 -0.313 0.29917 -0.45877 0.0012067 -0.11484 0.11473 -0.45251 -0.07559 0.3096 0.41787
institution 0.19615 -0.10653 0.084978 0.032073 -0.14427 0.048132 -0.31083 -0.35248 0.43242 -0.29815 0.45249 -0.0083284 0.095051 -0.20467 -0.37828 0.035747 0.070328 -0.10688 0.28638 0.024762 -0.073688 0.027317 0.039991 0.037351 -0.24587 0.086078 0.22708 0.45605 0.14883 0.26727 0.14118 0.23073 -7.7939E-4 -0.1277 -0.097925 -0.20033 0.15459 0.050759 -0.12845 -0.1723 0.077682 -0.54495 -0.045967 -0.26266 -0.25377 0.057736 0.31204 0.12832 0.158 0.2027 -0.16628 0.1376 -0.26603 0.32283 -0.038826 0.34743 0.36981 0.22743 -0.24478 -0.46618 0.1588 0.32347 0.18364 -0.10961 -0.10183 0.15281 0.43697 0.11547 -0.04338 -0.67069 -0.013262 0.16355 -0.16836 -0.22012 0.22375 -0.062792 -0.44505 0.012441 -0.19771 -0.13822 0.47217 -0.067106 -0.16487 -0.18428 -0.13811 -0.055839 -0.099359 0.068506 0.316 -0.0018691 -0.51018 0.0092259 -0.4505 -0.0141 -0.2162 -0.23201 -0.54362 -0.059571 0.24255 0.31101
bird 0.068107 -0.0045278 0.11239 -5.5679E-4 -0.28858 0.43707 -0.034472 -0.095975 0.29491 -0.28863 0.4337 -0.0086287 -0.20438 -0.042366 -0.3339 -0.10249 0.19526 0.12851 0.32801 0.17109 0.061244 -0.12614 0.04168 -0.030417 -0.40788 -0.10973 0.39379 0.41455 0.094917 0.5588 0.09879 0.89162 -0.17733 -0.27826 -0.29121 0.073606 -0.019102 -0.20221 -0.06511 -0.47175 0.35472 -0.56312 -0.047517 -0.16189 -0.53388 0.14288 0.42635 0.176 0.1391 0.38193 0.03727 0.24525 -0.14712 0.40202 0.12222 0.52332 0.13101 0.17599 -0.21889 -0.35311 0.52768 0.14052 0.15721 -0.18585 0.20102 0.5031 0.12325 0.31683 0.19145 -0.51712 -0.24893 0.51433 -0.088008 -0.089448 0.088557 0.099428 -0.13455 -0.026412 -0.24724 -0.14351 0.46332 -0.19387 -0.21487 -0.11382 -0.27803 0.011691 0.19767 0.09991 -0.10974 0.25996 -0.62552 0.20126 -0.39193 -0.095276 0.023983 -0.22187 -0.25509 0.0051669 -0.31557 0.51685
Brazil 0.13217 -0.24418 0.036155 -0.18344 -0.35355 -0.032284 -0.21791 -0.069451 0.40277 -0.2818 0.61601 -0.12261 0.0055553 -0.27045 -0.089436 -0.1189 0.32547 -0.37852 0.14715 -0.48477 0.37974 0.27401 -0.4207 -0.09682 -0.090481 0.040892 0.36483 0.70283 0.087894 0.25421 0.1811 0.56339 -0.31841 -0.12986 0.038986 -0.1312 0.29804 0.27078 -0.026376 -0.37002 0.08804 -0.58432 0.11359 -0.043048 -0.36314 0.15245 0.20118 0.18118 0.30245 0.060714 -0.047672 0.19526 -0.32106 -0.023646 0.51687 0.39001 -0.019838 0.48757 -0.22935 -0.51284 -0.032821 0.18495 0.3945 -0.077056 -0.24358 -0.019737 0.066481 -0.34036 -0.23084 -0.41453 -0.056484 0.20901 -0.029988 -0.036146 0.067078 0.084802 -0.43626 -0.19007 -0.05469 -0.37625 0.3421 -0.020737 -0.53101 -0.19314 -0.32073 -0.21073 -0.070419 -0.081619 0.12282 0.24304 -0.55956 -0.19337 -0.1837 0.021987 -0.2821 -0.45778 -0.28879 0.046207 -0.19441 0.45888
warning 0.13572 0.028378 0.035277 0.022453 -0.27723 0.11627 -0.20749 0.24855 0.61317 -0.29837 0.73277 0.12178 -0.088859 0.051274 -0.32554 0.091487 0.13512 -0.066958 0.23904 -0.18135 0.036552 -0.19969 -0.1388 0.11171 -0.48308 -0.11153 0.1278 0.4495 0.059169 0.26577 0.27829 0.37349 -0.059815 0.11443 -0.15942 -0.12095 0.12565 0.17964 -0.1469 -0.03278 0.22669 -0.49008 -0.021976 -0.22464 -0.088229 0.31179 0.4373 0.082852 0.017416 0.34085 -0.21624 0.38629 -0.13288 0.20138 -0.20305 0.30056 0.32247 0.25033 -0.44208 -0.53776 0.15837 0.057502 0.28759 0.060442 0.060793 0.45489 0.16077 0.2759 -0.036529 -0.73956 -0.032489 0.26143 -0.25721 0.1521 0.31709 0.21799 -0.2896 0.19458 -0.30059 -0.10007 0.6573 0.096305 -0.22544 -0.16684 -0.27759 -0.21292 -0.2071 -0.10254 0.011087 0.029853 -0.87737 -0.14546 -0.31522 0.064351 -0.26723 -0.16644 -0.61104 0.075379 0.24202 0.32899
implement 0.33432 -0.11952 -0.046558 -0.055089 -0.33841 0.0042809 -0.45773 -0.2579 0.59786 -0.29346 0.48263 -0.14136 -0.0018475 -0.061905 -0.43113 0.14505 0.072466 -0.12125 0.44161 -0.012947 -0.018601 0.057996 0.0086199 -0.12967 -0.3177 0.013343 0.17789 0.48927 0.21925 0.26256 0.21549 0.14243 0.1466 -0.062908 -0.053225 -0.095498 0.14989 0.24052 -0.27121 -0.24227 0.035177 -0.79002 -0.0024891 -0.38801 0.032558 0.07682 0.37221 0.20571 0.20637 0.17633 -0.10571 0.22274 -0.50679 0.31156 -0.092398 0.28285 0.32973 0.19579 -0.37768 -0.49492 0.1598 0.37481 0.12975 -0.12294 -5.4544E-4 0.23287 0.53351 0.039945 -0.22754 -0.70588 0.13163 0.13746 -0.23601 -0.15074 0.13424 -0.11591 -0.38592 0.01543 -0.23817 -0.24298 0.50921 0.028024 -0.18873 -0.26609 0.013533 -0.095936 -0.15698 -0.081287 0.34454 0.014101 -0.64087 0.059203 -0.47641 0.11218 -0.41698 -0.27319 -0.51108 -0.18677 0.2584 0.24277
train -0.38018 -0.047585 0.084565 -0.099814 -0.18154 0.008989 -0.079432 -0.1965 0.51072 -0.23155 0.47649 0.16729 0.36014 -0.15129 -0.21838 -0.051997 0.30881 -0.06743 0.019519 -0.15275 0.085155 -0.11826 0.096188 -0.086367 -0.2327 -0.41633 0.063047 0.66364 0.3891 0.20896 -0.02221 0.46502 -0.13015 0.039547 -0.30671 -0.11358 0.095216 0.33108 -0.25245 -0.46264 0.25853 -0.34498 0.26506 -0.38296 -0.0648 0.23432 0.59845 0.4805 -0.29961 0.32619 0.026369 0.3556 -0.094781 0.37296 0.025207 0.30497 0.47752 -0.16674 -0.47194 -0.65761 0.059486 0.26864 0.14028 0.098579 0.30184 0.56017 0.28355 0.041912 -0.26751 -0.31236 -0.17169 0.2523 -0.12957 -0.099196 0.24364 0.037946 -0.28432 -0.026745 -0.010551 -0.054435 0.2634 -0.14991 -0.26353 -0.011412 0.12627 0.056378 0.0016142 -0.14862 0.14142 0.0064064 -0.96774 -0.20097 -0.36259 -0.054352 -0.061797 -0.35214 -0.60148 -0.11971 -0.39318 -0.095649
area 0.15416 -0.16187 0.10258 -0.04202 -0.55742 0.20128 -0.016479 -0.30899 0.23128 0.05215 0.43734 0.27832 0.18245 -0.30087 -0.62 -0.14603 0.17015 -0.08868 -0.021463 -0.067262 0.15499 0.066576 -0.14675 0.32955 -0.21329 -0.16083 0.13623 0.7254 0.50932 0.1145 0.15473 0.70814 -0.043068 -0.17047 -0.051238 0.2358 0.1986 0.1023 -0.18083 -0.30936 0.19655 -0.3631 -0.017413 -0.58584 -0.28944 0.003731 0.74328 0.29275 -0.15114 0.16494 0.075614 0.37849 -0.38771 0.3856 0.15387 0.086004 0.43208 -0.10913 -0.3108 -0.38544 0.16843 0.088752 0.29448 0.061986 0.18951 0.3464 0.38274 0.28988 -0.024099 -0.6036 0.014638 0.30358 -0.11629 -0.14989 -0.043236 0.14366 -0.2131 0.16983 -0.10893 -0.22731 0.37481 -0.29898 -0.3833 0.17792 0.081396 -0.069198 -0.060649 -0.16273 0.20874 -0.030862 -0.908 -0.09114 -0.26133 -0.11087 0.05274 -0.40955 -0.46433 -0.348 -0.40113 -0.024693
image 0.16981 -0.33533 0.40019 0.32693 -0.28625 0.013833 -0.15214 -0.16901 0.47456 -0.31001 0.41042 -0.050105 0.042977 -0.11859 -0.12012 0.20361 0.16822 -0.19078 0.56922 -0.093097 -0.087724 -0.18511 -0.16826 -0.091188 -0.20876 -0.022408 0.12868 0.29227 0.49191 0.25665 -0.21719 0.52547 -0.33176 -0.30007 -0.01689 -0.10996 0.05599 0.063572 -0.29821 -0.35844 0.13699 -0.46348 0.12206 -0.25464 -0.24702 0.10593 0.2794 0.12999 0.16765 0.32953 0.062801 -0.047398 -0.31628 0.29208 -0.1262 0.47499 0.41554 0.35401 -0.29767 -0.9437 0.12543 0.40464 0.26607 -0.19249 0.16238 0.064109 0.12715 0.10135 0.23549 -0.63088 -0.038907 0.33569 -0.15536 -0.28729 0.091845 -0.14205 -0.22581 -0.037747 -0.27655 -0.061695 0.30978 -0.22055 -0.025724 -0.15684 -0.20933 -0.14355 0.041215 -0.027797 0.018455 0.12623 -0.43887 0.18744 -0.52554 -0.087644 -0.037934 -0.092062 -0.41177 -0.021396 0.51536 0.51977
murder -0.11747 -0.38554 0.3541 0.10948 -0.15049 -0.034776 -0.2684 -0.18699 0.12704 0.24984 0.37266 0.044934 0.31552 -0.10189 -0.66149 -0.53184 0.40899 0.3731 0.2934 0.52741 0.081269 0.16326 -0.49869 0.031286 -0.47952 -0.36808 0.41197 0.4517 0.37625 0.049432 0.15605 0.37862 -0.18227 -0.45747 -0.4302 -0.52511 0.13756 -0.27831 -0.01772 -0.33895 -0.011242 -0.56227 -0.020746 -0.15565 0.094944 0.49286 0.62578 -0.21737 -0.35858 0.071878 -0.22826 0.4045 0.097116 0.50418 -0.10372 0.62385 0.28857 0.34034 -0.1158 -0.52272 -0.014615 0.24025 0.45085 -0.40631 -0.41128 0.55092 0.92311 0.27313 0.24715 -0.52182 0.3251 -0.10568 0.4053 -0.026358 0.17259 -0.027678 -0.40565 0.31065 -0.09293 0.17332 0.86207 -0.32815 -0.18329 -0.050646 -0.39234 -0.30612 0.015354 -0.17045 -0.17379 0.068942 -0.50695 -0.19787 -0.82348 -0.4157 0.20863 0.015996 -0.3655 0.18418 -0.04531 0.49685
journey -0.21171 -0.0048369 0.18247 0.11854 -0.20026 0.030106 0.010023 -0.22702 0.47582 -0.30237 0.49068 0.065429 0.18293 -0.20496 -0.37305 0.024484 0.23762 -0.099127 0.13883 -0.20402 0.012087 -0.12627 -0.058714 -0.049483 -0.13874 -0.24617 0.15854 0.58981 0.12903 0.11038 -0.089668 0.4579 -0.26081 -0.17928 -0.21118 -0.0072098 0.046925 0.11215 -0.21869 -0.45482 0.14654 -0.30207 0.34188 -0.28895 -0.23307 0.016287 0.20144 0.19898 0.06895 0.10649 -0.063679 0.29611 -0.20856 0.28616 -0.0056245 0.3551 0.37947 0.15408 -0.24495 -0.66783 0.23539 0.21666 0.17948 -0.053001 0.17255 0.17927 0.17467 0.20987 -0.09883 -0.57644 -0.09251 0.22741 -0.20392 0.033183 0.14334 0.066299 -0.28805 -0.090088 -0.083301 -0.13531 0.31622 -0.097627 -0.26835 -0.23042 -0.14616 0.07304 0.01929 0.028557 0.0079647 0.074207 -0.65213 0.066204 -0.33591 -0.044256 -0.014489 -0.33836 -0.24269 -0.060649 -0.029788 0.3263
minister -0.23719 -0.5069 0.052486 0.51317 -0.68372 -0.26164 -0.63183 -0.36521 0.38252 0.20578 0.28488 -0.092282 0.18597 -0.27382 -0.27806 0.025439 0.47781 -0.2002 0.55421 0.34063 0.061305 0.12412 -0.68396 -0.25176 -0.27661 0.20971 0.092483 0.50016 0.076938 0.050183 0.42323 0.18883 -0.11664 0.10125 0.10498 -0.25664 0.49797 0.5149 0.43112 -0.23437 -0.081948 -0.89383 -0.32914 -0.14068 -0.27594 0.0069779 0.37035 0.36649 0.1395 0.21339 -0.18287 0.20973 -0.12963 0.12539 0.14628 0.39266 0.43061 0.46784 -0.30249 -1.0386 0.10318 0.39315 0.070339 0.073341 -0.31544 0.21655 0.98674 -0.23865 -0.45781 -0.20596 0.067536 0.16807 0.16459 -0.051355 -0.042054 0.082712 -0.37679 0.48996 -0.17698 0.087773 -0.3077 -0.020289 -0.47467 -0.33404 -0.40638 -0.41848 -0.034007 -0.10807 -0.16538 0.37334 -0.62163 -0.017992 0.011734 -0.065765 -0.19883 0.17958 -0.50288 0.22737 0.47823 0.65357
planet 0.22537 0.11168 0.2005 3.1563E-4 -0.20101 0.13374 -0.28988 -0.1198 0.47728 -0.41143 0.51205 -0.1992 -0.16177 -0.21037 -0.18246 -0.054294 0.092131 -0.082532 0.47872 -0.19864 -0.05355 -0.20359 0.077226 -0.10851 -0.22823 -0.13777 0.27482 0.32832 0.23702 0.32628 -0.12046 0.575 -0.15308 -0.28442 -0.20592 -1.2975E-4 -0.0076498 0.054044 -0.23455 -0.4321 0.21443 -0.602 0.12341 -0.39609 -0.49133 0.18102 0.28948 0.18096 0.17938 0.32463 0.1213 0.19276 -0.41963 0.282 -0.14009 0.32379 0.12266 0.4483 -0.21687 -0.69497 0.23837 0.26742 0.14867 -0.067451 0.21937 0.13784 0.25014 0.17282 0.11625 -0.51696 -0.1014 0.49733 -0.28276 -0.045102 0.082402 -0.19162 -0.2008 -0.18229 -0.43973 -0.2667 0.13486 -0.35845 -0.17425 -0.26786 -0.17784 0.031769 -0.067068 0.047154 -0.0012575 0.13023 -0.6471 0.10431 -0.29697 0.032516 -0.17778 -0.27802 -0.2984 -0.20835 -0.12077 0.42404
article 0.15108 0.091829 -0.077147 0.11986 0.11161 0.059817 -0.19341 -0.0081489 0.52147 -0.0079683 0.39177 -0.058012 -0.29473 -0.12821 -0.31381 -0.54417 -0.048018 0.16658 0.62975 0.71746 -0.096357 -0.033301 0.26826 -0.15391 -0.037183 -0.26172 -0.19133 0.82732 0.43024 0.44192 0.10702 0.60386 -0.10997 0.12422 -0.27501 -0.074719 0.097582 0.17346 0.24975 -0.28653 -0.61907 -0.09415 0.33384 -0.33146 0.33989 -0.17833 0.20685 -0.044764 -0.079478 0.37655 -0.40252 0.28392 -0.28661 0.0015622 -0.63516 0.31718 0.23705 0.23622 -0.43287 -0.4473 0.17794 -0.096689 0.086386 -0.12685 -0.24765 0.49307 -0.23884 0.22056 0.012586 -0.39611 0.22386 -0.091033 -0.68865 -0.2757 -0.056983 -0.28764 -0.43025 0.084217 -0.11352 0.1228 0.7498 -0.79796 -0.50752 -0.11319 -0.48812 -0.29773 -0.64263 0.46254 -0.51723 0.33878 -0.13914 0.083774 -0.57245 0.19954 0.61967 0.20243 -0.81872 0.26361 0.216 1.0588
anxiety 0.25166 -0.021053 0.21589 0.0882 -0.3648 0.35181 -0.29479 -0.094162 0.57225 -0.13552 0.58188 0.076213 -0.095457 0.059182 -0.38651 0.057629 0.098405 -0.19811 0.49775 0.20131 -0.14223 -0.098997 0.047579 0.054383 -0.4197 -0.017268 0.40075 0.34423 -0.098959 0.32663 -0.081113 0.34674 -0.2222 -0.24549 -0.16165 -0.082841 -0.1304 -0.0069147 -0.047088 -0.23281 0.3295 -0.56042 -0.094829 -0.32131 -0.37268 0.19178 0.40232 0.082701 0.15541 0.20749 -0.066219 0.3048 -0.35011 0.39485 -0.087237 0.46643 0.35077 0.44753 -0.30487 -0.58932 0.1508 0.37929 0.28678 -0.18767 0.048785 0.2004 0.40967 0.23253 0.19835 -0.6465 -0.086581 0.14804 -0.16877 -0.089287 0.14597 0.11848 -0.34981 0.063573 -0.53046 -0.10354 0.40506 -0.15296 -0.13471 -0.1951 -0.086269 -0.17488 6.7849E-4 -0.0022568 -0.026567 0.27727 -0.44623 0.012318 -0.50692 -0.03129 -0.2363 -0.27602 -0.3793 -0.022846 0.15192 0.51505
month -0.4132 -0.083814 -0.14387 0.14114 -0.13719 0.11398 -0.15036 0.047831 0.61044 -0.11011 0.48687 0.16795 -0.053137 -0.035946 -0.53246 -0.30929 0.18979 -0.1975 0.15088 -0.26147 0.30551 0.22589 0.065055 0.12912 -0.18969 0.10249 0.20105 0.77049 0.15244 0.0664 0.21778 0.13769 0.17988 -0.012639 0.052547 -0.24541 0.2187 0.37914 0.067211 0.15523 0.13669 -0.2816 -0.11976 0.11324 0.13086 0.023552 -0.086175 -0.21239 0.050268 0.13754 -0.16375 0.38834 -0.14327 0.18838 -0.14523 0.48171 0.32368 0.15949 -0.26254 -0.78349 0.012292 0.29502 0.26913 -0.089757 -0.081475 0.48165 0.2482 0.040085 -0.67808 -0.54387 0.042682 -0.19974 -0.18464 0.011811 0.12145 0.011641 -0.58332 0.067512 -0.28519 -0.017592 0.61196 0.042517 -0.46507 -0.15663 -0.23439 -0.34654 -0.16482 0.016186 -0.28593 0.044561 -0.65921 0.10608 -0.55289 0.048308 -0.14586 -0.17634 -0.23781 0.22355 -0.18281 0.56664
carnivore -0.039441 -0.12204 0.075562 -0.072967 -0.18228 -0.034274 -0.22941 -0.2677 0.33852 -0.28062 0.39466 0.096952 0.027106 -0.010676 -0.49274 -0.11797 0.052126 -0.11569 0.24058 -0.11292 0.043402 0.062843 -0.11769 -0.1273 -0.15245 -0.12948 0.18203 0.43196 0.10615 0.12923 0.086097 0.34717 -0.12228 -0.15849 -0.084194 -0.17145 0.17281 0.083074 -0.14338 -0.24056 0.13942 -0.42175 0.0629 -0.094769 -0.24008 0.08365 0.29391 0.097618 0.080977 0.084377 -0.080208 0.11812 -0.23483 0.1925 0.0075515 0.36338 0.2793 0.18667 -0.35441 -0.23424 0.10517 0.26754 0.21186 -0.12111 -0.12481 0.17815 0.17401 0.026797 -0.018104 -0.57987 0.075438 0.24769 -0.10648 -0.070948 0.089342 0.013925 -0.3139 8.7366E-4 -0.18856 -0.06748 0.38349 -0.049262 -0.29246 -0.0056409 -0.2068 -0.07296 -0.17452 0.026243 0.19059 0.029448 -0.40607 8.4499E-4 -0.32498 0.073584 -0.1186 -0.17688 -0.40837 0.025494 0.11944 0.39499
party -0.036076 -0.58027 0.31898 0.26025 -0.66671 -0.23221 -0.36268 -0.50982 0.53776 -0.11929 0.17014 -0.013202 0.15019 -0.30261 -0.34688 -0.051017 0.13199 -0.01646 0.52381 -0.045527 -0.061579 -0.035264 -0.60096 0.063352 -0.032234 0.283 -0.21105 0.61486 0.60181 0.072036 0.3869 0.1892 -0.17841 -9.0849E-5 -0.11061 -0.29577 -0.0074054 0.47117 0.49365 -0.25331 0.012541 -0.44769 0.12883 -0.24388 0.071762 0.19855 0.21856 0.21279 0.080266 0.34406 -0.0080259 0.38674 -0.21515 0.5322 -0.34732 0.35621 0.36384 0.55589 -0.0039044 -0.89158 0.30982 0.48906 0.022103 0.20877 -0.091855 0.18437 0.38932 -0.33241 -0.2805 -0.45651 0.14498 0.24323 -0.30172 -0.27191 0.039156 -0.16302 -0.35997 0.096158 -0.55633 -0.16752 0.059485 -0.086525 -0.14538 -0.11825 -0.22193 -0.53067 -0.37733 -0.24684 0.074601 0.037432 -0.45991 -0.10037 -0.29368 -0.042147 -0.10212 -0.37856 -0.20447 -0.062221 0.50891 0.41015
production 0.1064 -0.11259 -0.25392 -0.14752 -0.16799 0.10456 -0.25223 0.1087 0.43149 -0.12316 0.38572 0.19376 -0.28777 -0.20939 -0.19943 -0.2688 0.19255 -0.31107 0.59996 -0.19001 -0.041399 0.13306 0.086753 -0.1723 -0.15376 -0.13377 0.15802 0.5368 0.14387 0.36405 0.064376 0.070424 -0.2528 -0.2064 0.2404 0.11868 0.36221 0.1868 -0.32234 -0.098131 0.2851 -0.6971 -0.071349 -0.14037 -0.33314 -0.11141 0.2335 0.066912 0.30395 0.17042 -0.034526 0.038472 -0.47988 -0.064627 0.10931 0.37143 0.20214 0.09925 -0.51345 -0.50288 -0.048333 0.17417 0.25106 -0.26027 0.24851 0.19465 0.14645 -0.03176 -0.25132 -0.71809 -0.061574 0.33064 -0.36167 0.023407 0.17608 -0.36501 -0.57978 -0.010566 -0.28245 -0.29084 0.27681 0.0067717 -0.039449 -0.14755 -0.30456 -0.093647 0.03484 0.1803 0.34091 -0.062199 -0.55707 0.18608 -0.50679 0.0762 -0.13258 -0.25281 -0.35777 -0.07729 -0.27061 0.45365
importance 0.44772 -0.15414 0.10921 0.17628 -0.3523 0.11872 -0.47029 -0.23692 0.56354 -0.34368 0.54985 -0.06987 0.040361 -0.12248 -0.39505 0.1945 0.18544 -0.19327 0.43945 0.070868 -0.21438 -0.058388 -0.097329 0.018892 -0.38858 0.037729 0.21346 0.34034 0.1232 0.26091 0.049602 0.3367 -0.18128 -0.1314 -0.088317 -0.15038 0.14731 0.18949 -0.13947 -0.2173 0.1249 -0.64185 0.081077 -0.34675 -0.26503 -0.001076 0.31175 0.13693 0.25562 0.21753 -0.038418 0.17774 -0.43606 0.26787 -0.0076587 0.29813 0.30417 0.33114 -0.22437 -0.61381 0.17312 0.4605 0.22292 -0.041816 -0.11353 0.12954 0.42835 0.0073792 -0.084772 -0.67355 0.029285 0.19976 -0.19756 -0.22558 0.14137 -0.035219 -0.37286 0.0086505 -0.24147 -0.17092 0.37575 -0.10807 -0.21477 -0.31154 -0.019598 -0.11093 -0.14793 0.045628 0.1653 0.14246 -0.51603 0.046885 -0.35189 0.010829 -0.27944 -0.24774 -0.49206 -0.10773 0.45972 0.46313
inmate -0.070189 -0.13699 0.13714 -0.015549 -0.24095 0.14802 -0.12869 -0.32433 0.23475 -0.14306 0.34117 0.19647 0.094406 0.025108 -0.59178 -0.097449 0.19486 -0.081728 0.17775 0.125 -0.020322 -0.021185 -0.12574 -0.12223 -0.19124 -0.13212 0.36429 0.43517 0.19729 0.045433 0.14264 0.26809 -0.04821 -0.17115 -0.18822 -0.15303 0.074063 0.030713 -0.18973 -0.19303 0.11709 -0.48197 0.063355 -0.074695 -0.153 0.021387 0.33905 0.016365 -0.12773 0.22905 -0.053006 0.23924 -0.175 0.27201 -0.0046117 0.46742 0.34383 0.22491 -0.46047 -0.32633 0.16299 0.14674 0.21986 -0.21567 -0.15733 0.35419 0.38452 0.14341 0.091081 -0.46413 0.098051 0.13412 0.10427 -0.092525 0.064085 0.15977 -0.29551 0.11478 -0.15695 -0.019816 0.54191 -0.028004 -0.34263 -0.14015 -0.20777 -0.14133 0.021813 0.029072 0.13341 0.084383 -0.4674 -0.026397 -0.54033 0.081226 -0.12839 -0.14757 -0.36682 0.067346 0.097561 0.37055
Harvard -0.074854 -0.15279 0.0090681 0.056064 -0.17692 0.14434 -0.12348 -0.78493 0.27638 -0.22381 0.11045 0.31315 0.20901 -0.12348 -0.59798 -0.23785 0.095781 0.0025177 0.16943 0.255 0.17537 -0.058953 -0.21966 -0.097482 -0.21732 -0.045745 0.3367 0.34577 0.19736 0.020631 0.12947 0.4 0.065119 -0.12565 -0.24007 -0.17216 0.30454 0.13322 -0.12455 -0.18406 0.058755 -0.47035 0.18738 -0.12075 -0.52188 -0.11497 0.26892 0.10924 0.014789 0.22436 -0.14833 0.06876 -0.22941 -0.0068299 0.12394 0.32106 0.41506 0.27227 -0.36891 -0.02428 0.23212 0.33388 0.15424 -0.10867 -0.21982 0.3486 0.47684 0.0081767 -0.17045 -0.69637 0.065381 0.31292 0.023074 -0.35036 -0.22198 -0.10159 -0.51669 0.10845 -0.22422 0.07138 0.46407 -0.04844 -0.34146 -0.083205 -0.26592 -0.037662 -0.22339 0.51181 0.60248 0.039053 -0.3898 0.15951 -0.21851 0.02773 0.0089763 0.020962 -0.62067 -0.024887 0.37285 0.68452
psychology 0.12448 -0.19424 0.11709 0.061761 -0.24541 0.08422 -0.22289 -0.42539 0.42741 -0.22938 0.28282 0.14513 0.073528 -0.094562 -0.42298 -0.1344 0.15593 -0.043535 0.30168 0.12231 0.025931 -0.035192 -0.10724 -0.081224 -0.23869 -0.069398 0.23457 0.31824 0.11339 0.066844 0.050613 0.39786 -0.10875 -0.19519 -0.092358 -0.1472 0.10943 0.069794 -0.16844 -0.26916 0.098508 -0.38121 0.11555 -0.17086 -0.36564 0.102 0.23015 0.18429 0.16578 0.10254 -0.056944 0.13668 -0.27609 0.15807 0.049525 0.36326 0.27689 0.21202 -0.27679 -0.25275 0.22029 0.29143 0.22639 -0.14115 -0.12573 0.21941 0.31658 0.069881 0.020651 -0.62483 0.013437 0.29084 -0.041691 -0.20061 0.020896 -0.017145 -0.32577 0.10445 -0.19031 -0.062576 0.39739 -0.072783 -0.27144 -0.12309 -0.11019 -0.071796 -0.072887 0.19395 0.30426 0.076058 -0.45148 0.069087 -0.29214 0.026443 0.014293 -0.11824 -0.46708 -0.037146 0.3788 0.44066
medal -0.16952 -0.033628 0.076109 1.0183E-4 -0.30075 0.18079 -0.12335 -0.15191 0.42904 -0.19466 0.28374 0.030079 0.28558 -0.096758 -0.15638 -0.20891 0.19629 0.0044095 0.18138 -0.38388 0.30233 0.39024 -0.3644 -0.19922 0.12211 -0.17775 0.48509 0.74414 0.10935 -0.12125 -0.21942 0.41343 -0.42044 -0.42077 -0.49493 -0.40991 -0.21263 0.41292 0.23135 -0.76762 0.24507 -0.46455 0.54555 -0.10188 -0.41667 0.024201 -0.12223 0.2335 0.15494 0.21349 -0.19455 0.47141 -0.27214 0.21031 -0.0028094 0.60714 0.064808 0.57684 -0.12224 -0.66758 0.086171 0.52113 0.50883 -0.4846 -0.10876 -0.055916 -0.092923 -0.31272 -0.35798 -0.39668 0.17805 0.23664 0.037311 -0.074017 0.11236 -0.19182 -0.83359 -0.40694 0.10784 -0.23956 0.57452 -0.16163 -0.15735 -0.16246 -0.28421 -0.022737 0.047863 -0.0010927 0.069397 -0.055234 -0.4087 -0.049731 -0.5766 -0.046536 -0.24515 -0.30871 -0.086235 0.15036 -0.067062 0.50379
company -0.075632 -0.18551 -0.049725 0.027334 0.097885 0.050461 -0.23771 -0.12735 0.14681 -0.46146 0.45265 -0.061929 -0.2292 0.14277 -0.42474 -0.15271 0.18331 -0.51489 0.35315 -0.061913 -0.076797 0.29493 0.15394 -0.22498 -0.17165 -0.16646 -0.012035 0.5942 0.36542 -0.0065117 0.0077378 0.036772 -0.099567 -0.036431 0.49255 -0.033719 0.41188 0.045215 -0.044288 -0.14735 0.041083 -0.86565 -0.42203 -0.25105 -0.096207 -0.17444 0.42079 0.21844 0.12655 -0.034241 -0.10891 0.12755 -0.38635 0.090987 0.084587 0.28583 0.42087 0.061529 -0.36626 -0.50028 -0.2319 0.32977 0.28211 -0.18972 -0.059107 0.18036 0.22736 -0.019119 -0.33429 -0.49808 0.095927 0.26983 -0.2221 -0.23913 0.14675 -0.39766 -0.60495 0.14294 -0.19578 -0.059695 0.39405 -0.10606 -0.20876 0.049376 -0.39697 -0.19297 -0.48674 0.13496 0.53758 0.087344 -0.65598 -0.048179 -0.4634 0.16895 -0.20215 -0.16238 -0.48438 0.1275 0.047928 0.17711
live -0.12696 0.12525 0.19441 0.025098 0.08565 0.11622 -0.31476 -0.62514 0.70622 -0.29011 0.70691 -0.2343 0.14303 -0.28774 -0.40643 -0.045713 0.049752 -0.16449 0.23507 -0.12193 -0.10431 -0.066077 -0.041375 0.20189 -0.058707 -0.097051 0.17681 0.89407 0.31428 0.39468 0.094569 0.64567 -0.087993 -0.016288 -0.2176 -0.34625 -0.1032 -0.083178 0.14326 -0.36229 0.013979 0.15036 0.35252 -0.37095 -0.21395 0.06183 0.62691 0.16 0.1806 0.047127 0.21621 0.24184 -0.15857 0.47788 -0.17033 0.35168 0.066517 0.17784 -0.14037 -0.40328 0.14181 0.1433 0.28158 0.040982 0.046995 0.34325 0.28559 0.24254 -0.071006 -0.71743 -0.32187 -0.14125 -0.24424 -0.29061 0.22617 -0.26515 -0.089398 -0.18324 -0.20307 -0.41603 0.013278 -0.36139 -0.13313 -0.27849 -0.24022 -0.044869 0.078654 0.011731 0.12637 0.33669 -0.7348 0.10531 -0.46858 0.20757 0.23864 -0.46103 -0.47912 0.0061268 -0.20687 0.088088
holy 0.12127 -0.59728 0.38873 0.076045 -0.51685 0.11061 -0.33917 -0.37575 0.46143 -0.073045 0.61033 0.029759 0.38567 -0.38622 -0.37115 -0.069166 0.1697 0.24502 0.31185 -0.18777 0.18731 0.0023752 -0.27842 -0.024293 -0.3682 -0.031976 0.16321 0.61167 0.39572 0.28943 -0.091774 0.651 -0.30455 -0.29427 0.0068347 0.099402 0.071364 0.38094 -0.18978 -0.2545 0.12821 -0.055108 0.14533 -0.33514 -0.073624 0.40874 0.55039 0.040058 0.16377 0.043468 -0.11796 0.38317 -0.14888 0.20168 -0.09282 0.54724 0.17051 -0.050045 -0.19458 -0.67985 0.16394 0.48276 0.52426 -0.079638 0.21842 0.41012 0.41125 0.007121 -0.045997 -0.33938 -0.0079467 0.098439 -0.0129 -0.14483 -0.014715 0.1562 -0.10594 0.091386 -0.10118 -0.31446 0.34068 -0.20195 -0.34033 -0.14795 -0.1589 -0.10297 0.09065 -0.16115 0.19392 0.34848 -0.82068 0.21072 -0.39972 -0.246 0.026248 -0.28739 -0.428 -0.0071235 -0.10785 0.24913
ticket -0.14899 -0.0025773 0.068536 -0.081136 0.15198 -0.15212 -0.15336 -0.23905 0.38609 -0.31497 0.5041 -0.03511 -0.0386 -0.012478 -0.51274 -0.036254 -0.057586 -0.28719 0.29289 -0.34868 0.082529 0.032117 0.27177 -0.029098 0.046141 0.021992 -0.10913 0.62191 0.41564 -0.07875 0.19702 0.11759 -0.13132 -0.1237 -0.04756 -0.35201 0.02967 0.19166 0.154 -0.060868 0.098089 -0.22073 0.08569 -0.17241 0.092469 0.099557 0.15995 0.21644 0.19367 0.14064 -0.0078459 0.28096 -0.40518 0.44662 -0.24434 0.49731 0.36128 0.25605 -0.45974 -0.53824 -0.0385 0.22922 0.17942 -0.088792 -0.0090299 0.17893 0.12114 0.023343 -0.33215 -0.68666 0.026671 0.36312 -0.47448 -0.024556 -0.0076009 -0.25508 -0.50337 -0.043883 -0.45608 -0.19433 0.38769 -0.049818 -0.11216 -0.021872 -0.15383 -0.015243 -0.21049 0.0059873 -0.10941 -0.25425 -0.42975 -0.11057 -0.46242 0.15282 -0.2943 -0.37184 -0.4386 0.022012 -0.069334 0.15101
victory -0.14056 -0.10867 -0.098278 -0.25522 -0.77289 -0.022909 -0.027761 0.11129 0.45315 -0.13857 0.33621 0.1678 0.32907 0.25592 -0.22194 0.012553 0.11954 -0.13232 -0.089229 -0.087518 0.27771 0.25222 -0.7257 -0.15672 0.46179 -0.0033131 0.16549 0.69511 0.33558 0.083134 0.21131 0.51691 -0.41754 -0.17377 -0.60521 -0.24426 0.10911 0.45546 0.25339 -0.29009 -0.029749 -0.2817 0.43129 -0.068769 -0.10089 -0.22388 -0.12407 -0.0011717 0.15599 0.23795 -0.23003 0.62779 -0.18342 0.5476 -0.22338 0.43887 0.035868 0.72441 -0.19746 -0.40774 0.13781 0.20045 0.35018 0.084627 -0.02912 -0.0066844 0.35088 -0.45764 -0.52469 -0.46261 0.50989 0.27081 -0.39901 -0.015576 0.16425 -0.17807 -0.65001 -0.19807 -0.1914 -0.24483 0.36927 -0.29477 -0.59434 -0.17364 -0.11519 -0.3655 -0.043637 -0.28764 -0.098264 -0.36623 -0.24921 0.076138 -0.22287 0.11396 -0.010789 -0.47278 -0.1429 -0.13222 0.37473 0.49231
football 0.10468 0.020479 0.276 -0.022961 -0.23693 0.28209 -0.066247 -0.3966 0.50699 -0.4793 0.23489 0.085924 0.18141 -0.21983 -0.20783 0.12563 0.27829 -0.31776 0.01527 -0.060241 0.039088 0.16183 -0.09485 0.1683 0.075045 -0.15251 0.2672 0.76363 0.17672 -0.063608 0.047562 0.46366 -0.25107 -0.19158 -0.27476 -0.59897 -0.02344 0.21815 1.7721E-4 -0.60102 0.21417 -0.42685 0.39402 -0.23654 -0.31578 0.040411 0.16245 0.16289 0.21857 0.13972 0.091318 0.46428 -0.35107 0.59773 0.134 0.27007 0.32283 0.37996 -0.22899 -0.55363 0.24479 0.5784 0.3519 -0.032334 -0.27919 -0.097989 0.30928 -0.22718 -0.091018 -0.66502 0.21597 0.1505 -0.11044 -0.21625 0.056942 0.011585 -0.27463 -0.21382 -0.021061 -0.098633 0.57997 -0.32249 -0.36136 -0.33406 -0.10235 0.14719 0.1528 0.2034 0.19966 -0.20987 -0.49013 0.12187 -0.5392 -2.4965E-4 -0.26821 -0.51446 -0.57726 -0.076028 0.32424 0.58843
seepage 0.035758 -0.10981 0.14589 -0.09491 -0.23175 0.013106 -0.20593 -0.27166 0.41896 -0.20691 0.42418 0.11585 0.03675 -0.093515 -0.39473 -0.0099324 0.10763 -0.11935 0.28522 -0.08851 -0.057776 -0.094137 -0.018534 -0.096651 -0.21468 -0.050404 0.1896 0.41855 0.10194 0.071868 0.098578 0.29846 -0.19863 -0.0458 -0.023802 -0.12563 -0.0018016 0.17294 -0.095354 -0.2797 0.1615 -0.47 0.087857 -0.30255 -0.13677 0.10768 0.20707 0.19477 0.099965 0.10356 0.0091269 0.17413 -0.26771 0.34326 -0.043861 0.35936 0.33529 0.2747 -0.33878 -0.39785 0.15228 0.22079 0.25597 -0.051628 -0.068129 0.25885 0.20051 0.002195 0.016253 -0.51351 0.049814 0.25679 -0.21432 -0.037534 0.11958 0.053609 -0.34716 0.013248 -0.27135 -0.10024 0.34964 -0.078023 -0.16251 -0.14586 -0.098171 -0.088773 -0.044049 0.067592 0.042997 0.071557 -0.47497 -0.053789 -0.25211 0.021506 -0.16723 -0.14951 -0.32904 -0.061242 0.23427 0.40858
rook -0.088917 -0.30986 0.017625 -0.10842 -0.1852 -0.085473 -0.065658 -0.20061 0.32701 -0.17443 0.32712 0.13108 0.080241 -0.16773 -0.51993 -0.27736 0.27194 -0.056523 0.15737 0.13107 0.072649 -0.013959 -0.16421 -0.12834 -0.16027 -0.13984 0.11125 0.34422 0.22303 -0.026306 0.18095 0.39219 -0.020453 -0.027194 -0.23817 -0.16736 0.020173 0.033185 -0.091228 -0.27533 0.20253 -0.33791 0.17684 -0.16263 -0.13248 -0.034553 0.16458 0.19171 -0.088267 0.11551 0.075675 0.22665 -0.18853 0.21366 0.09379 0.32699 0.29627 0.10461 -0.21405 -0.29523 0.16083 0.19852 0.23017 -0.11163 -0.21444 0.31559 0.32916 0.051036 0.062759 -0.52326 -0.001032 0.23572 -0.085371 -0.015948 0.095774 -0.010629 -0.39939 0.035954 -0.20688 0.061372 0.34966 0.023194 -0.32252 -0.050023 -0.099168 0.0059757 -0.17448 0.071826 0.1966 0.0089133 -0.39483 -0.073613 -0.2084 -0.039036 -0.059115 -0.089247 -0.27102 -0.032818 0.20049 0.39407
stroke -0.26562 0.15028 0.06004 -0.084988 -0.47691 0.32836 0.0098575 0.14864 0.43108 -0.16456 0.44339 0.18595 -0.062167 0.097292 -0.69692 -0.14533 0.14095 -0.19262 0.29848 0.18543 -0.027818 0.063621 -0.1239 -0.071673 -0.15911 -0.27435 0.47542 0.44032 -0.086585 0.15304 0.044613 0.38873 -0.18994 -0.32239 -0.28827 -0.1319 -0.28613 -0.019801 -0.096493 -0.2836 0.34736 -0.55472 0.11908 -0.21391 -0.43925 -0.16882 0.17968 -0.02578 -0.068917 0.35551 -0.071679 0.4998 -0.19213 0.46862 -0.053279 0.57497 0.25123 0.40826 -0.48001 -0.5167 0.30584 0.26181 0.14941 -0.18543 0.14734 0.13105 0.3556 0.10321 0.29982 -0.45792 0.10229 0.075655 -0.16474 -0.023397 0.15206 0.017592 -0.47789 0.0031655 -0.57177 -0.079484 0.44502 -0.24179 -0.34759 -0.067283 -0.062933 -0.046933 0.13593 -0.019428 -0.11425 0.022231 -0.4082 0.015659 -0.36926 -0.021685 0.069695 -0.22502 -0.22175 0.018774 -0.0688 0.54738
environment 0.38474 -0.0041066 -0.001377 0.019685 -0.37919 0.11326 -0.49571 -0.33398 0.62144 -0.35304 0.56055 -0.050971 -0.03198 -0.26354 -0.34287 0.10644 0.088166 -0.27051 0.5462 0.10018 -0.058451 -0.11365 0.074056 -0.003107 -0.45121 0.057753 0.14581 0.39626 0.12625 0.41388 0.016532 0.36934 0.0031221 -0.10131 0.065371 0.018661 0.21386 0.20682 -0.24459 -0.31503 0.089368 -0.84983 -0.078929 -0.39044 -0.40336 0.071214 0.36032 0.27513 0.3174 0.13456 0.11442 0.098433 -0.42711 0.29945 0.040048 0.20908 0.26027 0.4349 -0.27457 -0.59269 0.22007 0.39656 0.14243 -0.14307 0.10591 0.063581 0.52088 0.1275 -0.053843 -0.78607 -0.0072494 0.26641 -0.23108 -0.22592 0.19234 -0.15326 -0.43236 0.034984 -0.33284 -0.27598 0.26552 -0.21882 -0.093408 -0.34917 -0.028974 0.013984 -0.057628 0.08503 0.36541 0.054831 -0.5544 0.10793 -0.28505 -0.068549 -0.25578 -0.22036 -0.58236 -0.18489 0.21358 0.37397
coffee -0.19216 0.10283 0.1105 -0.15298 0.01528 0.092159 0.015621 -0.46968 0.19069 -0.56207 0.45305 0.0068319 -0.15302 -0.28659 -0.13546 -0.11685 0.1669 -0.16857 0.18323 -0.036328 0.065353 -0.31372 0.18054 -0.065224 -0.25422 -0.052314 -0.055778 0.38441 0.42973 0.17316 0.014894 0.5636 -0.20386 -0.28724 0.038365 -0.22737 -0.10162 -0.19767 -0.028956 -0.33913 0.30968 -0.35025 0.023286 -0.32888 -0.35178 0.27519 0.309 0.28167 0.0046614 0.098048 0.13708 0.10272 -0.23773 0.31556 -0.097259 0.48277 0.2233 0.21963 -0.36911 -0.52873 -0.023723 0.23693 0.54858 -0.35542 0.22215 0.17628 0.022716 0.25455 -0.0044268 -0.78656 -0.19626 0.72854 -0.33211 0.041633 -0.1015 -0.2013 -0.20195 -0.0076473 -0.43789 -0.12077 0.040226 -0.1514 0.062725 -0.17754 -0.10192 0.063112 0.043051 0.08726 0.089274 -0.018065 -0.54441 0.061145 -0.24942 -0.0023136 0.10533 -0.14963 -0.37799 -0.0033625 -0.26612 0.37889
baby -0.69333 -0.057842 0.13517 0.22004 -0.028033 0.35237 -0.029994 -0.35618 -0.013129 -0.16844 0.50556 0.069763 -0.15296 -0.17678 -0.32947 0.034977 0.33868 -0.0107 0.37523 0.24033 -0.01122 -0.45468 0.15821 -0.046566 -0.6149 -0.5522 0.30885 0.3007 0.14644 0.12013 -0.069699 0.61487 -0.082773 -0.16733 -0.13765 -0.15876 -0.12385 -0.59613 -0.016417 -0.50878 0.20382 -0.35349 0.30161 -0.29889 -0.35336 0.24362 0.33412 0.026847 -0.26237 0.23638 0.1623 0.049234 0.055563 0.58995 0.0092841 0.55608 0.46565 0.57429 -0.16249 -0.6107 0.043404 0.21954 0.11965 -0.23205 0.22707 0.40413 0.40639 0.34459 -0.071598 -0.27439 -0.17838 0.18769 -0.1194 -0.0010697 0.033202 -0.042452 -0.44539 0.30539 -0.45588 0.26424 0.18617 -0.27031 0.066527 -0.3138 -0.38247 -0.18608 -0.21267 -0.16078 -0.095523 0.25769 -0.26966 0.14685 -0.52889 0.017789 -0.05382 0.03678 -0.13735 0.16692 -0.25652 0.55883
personnel 4.6098E-4 -0.25187 -0.027328 -0.033988 -0.27228 0.17228 -0.45822 -0.26197 0.36597 -0.12761 0.42185 0.065536 0.135 0.044908 -0.57885 -0.11324 -0.081014 -0.1409 0.13485 0.0075569 0.078828 0.084998 -0.10054 -0.18136 -0.36942 -0.10355 0.29493 0.58955 0.25401 0.3034 0.28022 0.28582 0.14702 -0.15393 -0.14083 -0.065737 0.21421 0.3038 -0.26802 -0.21139 0.28401 -0.81234 -0.2213 -0.2926 -0.061032 0.23841 0.71257 0.060174 -0.09141 0.24395 0.027191 0.15035 -0.35897 0.3001 -0.0036017 0.35799 0.41596 -0.015686 -0.44914 -0.44953 0.025561 0.34008 0.108 -0.066334 0.094555 0.44248 0.467 0.097587 -0.1308 -0.4124 0.067966 0.026601 0.14069 -0.20599 0.09012 0.11311 -0.35279 0.13571 -0.03119 -0.07528 0.59859 -0.011484 -0.3152 -0.11351 -0.15975 -0.027549 -0.10049 -0.26113 0.37743 0.22971 -0.87968 -0.078575 -0.69308 -0.012641 -0.38161 -0.27776 -0.64703 -0.22842 -0.16048 0.019409
family -0.37496 -0.26918 0.19728 0.30779 0.0027654 0.15283 -0.12067 -0.78894 0.16209 -0.20333 0.57837 -0.027897 0.086323 -0.25265 -0.4938 -0.043206 0.34301 -0.25649 0.26406 0.17135 -0.044077 -0.12315 -0.11942 -0.01885 -0.30667 -0.18235 0.3339 0.70787 0.12438 -0.15935 -0.16365 0.60802 -0.046341 -0.068261 0.12639 -0.15488 -0.12869 -0.14516 0.0041505 -0.26889 0.12243 -0.3116 0.0037964 -0.44071 -0.012771 -0.023884 0.422 0.1462 -0.051175 0.16178 0.16236 0.16173 -0.046258 0.66547 0.14642 0.3375 0.39612 0.19553 -0.13359 -0.55631 -0.034296 0.60946 0.38773 -0.11777 -0.022395 0.30149 0.64503 -0.064645 0.051205 -0.456 -0.18225 -0.057776 -0.062735 -0.33468 0.048207 0.060387 -0.38068 0.24555 -0.18335 0.19133 0.23168 -0.16156 -0.18342 -0.20202 -0.35319 -0.14563 -0.29719 -0.0078047 0.056143 0.27421 -0.58905 -0.12063 -0.47663 -0.026906 0.037341 -0.12358 -0.14206 0.019511 0.14652 0.24602
hypertension 0.16636 -0.089049 0.11656 -0.064435 -0.15719 0.14217 -0.25367 -0.20948 0.36479 -0.20393 0.31707 0.11149 0.03377 -0.023883 -0.44931 -0.097729 0.081097 -0.12552 0.32455 0.057573 -0.053124 0.081835 -0.057178 -0.088981 -0.25085 -0.0493 0.27852 0.36593 0.11596 0.14592 0.14112 0.32667 -0.13841 -0.21186 -0.099086 -0.10058 0.052382 0.056047 -0.12571 -0.28344 0.1739 -0.49885 0.039547 -0.16955 -0.24779 0.058239 0.28429 0.12657 0.091971 0.16877 -0.0335 0.14069 -0.31661 0.19608 0.054646 0.38839 0.29706 0.21236 -0.3441 -0.40126 0.25676 0.20434 0.21306 -0.23258 -0.089727 0.25287 0.28742 0.087708 0.019489 -0.61665 0.040987 0.24413 -0.067828 -0.16208 0.052719 -0.02348 -0.34197 0.067694 -0.18823 -0.13647 0.43644 -0.060162 -0.19157 -0.11737 -0.10698 -0.11283 -0.056807 0.044494 0.189 -0.028713 -0.48355 -0.0049323 -0.44468 0.025296 -0.17999 -0.19243 -0.39011 -0.07102 0.078798 0.34254
president 0.080575 -0.58439 -0.041557 0.34232 -0.53695 -0.14579 -0.24512 -0.42566 0.37922 -0.2037 0.55834 -0.12082 0.06856 -0.05339 -0.37563 0.02517 0.1999 -0.18768 0.30766 0.02858 0.05845 -0.09359 -0.58167 -0.20343 0.1919 0.012858 0.21506 0.48191 0.19944 -0.061785 0.29475 0.02801 0.11654 -0.021329 -0.047721 -0.25289 0.43842 0.35007 -0.10891 -0.20404 -0.081666 -0.46309 0.075953 -0.075293 -0.12406 -0.038846 0.41033 0.20919 0.11166 0.019147 -0.26619 -0.030577 -0.16642 0.062139 0.21201 0.28485 0.3664 0.47984 -0.33285 -0.46889 -0.23751 0.37855 0.038019 0.11335 -0.26493 0.1737 0.38297 -0.1192 -0.47861 -0.34461 0.19327 0.26522 -0.14021 -0.24257 0.0049604 0.066381 -0.74368 0.06964 -0.037629 -0.19901 0.25715 0.0072047 -0.24987 -0.35436 -0.23757 -0.34397 -0.085018 0.23958 0.31178 0.32741 -0.44555 0.22934 -0.11384 0.19716 -0.21345 -0.13669 -0.41339 0.19079 0.76412 0.40853
atmosphere 0.14988 -0.087357 0.085511 -0.035134 -0.26179 0.015581 -0.12436 -0.15672 0.51592 -0.31078 0.46447 0.039013 0.015581 -0.22199 -0.21509 -0.047861 0.11648 -0.058933 0.38732 -0.083927 -0.027233 -0.071574 0.01755 -0.031917 -0.30908 -0.045579 0.19955 0.38376 0.13313 0.30456 -0.013837 0.39571 -0.20545 -0.27594 -0.11089 0.0047993 0.018905 0.13633 -0.25776 -0.29297 0.124 -0.46048 0.13779 -0.32683 -0.35301 0.044369 0.24361 0.18435 0.19369 0.23485 0.057294 0.26212 -0.31481 0.22337 0.06698 0.29412 0.20788 0.26646 -0.21113 -0.61518 0.17452 0.22129 0.19284 -0.15985 0.19746 0.084997 0.17469 0.16547 0.080152 -0.65576 -0.068422 0.49384 -0.25457 -0.063534 0.14762 -0.11904 -0.18467 -0.13471 -0.36803 -0.2497 0.3131 -0.15336 -0.094312 -0.23326 -0.077928 -0.047447 0.017975 -0.034942 0.11979 0.017312 -0.62136 0.06332 -0.32077 0.016895 -0.06267 -0.25794 -0.36666 -0.14099 -0.078286 0.39496
practice 0.0076931 -0.012921 0.14732 -0.19846 -0.2034 0.2349 -0.11942 -0.18541 0.55528 -0.35792 0.37335 0.18128 0.014148 0.015186 -0.37066 0.0089581 0.074803 -0.14921 0.25795 0.05195 -0.10432 -0.051516 0.012934 -0.023048 -0.2847 -0.13619 0.15814 0.48326 0.13181 0.10733 0.10915 0.17998 -0.059077 -0.21416 -0.28179 -0.24569 -0.10625 0.022487 -0.12767 -0.29141 0.054602 -0.63784 0.16595 -0.24343 -0.19279 -0.051153 0.25517 0.10912 0.2451 0.28967 -0.083012 0.44495 -0.24296 0.45061 -0.06212 0.30847 0.31636 0.31886 -0.236 -0.40568 0.10691 0.4736 0.21738 -0.12257 -0.075658 0.21807 0.47064 0.1561 -0.08673 -0.76394 0.24602 0.1538 -0.057754 -0.10556 0.11119 -0.030646 -0.32087 -0.19093 -0.10938 -0.081685 0.49438 0.0061823 -0.19509 -0.15126 -0.0024983 -0.13026 -0.17854 0.03276 0.22768 -0.16585 -0.60968 0.16517 -0.57551 0.088207 -0.21438 -0.33142 -0.45722 -0.15282 0.20994 0.32672
movie -0.19169 -0.34896 0.19376 0.32027 0.25469 0.16938 -0.13682 -0.24371 0.44792 -0.31214 0.28346 0.092695 -0.10756 -0.38884 -0.21599 -0.2468 0.14339 -0.14728 0.45936 -0.26321 -0.30874 -0.052791 -0.19738 -0.12625 -0.097554 -0.35914 -0.0054815 0.33289 0.34889 0.11868 -0.35933 0.5725 -0.29465 -0.19289 0.10301 -0.14055 0.26774 -0.21616 0.049642 -0.57176 0.13616 0.070895 0.29956 0.0070172 -0.25541 0.13968 0.10585 0.12357 0.30733 -0.19435 0.17625 0.1618 -0.27757 0.2034 -0.22378 0.50326 0.12492 0.23195 -0.027869 -0.69835 -0.11996 0.26222 0.35647 -0.19886 -0.089067 0.14636 0.067629 -0.041964 0.11293 -0.655 -0.18297 0.28512 -0.50101 -0.081884 0.068535 -0.2362 -0.49766 -0.36572 -0.0038534 0.064365 0.36141 -0.60731 -0.084509 -0.15359 -0.52857 0.075944 -0.13463 0.39405 0.0092259 -0.05075 -0.32374 0.41431 -0.8583 5.2916E-4 -0.072795 -0.13395 -0.55435 0.035563 0.43568 0.62595
popcorn 0.048892 -0.078585 0.091887 -0.042673 -0.1588 0.054337 -0.11682 -0.19501 0.31107 -0.21079 0.32212 0.11423 -0.027346 -0.13418 -0.33807 -0.057584 0.16996 -0.18516 0.1868 -0.061163 -0.028353 0.028491 0.0084721 -0.082949 -0.17313 -0.092723 0.17405 0.37269 0.22738 0.13716 0.096579 0.34894 -0.20672 -0.23389 -0.028176 -0.20221 0.10136 -0.006205 -0.061351 -0.28994 0.18893 -0.41277 0.09011 -0.16982 -0.23829 0.045436 0.15 0.15124 0.073377 0.099886 0.071943 0.16086 -0.29429 0.20237 0.013512 0.37469 0.3109 0.090537 -0.30908 -0.35065 0.11937 0.15789 0.28118 -0.14112 -0.12247 0.19517 0.12898 0.064387 0.018856 -0.60962 0.087972 0.32218 -0.12687 -0.12194 0.01749 -0.13279 -0.25844 -0.020879 -0.21035 -0.076598 0.27957 -0.11341 -0.16071 -0.14191 -0.10612 -0.060076 -0.036652 -0.0073254 0.17663 -0.023571 -0.41085 0.027954 -0.42028 0.043589 -0.11434 -0.24008 -0.32431 -0.11306 0.065251 0.36844
recommendation 0.11895 -0.099704 0.024716 0.0062022 -0.20553 0.037196 -0.33209 -0.20312 0.45266 -0.24254 0.40711 0.010346 -0.010221 -0.034426 -0.41913 0.0044044 0.09739 -0.067686 0.277 -0.013041 -0.025574 0.049432 -0.050643 -0.044712 -0.25208 -0.0010328 0.14272 0.44717 0.14677 0.16031 0.17281 0.18431 -0.05291 -0.02711 -0.091089 -0.22655 0.10836 0.16792 -0.12785 -0.17851 0.090871 -0.52121 0.024944 -0.18772 -0.084576 0.088575 0.29581 0.14608 0.15159 0.15202 -0.1165 0.12886 -0.33829 0.30264 -0.11015 0.34433 0.30845 0.19005 -0.32022 -0.34541 0.12262 0.30778 0.17328 -0.16938 -0.10594 0.2994 0.37809 0.098586 -0.098654 -0.63369 0.06204 0.16593 -0.20054 -0.12821 0.18111 -0.038251 -0.31477 0.080758 -0.15879 -0.096893 0.45238 0.042327 -0.17995 -0.19938 -0.14856 -0.20154 -0.1841 0.016131 0.22926 -0.026813 -0.54096 -0.0065341 -0.44932 0.11182 -0.23423 -0.17357 -0.49672 0.0039254 0.29538 0.30276
focus 0.33009 0.017012 0.055349 0.10376 -0.46751 -0.013722 -0.49688 -0.30934 0.86229 -0.33262 0.61227 0.10108 0.086275 -0.06056 -0.29014 0.29423 0.051441 -0.2805 0.29458 -0.03293 -0.15016 -0.014842 0.041588 0.043792 -0.14499 0.07132 0.12959 0.51001 0.19023 0.32272 -0.052037 0.35254 -0.016344 -0.1041 -0.10454 -0.11049 0.26708 0.25338 -0.28634 -0.020564 0.15948 -0.67498 0.059944 -0.25664 -0.27885 -0.071391 0.37564 0.25347 0.25223 0.19269 -0.031612 0.12116 -0.44754 0.22548 -0.12301 0.2681 0.35472 0.17157 -0.4491 -0.64108 0.093843 0.38157 0.27678 -0.041766 9.0494E-4 0.1546 0.4755 0.032084 -0.029757 -0.77064 0.082447 0.095551 -0.4046 -0.31304 0.25527 0.024011 -0.44235 -0.14381 -0.284 -0.17363 0.39865 -0.079017 -0.21078 -0.31789 0.10863 -0.013263 -0.13557 0.1035 0.24837 -0.060282 -0.59011 0.11087 -0.36966 0.15596 -0.24461 -0.37368 -0.64517 -0.088534 0.405 0.40533
attempt 0.026507 -0.30216 0.14667 0.061751 -0.4098 -0.2283 -0.20479 0.084772 0.41762 -0.1123 0.55949 -0.13722 0.061082 0.25896 -0.29385 0.16878 0.3198 0.0092487 0.38152 -0.13855 0.051908 0.12385 -0.28236 -0.15843 -0.21118 0.11026 0.32465 0.54168 0.1594 0.18659 0.14301 0.27375 -0.26035 -0.18433 -0.15493 -0.42691 0.083067 0.23767 0.011915 -0.30765 0.091036 -0.64521 0.068903 -0.33387 0.1858 0.07849 0.3178 0.14298 0.11756 0.31923 -0.20941 0.39213 -0.25051 0.36125 -0.28646 0.537 0.47865 0.38586 -0.36201 -0.83289 0.19403 0.21253 0.061293 -0.12604 0.010585 0.34716 0.44471 0.16126 -0.060536 -0.34525 0.26883 0.27417 -0.065726 -0.098684 0.30922 0.16413 -0.18876 0.019792 -0.034415 0.013388 0.28212 -0.13563 -0.28599 -0.23492 -0.011729 -0.25823 -0.020108 -0.42306 -0.072701 -0.21072 -0.51168 -0.0050787 -0.58836 0.051149 -0.33582 -0.40038 -0.23735 -0.027579 0.28042 0.15443
approach 0.33762 -0.23595 0.031786 0.12813 -0.33819 0.063762 -0.46463 -0.14328 0.46332 -0.22335 0.48755 -0.062364 0.056778 0.0071124 -0.32152 0.16004 0.097007 -0.092351 0.54886 0.0032785 -0.21851 -0.16945 0.0043289 -0.086692 -0.26253 -0.01723 0.17884 0.25635 0.12551 0.15833 0.074209 0.30905 -0.071494 -0.048455 -0.075597 -0.13393 0.12104 0.16726 -0.28048 -0.34733 -0.044792 -0.73237 -0.082969 -0.33709 -0.25694 0.025973 0.17344 0.19932 0.31983 0.14786 -0.10863 0.19135 -0.53484 0.34414 -0.030831 0.3118 0.29423 0.39417 -0.21853 -0.70502 0.2079 0.34896 0.0097298 -0.16911 0.074737 0.076402 0.3453 0.14966 -0.082627 -0.65648 0.17615 0.26695 -0.34107 -0.046354 0.16402 0.06152 -0.43825 -0.1157 -0.18792 -0.35204 0.36383 -0.091914 -0.11578 -0.38547 -0.069305 -0.078809 -0.0067143 -0.035047 0.27769 0.082061 -0.52549 0.098511 -0.39673 0.12533 -0.23887 -0.24981 -0.46128 -0.18814 0.49714 0.37595
number 0.0035113 0.11457 0.10911 -0.019561 -0.022865 0.31125 -0.4419 0.068047 0.48543 -0.12559 0.22109 0.048879 -0.083932 -0.066555 -0.60898 -0.11961 -0.34643 -0.34525 0.2941 0.023456 -0.067578 0.081061 0.11395 -0.038408 -0.10386 -0.085578 0.22774 0.73135 0.36133 0.26004 0.077721 0.37151 0.05968 -0.072337 -0.23099 -0.15397 -0.069452 0.31175 0.12974 0.018094 0.40731 -0.53154 -0.27116 -0.23778 -0.23028 -0.027148 0.36772 -0.071761 -0.17034 0.34983 0.0385 0.34154 -0.22416 0.48613 -0.065414 0.37738 0.028406 0.29229 -0.13411 -0.3873 0.1129 0.35754 0.2496 -0.036985 -0.18931 0.2414 0.075724 -0.045543 -0.002985 -0.63877 -0.19055 0.040134 -0.058836 -0.032957 0.23016 0.079437 -0.39189 -0.17417 -0.37641 -0.066771 0.62766 0.011472 -0.3434 -0.14683 -0.22672 0.055085 -0.16356 -0.034071 -0.086749 0.26244 -0.78508 -0.0458 -0.83035 0.19427 -0.49098 -0.37502 -0.64947 -0.17263 -0.25582 0.40199
property 0.013757 -0.14382 -0.036304 -0.20502 0.0019946 -0.018682 -0.32136 -0.53963 0.059326 -0.29941 0.39679 0.016521 0.03953 -0.17552 -0.34791 -0.083894 0.047877 -0.2389 0.21832 -0.10381 0.14098 0.20775 0.14412 0.21006 -0.43205 0.16626 0.0014013 0.66613 0.29908 0.0049195 -0.024157 0.16461 -0.115 -0.15659 0.28042 0.023513 0.13291 -0.091633 -0.082677 -0.32697 -0.042296 -0.8135 -0.50954 -0.56117 -0.095451 0.21527 0.49006 0.060919 0.12572 0.051517 -0.072962 0.29916 -0.2738 0.40874 0.15981 0.085312 0.64773 0.10743 -0.26402 -0.59758 0.022249 0.35456 0.62147 -0.24898 -0.071015 0.37685 0.39555 0.056016 0.085496 -0.73838 -0.050375 0.29164 -0.046723 -0.19968 0.29871 -0.25079 -0.36416 0.27761 -0.28781 -0.18525 0.51656 -0.18648 -0.033887 0.11031 -0.19289 -0.22171 -0.17521 -0.055259 0.16543 -0.16129 -0.56336 -0.30642 -0.40032 -0.2281 -0.03351 -0.047126 -0.44031 -9.5676E-4 -0.23994 0.028903
fingerprint 0.044339 -0.13225 0.11512 9.2885E-4 -0.13141 0.043746 -0.20353 -0.22924 0.40453 -0.25055 0.3548 0.055711 0.056979 -0.071347 -0.44825 -0.034522 0.095311 -0.062819 0.22936 0.0094936 0.018183 0.055002 -0.11045 -0.081995 -0.25707 -0.092762 0.25198 0.44398 0.12888 0.12004 0.097015 0.2994 -0.062108 -0.14847 -0.15133 -0.20694 0.068564 0.12007 -0.18702 -0.25406 0.28102 -0.3841 0.062391 -0.21099 -0.2213 0.14052 0.35483 0.11057 0.12171 0.18908 -0.040653 0.20367 -0.25266 0.29059 -0.028078 0.43267 0.35886 0.16138 -0.29818 -0.3384 0.151 0.33275 0.2142 -0.22046 -0.075946 0.29303 0.29613 0.11936 0.077444 -0.59909 -0.029196 0.27445 -0.025822 -0.0481 0.17188 0.011729 -0.33198 0.07345 -0.11345 -0.080498 0.50437 -0.0045659 -0.15951 -0.093146 -0.1146 -0.057583 -0.0046726 0.020408 0.095217 -0.054498 -0.50939 -0.048621 -0.44004 0.024632 -0.17315 -0.20795 -0.47909 -0.090001 0.11214 0.36785
reservation 0.091264 -0.096447 0.08374 -0.051543 -0.2773 0.059449 -0.19152 -0.1756 0.45125 -0.23926 0.42055 0.045913 0.047508 -0.17556 -0.33721 0.020973 0.11477 -0.12067 0.2449 -0.11235 -0.016904 -0.057628 -0.046659 0.015479 -0.22808 -0.035178 0.1569 0.44406 0.18156 0.25736 0.15761 0.26683 -0.054693 -0.16231 -0.13979 -0.17672 0.13165 0.076247 -0.16902 -0.17227 0.17556 -0.52354 0.023299 -0.23563 -0.18064 0.087458 0.32523 0.11083 0.13015 0.19006 -0.084992 0.192 -0.28667 0.34394 -0.10244 0.37026 0.33074 0.2318 -0.27009 -0.47074 0.17864 0.2463 0.17165 -0.039275 0.062093 0.22576 0.25758 0.093546 -0.054795 -0.65867 0.013051 0.29877 -0.16806 -0.065349 0.16549 -0.031605 -0.28762 0.043177 -0.26888 -0.2311 0.41651 -0.017359 -0.1842 -0.17917 -0.093307 -0.089238 -0.028013 0.054645 0.18055 -0.0094817 -0.62008 0.02156 -0.41711 0.032816 -0.16986 -0.21086 -0.46279 -0.09915 0.1013 0.34148
block -0.066937 -0.15246 0.0066382 -0.10965 -0.20323 -0.22514 -0.13127 -0.37193 0.4227 -0.11693 0.42595 0.022487 0.0032968 -0.060851 -0.38702 -0.06626 0.1243 0.074622 0.2821 -0.34503 0.11708 -0.085976 -0.073045 -0.085208 -0.20905 -0.087149 0.081695 0.39163 0.39067 0.098655 0.34031 0.33472 -0.11138 -0.21407 -0.028929 -0.20537 0.08678 0.18796 -0.013299 -0.26053 0.18062 -0.38318 -0.012624 -0.50771 0.1541 0.17345 0.41811 0.16662 0.1856 0.35006 -0.11639 0.33936 -0.36713 0.29661 -0.21647 0.36104 0.53227 0.24735 -0.40813 -0.53203 0.2751 0.15653 0.1702 -0.078906 -0.057492 0.45689 0.26102 0.29717 -0.045796 -0.72466 0.096606 0.51689 -0.35727 -0.041074 0.23826 0.1017 -0.11263 0.14201 -0.079985 0.07529 0.35682 0.21615 -0.13387 0.037914 0.0075205 -0.25598 -0.12773 -0.22018 0.27915 -0.31847 -0.65859 -0.16204 -0.32672 0.24076 -0.095725 -0.35239 -0.33767 -0.15322 0.080069 -0.045809
fear 0.37048 -0.15492 0.19937 0.096124 -0.42336 0.30597 -0.39272 -0.13 0.59959 0.068634 0.78859 -0.086256 0.0022597 0.071113 -0.18949 0.35078 -0.036306 -0.038786 0.32939 0.042485 -0.11908 -0.11913 -0.050453 0.22373 -0.40725 0.031554 0.28026 0.38536 0.11361 0.069343 0.14335 0.56739 -0.16435 -0.20526 -0.19125 -0.09488 0.057027 0.17952 0.011988 -0.23468 0.1438 -0.40529 -0.032183 -0.52143 -0.20835 0.56533 0.57942 0.025532 0.055416 0.13757 0.039456 0.41175 -0.052093 0.28811 -0.064539 0.36764 0.28745 0.6512 -0.19869 -0.80967 0.17511 0.21367 0.25364 -0.095064 -0.070822 0.33523 0.69799 0.086537 0.2545 -0.61472 -0.17633 0.1238 -0.23999 -0.12492 0.32738 0.13586 -0.34903 -0.099583 -0.36555 -0.23719 0.46511 -0.26712 -0.10928 -0.29188 -0.20456 -0.14511 -0.20928 -0.094464 -0.26713 0.22004 -0.49107 -0.13444 -0.32122 0.052382 -0.27066 -0.46888 -0.40122 0.035798 0.12261 0.38395
