432 300
plane 0.39972 -0.07234 0.019959 -0.49005 -0.13662 0.32507 -0.0041293 -0.44414 0.56362 -0.16053 0.034152 -0.41515 -0.36875 -0.09319 -0.49958 0.55521 0.064047 -0.2898 0.23745 0.35717 0.21242 0.11617 -0.35752 0.27155 0.021579 0.096973 0.12438 -0.35615 -0.50595 0.020121 -0.23681 0.24429 0.45676 -0.026497 -0.51143 0.031768 -0.41559 -0.032304 0.1604 0.23704 -0.11317 -0.070026 -0.25474 -0.34299 0.037019 -0.4345 0.11707 -0.1195 0.018803 -0.13384 0.093638 -0.18191 -0.23895 -0.27479 0.20602 -0.15706 -0.13042 0.011081 -0.1091 -0.0073096 0.029451 -0.15679 -0.39847 -0.17691 0.092011 0.12642 0.039577 0.14088 -0.17238 -0.027116 0.17033 0.030867 0.10378 -0.050033 -0.35428 -0.23134 0.55134 -0.31533 -0.28161 -0.4273 -0.10001 -0.34299 0.076849 0.067061 0.15658 -0.165 0.36543 -0.28531 0.34591 0.065038 0.22755 0.040899 -0.07682 0.24945 0.44265 -0.076115 0.61377 -0.059165 0.064173 0.34299 0.34267 0.34827 -0.018245 0.080129 0.46727 0.35981 0.23268 -0.014834 -0.027994 -0.090199 0.12976 0.23899 0.075962 0.11317 0.54733 0.21096 -0.13181 0.11105 0.11563 0.079383 -0.16481 0.32187 0.23859 0.048134 -0.32388 -0.022907 0.086609 0.41865 -0.0206 -0.31698 0.080836 -0.244 -0.08377 0.30022 -0.27469 -0.08994 -0.04775 0.061092 0.55667 0.49154 0.1686 -0.15103 -0.19488 0.12188 -0.11966 0.23784 0.28414 -0.038787 0.090436 0.059822 0.082113 -0.54311 0.1972 0.048478 -0.6127 0.13575 -0.52376 -0.34382 -0.11029 0.098949 0.030967 -0.14983 0.078304 -0.42135 -0.027762 -0.2449 -0.20623 -0.095429 -0.078246 0.048111 0.10112 -0.090809 -0.056373 -0.11021 0.067673 -0.17752 0.15537 0.068842 -0.36801 0.18848 -0.38106 -0.25261 -0.12333 0.017775 -0.16051 0.43964 0.20574 0.036001 0.15025 0.21933 -0.035791 -0.41086 -0.21609 -0.065696 0.038518 -0.39095 0.16789 0.21355 0.18051 -0.28278 0.25873 -0.24584 -0.084237 -0.4299 -0.24839 0.066826 -0.23376 -0.49436 0.05372 -0.23707 0.33306 -0.13678 0.13398 -0.060315 0.32434 0.59499 -0.16874 -0.10775 -0.13004 -0.15272 0.067039 0.18273 0.20351 0.33679 0.023812 0.51513 0.086384 -0.25055 -0.36159 0.06982 -0.14029 -0.3402 -0.19988 -0.55922 0.042959 0.20857 0.099818 -0.10733 0.44453 0.48178 0.31057 -0.078653 0.32692 -0.077675 0.31878 0.016259 0.18111 0.14279 -0.17948 0.2752 0.20714 0.22707 0.29386 0.028082 -0.22349 0.014444 -0.059587 0.20656 0.2031 -0.11353 0.32415 0.014662 0.29123 -0.42182 -0.27548 0.26559 0.14053 0.43735 0.23831 -0.13495 -0.42995 -0.095364 0.11087 0.18459 -0.18237 0.4938 0.25801 -0.14201 0.55242 0.13707 -0.35741 0.29139 -0.22919 -0.11135 0.23618 0.059333 0.35872 -0.1178 -0.19843 0.28259 -0.042765 -0.10583 0.23639 -0.25234 0.38653 0.21111 -0.1716 0.548 -0.030797 0.28499
stupid -0.079626 0.023421 -0.1859 0.010437 0.22381 0.13629 0.38343 -0.081834 0.16227 0.16753 -0.18982 -0.2832 -0.37621 0.050915 -0.10535 -0.29409 -0.047469 0.0085035 0.031682 0.043687 0.040297 0.27413 0.01119 -0.09063 0.3907 0.32246 0.48676 -0.31135 -0.2013 -0.098174 -0.32568 -0.23149 0.37831 -0.12231 0.34861 -0.16504 -0.64351 -0.6471 -0.01454 0.1042 0.13851 0.2224 -0.068939 0.0067315 0.29205 -0.15809 0.19144 0.15546 0.19489 -0.049876 0.036348 0.015007 -0.33197 0.1595 -0.16652 0.10687 -0.21026 -0.13048 -0.24113 -0.11911 0.057003 -0.26941 0.25559 -0.09055 -0.14975 0.078779 0.20183 0.013959 -0.35905 0.0086218 0.86321 -0.20211 -0.17023 -0.034533 -0.45841 0.26471 0.17911 -0.016847 -0.12202 -0.41658 -0.13689 0.1269 -0.44038 -0.31625 -0.52528 0.21513 -0.10188 -0.45996 0.088969 -0.41842 0.29144 -0.16524 0.28175 0.090274 -0.028757 -0.2215 -0.37503 0.14338 0.034834 -0.095704 0.017422 0.15572 0.020439 -0.013696 0.13673 0.18491 0.0078392 -0.46096 0.046507 -0.30043 0.48531 0.068769 -0.17739 0.17988 -0.10077 0.057101 0.23274 -0.20686 -0.14037 -0.78327 0.27787 0.018186 0.1417 -0.016083 -0.22784 -0.088607 0.2218 0.080416 -0.23327 -0.088046 0.041759 0.11642 -0.26425 -0.1934 -0.30378 -0.045733 -0.34621 0.35694 -0.054569 0.26775 0.11591 -0.22709 0.071768 0.14281 -0.36455 0.16548 -0.51523 -0.11937 0.32584 0.37945 -0.31813 0.54655 0.2333 -0.016064 -0.48197 -0.08814 -0.11008 0.086651 -0.050484 0.047656 0.56435 0.1629 -0.34658 0.17981 0.19453 -0.18774 -0.093922 -0.21224 -0.46075 0.060369 -0.071278 -0.069276 -0.15242 0.43123 -0.1457 0.35603 0.49083 0.39815 -0.21634 -0.39409 -0.20707 -0.2054 0.030813 0.28119 0.024871 0.030124 0.27109 -0.19656 -0.10288 0.42445 0.093087 -0.39038 0.050412 -0.2721 0.34465 0.061024 -0.12381 0.55201 -0.11684 -0.14768 0.28096 -0.08389 -0.18425 -0.1343 -0.26435 -0.30292 -0.3198 -0.30486 0.090031 -0.021596 0.10476 -0.3126 0.092519 0.14262 -0.014342 0.4648 0.0022882 -0.29958 -0.099937 -0.26573 -0.29405 -0.14987 0.31849 0.12891 0.20031 0.062447 -0.079149 -0.23929 -0.050131 -0.083744 -0.13653 -0.0035008 -0.23647 -0.13781 -0.18912 0.05665 0.073511 -0.032061 0.0018753 0.15029 0.17749 0.1544 -0.17739 0.31703 -0.5285 -0.62646 -0.18441 0.23869 -0.13112 0.030815 0.2049 -0.013089 -0.34383 0.50972 0.51961 -0.23952 0.3646 0.042223 0.0033082 0.19965 -0.18021 -0.53476 0.13332 0.056769 -0.12416 0.27555 0.0076099 0.016953 -0.3165 0.01668 -0.12448 0.10176 0.21236 -0.20463 -0.31414 0.13517 -0.29592 0.11365 0.27739 -0.24909 0.077436 0.19187 0.31089 -0.41595 0.17602 -0.010992 0.61771 0.050138 -0.076832 -0.057015 0.18938 0.22016 -0.042959 0.39706 0.1642 -0.1058 0.43229 -0.48939 -0.1381 -0.21991
egg 0.50041 -0.039258 -0.16009 0.33834 0.43796 0.18885 -0.3867 -0.49963 -0.51851 0.15816 0.05178 0.038695 0.38506 -0.19986 -0.3551 -0.075237 0.1656 -0.047887 0.79307 0.13314 -0.096861 0.16294 -0.0071852 -0.28198 0.10755 0.18997 -0.16876 -0.1211 -0.59474 -0.20751 -0.29025 -0.15348 -0.2614 -0.062309 -0.28408 0.014632 -0.17493 -0.20493 -0.14097 0.40877 0.48423 -0.03137 -0.34065 0.30462 -0.078005 0.28948 0.02357 -0.062693 0.20611 0.45742 0.26158 -0.7286 -0.0010296 0.14259 -0.04277 0.3006 -0.29754 -0.64941 -0.24178 -0.26227 -0.45062 0.064833 0.47193 -0.22599 0.2361 -0.38529 -0.25954 0.054307 -0.59358 0.17284 -0.11784 -0.28318 0.081364 0.045858 -0.40278 -0.035148 -0.022013 -0.49132 0.17835 -0.070151 0.34613 -0.029829 -0.061857 0.073645 0.055896 0.1281 0.0092433 -0.09604 0.50875 0.31762 0.37948 -0.24944 -0.28554 -0.2463 0.12083 0.34166 -0.29739 0.55535 0.42664 -0.18415 0.10963 0.19588 0.027337 0.11525 0.45447 0.23524 -0.09448 0.033873 0.12216 -0.16891 0.22783 0.064934 -0.37822 -0.25532 0.0018721 0.64509 0.078499 0.36108 0.67899 -0.30917 -0.57579 -0.13979 -0.11982 0.12433 -0.54516 0.0055189 0.040827 0.38766 -0.080429 0.077832 0.13013 0.080501 0.50753 -0.083229 0.26121 0.39373 0.2327 0.02535 -0.32532 0.075941 0.26254 -0.015727 -0.4917 0.33151 0.088602 0.17663 -0.25666 -0.2989 -0.094999 -0.018454 -0.031659 -0.12673 -0.19332 -0.20081 -0.21938 -0.093117 -0.14457 -8.934E-4 0.087202 -0.1107 0.059101 0.41873 -0.27169 0.21046 0.10746 -0.27774 0.27151 0.13495 0.1065 0.077236 0.27445 0.13322 0.072962 0.093492 0.26458 -0.19429 0.59464 -0.0016532 -0.46672 -0.4234 0.052611 -0.15825 0.57865 -0.47564 0.19447 -0.23666 0.11552 -0.093404 0.26748 0.51966 0.1444 -0.34434 -0.18468 -0.9143 -0.066667 0.31743 -0.11727 0.13395 -0.49986 -0.018814 0.068771 0.20739 0.22673 0.38827 0.075803 0.47195 0.208 0.015495 -0.083758 -0.52658 0.084583 0.13714 -0.43754 -0.3159 -0.16364 0.26216 0.28109 -0.21402 -0.67214 0.28666 -0.47555 -0.080288 -0.023997 0.12005 -0.12703 -0.042318 -0.13611 -0.24495 0.15626 -0.56395 -0.074409 0.27446 -0.22308 0.06522 -0.052678 -0.1125 0.010003 0.49151 0.73827 -0.45209 0.06566 0.30254 -0.41992 0.057873 0.055984 0.24082 -0.6224 0.30508 0.15396 -0.53207 0.20856 0.28621 0.01653 0.11549 -0.082764 -0.14025 0.41708 -0.15539 -0.040046 0.27518 0.031025 -0.62663 0.17619 0.22447 0.38395 -0.22768 -0.050548 0.10134 -0.024054 0.25996 0.027643 -0.084201 0.58515 -0.26636 -0.37074 0.087349 8.3532E-6 0.039518 0.38111 -0.47869 -0.29031 -0.3283 -0.54461 0.22189 0.41338 -0.034849 -4.4879E-4 0.45465 -0.21237 0.1691 0.22803 -0.11327 0.34003 0.19092 0.67895 -0.45881 0.045789 0.648 -0.1274 0.46218
year -0.0010326 0.064678 0.11834 -4.6403E-4 -0.034803 0.052243 -0.13273 -0.052331 -0.089348 -0.31605 0.14463 0.25468 -0.0019435 -0.036757 -0.17947 0.13616 -0.19583 0.14976 0.050925 0.19226 -0.10559 0.10515 -0.092418 -0.062286 0.01176 0.13147 0.14684 -0.1621 -0.28683 0.031631 -0.13789 0.17552 0.38839 -0.22602 -0.11791 -0.073126 -0.035171 -0.1964 0.13646 0.079866 0.15334 0.027688 -0.081814 -0.15864 0.31098 -0.15375 0.16888 -0.17945 0.10766 -0.04131 -0.15938 -0.14577 0.076087 -0.054568 -0.15289 0.027094 -0.16815 -0.033047 0.24201 -0.1779 0.041159 0.095473 0.089179 0.009469 -0.19597 0.074142 -0.038393 0.18087 0.18386 0.014914 -0.0037509 -0.13181 0.058546 0.10757 0.1709 0.058734 -0.2451 -0.08409 0.24226 0.22824 -0.063258 -0.031009 -0.011475 0.013102 -0.17951 0.21892 0.24799 -0.019705 -0.11001 0.0021039 -0.025147 -0.016138 -0.020377 -0.14003 0.027892 0.10156 0.22497 0.16915 -0.16839 -0.18244 0.43944 0.052729 0.093803 0.5184 -0.21032 0.39319 0.081188 -0.0056272 0.13184 0.21466 0.084227 0.10707 -0.0055014 -0.42173 0.048555 -0.038851 0.02354 0.010021 0.11687 -0.17845 -0.046904 -0.051159 0.034388 0.033453 -0.067063 -0.024506 0.11589 0.11804 -0.20388 -0.12838 0.059481 -0.12033 7.2809E-4 -0.16059 0.16949 -0.033454 0.24258 0.22545 0.13549 -0.20814 -0.37119 0.050884 -0.10818 -0.085179 -0.19056 -0.020246 -0.19298 -0.096371 -0.025257 0.11138 0.040655 0.12465 0.046894 -0.24182 -0.26141 -0.26708 -0.18775 -0.095397 -0.17479 0.044716 -0.010407 -0.14943 0.0014298 -0.068922 -0.17532 -0.14752 0.08714 -0.085078 -0.20914 0.09921 -0.13695 0.016724 -0.25149 0.19877 -0.020353 -0.27409 -0.097541 -0.13439 0.0088761 -0.051834 -0.071284 0.10966 -0.080751 0.084353 -0.16303 -0.014001 0.12755 0.27054 -0.22865 0.13962 -0.0065952 -0.02677 -0.11968 -0.022056 -0.13919 0.055636 -0.273 -0.087515 -0.019768 -0.22563 0.33663 -0.23727 -0.14342 -0.39886 -0.28036 0.036824 0.16781 -0.15261 -0.2229 0.15069 -0.017614 -0.16186 0.12933 0.17249 -0.14138 0.10517 -0.038603 -0.12051 -0.23576 0.12393 0.1023 -0.17477 -0.014137 -0.0023283 -0.088892 0.078241 0.059571 -0.075156 -0.096877 0.19647 -0.20226 0.09837 0.19926 -0.23284 0.18787 -0.082286 -0.27322 0.039676 -0.069302 0.13868 -0.42119 -0.0034128 -0.46146 0.16693 -0.059862 0.071589 -0.080618 0.055818 0.11092 0.14252 0.18396 -0.12412 0.0050796 0.20149 0.12324 -0.013034 0.08005 0.033035 -0.16801 0.11967 -0.1658 0.11291 0.16827 0.10536 0.10982 0.0034351 -0.18169 -0.27827 -0.53091 -0.029038 0.050304 -0.050853 0.40961 -0.040485 0.013667 0.045832 -0.070087 0.20381 0.035047 -0.34733 -0.037018 -0.071211 0.28984 -0.11276 0.069227 -0.11007 0.13522 0.21291 -0.21704 0.56686 -0.21915 -0.02817 -0.038488 -0.56866 0.096928 0.12166 0.19351 0.27639 -0.12699 0.17142
psychiatry 0.55693 0.45742 -0.27092 -0.064798 -0.024882 0.24922 -0.25292 -0.055746 0.22463 -0.12701 -0.02168 -0.038869 0.40476 -0.17008 -0.17488 -0.023925 -0.045058 -0.17102 0.15017 -0.25691 0.26664 -0.19571 -0.040605 0.1504 -0.11719 -0.29535 0.18222 0.034627 -0.17956 -0.5195 -0.42691 -0.44635 0.46017 -0.024525 0.50153 -0.16522 -0.44607 0.16856 -0.027294 -0.0030493 0.15077 0.37324 -0.057099 -0.70473 0.085255 -0.029446 0.72472 -0.14338 -0.1924 0.21423 -0.18987 -0.6348 -0.080634 0.1732 0.39923 0.014251 -0.15879 -0.35899 -0.39009 0.32433 0.18971 -0.29417 0.20697 -0.12228 -0.15215 -0.25077 -0.43315 -0.074796 0.10092 -0.042176 0.53375 0.55812 0.12516 0.39135 -0.24497 0.24801 -0.24943 -8.8436E-4 0.15536 0.41826 -1.8738E-4 0.76717 -0.13727 -0.29776 -0.015051 0.25674 0.13214 -0.27952 0.55036 -0.038229 0.48559 -0.37963 -0.23525 0.050973 -0.31753 -0.28681 0.2112 0.28506 0.0059032 0.58309 -0.12118 0.0073434 -0.3354 -0.33526 -0.27782 0.11324 0.23689 0.37754 -0.25866 0.2607 0.16546 -0.0051163 0.014808 -0.06796 -0.24398 -0.10311 0.35887 -0.17397 -0.11418 -0.14067 0.16987 0.20331 0.1389 -0.35921 0.015801 0.76109 0.11745 -0.036151 0.42789 0.17158 9.6086E-4 -0.1792 0.38787 -0.3223 -0.016335 -0.24181 -0.99113 0.36562 -0.46779 0.14456 0.22569 -0.037885 -0.50754 0.071134 0.029875 -0.32111 -0.4503 -0.38772 -0.13017 -0.58528 -0.25962 0.17519 -0.39543 0.48298 -0.5747 -0.25141 -0.34005 0.15459 0.33521 0.069218 -0.28474 -0.10953 -0.097503 0.23475 0.08412 0.0021771 -0.010275 0.080641 -0.073599 0.098992 -0.10215 0.21625 0.11048 0.13271 0.080024 -0.42605 -0.0052228 0.14584 -0.15754 -0.19242 -0.13526 0.0095065 0.21113 0.70293 0.26943 -0.040731 0.40388 -0.28685 -0.33454 0.34924 0.095624 0.17146 0.10232 0.057946 -0.090559 -0.044845 0.034564 0.29264 0.02109 -0.15176 0.34185 0.43199 0.082799 -0.041402 0.28456 -0.34464 -0.067507 -0.31539 0.094408 0.077664 0.42177 -0.61734 0.041852 -0.20706 -0.051598 -0.039453 0.17514 -0.30377 -0.21272 -0.45749 -0.24135 -0.15302 0.046497 0.47261 -0.0092756 0.15007 0.035458 -0.099998 -0.054353 0.037471 -0.30189 0.0045929 0.34547 0.054053 0.15087 0.26176 -0.1179 0.15945 -0.54516 0.25139 0.57825 -0.042668 -0.073627 0.033894 0.64385 -0.32231 -0.17908 0.16668 -0.17785 -0.13375 0.21714 0.11569 -0.12654 0.118 -0.0069988 -0.026412 0.089155 0.2825 -0.061026 0.16046 0.45509 0.049673 0.23786 -0.073558 -0.071735 0.055813 -0.17758 -0.056398 -0.35735 -0.068923 0.42722 -0.016833 0.024929 -0.085925 0.080382 0.094046 0.011101 0.15603 -0.016056 -0.082385 0.35452 -0.14297 0.14328 0.58816 -0.052744 -0.070022 0.29354 0.35024 -0.059356 0.39479 -0.24185 -0.11322 -0.19019 -0.47411 0.28059 0.098398 0.20658 0.026912 -0.17923 0.23915
asylum -0.11459 0.17312 -0.24358 -0.051687 0.1696 0.16866 -0.23712 -0.40522 0.10125 -0.39082 0.19978 -0.073848 0.14153 0.35398 -0.32117 0.75914 0.11482 0.30538 -0.048807 -0.26363 -0.035566 0.13489 0.037729 0.12295 -0.59098 0.0353 0.094102 -0.089179 -0.70351 -0.30112 0.10571 0.41225 0.61026 0.13379 -0.16053 -0.15149 -0.51352 -0.060607 -0.31067 0.36769 -0.23096 -0.064631 0.13941 -0.20392 0.30011 0.29193 0.31787 -0.072795 -0.12969 0.13739 0.074838 0.0030586 -0.2103 0.47016 -0.21168 -0.055543 -0.019332 -0.22785 0.057523 0.12537 0.1283 0.19644 0.10331 0.46511 0.54438 0.36163 0.034668 -0.13259 0.013144 0.21507 0.56386 0.072121 0.33805 0.053687 -0.39428 0.48668 0.24282 0.48359 0.40493 0.04787 0.14346 -0.41395 0.14407 -0.22365 0.07474 -0.15047 0.44644 -0.52187 -0.34421 -0.15064 0.28405 -0.2827 0.43512 0.34722 -0.090341 -0.020992 -0.38796 0.35367 0.25445 -0.059306 0.15379 0.10914 0.43654 0.30043 0.20343 -0.29065 0.41313 0.046593 0.05415 0.19276 0.27749 0.089818 -0.055821 -0.17963 -0.35872 0.02589 0.1292 0.10038 0.27281 -0.15961 0.67081 0.020875 0.13103 -0.56932 -0.65551 -0.0027833 0.054205 -0.15982 0.48583 -0.28424 0.29912 -0.47268 -0.36052 -0.20863 0.34294 -0.023311 0.047944 -0.02459 0.12107 -0.20113 -0.31458 -0.74078 -0.18487 0.29213 -0.0095529 -0.12549 -0.24691 -0.17216 0.13415 -0.010064 0.072456 0.23095 -0.42884 -0.14632 -0.65786 0.088124 -0.023491 -0.20737 -0.012082 0.36407 0.013594 -0.28518 -0.049558 0.08899 -0.14667 -0.34223 -0.12662 0.051986 -0.17187 0.048033 0.24848 0.19219 0.021228 -0.0032271 -0.47769 -0.0852 0.45746 -0.25554 -0.50728 -0.22934 -0.281 0.037439 -0.22638 -0.067343 0.091623 0.21732 0.30774 -0.10219 0.26613 0.1163 0.28543 0.12033 -0.36746 0.3428 0.19359 0.037548 -0.043179 0.2769 -0.43609 -0.50586 0.089974 -0.068801 0.25812 0.093645 0.37284 0.59682 -0.21257 -0.25109 -0.67844 -0.11567 0.06641 -0.15502 0.033497 0.16137 -0.0078315 0.4396 0.044546 -0.32385 -0.061851 -0.074771 0.052927 0.21267 0.079589 0.8037 -0.1999 -0.010127 0.1676 -0.0057737 -0.027984 0.079135 -0.30203 -0.058027 0.22265 0.02998 -0.067768 0.24389 -0.021998 0.10564 -0.25786 0.19948 0.29576 -0.14323 0.41759 0.46077 -0.21674 0.082305 -0.12465 0.13749 0.52297 0.14674 0.48237 -0.096306 0.42321 0.013601 -0.40444 -0.12148 0.099367 -0.021001 0.55808 0.35636 0.17451 -0.2107 -0.21395 0.04854 -0.29938 0.11038 -0.32957 0.15191 -0.38712 0.35097 -0.34263 -0.34756 -0.01712 -0.052203 0.027004 0.079106 0.049781 -0.089023 0.085025 -0.22207 -0.040887 -0.23898 0.077869 -0.1699 -0.19398 -0.17471 0.06945 -0.078402 0.029692 0.12756 0.326 -0.24721 0.06619 -0.3559 0.5643 0.28305 0.054761 -0.12531 -0.42912 0.47858
manslaughter 0.15191 -0.29516 -0.045486 -0.31939 0.14674 -0.017186 0.13343 0.32908 -0.47115 0.19213 0.34917 0.017881 0.18775 -0.18205 -0.10291 0.021365 0.28823 0.54561 -0.22931 0.59072 -0.020247 -0.20993 -0.26109 -0.25335 -0.28727 -0.16629 -0.18432 -0.28616 -0.39098 -0.62286 -0.12443 0.13908 0.93047 0.13377 0.21478 -0.28653 -0.49123 -0.15121 -0.2187 0.10315 0.31539 0.19513 0.19054 -0.24513 0.11675 -0.055469 0.37871 0.26313 -0.11699 -0.39199 -0.25685 -0.73096 -0.38291 0.10048 -0.116 0.33911 -0.031304 -0.35558 -0.30845 -0.016971 0.27096 0.03746 0.18423 -0.34823 0.10299 -0.20341 0.3168 0.42834 -0.049079 0.26618 0.15912 0.19203 -0.29876 -0.15988 0.048536 -0.24807 -0.14981 -0.10036 0.37014 -0.071776 0.4447 0.11113 0.094616 0.181 0.083836 0.11367 0.27552 -0.016077 0.4083 0.48271 0.89366 0.18163 0.17967 -0.46943 -0.31371 0.066791 0.13418 -0.17977 -0.40965 0.18907 0.022096 0.06502 0.45548 -0.31943 -0.14514 0.25032 0.46228 0.19244 0.11295 0.2592 0.48206 0.28292 0.23684 0.0046266 -0.17596 0.5281 -0.20418 -0.090198 0.093338 -0.39942 0.14458 -0.030311 0.11973 -0.3693 -0.16794 0.50791 -0.010909 0.088057 0.42536 0.098368 0.2144 -0.30611 0.46715 0.062295 -0.27835 -0.33378 -0.64198 -0.73368 -0.24216 0.10623 0.35222 -0.27646 -0.048469 0.39091 0.12767 0.040154 0.028913 -0.19655 0.080089 -0.32107 -0.31767 -0.080508 -0.38563 0.14816 -0.3823 0.15197 0.15801 0.010192 0.40796 0.39474 -0.24035 0.079573 0.14988 0.13626 0.057715 0.073386 -0.15758 0.39433 -0.37397 0.2643 0.080357 0.28564 0.10027 0.1827 -0.26803 -0.13798 -0.10552 -0.12726 -0.093563 -0.2698 -6.6175E-4 0.14091 0.13028 0.095201 -0.26601 0.28757 0.074276 0.29199 -0.23054 0.36307 -0.379 -0.34993 -0.12823 0.24914 -0.19748 -0.19016 0.051854 -0.073472 0.054277 -0.19275 0.21386 0.33948 -0.10727 0.20264 0.34818 0.035778 0.064158 -0.29187 0.1355 0.1607 -0.049785 -0.40415 0.1391 -0.092722 -0.33132 0.34532 0.23326 -0.090404 -0.80507 -0.15311 0.33379 0.13193 0.32778 0.27825 -0.0018192 0.01403 0.062792 -0.41418 0.046914 -0.11633 -0.26263 -0.38724 0.3111 0.19743 -0.62317 -0.41553 -0.098644 -0.19842 -0.21033 0.48731 0.2439 -0.0045357 -0.25013 0.10653 -0.090653 -0.013241 -0.38009 0.10343 0.093715 0.26852 0.6283 -0.2244 0.023997 0.08357 -0.19922 0.41036 0.099675 -0.099746 0.079713 -0.025641 0.48288 0.18571 0.17586 0.095641 0.22006 -0.35258 -0.074895 0.027692 -0.19787 -0.033323 0.218 -0.09476 0.13562 0.18071 -0.32084 0.90337 -0.12703 0.033127 0.16272 -0.32277 0.080972 -0.1537 0.061573 0.38298 0.079828 0.087936 0.50527 0.3797 -0.068686 0.22868 0.060047 -0.35023 -0.046774 -0.15413 -0.061201 0.38393 0.67932 -0.073638 -0.15425 0.18321
music 0.55244 0.05951 -0.11606 -0.31374 0.17514 -0.43095 0.077439 0.45833 -0.12911 -0.42222 0.27543 -0.15421 -0.15415 -0.0088315 -0.0045802 0.013003 -0.038194 0.30292 0.22955 -0.06482 0.38336 0.099314 -0.085674 0.037787 -0.058494 0.55877 -0.16938 0.11435 -0.14502 -0.025433 -0.50668 0.012975 0.20516 -0.11471 -0.23136 -0.48349 -0.32218 -0.20639 0.096676 -0.23966 0.017047 -0.023191 -0.14066 0.11544 0.11203 0.15774 0.63787 0.027743 -0.39423 0.083611 0.035331 -0.23513 -0.0087858 0.39162 -0.19555 0.12302 -0.1888 -0.073987 -0.20491 -0.062487 -0.6967 -0.20078 -0.36246 0.074604 0.23031 -0.16985 -0.31327 0.010415 0.14284 -0.20942 -0.23702 -0.15466 0.22504 -0.2403 -0.2864 0.50128 0.18447 0.069511 0.12911 0.14675 0.098698 -0.081762 0.19403 0.13462 -0.24356 0.30931 0.18759 -0.27972 0.025399 0.079341 0.3644 0.074223 0.15879 0.034601 -0.065573 -0.036413 -0.27449 0.081531 0.11013 0.18693 0.50228 -0.40601 -0.12909 0.014883 0.22239 0.10254 -0.043319 -0.080148 -0.52218 0.095247 0.025535 0.40303 0.29561 -0.079341 0.3745 0.41599 0.020627 -0.047614 -0.059114 -0.015862 -0.23799 -0.62374 0.34703 0.23354 0.07436 -0.57562 0.51533 -0.27607 -0.11683 0.34479 0.084711 0.13048 0.052098 -0.004255 0.072316 -0.08734 -0.2016 0.09302 0.1089 0.036016 0.068417 -0.52953 0.043212 0.067146 -0.29602 0.13502 -0.060422 -0.073584 -0.077939 0.022142 -0.40347 0.16976 0.0077847 -0.34842 -0.19987 0.17756 -0.17448 -0.28123 -0.19489 0.41277 -0.14448 0.10188 0.26592 0.33251 0.03606 -0.17353 -0.15549 -0.20037 0.11503 -0.15527 -0.038441 0.14966 0.051465 0.20833 -0.22513 -0.26834 0.18788 0.28452 -0.12795 -0.15356 -0.057689 -0.19643 0.031659 -0.15373 0.10327 -0.32667 0.032865 -0.31807 -0.23197 0.39018 -0.028603 0.1697 -0.15856 0.068291 0.4103 0.079037 -0.004238 -0.040353 -0.064748 -0.18258 -0.20969 0.41088 0.17395 -0.12893 0.14127 -0.46411 -0.43961 0.16686 0.1389 -0.064836 0.066495 0.080159 -0.24439 0.16526 -0.34396 0.056221 -0.20616 -0.50694 -0.093253 0.032705 0.10221 -0.22163 -0.22129 0.29302 0.12695 -0.44723 0.39744 0.20729 -0.096955 0.31435 -0.067269 0.20981 -0.20201 -0.22495 0.087125 0.37565 0.35789 0.28327 -0.25026 -0.097583 0.12029 -0.015592 -0.40567 -0.49376 0.085439 -0.096925 -0.11129 0.61822 -0.18728 -0.058835 -0.059547 0.060127 0.19158 0.13542 0.16944 0.086491 -0.39697 0.061098 0.12282 0.508 0.49904 -0.014106 0.28864 0.051422 0.27244 -0.10003 0.083701 -0.49292 0.15627 0.1421 0.071626 0.047498 0.28552 -0.15932 -0.13871 -0.13049 0.37461 0.1311 -0.29752 -0.055475 0.055346 -0.35125 0.43716 -0.068408 0.024112 -0.1813 0.29994 0.2239 -0.24409 0.081413 -0.11362 -0.10461 0.19062 0.13095 0.44285 0.12198 0.43521 -0.059685 0.22822 0.48312
record 0.34522 0.0060214 0.20518 0.13452 0.10238 0.079418 0.38085 -0.23787 0.013623 -0.21885 0.72374 -0.19436 -0.016864 -0.037761 -0.061414 -0.38362 -0.44127 0.12584 0.1685 -0.060349 -0.092272 0.12453 -0.13492 0.02746 -0.12924 0.58262 0.096778 0.21761 -0.51979 0.15676 -0.3859 0.15492 0.43154 -0.1159 -0.012883 -0.25356 0.10634 -0.3552 -0.10867 -0.15728 -0.076966 -0.20087 -0.16742 -0.086941 0.14691 -0.0047445 -0.17114 -0.12488 -0.22196 0.035174 -0.20281 -0.13879 -0.12238 6.7924E-5 -0.035169 0.28347 0.05522 -0.26661 0.089169 -6.7331E-4 -0.17786 0.24882 0.010967 -0.37434 -0.092458 0.34626 -0.20921 -0.13491 -0.11612 -0.36471 -0.08682 -0.53781 0.013574 0.032135 -0.050705 0.081068 -0.24171 -0.16642 -0.15435 0.23305 -0.15927 0.22392 -0.1629 0.0046201 -0.024817 0.086503 -0.089249 0.17996 -0.28665 0.12682 0.32494 -0.028812 0.084381 -0.24017 -0.13428 0.058182 0.019209 -0.025505 -0.42589 -0.15391 0.39045 -0.048999 -0.06178 0.10626 0.33977 0.22167 0.12464 0.051648 -0.14827 0.15163 0.15991 0.34086 0.22287 -0.022756 -0.0117 -0.086403 0.25478 -0.15006 -0.10468 -0.17568 -0.19913 -0.022335 -0.11453 -0.093854 -0.15609 0.024534 0.28843 0.51155 0.20485 -0.074084 0.024391 -0.17036 0.18007 0.2721 0.2601 0.17071 0.12637 -0.20326 0.088893 -0.12903 0.051212 -0.21362 -0.31176 -0.12045 -0.29123 -0.14851 -0.020532 -0.54624 0.21803 0.53361 0.036756 0.37096 0.35586 0.060613 0.047032 0.26743 -0.19295 0.10574 -0.25681 -0.0071873 -0.1397 0.024128 0.1861 0.33387 -0.23378 0.10254 -0.17172 -0.50967 0.3262 -0.076055 0.38066 0.34258 -0.28737 0.41979 0.042479 0.16929 -0.14153 -0.22834 -0.16392 -0.37069 -0.1439 0.023868 -0.030641 0.073871 -0.077068 0.26951 -0.081342 -0.25795 -0.10838 0.16798 0.23839 -0.15542 -0.20995 0.20565 -0.37027 0.39299 -0.76534 -0.21604 0.049821 -0.18381 0.19894 0.081141 0.097295 -0.41242 -0.19487 0.14351 -0.13682 -0.28677 -0.031781 0.06734 0.18946 -0.30301 0.14608 0.10346 -0.01498 0.20479 -0.22676 -0.20415 0.51598 -0.13857 -0.37782 -0.12842 0.21749 -0.0010043 -0.20017 0.44373 0.57216 -0.0097613 -0.22269 -0.21072 -0.40047 0.3388 0.17371 0.08898 -0.15916 -0.058637 -0.019904 0.29372 0.021854 -0.5324 0.054887 -0.14288 -0.53814 0.52457 0.2462 -0.11591 -0.053212 0.71963 0.3103 -0.15755 -0.13934 -0.24188 -0.12937 0.5138 -0.056654 -0.21692 0.061138 -0.1917 0.23104 0.34298 0.030578 -0.07153 0.38086 0.14146 0.1727 -0.023932 -0.34868 0.15337 0.11678 0.0047606 -0.21209 0.078779 0.26494 0.13829 -0.0084204 -0.024124 0.21047 0.51682 -0.071963 -9.316E-4 -0.10812 -0.29516 0.21692 0.30054 0.064107 0.2785 0.17169 -0.24382 -0.010802 0.3483 -0.076312 0.27104 0.07804 -0.36726 0.028664 -0.21806 0.31874 0.52641 -0.075719 0.038927
energy -0.17207 -0.12178 -0.22475 -0.38366 0.31452 0.25261 -0.22863 -0.083145 -0.27741 -0.077773 -0.050903 0.31065 0.15193 -0.11624 -0.1037 0.11591 -0.23764 -0.23799 0.11781 0.46998 0.037813 -0.38465 -0.26659 -0.074824 0.17548 -0.31568 -0.44348 0.072096 0.063419 0.076835 -0.55218 0.013911 0.14393 -0.24542 -0.063531 0.050047 -0.0069358 -0.29731 0.091929 -0.043922 0.015199 0.08681 0.030075 -0.15147 -0.14213 0.047671 0.4755 -0.37377 -0.12181 -0.15666 -0.25242 -5.9543E-4 0.20161 0.053228 -0.056252 0.4102 -0.48501 0.4367 0.12917 -0.10466 -0.056935 -0.29914 -0.063085 -0.2723 0.10422 -0.057808 -0.33328 -0.069423 0.20603 -0.2502 -0.19057 -0.21341 0.010083 0.15829 -0.017287 0.22147 -0.30532 -0.12574 -0.46279 0.29375 -0.4429 0.21029 -0.13206 -0.37441 -0.19187 0.083649 0.32864 -0.036116 -0.057712 0.12325 0.28772 0.32912 0.42843 0.13057 0.25066 -0.19927 -0.50978 0.412 0.075635 -0.2656 0.20398 -0.13887 -0.48843 0.10045 -0.1034 0.17315 0.38848 0.068935 0.12208 -0.24559 0.5834 0.16525 -0.39257 -0.17207 -0.06249 -0.017004 0.28718 0.12571 0.35415 0.02964 0.083697 0.19181 -0.12684 0.21698 0.22292 -0.1398 0.070406 0.44476 -0.094846 -0.42327 0.34934 -0.16763 0.31152 -0.16478 0.080271 -0.51452 0.19904 -0.11413 -0.041505 0.3089 0.01925 -0.18864 -0.2833 -0.28846 -0.35302 -0.30613 -0.22926 -0.44832 0.45094 0.18108 0.021259 -0.27627 0.22032 0.1921 -0.073837 -0.40204 -0.27537 0.02121 -0.10178 0.19087 -0.028991 -0.012549 -0.031516 -0.065907 -0.22854 -0.46311 0.084244 0.22339 -0.20668 0.1476 0.20875 0.0052863 0.24026 0.2105 -0.31986 -0.1162 0.47885 0.28781 -0.23451 -0.043909 0.07922 -0.2562 -0.27581 0.072381 -0.050441 -0.077234 0.080004 -0.33499 0.3554 0.054407 -0.20497 0.2885 -0.29451 0.21303 -0.14884 0.12715 -0.18316 -0.22972 -0.088955 -0.28569 0.36974 -0.0073181 0.25005 -0.32651 0.020198 0.02499 -0.66811 -0.18754 0.24597 -0.047101 0.47222 0.21114 0.44946 -0.024008 0.33957 0.3399 -0.29544 -0.28274 0.13439 0.32822 -0.0065145 0.080277 -0.19193 0.43943 -0.27699 0.41822 0.055952 -0.34595 -0.084588 0.22886 -0.06386 0.97641 -0.098494 0.065661 -0.20133 -0.046353 0.45702 -0.08654 0.15644 -0.51774 0.63498 0.32994 -0.049147 5.1941E-4 0.12282 0.25472 0.10487 -0.024457 0.43594 0.015122 0.12213 0.052034 0.0117 0.34394 -0.034526 -0.019353 -0.10301 0.15733 -0.020349 0.011155 0.23702 -0.092647 0.11042 0.35073 0.13839 -0.03153 0.21121 -0.37212 -0.27948 0.37468 0.25477 0.010626 0.28395 -0.045647 0.046235 -0.064461 0.24113 0.028142 0.2307 -0.48262 0.10491 -0.21415 -0.12001 -0.093606 0.33187 0.22436 0.26612 -0.011633 0.20795 0.27297 0.26402 -0.21256 0.44026 -0.13119 0.035521 -0.088347 0.021409 -0.08206 -0.27429 0.036524
announcement -0.60164 -0.1487 -0.0052599 -0.25382 -0.088545 -0.024555 0.10304 -0.080514 0.13488 -0.40057 -0.25928 0.16518 0.11009 0.18292 -0.10796 0.034248 0.43265 -0.010575 0.0028136 0.67495 0.020757 0.16513 -0.27184 -0.050253 -0.076557 0.11287 -0.15056 -0.21043 -0.5249 0.021631 -0.40653 0.23761 0.82598 -0.30374 0.11257 -0.15004 -0.046214 0.019978 0.29641 0.1503 0.049617 -0.17107 -0.17656 0.043378 0.055277 0.18612 0.11778 0.030269 0.22918 -0.19238 -0.0047881 -0.28318 0.084786 0.023261 -0.44486 -0.28979 0.14434 -0.14308 -0.011897 -0.038974 -0.29009 -0.13891 0.034709 -0.32463 0.13496 -0.18894 0.22726 0.0018768 -0.21245 -0.24143 0.076174 0.23448 0.37787 0.099957 -0.29656 0.21317 0.2865 -0.011742 -0.24492 -0.07423 -0.061035 0.056037 -0.1801 -0.018702 0.30438 0.13529 -0.058355 0.27041 -0.081162 0.10565 0.18736 -0.19192 0.010126 -0.17628 0.10627 0.19887 -0.20332 0.3662 -0.060021 0.017435 0.14659 -0.037383 -0.061624 0.24376 0.2349 0.41937 0.046742 0.38863 0.17933 -0.049099 0.070608 -0.26781 0.023734 -0.15574 0.13485 0.38643 0.23213 -0.12248 0.52515 0.22539 -0.25974 0.59769 0.0052835 0.079942 -0.21336 -0.078024 0.23236 -0.10878 -0.17823 0.11692 0.17877 -0.022115 -0.41902 0.14547 -0.06181 -0.1193 0.13012 -0.14315 -0.10927 0.24703 -0.17762 0.0011487 -0.1659 -0.070466 -0.076165 0.24669 -0.24712 -0.20029 0.20675 -0.22581 -0.025715 0.13805 0.29342 0.039037 0.082324 -0.28256 -0.53397 -0.31856 0.087737 -0.1804 0.033398 0.088857 -0.1422 -0.065189 0.062528 0.4796 0.067955 0.074284 -0.1943 -0.098126 -0.18404 0.12461 -0.20698 -0.10921 -0.17138 0.033187 -0.11782 0.019509 -0.16216 0.12659 -0.006831 0.21465 -0.1041 0.01169 -0.017579 0.2524 -0.0015828 0.30524 0.090195 -0.021552 -0.27345 -0.3217 -0.35287 0.13957 0.035914 0.29497 -0.3182 0.20023 -0.085269 0.064452 0.13421 -0.45682 -0.33616 -0.26622 -0.18715 -0.27691 -0.18992 -0.076747 0.31845 0.036029 -0.10381 -0.090244 -0.28533 0.18561 0.17899 0.30099 -0.0044693 -0.40638 0.16162 0.054794 0.099201 -0.29269 -0.23754 0.21228 -0.0024219 0.034411 0.015912 0.0062888 -0.021331 0.32604 -0.025013 0.4251 -0.037898 -0.24809 0.14449 0.075724 0.045266 -0.20163 0.47698 0.022228 0.06982 -0.024568 0.034641 -0.25232 0.21509 -0.11959 0.10164 0.15132 0.12116 0.030161 -7.3494E-4 -0.15875 -0.075711 0.22522 0.60756 -0.062136 -0.0040803 -0.043091 0.091478 -0.032227 -0.096413 -0.12547 0.13155 -0.032532 0.0011965 0.0049652 -0.37796 -0.22478 -0.27829 0.38239 -8.0879E-4 0.26935 -0.044872 0.057265 -0.31123 0.27032 0.15865 -0.0011997 0.0131 -0.54107 -0.30594 0.09211 0.17781 0.49351 0.207 -0.25933 -0.14847 -0.23067 -0.39937 0.13723 -0.10114 -0.02365 -0.25848 -0.32952 -0.15629 0.15967 0.29923 0.075988 0.19159 -0.052358
mile 0.06479 0.66665 -0.040257 -0.087292 0.47833 0.30529 0.02202 -0.25855 0.065998 -0.10399 0.24888 0.062446 0.17765 0.069362 -0.021948 0.12046 0.18356 -0.012006 -0.043739 -0.12405 0.070404 -0.059157 0.23469 -0.053524 -0.0081328 0.0070462 -0.23887 -0.24217 -0.28048 0.23294 -0.23295 -0.098051 0.22726 0.32683 -0.025351 -0.23279 0.13231 -0.19617 -0.49449 -0.2107 0.085458 0.079701 -4.9256E-4 -0.58635 -0.2248 -0.4072 0.17462 -0.34061 0.048397 -0.28805 -0.39246 0.073185 0.14164 -0.049293 -0.34345 0.26886 0.088587 -0.021503 -0.070481 0.34553 0.35032 -0.12966 -0.11445 0.13074 0.14757 0.22069 -0.55821 0.11224 -0.074717 -0.41595 -0.17363 0.23343 0.54651 -0.41492 -0.27617 -0.22194 0.12105 0.18663 0.5064 0.1598 0.089748 0.44388 0.2429 -0.44165 -0.138 -0.16457 0.38764 0.12877 0.72688 0.2713 0.31476 0.011334 -0.023354 -0.52239 0.096188 -0.046913 -0.022932 0.17062 0.050941 -0.13984 0.05954 0.29524 -0.37416 0.29123 -0.13656 0.049593 -0.16945 0.2373 -0.37273 -0.46124 0.21815 0.27356 0.11164 0.059715 0.56605 0.45898 -0.073824 -0.021815 0.13469 -0.42902 -0.16879 -0.26091 -0.032965 -0.2452 -0.33274 0.33312 -0.080947 0.54372 -0.20881 -0.41208 -0.13108 0.40522 0.12181 0.12887 0.18146 -0.53123 -0.24143 -0.011048 -0.31738 -0.13592 0.0094568 0.3673 -0.36322 0.28351 -0.0039076 0.091241 -0.03003 0.033821 0.48309 -0.098599 -0.20858 -0.16359 -0.33876 -0.39522 -0.20894 -0.2485 -0.37216 -0.22068 -0.064561 -0.24377 0.40669 -0.18104 -0.1924 -0.2091 -0.2346 -0.14237 -0.1727 -0.11772 -0.62481 -0.13631 -0.24636 0.053001 -0.55908 0.24647 0.019376 -0.25718 0.33693 -0.22318 0.10007 0.13588 -0.022549 -0.31901 -0.0070217 0.048424 -0.41491 0.12192 -0.71965 0.13538 -0.26352 -0.40161 0.19936 -0.52503 -0.20225 -0.17828 -0.34343 0.084718 0.10718 0.12457 -0.056408 -0.033714 0.098571 -0.27716 0.35297 -0.65704 -0.15563 -0.32553 -0.612 0.026468 0.036756 -0.11031 0.065137 0.029058 0.11105 0.08924 -0.2383 -0.08106 -0.015763 -0.11008 -0.19761 0.44397 0.17586 -0.16066 0.14092 0.2601 -0.22602 -0.026818 0.22788 0.083146 0.68194 -0.09427 -0.34533 -0.21021 -0.052734 -0.2281 0.25274 -0.38054 -0.20195 0.44545 0.36619 0.24087 0.10354 -0.30227 -0.2835 -0.085056 0.15992 0.22547 -0.28859 0.33592 0.63312 0.42391 -0.10151 0.28024 0.0059297 -0.34701 -0.23826 0.07373 0.073138 0.24188 0.179 -0.27904 -0.25816 -0.0458 -0.032082 0.37284 -0.10241 -0.035555 0.035233 -0.19594 -0.3154 -0.0085386 0.092877 0.19508 0.53045 0.44443 -0.16271 0.34021 -0.23002 0.19799 0.23365 0.14406 0.17798 -0.069451 -0.20842 -0.067331 0.1286 -0.12771 0.55756 0.27089 -0.35444 0.3169 -0.11022 -0.069459 -0.13274 -0.12254 -0.28943 -0.12307 0.23041 0.82533 0.15418 0.14318
airport 0.15327 0.42319 -0.19574 -0.54797 -0.15545 -0.17253 0.088036 -0.42875 0.36689 -0.079011 0.25079 -0.1242 0.027181 0.065984 -0.28403 0.43126 0.017544 -0.28986 0.072259 0.35776 0.18148 0.35164 -0.26126 0.58537 -0.1981 -0.056101 -0.39213 -0.49474 -0.42289 0.11332 -0.42193 0.23874 0.22631 0.20833 -0.15714 -0.017381 -0.339 0.056991 0.13661 0.058422 0.04444 -0.11332 -0.30007 0.35769 0.23397 -0.58542 0.50289 -0.53244 0.14694 -0.28076 -0.071182 -0.33962 -0.36892 0.19908 0.060717 -0.3718 0.12179 0.2653 -0.16124 -0.10699 0.32733 -0.12312 -0.063708 0.068584 0.2885 0.016324 -0.21726 0.31902 0.17896 -0.12625 0.22486 0.48334 0.32064 0.26788 -0.14864 -0.17875 0.18949 -0.059694 0.33135 0.35945 0.19492 -0.62259 0.19346 -0.1366 0.051473 0.023037 0.38388 -0.20666 0.25353 -0.07173 0.17793 0.17452 0.25144 0.12819 0.051985 -0.32361 0.2999 0.13102 0.051454 0.014712 0.45862 -0.039948 -0.25029 0.34205 0.15133 0.37167 0.002024 0.11418 0.19199 -0.33937 -0.0096894 0.12829 0.36847 0.46985 0.4758 0.087557 -0.2054 0.34818 -0.10684 -0.31422 0.12007 0.11246 0.44654 0.016586 -0.10346 -0.34906 0.11199 0.2717 0.40439 -0.12554 0.49494 -0.17305 -0.12315 0.097651 -0.16474 0.34942 -0.21163 -0.19674 -0.18696 -0.05334 -0.060339 -0.11637 -0.31094 0.23443 -0.0045587 0.1166 0.17728 0.023821 -0.023032 -0.051826 -0.3729 -0.30263 -0.097477 0.27591 -0.35941 0.26525 -0.46643 -0.4673 -0.35283 0.13125 -0.163 -0.15261 0.17945 -0.34452 -0.4144 -0.10149 -0.22916 -0.3033 -0.33217 0.18949 -0.083192 -0.18176 -0.30733 -0.49832 0.26379 -0.056227 0.22919 0.36152 -0.65921 -0.21077 -0.38628 -0.11698 -0.13225 -0.022305 0.28985 0.093031 -0.022589 0.022661 0.17064 0.050767 0.19487 -0.20357 0.10407 0.39001 -0.4464 -0.33081 0.33156 0.49777 -0.37182 -0.34114 0.50638 0.078166 0.069639 0.10863 -0.19389 0.10675 -0.48255 -0.15765 -0.028514 -0.1061 -0.017477 -0.32355 -0.25972 0.28811 0.2341 0.38328 -0.24066 0.23605 -0.51218 0.11963 -0.32794 -0.053632 0.2243 0.34475 -0.1899 0.49148 0.21787 0.12683 0.11168 -0.19806 0.091956 -0.22891 -0.19484 -0.19442 -0.23124 0.20787 0.13542 -0.20495 0.329 0.055362 -0.12892 -0.22499 0.34417 0.11774 -0.070145 -0.12811 -0.31598 0.31518 -0.039541 0.031799 -0.015206 0.14907 -0.068853 0.19205 -0.09535 -0.18857 -0.34743 -0.059475 0.13318 0.11071 0.13666 0.023888 0.46175 0.042588 -0.033306 0.030804 -0.033406 0.081354 0.10375 -0.26354 -0.043084 0.00739 0.012656 0.0085898 -0.14645 0.23946 0.13165 0.059331 0.47027 -0.34865 -0.16917 -0.046267 -0.53326 -0.12814 0.54624 0.37157 0.37117 0.073232 -0.32751 0.11037 0.25573 -0.4107 0.21638 -0.27958 0.011233 0.44614 0.23924 0.17955 -0.10251 0.14115
population -0.17725 -0.011436 -0.18518 0.11011 0.093889 0.2582 -0.32204 0.01689 -0.17282 -0.41444 0.16033 0.22684 0.35829 -0.075022 0.25945 0.18327 0.39966 0.045267 0.030956 0.062134 -0.1589 0.12087 0.23197 0.048639 -0.29318 0.39245 -0.0035916 0.20856 -0.26486 0.17426 -0.11615 0.016489 0.075776 -0.098098 -0.17743 -0.61265 0.28959 -0.25274 -0.3868 0.28782 0.25883 0.013967 0.16462 -0.10908 -0.2243 -0.12737 0.25294 -0.0056864 -0.29774 -0.26466 0.27597 -0.027367 0.12617 -0.034907 -0.15397 0.23382 -0.28862 -0.37319 -0.15789 -0.07842 -0.048498 0.16222 0.22137 -0.0068543 0.2562 0.25368 0.23682 0.32272 0.33575 -0.46113 0.30013 0.29506 0.67603 -0.3432 -0.16035 -0.11506 -0.10654 -0.081841 0.10179 -0.15546 -0.29477 -0.046539 0.069728 -0.034389 0.13948 0.44589 0.28365 -0.21271 0.53249 0.44011 0.10827 -0.40271 0.34388 0.030189 -0.029493 -0.085354 0.2331 -0.035457 -0.14692 0.15244 0.36794 0.23123 0.15737 0.24464 -0.057444 -0.058479 0.21585 0.20629 0.38597 -0.34132 -0.016377 0.2417 -0.070187 -0.18857 0.12866 0.27808 0.3899 0.044415 0.3326 -0.44098 -0.057175 -0.37629 -0.13445 0.20568 -0.28419 -0.023189 0.082227 0.053647 0.15221 -0.16723 0.2446 -0.094909 0.0066123 -0.25784 0.3273 0.27375 -0.38011 0.074074 0.24247 0.090862 -0.38017 -0.21483 -0.58655 0.56178 -0.12895 -0.53698 -0.041904 -0.38566 -0.23898 0.40603 -0.15791 0.050194 0.043847 -0.085567 -0.57517 -0.36268 -0.039775 -0.13623 -0.22384 0.033507 0.076829 -0.080863 -0.27838 -0.050815 -0.2724 -0.42049 0.35095 -0.27547 -0.11264 -0.063363 -0.19402 0.22907 -0.29089 0.58438 0.29022 -0.41112 0.0029756 -0.049562 -0.091577 -0.29048 0.17344 0.0359 -0.30511 0.30582 -0.17586 -0.24471 0.23233 0.23204 0.059786 -0.18774 0.35786 -0.21158 0.26219 -0.038498 -0.069174 -0.27558 0.033189 0.037344 0.017528 -0.51629 0.0098628 -0.036205 -0.12436 -0.54389 -0.29384 -0.15264 -0.078223 -0.17386 -0.099549 -0.10362 0.29298 -0.42439 0.15264 0.044615 -0.22467 0.54081 0.054269 -0.075891 -0.42294 0.11254 0.54815 0.15057 0.078377 0.23516 -0.1608 -0.13972 -0.13251 -0.68377 -0.083905 -0.17719 0.26459 -0.0017013 0.19149 0.20434 0.17111 0.26684 -0.027434 -0.053415 0.018862 -0.01982 0.29787 0.16875 -0.19434 0.0093002 -0.048887 -0.21761 -0.14788 0.051859 0.24692 -0.059424 0.25632 0.16738 0.48414 0.12051 0.087416 -0.33044 0.077687 -0.065199 0.40788 -0.057501 -0.0091087 -0.025479 0.033806 0.27881 0.21498 0.19648 0.03517 0.14069 0.073542 0.0068375 0.33673 -0.28898 0.34007 0.099733 -0.13938 -0.21408 0.57465 0.35935 -0.0047436 -0.17407 0.17692 0.13793 -0.46224 0.078752 0.15599 -0.17737 0.15714 -0.46695 0.042455 -0.22523 0.29525 -0.11054 0.13863 0.024599 0.30922 0.20062 0.085893 0.28886 -0.32978 0.038412
planning 0.03601 -0.036532 -0.20526 0.019419 -0.20396 -0.1723 -0.18063 -0.25957 0.051017 0.046621 0.35745 -0.033463 0.14677 -0.27792 -0.075626 0.10546 0.20989 0.12164 -0.19616 0.17714 0.047951 0.021562 -0.3716 0.27578 0.1051 0.084982 -0.088309 -0.11217 -0.14944 -0.18158 0.16198 0.27618 0.41603 0.094743 0.19205 0.20382 -0.03861 -0.023049 0.0069558 0.30965 -0.024276 -0.080771 0.29447 0.038601 0.29032 -0.31859 0.059116 0.18449 0.036576 -0.24936 0.19285 -0.65592 -0.50688 0.14732 -0.049306 0.33373 -0.16712 0.11323 -0.075233 0.26972 -0.021569 0.34556 -0.16757 0.14207 -0.18114 -0.15626 -0.307 0.067201 0.096308 0.13565 0.18756 0.33675 0.044827 0.19328 0.12562 0.10768 0.13757 -0.033826 -0.45015 -0.10404 0.039714 0.064077 0.04063 0.085508 0.020832 0.029943 -0.064993 -0.058576 -0.3631 -0.16799 0.11017 -0.30058 0.081681 -0.26563 0.033347 -0.15878 -0.22223 -0.11114 -0.13635 0.047932 0.4924 -0.15016 0.42278 -0.029875 -0.056073 0.082002 -0.34864 0.32455 0.36155 -0.054081 0.32298 0.078664 0.043432 -0.23551 0.13046 0.0086943 0.094055 -0.02432 0.077837 -0.052672 0.059545 0.064389 0.22681 0.087173 0.10071 -0.012879 0.12829 -0.037103 -0.25194 0.10206 0.30337 -0.2833 0.12123 -0.092022 -0.17785 -0.034973 -0.20601 0.0020767 -0.082821 0.19324 -0.010924 0.16097 -0.17895 -0.18659 -0.16074 0.081154 -0.10144 -0.18709 -0.11142 0.054274 0.083526 0.032385 -0.12814 -0.018938 -0.2563 -0.15148 -0.16956 -0.14408 -0.113 -0.16393 0.15067 -0.11835 -0.018425 -0.35903 0.058541 0.037471 -0.21523 -0.019849 -0.066448 -0.36803 -0.11812 0.31203 -0.07224 0.051523 -0.33093 -0.19855 0.28402 -0.067383 -0.27999 -0.047129 0.068603 0.068222 -0.17526 0.15303 0.0080575 0.019144 -0.23425 0.003189 0.34733 0.12452 -0.01049 -0.078684 -0.11551 0.17172 0.29085 -0.0058311 0.033707 0.083951 -0.04935 -0.22511 0.37145 -0.12596 -0.043994 -0.15192 0.06095 0.033543 -0.15925 -0.44649 -0.11232 0.080662 0.32655 0.11121 0.080383 0.22707 0.0074095 0.47223 -0.19354 -0.35677 -0.083027 0.044849 -0.20152 -0.18219 -0.072715 0.12244 -0.17107 0.19329 0.13112 -0.32921 -0.088496 0.076478 0.26458 0.20431 0.32998 -0.26322 -0.080855 0.33007 0.080238 0.1311 0.095166 0.042443 0.10538 -0.103 0.32406 -0.056552 -0.027501 -0.39656 -0.22309 -0.068168 0.2062 -0.033507 0.18543 0.15334 -0.17576 -0.068183 0.46179 0.18376 -0.012607 -0.45683 -0.15088 -0.008505 0.22509 -0.0088454 0.19823 0.090021 -0.11386 -0.053791 -0.12594 -0.029557 -0.37747 0.16933 -0.15775 -0.0020225 0.30565 0.14648 -0.38149 0.21636 -0.018936 0.05161 -0.41105 0.26283 -0.22084 -0.19439 0.15427 -0.54102 0.23407 -0.23638 0.23534 -0.039446 -0.45662 0.15333 0.067664 -0.3063 -0.12177 -0.35546 0.3306 0.073525 0.37862 -0.21805 -0.18479 -0.11933
canyon 0.05336 0.22519 0.17745 0.41638 0.21845 -0.19583 0.15613 -0.17684 0.52134 0.010984 0.042416 0.16429 0.19401 -0.12857 -0.11951 0.36764 0.30465 -0.15914 -0.18186 -0.10816 0.44193 0.15431 -0.20484 0.012426 0.084755 0.020951 -0.35256 -0.015541 -0.19084 -0.077769 -0.095336 0.44636 -0.30497 0.033664 -0.2182 -0.33621 0.047935 0.0034013 0.40993 0.12991 -0.11436 0.44027 0.0095465 -0.27785 0.069403 -0.089711 0.31624 -0.26549 0.088163 -0.12593 0.023406 -0.20065 -0.16518 -0.34152 -0.15855 0.22981 -0.048678 -0.13874 0.20395 0.17277 0.28484 0.093911 -0.11721 -0.22876 0.54906 0.086318 -0.40919 0.26967 -0.29094 -0.17201 -0.49235 -0.37569 -0.013246 -0.14222 -0.14307 -0.16562 0.42254 -0.36003 0.13963 0.79027 -0.043815 -0.1615 0.23166 -0.21748 -0.0083398 0.013712 -0.064237 -0.06189 0.14692 -0.050549 0.41189 0.10336 0.17824 -0.13172 0.092285 -0.17459 -0.11023 0.67669 0.10024 -0.177 0.2505 0.28141 -0.10552 0.36426 0.023327 0.30175 -0.34335 0.18135 -0.030943 -0.15005 0.20528 0.64255 -0.47475 0.067701 0.40192 0.18981 -0.061749 0.28952 -0.12796 -0.18323 0.025221 0.082117 0.049569 0.13286 -0.044599 0.3319 0.24053 0.35756 -2.154E-4 -0.10617 -0.26814 0.17295 0.19783 0.019418 0.28886 -0.25009 -0.047681 -0.27204 0.11604 -0.10435 0.4626 0.041696 -0.44847 0.49455 -0.22615 0.10877 0.40014 0.21684 -0.2158 0.20492 -0.16897 -0.18201 -0.6029 -0.071238 -0.11343 0.096124 -0.14072 -0.35533 -0.47245 0.057936 -0.0032444 0.12325 0.244 0.051189 0.11103 -0.56773 -0.0060385 -0.46518 -0.071915 0.077371 -0.24998 -0.02428 -0.25032 0.49299 -0.23556 -0.057315 -0.017621 0.11793 -0.096686 -0.48039 0.0519 0.0062633 0.3057 0.43373 0.0096508 0.0035471 -0.33253 -0.12133 0.23403 0.12138 0.62561 -0.15468 -0.26522 -0.40389 -0.23135 -0.03037 0.020434 -0.083489 0.31401 -0.46118 0.24214 -0.28375 -0.064525 -0.27263 0.060945 -0.2444 -0.49491 0.0938 0.036853 -0.14626 0.41929 -0.46613 0.10429 0.098893 0.056183 -0.080072 -0.018605 0.038942 -0.065365 -0.1245 -0.22413 0.097052 -0.098576 0.30968 0.0058666 -0.24632 0.0442 0.088958 0.15951 -0.23522 0.06607 -0.12399 -0.26045 0.025304 -0.39378 -0.24235 -0.27255 -0.0018802 0.59114 0.34213 0.17393 -0.30104 -0.074462 0.15911 0.51997 -0.27709 0.10386 0.35971 0.052464 0.32323 0.032265 0.35573 0.3018 -0.13238 -0.12563 -0.023289 0.079728 -0.16404 0.20233 -0.43961 0.17275 0.035931 -0.05885 0.39367 0.16879 -0.048882 -0.29941 0.10749 0.25018 -0.16113 0.27172 0.012429 0.25622 0.35936 -0.12053 0.22121 0.081911 -0.28814 0.34807 0.16057 0.21799 -0.10487 0.094418 0.31443 -0.057383 -0.010874 0.27327 0.10692 -0.11574 -0.023396 0.013004 -0.12045 0.5795 -0.013757 0.15872 -0.09583 0.45095 0.079405 0.029311 0.41074
delay 0.34635 -0.1474 0.29219 -0.44554 -0.13904 0.24383 -0.2322 0.029115 0.013742 -0.2014 0.35884 0.14032 0.11645 -0.21205 0.025061 0.065543 0.20735 0.078435 -0.018748 -0.091748 0.07069 -0.057154 -0.23165 -0.045469 -0.27904 -0.13994 -0.098232 -0.58633 -0.48026 -0.1125 -0.069434 0.48882 0.13443 0.10517 -0.12033 -0.18932 -0.32805 -0.12823 0.34087 -0.18376 -0.079995 -0.28081 0.20188 0.075623 0.13691 0.23687 0.21439 -0.20691 0.1964 -0.29205 0.0058865 -0.0030029 -0.30103 0.013536 -0.12215 -0.28297 0.025784 -0.3283 0.10087 0.38878 0.29575 0.21721 -0.0060726 0.34942 -0.3002 -0.14251 0.2256 -0.22383 -0.51158 -0.10209 0.062444 0.11901 -0.22472 0.60879 0.025827 -0.26706 0.41495 -0.037991 -0.099849 -0.34241 -0.045147 0.25206 -0.078027 -0.36155 0.41306 0.403 0.018929 0.27918 -0.081817 -0.037039 5.7549E-4 -0.34297 0.092865 -0.22163 0.36081 -0.08346 0.10745 0.45926 -0.01455 -0.0052827 0.30479 0.16911 0.10574 0.10634 0.096945 0.056937 -0.072351 0.53396 0.39304 0.016654 -0.088845 -0.20474 -0.15662 -0.0070913 -0.032925 0.10757 0.30307 0.27496 0.21039 0.2894 0.24426 -0.016417 0.30799 -0.01572 -0.11592 -0.072687 0.12129 0.54435 0.23294 -0.24208 0.70128 0.089494 -0.485 0.18607 -0.69159 0.155 0.020631 -0.2938 -0.087968 0.16022 0.47843 -0.11208 -0.48511 -0.39981 -0.067835 0.16635 -0.39448 0.053926 0.26571 -0.26173 -0.010848 0.21299 -0.054278 0.34619 -0.10847 -0.12333 -0.012453 -0.032422 0.10625 -0.028838 0.13887 -0.27171 -0.15303 -0.044205 -0.0056241 0.36869 -0.14299 0.02738 -0.024164 0.13985 -0.095077 -0.12559 -0.3268 0.20176 -0.2667 -0.12051 0.35455 -0.21745 -0.34403 -0.062598 0.093785 0.18044 -0.046558 -0.33013 0.43312 0.098596 -0.0089272 0.019907 0.37867 0.066936 0.0051666 -0.045927 -0.62106 -0.082314 -0.261 -0.14278 0.06276 0.19455 -0.21738 -0.011344 -0.036514 0.10376 -0.1035 -0.30163 -0.063018 -0.11824 -0.10836 -0.027621 -0.15738 -0.13117 -0.17129 -0.24232 -0.32421 -0.11177 0.30084 0.39343 -0.4142 -0.061596 -0.22459 -0.20651 0.014494 0.36268 -0.17181 -0.039408 -0.083392 0.36916 -0.056498 -0.22705 -0.12368 -0.043247 0.072394 0.097359 0.1887 0.027185 -0.032416 0.23991 -0.11962 -0.14265 0.15846 -0.38371 0.18392 0.1092 -0.020568 0.29384 -0.47368 -0.41589 -0.090865 0.013502 -0.092538 0.015658 0.24686 0.0049913 0.088036 0.056608 0.42027 -0.26599 0.25123 -0.57187 -0.13702 0.33742 0.25195 -0.3719 0.10455 0.17016 -0.055481 0.079102 -0.037069 -0.31701 -0.10644 -0.092765 0.029324 0.32841 0.075306 -0.055232 -0.66632 0.21109 0.058386 0.14019 0.10678 -0.036468 -0.28498 -0.13805 0.63099 0.13257 0.28514 -0.35128 0.45878 0.18341 -0.25547 0.4807 0.01771 -0.51391 -0.1207 0.07843 0.25636 -0.12303 0.13168 0.068135 -0.10438 0.27077
size 0.031696 -0.10846 0.14151 0.24018 0.22797 0.22256 -0.022792 -0.27306 0.21642 -0.42155 0.0026378 -0.3282 0.42642 -0.55824 0.26268 0.23576 0.26149 -0.29556 0.12662 0.36172 0.45702 0.12397 0.0034619 -0.047738 -0.21923 0.020715 -0.17408 0.31982 -0.3859 0.088643 0.042873 -0.017344 -0.16646 -0.15082 0.34183 -0.28374 -0.11333 0.038187 0.58003 -0.10604 0.20202 0.33779 -0.26055 0.22289 -0.013589 -0.49243 0.20612 -0.046071 0.056828 -0.46532 0.32437 -0.19506 -0.073192 -0.23965 0.22355 0.19595 -0.33325 -0.089888 -0.033558 -0.12078 -0.13271 -0.28339 0.1232 -0.32704 0.25757 0.091877 0.37322 0.16138 0.20266 0.21762 -0.086524 -0.10134 -0.028912 0.097211 -0.41891 0.23134 0.050435 -0.27583 -0.55198 0.29422 -0.059291 -0.065022 0.12006 -0.060356 -0.061508 0.35265 -0.098408 0.13403 0.038042 0.012601 -0.21804 -0.47294 0.57978 -0.16257 -0.020538 0.045032 -0.16679 0.19703 0.29211 0.41802 0.1658 0.20766 -0.083463 -0.15161 0.17415 -0.17242 0.30801 -0.0042659 0.095445 -0.24811 0.15056 -0.028085 -0.031423 -0.01855 -0.53004 0.31681 0.18111 -0.031934 -0.068599 -0.017445 -0.29289 -0.1462 -0.15197 0.22301 0.27068 0.045078 0.12585 0.66396 -0.32672 0.036259 -4.5797E-4 -0.059974 -0.16551 -0.38507 -0.18925 0.010491 0.18389 0.27037 0.083015 0.13228 -0.28252 -0.24864 -0.2268 0.6998 0.050596 0.54012 0.13826 -0.1037 -0.1038 0.4687 0.15385 -0.39354 -0.10699 -0.26029 -0.047492 -0.3686 -0.3077 -0.43756 0.10752 -0.13017 0.41861 -0.050234 -0.49412 -0.2206 -0.080124 -0.064444 0.36739 0.024208 -0.73198 -0.17732 0.14783 -0.039102 -0.21653 0.0094052 0.0051401 -0.058042 0.53077 -0.24553 -0.44697 -0.30124 0.10925 -0.087222 -0.17546 -0.0051646 0.0971 -0.23462 -0.012384 0.27772 0.22555 0.22227 -0.11459 -0.16724 0.15572 -0.20172 0.29716 0.069371 0.071232 -0.058383 0.16315 -0.13929 0.21638 0.41077 0.030371 -0.49666 -0.28595 -0.13944 -0.31915 0.28273 -0.015437 -0.21664 -0.1387 -0.030533 -0.087248 -0.069866 0.13601 -0.024497 -0.065046 -0.31475 0.068193 0.10495 0.14514 -0.47639 0.42696 0.040967 -0.26436 0.07358 -0.19497 -0.16966 -0.081011 0.12776 0.15401 -0.093466 0.32288 0.098112 -0.059684 -0.047135 0.13815 0.40788 0.3659 -0.23637 -0.025871 -0.10178 -0.24706 0.29721 -0.10289 -0.088456 -0.31538 0.21552 0.48358 0.045608 0.42018 -0.054229 -0.025922 -0.098804 -0.075669 -0.55298 0.12131 -0.33654 0.10765 -0.24776 -0.11823 0.19287 -0.25487 -0.067418 0.24071 -0.065013 -0.10995 -0.080902 -0.24423 -0.076913 0.25786 -0.3056 0.13961 0.10842 0.10834 0.10923 0.1711 0.53465 -0.1868 -0.035432 -0.43881 0.10329 -0.0031647 0.014827 0.12942 -0.18726 0.063002 0.15109 0.12486 0.16087 0.26373 -0.25072 -0.042835 -0.11511 0.22961 0.065036 0.40097 0.51764 -0.54952 0.27689
peace 0.27221 0.35997 -0.4666 -0.16443 -0.32104 0.0066633 0.16597 0.069821 -0.08565 -0.12364 -0.067657 0.46505 0.48218 -0.15547 -0.026977 0.23747 0.096908 -0.27889 -0.097119 -0.18896 0.26513 0.30462 -0.2392 -0.32124 -0.065018 -0.026023 -0.20328 -0.23765 -0.27186 -0.073631 -0.0087832 0.25776 -0.088182 -0.38908 -0.24261 -0.28635 0.084616 -0.55586 0.68619 0.5874 0.22419 -0.35943 -0.015672 0.061194 0.10263 -0.44171 -0.035792 0.42302 -0.24896 0.39753 0.27309 0.091292 -0.2524 0.56541 -0.23563 0.18331 0.44838 -0.057755 -0.21547 0.052289 -0.32918 -0.027764 -0.089301 0.0091804 -0.20298 -0.15378 0.0081247 -0.019075 -0.22025 0.4618 -0.35353 0.077519 0.13997 0.014769 -0.34724 0.34881 0.12939 -0.28843 -0.3646 0.14967 -0.19247 -0.10232 -0.30746 0.073682 -0.19158 0.059803 -0.026671 0.21815 0.24698 0.051107 0.35607 -0.30858 0.33365 0.59658 0.2902 -0.31086 -0.24823 0.35678 0.27442 0.12949 0.339 -0.35903 -0.14573 0.41328 0.22117 0.39191 -0.1083 0.089379 -0.18236 -0.026305 -0.15417 0.4483 0.18557 0.57305 0.36558 0.32582 0.077181 0.13515 0.1047 -0.42396 0.51563 0.31339 -0.15681 -0.29369 -0.038235 0.51196 0.078563 -0.28999 0.29283 -0.074761 0.41031 -0.34192 0.24657 0.0056104 0.16543 -0.16905 -0.060954 -0.18542 -0.46026 0.055071 -0.16947 0.026554 0.20421 0.16316 -0.013981 0.041148 0.19654 -0.092405 0.47644 -0.35277 -0.065582 0.33091 0.015029 0.13496 -0.09014 -0.34412 -0.24628 -0.69656 -0.20962 0.65564 -0.080931 0.18829 0.31952 0.059236 0.056962 -0.37882 -0.30033 -0.076445 -0.48701 0.23092 -0.28584 0.38442 -0.24509 0.10645 -0.29467 0.40482 0.019972 0.21588 0.11065 -0.29648 -0.165 0.21027 0.10349 0.35351 -0.20217 0.087438 0.27945 0.26074 0.066742 -0.26173 0.12969 -0.26661 -0.40723 -0.20738 -0.51774 -0.50516 0.10184 0.11757 -0.0047295 -0.31558 -0.047373 -0.21746 -0.25237 -0.11748 0.23175 -0.16969 -0.088149 -0.034938 0.235 -0.016853 0.11757 0.15137 0.22649 0.32234 0.3006 0.39349 -0.69039 -0.14545 0.022796 -0.028079 -0.23896 0.05046 -0.31567 0.45439 0.061719 -0.0082204 -0.18887 -0.21881 -0.33819 0.11706 -0.114 0.19694 0.174 -0.31855 0.2631 0.081966 -0.091179 0.43324 0.042029 0.36282 0.098361 0.19382 -0.11543 0.2736 0.038485 -0.19678 -0.13724 0.63643 -0.31378 -0.18178 0.052709 -0.35599 0.42798 0.21779 0.67721 -0.12282 0.28166 0.19841 0.29185 -0.2092 0.19205 -0.13992 -0.0047392 0.36238 0.38085 0.026692 -0.51852 0.18603 -0.32974 0.43761 -0.35194 -0.4364 0.068374 -0.022172 -0.17675 -0.25899 0.13346 -0.20352 0.098567 -0.77746 0.58845 0.17174 0.1426 0.47117 0.4418 -0.27491 -0.077474 0.18987 0.41305 0.081447 0.41087 -0.030209 0.14742 0.18306 0.078033 0.095513 0.37283 0.5587 -0.31217 0.032945
science 0.044314 0.44017 0.29294 -0.24006 0.059085 0.027518 0.011454 0.13376 -0.27492 -0.017319 -0.0039858 -0.13359 0.17227 0.16909 -0.21179 0.070307 -0.18824 0.084561 -0.29198 0.031654 0.030871 -0.021854 -0.223 -0.0083083 0.09916 0.026931 2.8586E-5 0.22598 0.0079425 0.39818 -0.29136 -0.15461 0.029682 -0.21103 -0.17281 -0.0055226 -0.23215 0.15759 0.089808 0.076676 0.04831 -0.23716 0.19711 -0.077873 -0.020073 0.03531 0.63751 -0.46137 -0.22983 0.20598 -0.065185 -0.59518 0.1398 -0.062062 -0.094649 -0.027321 -0.12329 -0.28975 -0.87023 0.10464 0.25174 0.31577 0.3516 -0.39128 0.15155 -0.38757 0.1777 -0.069715 -0.044582 0.16633 -0.11221 -0.16846 -0.1021 0.40281 -0.21984 0.061344 -0.33933 -0.075144 -0.52629 0.19686 -0.1797 -0.020117 -0.28051 -0.3865 0.054867 -0.025325 -0.1938 -0.20592 0.42345 -0.53512 0.17678 -0.16748 0.068535 -0.010067 -0.053153 -0.19147 0.17072 0.20072 0.04899 0.10483 0.15843 -0.23077 -0.072983 -0.31092 -0.1575 0.34328 0.061766 -0.023387 -0.16893 -0.19547 0.46173 0.1 -0.42433 -0.10098 -0.025079 0.16202 0.37293 0.077692 -0.26697 -0.27873 0.35922 -0.16638 -0.010325 0.14054 -0.22342 0.27812 0.24617 -0.0093734 -0.06467 -0.11963 0.1179 0.2086 -0.12884 -0.347 -0.11212 0.010742 -0.06088 0.24775 -0.27926 0.21066 -0.39101 -0.14345 0.4104 0.0026948 -0.16684 0.052515 -0.36375 -0.24873 0.13339 0.021667 0.10765 0.056594 0.093954 0.27934 -0.49345 -0.20669 -0.10072 0.31071 -0.091316 -0.029572 -0.16868 -0.051316 -0.27573 -0.067554 0.025946 -0.54398 -0.001425 0.071224 -0.0024788 -0.10729 0.057061 -0.014743 -0.3268 -0.12404 -0.47546 -0.058061 0.28998 0.31786 -0.55472 -0.56377 0.13466 -0.066597 0.20296 0.29414 0.26157 -0.12832 0.41597 0.30889 0.068095 0.48961 0.12501 0.25126 -0.22026 -0.23097 0.087364 0.24773 0.044344 -0.11581 0.17701 -0.24741 0.18588 -0.068022 -0.060761 -0.1239 0.2252 -0.15428 -0.27612 -0.080068 -0.30192 0.06129 0.30731 -0.48927 0.1843 -0.23346 0.2499 0.215 0.12982 -0.22566 -0.16815 -0.26214 0.21033 0.26124 -0.363 0.62378 -0.1291 0.26164 -9.1896E-4 -0.26448 -0.032873 0.68189 -0.33631 0.21714 -0.074375 -0.11928 0.022557 0.52966 -0.16518 0.20932 0.0080168 0.070027 0.80714 -0.25406 -0.37023 0.29183 0.1316 -0.34318 0.054801 0.28052 -0.30847 -0.07564 -0.20844 0.23822 -0.12185 -0.12933 0.085974 -0.3545 0.081855 0.16221 -0.12447 0.072278 0.60122 -0.019025 0.10347 -0.1724 0.10267 -0.12795 0.13358 -0.20948 -0.078632 -0.028887 0.19984 -0.21283 -0.051246 0.31362 0.020573 -0.27027 0.33549 -0.21495 0.27126 -0.42655 0.34142 0.037453 0.12676 0.21008 0.13439 -0.15724 0.011253 0.13086 0.11452 0.24793 -0.05964 -0.01533 -0.27582 -0.068187 0.38599 -0.11203 0.38363 0.071134 0.18373 0.20075
dawn -0.098085 0.20687 -0.29123 -0.21195 0.036486 -0.053361 0.32563 -0.088826 0.3648 -0.26041 0.07874 0.23629 0.21925 -0.1856 -0.19836 0.40682 0.044246 0.1588 -0.13863 0.091594 0.31127 0.15464 -0.01032 0.075123 -0.33176 -0.021086 0.09747 -0.034814 -0.44608 -0.13214 -0.11196 0.14222 0.3409 0.20428 -0.20592 -0.16356 0.043783 -0.14012 -0.12378 0.20202 -0.16031 -0.20289 -0.93167 0.18302 -0.19687 -0.3207 0.068952 0.31461 0.14311 -0.35026 0.068399 -0.042484 -0.18567 0.074143 -0.64252 -0.41417 0.16164 0.2264 0.33025 -0.20382 -0.1619 -0.1204 0.017812 -0.19038 -0.052643 -0.24029 -0.024121 0.030791 0.1903 0.13925 0.11165 0.092301 0.55822 0.28864 3.9328E-4 0.017067 0.56594 -0.0087735 0.27778 0.21416 0.065126 0.25301 0.088645 -0.1758 0.31706 -0.2211 0.375 0.45537 0.32005 -0.046988 0.24667 -0.029013 0.12749 0.0083755 0.30091 0.10501 -0.2626 0.1683 0.17011 0.0041926 0.40059 0.42543 -0.18233 0.57073 0.0016769 0.13022 0.067798 -0.16354 -0.084468 0.30772 0.27657 0.42874 0.12408 -0.0049949 0.33685 0.18165 0.030138 -0.14286 -0.0044463 0.040038 0.075182 0.21233 -0.25643 0.0177 -0.42746 0.10759 -0.22051 -0.010917 -0.18236 -0.026089 0.21318 -0.25323 -0.34752 0.45007 0.28915 0.20924 -0.40537 -0.30565 0.11048 -0.12535 0.01726 0.30442 -0.47253 0.086319 0.48078 0.088792 0.028811 0.08777 -0.17071 -0.068427 -0.71502 0.073955 0.1891 0.091032 -0.17822 -0.37324 0.069558 0.067493 -0.33523 -0.3454 0.014144 0.2564 -0.37528 0.11128 -0.40531 -0.46063 0.018733 0.25446 -0.46358 -0.001003 -0.090712 -0.01677 -0.40463 0.10183 0.13299 -0.25634 0.061984 0.17012 -0.34981 -0.24983 -0.73036 -0.14849 -0.52175 0.31676 -0.41255 0.13778 0.17466 0.27781 0.15969 0.3868 0.1372 0.40757 -0.036632 -0.48764 0.18757 0.019755 0.02666 0.38511 0.29642 -0.17901 0.14597 0.10606 -0.42725 -0.12106 -0.11571 -0.43414 -0.5342 -0.5211 0.13414 -0.16041 0.03366 0.11837 0.33658 0.19602 -0.056583 -0.031411 -0.1826 0.11315 -0.35561 0.02833 -0.12156 -0.19508 -0.25952 0.23829 0.096167 -0.14133 0.17042 -0.096098 0.42385 -0.025775 -0.69725 -0.030599 -0.0654 -0.3539 -0.0070488 -0.29777 -0.14031 -0.021726 0.31955 -0.050587 -0.034458 -0.25264 -0.18331 -0.091377 -0.13213 -0.093026 -0.40479 0.19225 0.078265 0.019246 0.0025136 0.43027 -0.25638 -0.051908 0.0043874 0.067721 0.058256 -0.032946 0.3552 -0.0095783 -0.28457 0.20233 0.081456 0.17453 0.12629 -0.39282 -0.098184 -0.051147 0.039873 0.12083 -0.090019 0.10819 -0.070545 0.23185 -0.37768 0.18077 0.12906 -0.08971 0.50599 0.094003 0.1262 -0.16345 0.3163 0.16851 0.50654 -0.15744 -0.19996 -0.23011 -0.38302 0.078075 0.0080943 -0.2915 0.31395 -0.1629 0.063611 0.13129 0.14381 0.15167 0.080859 0.12733
brother 0.10546 -0.074634 0.16464 -0.36672 0.15035 -0.28963 0.0047651 0.0029469 0.01992 0.11179 0.13591 -0.31709 -0.018964 -0.19065 0.20153 -0.02509 -0.058275 0.21334 0.44486 0.42894 -0.041392 -0.1118 0.047418 0.11041 -0.24947 -0.61333 0.065796 0.033995 -0.3173 -0.079818 -0.11276 -0.3191 0.549 -0.13481 0.35022 -0.35847 -0.22183 -0.082709 0.042058 -0.13204 0.14584 0.0094729 0.093013 -0.50669 0.12234 0.0073385 0.34976 -0.16024 -0.32406 -0.10874 -0.32528 -0.58686 -0.45546 -0.16693 0.36351 0.38209 0.18545 -0.13675 0.23558 0.033089 -0.21185 0.46788 -0.081635 0.028374 0.21587 -8.5699E-4 -0.14523 -0.11234 0.18687 0.33285 0.03412 0.2841 0.45629 0.1244 -0.16683 0.047859 -0.078774 -0.17271 -0.017754 -0.11389 0.2155 -0.12411 -0.3866 0.074035 -0.38978 -0.37951 -0.30006 -0.64738 0.073604 0.078197 0.19436 0.10516 0.49045 -0.046062 0.040566 0.12513 -0.23254 0.08929 -0.39649 -0.16306 0.16718 0.55513 0.24564 0.04482 0.16303 0.28544 0.10374 -0.12747 -0.32121 -0.23089 0.067492 -0.13959 -0.22117 -0.020945 0.068023 0.77669 0.11516 -0.15871 0.30687 0.29276 0.38749 0.04498 -0.14207 -0.19139 0.37751 -0.32734 0.32412 0.27249 0.19818 -0.47947 0.79876 -0.54031 0.15978 0.27528 -0.17971 -0.25061 0.11654 0.032748 0.20403 -0.014902 0.12369 -0.27716 0.14201 0.33057 -0.49659 0.13978 -0.22711 0.12493 0.12313 -0.057923 -0.38243 0.060081 -0.17681 0.25398 0.013843 0.17931 -0.075966 -0.061412 -0.0015966 0.060852 0.35647 0.49757 -0.1638 -0.16003 0.074574 0.20536 0.17454 0.20427 -0.22126 0.2453 -0.055668 -0.12823 -0.18694 -0.33256 -0.31998 0.040901 5.5079E-4 -0.10111 0.077511 -0.15594 0.014028 0.36129 -0.24098 0.46449 0.12746 -0.032828 0.16774 0.0035395 -0.088359 0.38197 0.12171 -0.091852 -0.51644 0.056813 -0.23921 -0.094906 -0.080093 -0.019465 -0.10907 -0.44395 0.22386 -0.008635 0.058616 -0.070106 -0.0052624 -0.19783 -0.29547 0.34294 -0.10491 -0.099565 0.03502 -0.19624 0.41708 0.032167 -0.10679 0.47572 -0.17828 -0.11011 -0.32161 0.24323 0.12525 -1.3734E-4 0.37566 0.31743 -0.098865 -0.080479 2.7184E-4 -0.092174 0.23444 -0.21962 -0.061297 -0.095331 0.11802 -0.38644 -0.038375 0.097801 -0.35651 0.26893 -0.090419 0.82782 0.1921 0.21939 -0.38726 0.15812 0.24794 -0.0034649 -0.30967 0.16034 -0.23091 -0.34111 0.13218 -0.084109 -0.19903 -0.0021923 -0.0072045 -0.054657 0.33772 0.019342 0.38364 -0.135 0.067437 -0.073861 -0.064038 -0.023441 0.22411 -0.3449 0.1106 0.23281 0.30358 0.03933 0.10839 0.14044 0.24604 0.35417 -0.17993 0.18301 -0.12124 -0.11956 -0.12067 -0.29277 -0.27081 -0.051084 0.099114 0.15309 0.1438 0.26356 0.34759 -0.15695 -0.15737 0.063068 -0.2162 0.23425 0.37206 -0.15564 0.13264 0.25845 0.075982 -0.036355 -0.037421 -0.20497
wine -0.077492 -0.053409 -0.41642 0.0065725 0.11605 0.53028 -0.22644 -0.12843 0.06449 -0.23225 0.14183 -0.20994 0.058542 -0.66102 -0.076572 0.11399 0.006499 0.007155 -0.17551 0.096577 -0.069497 0.26795 -0.27863 0.12432 0.084646 -0.34226 -0.35361 -0.53179 -0.12087 0.013983 -0.38471 -0.20219 0.13173 -0.11699 0.034214 -0.16551 -0.17626 -0.10424 0.071529 0.34826 -0.0031466 0.09561 -0.41895 0.23684 0.29609 -0.58103 0.96677 -0.077523 0.32153 0.57785 0.027965 -0.31625 -0.497 0.3471 -0.17291 0.41104 -0.12169 -0.50968 -0.062551 -0.17283 0.010506 -0.23892 -0.14829 -0.26801 0.22346 -0.4186 -0.50588 0.47683 0.33104 0.19657 -0.076244 -0.15883 0.18084 0.08112 -0.13673 -0.04241 0.13841 0.13419 0.027314 -0.1398 0.28274 0.088459 0.10775 -0.077098 -0.46352 0.16455 0.025982 0.015373 0.29643 0.44259 -0.18776 0.20832 -0.32302 0.2381 0.11226 0.083628 -0.23433 0.2142 0.37556 0.25416 0.078347 -0.35385 -0.18656 0.21989 0.27448 0.31673 0.17972 0.073919 -0.25684 -0.15829 0.17587 0.35497 -0.24222 -0.086149 -0.21855 0.33633 0.19087 0.05515 0.079886 -0.29586 -0.55363 -0.14874 0.34454 0.34281 0.085304 -0.24812 -0.1434 -0.14405 0.39102 0.14301 -0.15643 0.22563 0.37738 -0.34968 0.33426 0.062815 0.50155 0.040877 0.27254 0.053963 0.18004 -0.1017 -0.39256 0.32838 -0.32884 0.24526 -0.3108 0.23856 -0.15163 -0.2476 0.13971 0.071318 -0.34395 -0.40853 0.15133 -0.24561 0.08612 -0.51725 -0.23129 0.27773 0.31664 0.50117 -0.15782 -0.10484 0.0048829 0.16784 -0.19807 0.09324 -0.34349 -0.22391 -0.09703 0.21746 -0.077234 0.29447 0.19364 -0.26183 0.1846 0.034933 -0.22936 0.045691 -0.24201 -0.46055 0.12955 0.048783 0.066427 -0.21957 0.33977 -0.36289 0.3027 0.10677 0.16047 0.21302 -0.10388 -0.17338 -0.57949 0.080217 0.10812 0.21845 -0.39704 -0.1944 -0.050099 0.1402 0.041288 -0.23414 0.28413 -0.015135 -0.40001 -0.1154 -0.34827 -0.24289 0.18553 -0.19733 0.30686 0.13752 -0.37892 -0.30989 0.17913 -0.47712 -0.15876 0.13696 -0.14489 0.21743 -0.020547 0.0019873 0.035468 -0.23141 0.14951 -0.047888 -0.41028 -0.067653 -0.53064 -0.34742 -0.14084 -0.15536 -0.11783 -0.0068872 0.11063 0.44207 -0.2208 -0.44466 0.034923 0.076357 -0.46927 -0.2696 -0.059482 -0.020249 -0.2192 0.60506 -0.26478 0.30038 -0.040144 0.45674 -0.16558 0.041455 -0.29925 -0.3454 -0.099522 -0.23739 -0.25545 0.1335 0.41952 -0.026621 0.38497 0.25193 0.46193 -0.36771 -0.028894 -0.17933 0.5752 -0.20952 -0.081988 0.40956 -0.04345 0.03255 0.10645 0.15043 -0.062656 0.074791 0.018788 -0.45129 -0.086094 -0.19941 -0.40586 -0.092546 0.32327 0.016013 0.51692 0.27666 -0.08214 0.068068 -0.30175 -0.047815 0.49188 0.2663 0.36412 -0.13326 -0.10244 0.46104 0.15157 0.14056
object -0.21087 0.19055 -0.28058 -0.096506 0.2844 -0.016546 -0.14204 -0.33737 0.055463 -0.05459 0.36039 -0.23543 -0.43016 0.15034 0.24277 -0.017816 0.11005 0.12279 0.094419 0.59722 0.10626 0.18998 0.22609 0.27923 -0.22548 0.10337 -0.029186 -0.31234 -0.15429 -0.12618 0.24303 0.20596 -0.10241 0.083003 -0.18727 -0.035141 -0.28636 -0.42838 0.41772 0.14899 0.056788 -0.048756 0.21272 -0.37727 0.072794 -0.4814 0.30798 0.067172 0.035987 -0.16325 -0.068341 -0.27635 -0.063345 -0.36191 -0.14176 0.1816 0.19633 0.16739 -0.22401 0.10519 0.12273 -0.03701 -0.2801 -0.33186 -0.31861 0.16964 0.27374 -0.43544 -0.24436 0.023344 -0.016856 -0.4823 -0.10079 0.02137 0.2608 -0.0069882 0.039074 0.053495 -0.1493 0.05021 -0.26331 0.22183 -0.29757 -0.17498 -0.25529 -0.064019 -0.19527 -0.15183 -0.089469 0.6043 0.16037 -0.11889 0.12764 -6.7873E-4 0.01219 -0.084248 -0.16591 0.67512 0.27736 0.38177 0.034856 0.19157 0.062618 -0.014585 -0.02154 -0.17328 -0.28659 -0.2403 0.0048796 -0.19282 0.46125 -0.21624 0.01176 0.34307 0.027689 0.31629 0.21409 0.006242 0.025546 -0.16184 -0.052022 -0.061335 -0.10959 -0.096617 -0.0016724 0.12362 0.12645 0.15698 -0.14156 0.081601 -0.2084 -0.30557 0.12415 -0.016694 -0.18455 -0.077647 -0.32253 0.17292 0.13566 0.34782 0.055896 -0.10975 0.10736 0.39397 -0.22975 0.24984 -0.32488 -0.23815 0.075298 -0.016015 0.081948 0.024195 -0.14682 -0.33428 -0.45922 -0.16281 -0.054381 -0.39301 0.097304 -0.30164 -0.008593 0.39708 -0.12546 0.39092 -0.30165 -0.59316 0.21122 0.10533 -0.032354 0.38995 -0.068009 -0.14573 -0.11015 0.016489 -0.10769 0.038533 0.39629 0.0088316 -0.41749 -0.37826 -0.036977 0.19808 0.25812 -0.081466 -0.033624 0.32151 0.061199 0.21259 0.37367 0.25518 -0.18162 -0.11881 -0.37078 -0.20522 0.14195 0.087881 0.16616 0.15496 -0.14448 -0.19017 0.12271 -0.1338 0.10062 -0.357 -0.12453 -0.079982 -0.42561 0.025199 0.092219 -0.30373 0.19258 0.054127 -0.13269 0.058299 0.32613 0.27739 -0.058881 -0.24204 -0.22458 -0.24987 0.12162 0.029552 -0.066299 0.59526 0.15954 -0.13974 0.18646 -0.10372 -0.24451 -0.28557 0.18768 -0.18179 -0.44782 0.14762 0.1221 0.14828 -0.013747 0.21782 -0.11556 0.20507 0.17192 0.1903 -0.22818 -0.096127 0.23386 0.024139 -0.071294 0.25072 -0.073653 -0.20638 0.22907 0.36333 -0.14065 -0.025058 -0.020642 -0.01302 0.14476 0.3112 0.002096 -0.041966 0.27896 -0.22084 0.07333 0.13067 -0.27654 -0.030816 0.070252 -0.16167 0.0074592 -0.28219 0.010398 -0.075693 0.25786 -0.19353 -0.53411 -0.041046 0.55744 0.43063 0.14964 0.015866 0.3093 0.095934 0.051856 0.019675 0.21957 -0.22752 -0.33346 0.1928 -0.069618 0.32944 -0.14624 -0.13186 0.21586 -0.26461 -0.036598 -0.17228 0.16048 -0.063676 -0.19885 0.49413
attitude 0.064602 -0.05569 0.10984 -0.24498 0.13834 0.21361 0.025455 -0.022389 -0.12547 -0.27731 -0.21048 -0.065498 -0.0095717 0.36729 -0.078464 -0.11187 0.11443 -0.21714 0.061184 -0.034739 0.059521 -0.24887 0.016879 -0.15026 0.37317 -0.24749 -0.12276 0.14832 -0.27159 -0.3376 -0.35957 -0.21618 0.31129 -0.15927 0.061234 -0.31309 -0.4882 -0.27315 0.19212 -0.077958 0.117 0.076614 -0.01783 -0.016913 0.053747 -0.23903 0.024357 0.37559 -0.54561 0.22432 -0.18374 0.075333 0.043925 0.30105 -0.11402 0.004368 -0.08255 -0.14763 -0.37163 0.0070097 -0.25059 -0.068228 -0.046861 -0.44941 -0.042253 0.075347 0.16313 0.14927 0.34009 0.018777 0.2224 -0.12418 -0.14752 0.1361 0.18637 0.035496 0.08384 -0.17269 -0.10924 0.045159 -0.46027 8.4152E-4 -0.30219 -0.33258 0.15344 -0.2271 0.27091 -0.1996 0.023591 0.16145 0.0609 0.083283 0.32264 0.267 -0.22405 0.063934 -0.28969 -0.092826 0.14178 -0.15017 -0.094845 0.13788 0.067779 0.13036 0.087062 0.209 0.044816 -0.10451 -0.034274 -0.031893 0.21744 0.14803 0.20036 -0.0096897 -0.21132 0.14497 0.49933 -0.099375 0.63491 -0.24707 -0.37115 0.27825 0.30153 -0.17589 -0.34094 0.21908 0.25765 -0.23346 -0.16566 -0.23301 0.034361 -0.26401 -0.26834 -0.25153 -0.42233 -0.057075 -0.091526 0.38494 -0.40472 0.065508 -0.11597 0.23771 -0.13493 0.37003 -0.085392 -0.17937 -0.3574 -0.11229 -0.071993 -0.041785 0.15195 0.14765 -0.096207 0.072178 -0.26641 -0.52719 -0.33916 -0.30145 -0.2051 -0.17604 -0.1732 -0.067197 -0.54906 0.17133 -0.14942 0.19163 -0.099265 -0.17234 -0.67268 0.28647 0.21521 0.26944 -0.13713 0.34855 -0.27196 0.3384 0.016475 0.05013 -0.17467 -0.12276 -0.22931 0.29379 -0.0044575 0.24825 0.03507 0.11793 0.12298 0.14359 -0.11088 0.3619 -0.0017869 0.1069 -0.14924 -0.13377 0.07541 0.030447 0.27107 0.016436 -0.33472 -0.87 0.17433 0.065801 -0.027185 -0.40454 -0.1904 0.095687 0.11098 -0.04475 -0.17189 -0.17237 0.21777 -0.025739 -0.15261 0.273 0.07711 -0.013111 -0.066192 -0.40384 -0.035648 -0.09207 -0.17888 -0.26515 0.069134 0.51509 0.36075 0.071618 0.34414 -0.13121 -0.17677 -0.15644 0.061769 0.19868 -0.070145 -0.22122 -0.32835 0.48191 0.052672 0.22711 -0.42933 0.18216 0.053607 -0.5351 -0.030036 0.049639 -0.023911 -0.0046453 -0.19268 0.071948 0.25 -0.14144 -0.1273 -0.039417 0.077227 -0.089644 0.17365 -0.21689 -0.1199 0.17187 0.34825 -0.13053 -0.11487 0.17958 0.26972 0.11372 0.13156 0.08223 0.04972 -0.23508 0.076389 0.2454 -0.28017 0.52794 0.15687 -0.13105 0.1123 0.22603 0.0050949 0.44839 -0.30934 -0.23179 0.13879 0.019387 0.20014 0.22567 -0.15494 -0.38338 0.24587 0.11775 -0.052303 -0.35676 0.13655 -0.36978 0.25182 0.034703 0.10076 0.0115 -0.072036 -0.02005 -0.33608 -0.029247
treatment 0.10839 -0.50548 -0.069379 0.23729 -0.12686 0.15712 -0.15379 0.20078 -0.092807 -0.40369 0.66803 0.10857 0.067903 -0.25375 0.0026614 0.32411 0.16052 0.034884 -0.54911 -0.25243 -0.063372 -0.12677 0.2497 0.081415 -0.53792 -0.43416 -0.0060764 0.16772 -0.49706 -0.42477 -0.48077 -0.244 0.61967 0.018502 -0.40618 -0.37103 -0.064417 -0.040392 -0.042733 -0.1819 0.26478 -0.019572 0.028991 -0.0384 -0.044544 0.13098 0.28325 -0.12914 0.048317 -0.16946 -0.07015 -0.32425 0.36612 0.25268 -0.086417 -0.097587 -0.4353 -0.22701 -0.15133 0.25904 0.46874 -0.21963 -0.21082 -0.10478 0.013308 -0.18586 -0.16624 0.12594 0.048377 -0.27726 0.46577 0.23955 0.35402 0.1559 -0.053071 0.37954 -0.1115 -0.27589 0.391 -0.043216 0.050505 0.22911 -0.01904 0.26092 -0.067626 0.19208 -0.045583 -0.17279 -0.04745 -0.20582 0.097835 -0.23006 -0.18286 -0.16088 -0.030731 0.15492 0.059942 0.33063 0.021185 0.041683 0.2237 -0.060905 0.051317 0.14728 -0.44963 7.2493E-4 0.086389 0.62099 0.041577 -0.1201 0.18573 0.098458 -0.013398 0.10483 -0.022152 -0.18804 0.40139 0.23334 0.20318 0.19536 0.21888 0.31911 0.016507 -0.13536 -0.51542 0.36004 0.16562 -0.030601 0.32294 -0.079429 0.01946 -0.087253 0.0083731 -0.29662 -0.30642 -0.071395 -0.13501 0.37408 -0.33485 -0.18036 0.14998 0.054975 -0.3541 0.055589 0.010083 -0.1451 -0.35373 -0.36593 0.28893 -0.036698 0.26742 -0.026264 0.013597 0.051942 0.020656 -0.27692 -0.4649 -0.48671 -0.10378 -0.4109 -0.32769 -0.23889 -0.32455 0.25642 0.0080626 -0.2538 -0.34162 0.021812 -0.079142 0.043623 0.55385 0.067329 -0.23652 0.42554 -0.53559 -0.10845 -0.01372 -0.21868 -0.17116 -0.34299 0.37116 0.12949 -0.1242 0.47529 0.2507 0.031761 0.28033 0.12164 0.07908 -0.073869 0.10779 0.09281 -0.056447 -0.050149 -0.12692 -0.18214 0.031065 0.20982 -0.22667 -0.28607 0.049531 -0.052467 0.28817 0.30533 0.33966 -0.01653 0.0070161 -0.041256 0.055937 -0.0038937 -0.16953 -0.22319 -0.10619 -0.049559 -0.16816 0.3105 0.032925 -0.28038 -0.17778 -0.13733 0.080379 -0.053979 -0.087991 0.18994 0.31608 0.077791 0.16357 -0.35601 0.15108 0.2652 0.031596 0.25527 0.1322 -0.10883 -0.30315 -0.086943 0.035914 -0.041441 0.099199 0.24908 -0.0085659 0.037902 0.38465 0.18639 0.11729 -0.28893 0.1858 -0.31251 0.28478 -0.03479 0.19878 -0.1907 -0.22299 0.23848 -0.32725 -0.23825 0.099588 0.17138 -0.085157 0.058539 0.33163 -0.13985 -0.11394 -0.078537 0.49378 -0.036009 -0.27362 0.27853 0.23033 -0.0017991 0.21803 -0.42821 0.023057 -0.18299 -0.28634 0.11313 -0.46562 0.10458 0.065627 -0.15495 -0.21012 -0.16596 -0.1467 0.33948 0.099519 -0.1198 0.22774 0.23227 -0.26284 0.20073 0.040491 -0.52023 0.22026 -0.16735 0.32919 -0.21075 -0.12773 0.02382 -0.040378 0.1767
flight 0.5096 -0.10277 -0.027829 -0.5253 -0.10526 0.31791 -0.20469 -0.30943 0.51235 -0.05359 0.16689 -0.29272 -0.26492 -0.16177 -0.29906 0.49612 -0.16086 -0.22191 0.35771 0.049795 0.027234 -0.043293 -0.11974 0.45798 -0.06761 0.0063207 0.010172 -0.50429 -0.74524 0.10952 -0.8029 0.18741 0.14739 -0.072007 -0.21577 -0.18905 -0.23187 -0.21888 0.25336 0.0032957 -0.27891 0.11279 0.010472 0.013628 0.13446 -0.16206 0.40572 -0.42231 0.1825 -0.21162 -0.029819 -0.031216 0.16924 -0.29308 0.13221 0.10424 0.10324 0.10958 -0.20212 0.05472 -0.055503 -0.11023 -0.25311 -0.29333 0.057637 0.01534 0.061394 0.37177 0.072723 0.21154 0.15885 0.13793 0.033215 -0.06443 -0.11653 -0.4792 0.15579 -0.54802 -0.086702 0.070287 -0.088036 -0.2911 0.24705 -0.27022 0.1324 -0.28641 0.37256 -0.30005 0.58102 0.11315 0.20438 0.094745 0.19383 0.14082 0.16965 -0.095382 0.8558 -0.068944 0.079162 -0.0033802 0.41113 -0.17194 0.34331 0.054367 0.42133 0.35207 -0.096307 -0.052315 0.22908 -0.37947 0.14165 0.16794 0.23476 0.25495 0.22266 0.20155 -0.15313 0.091781 0.19984 -0.010886 0.21376 0.29589 0.42738 0.026883 -0.32446 0.32012 0.023586 0.11918 -0.0012639 -0.027589 0.37451 -0.20322 -0.026439 0.0568 -0.34969 -0.2138 -0.11817 -0.19222 0.2478 0.22063 0.11309 -0.35353 -0.58602 0.092947 -0.085353 0.45964 0.065396 -0.25565 0.049603 0.18851 0.15493 -0.4287 0.28693 0.060203 -0.30083 -0.15694 -0.14583 -0.36687 0.44982 -0.16247 0.017869 -0.4952 -0.13955 -0.2737 -0.013743 0.19134 -0.087409 0.10141 -0.33404 0.10565 0.22396 -0.0086655 -0.39359 0.076471 0.075112 0.53513 0.20212 -0.027102 -0.75412 0.0094555 -0.067794 -0.21666 -0.079778 -0.12606 -0.037277 0.5983 -0.26655 -0.15855 0.22191 0.40432 0.24058 -0.059296 0.066222 -0.075659 0.11817 -0.30196 -0.03966 0.22868 0.14208 0.05828 0.17889 0.08954 -0.041199 -0.0078767 -0.69623 0.19492 -0.21644 -0.093737 -0.037179 -0.1999 -0.073732 0.036216 -0.17327 -0.15327 0.15602 0.51751 -0.023932 0.066947 -0.57021 0.32301 0.11231 -0.31539 -0.051777 0.42569 0.13639 0.18436 0.12083 0.024993 -0.047351 0.094669 -0.10886 -0.31883 0.0074128 -0.44317 0.049097 0.37374 -0.0079449 -0.12236 0.077138 0.44645 0.020857 -0.41412 0.36401 0.23103 -0.20776 -0.25549 0.036557 0.25879 -0.16443 0.14122 0.00835 0.13191 0.033343 -0.048839 -0.23581 -0.21725 -0.1407 0.077566 0.25788 0.0079497 0.36236 0.10576 0.3746 -0.12153 -0.12405 0.053729 -0.14748 0.42064 0.38288 -0.11113 -0.29221 -0.063055 0.29803 0.49007 -0.13874 0.13461 0.097298 -0.18012 0.42082 -0.32361 -0.38729 0.03831 -0.31715 0.025321 0.39402 0.447 0.21431 -0.071106 -0.056938 0.64004 0.020683 -0.41067 -0.10704 -0.30354 -0.018235 0.20555 0.12284 0.40763 -0.0075593 0.075331
forest -0.18759 0.21717 -0.12343 0.65687 0.21651 -0.19251 -0.11409 -0.13581 0.32485 -0.097039 -0.068796 -0.013476 0.34866 -0.30843 0.055196 0.361 0.60422 -0.29428 0.13053 0.085774 -0.13415 0.14038 0.20906 0.24443 0.073201 0.33673 -0.21797 -0.019029 -0.21773 0.18933 0.093514 0.19058 0.40993 -0.32234 0.029545 -0.033993 0.57561 -0.11783 0.24287 0.32656 0.19344 0.27385 -0.039289 -0.079329 -0.080737 -0.26465 0.18458 -0.48703 -0.05096 -0.13369 -0.0838 -0.25589 -0.079171 0.18718 -0.53268 0.062662 0.21031 -0.012837 -0.027599 0.26047 0.23679 0.1473 0.041443 0.006353 0.2951 -0.27765 -0.34086 0.081083 0.15949 0.12869 -0.23572 -0.0057577 0.30623 -0.11419 -0.063093 -0.104 0.063188 -0.010981 0.17934 0.015752 0.28017 -0.06718 0.23177 -0.46538 0.016169 0.12647 0.32918 -0.0097535 0.019069 0.54554 0.50664 -0.072496 0.22453 0.078063 0.089739 -0.17294 -0.11001 -0.0023059 0.060081 -0.27305 0.2852 -0.13903 -0.20763 0.10703 -0.0074231 0.44945 -0.19922 0.33625 0.082429 -0.12654 0.55838 0.69316 -0.2601 0.17809 -0.04334 0.19258 -0.23216 0.45537 0.28537 -0.33557 0.15919 -0.12206 0.37188 -0.20444 0.16231 0.20415 0.43655 0.2777 -0.071505 0.14425 -0.11774 0.28213 0.16684 -0.092379 0.27778 -0.45732 0.20934 -0.046119 0.13923 0.34616 0.31022 -0.07148 -0.56939 0.20753 -0.27323 0.10187 0.24428 -0.18572 -0.16342 0.54222 -0.063776 -0.071491 -0.10447 -0.00103 -0.39961 -0.40435 -0.26047 -0.18577 -0.19917 0.36859 0.10203 0.03024 0.3616 -0.0044573 -0.071605 -0.7317 -0.38081 0.084278 -0.29283 -0.10116 0.14971 -0.0048602 -0.12793 0.17729 0.078152 -0.097124 0.11906 0.39655 -0.49227 0.034865 0.32194 -0.12025 -0.0091762 0.036263 -0.18485 -0.27976 0.058157 0.019225 0.037367 -0.159 0.37614 -0.20918 0.082646 -0.10096 0.027264 0.055538 -0.17319 0.27629 -0.0085628 -0.47578 0.12646 -0.15993 -0.39907 -0.44477 0.27853 -0.3697 -0.58603 -0.040077 0.23684 -0.35159 0.045651 -0.0075354 0.033055 -0.06434 0.21763 0.21714 -0.076292 0.17412 -0.31584 0.086435 0.34182 0.15379 -0.042121 0.69291 0.20205 -0.072697 -0.074421 -0.32546 0.01578 0.17732 0.199 -0.057625 -0.20922 0.11655 -0.35351 -0.10359 -5.1849E-4 0.2115 0.33327 0.085088 0.11811 -0.30272 -0.031339 0.20726 0.24904 -0.47954 0.21055 0.086638 0.25955 0.024573 -0.41546 0.14967 0.36049 -0.026788 -0.1772 -0.12667 -0.009427 0.12078 -0.095182 0.12745 0.43013 0.63304 0.30453 0.20684 0.039059 -0.099713 0.11162 -0.062551 0.19195 0.21285 0.20585 -0.29401 0.46969 0.21478 -0.2448 0.063217 0.41823 0.18255 0.42346 -0.14735 -0.0068918 0.095263 0.099572 0.11529 -0.014828 -0.25796 0.6516 0.060103 0.2445 0.055558 0.20459 0.1793 0.41635 0.038812 0.092116 -0.25687 -0.23135 0.064761 0.27178 0.34914
abuse 0.34751 -0.50169 -0.70371 0.28128 0.059782 -0.20787 -0.025317 0.13583 -0.13372 0.086666 0.23583 -0.023884 -0.26709 -0.0098067 -0.19062 0.34603 0.35558 0.31561 -0.45015 0.11786 0.10111 -0.20549 -0.059303 -0.23576 -0.53583 -0.071863 -0.084596 -0.18334 -0.15275 -0.33741 -0.3304 0.2382 0.64313 0.33346 -0.035362 -0.62698 0.046848 -0.057064 0.31211 0.315 -0.37783 0.13769 0.23983 -0.16037 -0.27437 0.58543 0.7132 -0.30715 -0.16088 0.0074163 -0.18135 -0.82071 0.31265 0.031365 -0.23084 0.11885 0.089296 -0.69142 -0.082855 -0.1588 0.27267 -0.25196 0.015572 0.32159 0.15119 0.021907 -0.37324 -0.070516 0.24253 -0.47374 0.33283 0.45559 0.17419 -0.086623 0.19213 -8.1085E-4 -0.308 0.10226 0.25317 -0.090616 -0.077963 0.084548 -0.29613 -0.4807 -0.29672 0.045762 0.14381 0.30149 0.71738 -0.18279 -0.19608 0.19216 0.49778 -0.098519 0.27754 -0.53715 0.14978 0.62915 0.2145 0.10846 0.13707 0.72089 -0.052519 0.062082 0.50256 0.003551 0.33797 0.14812 0.091341 0.34346 0.37223 0.15559 -0.060915 0.040839 -0.46498 0.5028 0.41376 -0.02532 0.13397 -0.092247 -0.0020054 0.21571 0.0049674 -0.10153 -0.13681 0.40694 0.1188 0.19989 -0.035223 0.14638 0.20105 -0.38808 -0.11662 0.18671 0.059535 -0.35313 -0.34729 0.065488 -0.087284 0.36752 -0.46355 -0.37936 -0.17748 0.29996 -0.059921 0.22448 -0.5929 -0.43094 -0.23696 -0.48515 -0.26521 -0.043956 -0.51944 -0.084805 -0.44996 -0.23309 -0.33685 -0.2875 -0.15032 0.31501 -0.23751 0.2952 0.2157 -3.4293E-5 0.071559 -0.13591 -0.18069 0.11829 -0.39673 -0.11274 -0.054616 0.27426 -0.14696 0.36733 -0.49289 0.053201 0.27981 -0.20323 -0.063453 -0.22862 -0.24758 0.034801 0.23873 -0.028298 0.50038 0.079781 0.30383 -0.4034 -0.23957 0.13912 0.16969 -0.24459 0.028415 0.43764 0.050902 -0.44187 0.22119 -0.17143 0.26539 0.039619 -0.030567 0.21432 -0.27982 0.048174 0.61221 0.24952 -0.17419 -0.44869 0.17213 -0.25798 -0.054884 0.025113 0.10728 0.0048863 -0.093973 -0.2377 -0.12785 0.088088 -0.2024 0.062935 0.36933 -0.033551 -0.28965 0.077384 -0.46495 -0.063313 0.06884 -0.44398 -0.25415 -0.12786 -0.20042 0.34995 -0.042313 0.17652 -0.23748 0.0052969 -0.31688 0.14019 -0.35802 0.013351 -0.14738 -0.082185 -0.087211 -0.10439 0.19166 -0.14753 -0.029615 0.038597 0.30979 0.22609 0.024921 -0.29187 -0.40966 -0.070645 -0.090143 0.13705 0.38493 0.25698 0.0070643 -0.28878 0.2753 -0.26509 0.11977 -0.15673 0.22742 0.19915 -0.11604 0.36239 -0.19697 -0.32045 -0.20097 -0.20949 0.42499 0.029814 -0.23351 0.13145 -0.084515 0.39364 -0.027046 -0.0015243 0.13014 0.05204 0.33365 0.21621 -0.069843 0.12759 0.20757 0.035973 0.38058 0.059648 -0.0068011 -0.34785 0.023163 -0.083059 -0.0048818 0.211 -0.31151 -0.21374 -0.25118 -0.12002
criterion 0.29015 0.14238 0.024338 -0.28149 -0.38942 0.12509 -0.093165 0.057131 -0.089429 -0.026352 0.12006 0.14464 0.23756 -0.082527 0.020396 0.13328 -0.085664 -0.12386 -0.1252 0.026328 0.0068833 -0.034483 -0.07205 -0.0095427 -0.4184 -0.043191 -0.22465 -0.0092753 -0.24113 0.026673 -0.37306 0.17299 0.092576 -0.017111 -0.23631 -0.37039 0.15799 -0.2864 -0.026723 0.051589 -0.014096 0.030813 -0.023226 -0.096398 0.30741 0.09177 0.42874 0.13208 0.23592 -0.29963 0.15734 -0.40576 -0.27529 -0.04506 -0.075358 -0.036838 -0.32169 0.03901 -0.41426 0.167 0.090571 -0.06706 -0.11279 -0.34719 0.092578 0.12139 0.23949 0.093928 -0.024676 -0.21049 0.21795 0.16157 -0.084562 -0.043001 -0.40503 -0.32891 0.057933 -0.11774 -0.18439 0.2076 0.11983 0.14288 -0.17436 0.007683 -0.38916 0.088109 -0.13311 -0.10036 0.061737 -0.069299 0.086927 -0.20128 0.10137 0.2338 -0.027008 0.081539 -0.2897 0.34624 -0.13889 0.071686 0.21166 0.18034 -0.19678 -0.094969 0.022004 0.27728 -0.2776 -0.03636 0.087569 -0.057266 0.53905 -0.014713 -0.0055271 -0.0015822 -0.22693 0.024265 0.21057 0.092525 0.11541 0.074688 -0.10402 -0.020929 0.056611 0.0044653 -0.13827 -0.11365 -0.14439 0.32289 -0.14646 0.29348 -0.15185 -0.17329 0.16897 -0.064931 -0.017222 0.14854 0.054276 0.16873 -0.32894 0.20064 -0.092856 0.015293 -0.11448 0.1914 -0.33884 -0.02074 -0.1889 -0.47607 -0.026594 -0.17789 0.26153 0.18038 -0.14851 -0.15021 -0.33833 -0.14855 -0.069545 -0.19831 0.36566 0.064155 -0.057131 0.08035 -0.21685 0.043126 -0.30409 0.42222 -0.2078 0.042433 -0.013423 -0.0045992 0.088793 0.11872 -0.28873 0.016474 -0.037882 -0.12309 0.26043 -0.15348 -0.28805 -0.1437 0.18214 -0.037168 0.088069 -0.024167 0.075132 -0.16333 -0.042509 0.1027 0.18991 0.2979 -0.27343 -0.10056 -0.43597 0.12651 0.11357 0.029542 -0.023555 -9.0489E-6 0.14287 -0.066089 0.13801 0.060387 0.081268 -0.18237 -0.098582 0.12938 -0.056576 0.018057 0.2409 0.23919 0.095041 -0.39527 -0.049196 -0.01524 -0.025488 0.21569 -0.12995 -0.31308 -0.0058461 -0.11155 -0.23722 -0.12149 0.039791 0.36355 0.12426 -0.0076834 -0.11989 -0.064979 -0.059428 0.33279 -0.011414 -0.12549 0.10296 0.28578 -0.21087 0.40956 -0.10712 0.35227 0.11565 0.083567 -0.16304 0.064208 -0.2382 -0.30266 0.026723 -0.24702 -0.14629 -0.073254 0.15336 0.32154 0.31474 0.1595 0.028752 0.19608 0.099677 0.175 -0.058454 -0.2738 -0.22431 0.14643 0.13663 0.15677 0.010391 -0.012371 -0.20476 -0.28571 -0.0030449 -0.43705 -0.051757 -0.38928 0.087206 -0.25405 0.34409 -0.26174 -0.061504 -0.1636 -0.11537 -0.019211 -0.12425 -0.20713 0.056564 0.026056 0.010104 0.36228 -0.28494 -0.18235 0.04941 0.36543 -0.095023 0.12478 0.0029214 -0.22205 -0.39721 -0.32219 0.26518 0.21357 -0.0049704 -0.046407 -0.12402 0.26748
sea 0.24661 0.14674 -0.037559 0.2097 0.0039795 -0.13746 0.10503 -0.46391 0.20539 -0.17883 0.1281 -0.2229 -0.023302 -0.23405 -0.29882 0.32445 0.19249 0.024123 0.26604 0.20819 -0.28029 -0.072489 0.05395 0.55965 -0.2341 0.090954 -0.29854 -0.2364 -0.28544 -0.020417 0.15561 -0.035379 -0.2392 -0.11659 -0.51611 -0.66165 0.16477 -0.12474 0.19093 0.20381 -0.19497 0.29443 -0.1624 -0.036605 0.17034 -0.21217 0.30007 -0.46255 0.090974 -0.30533 0.22684 0.29533 -0.092904 0.017913 -0.16633 -0.10569 -0.32297 -0.044531 0.014667 -0.16458 -0.1466 0.088966 0.082355 -0.41091 0.44156 0.01138 -0.15901 0.26256 -0.01893 0.083942 -0.28906 -0.25991 -0.251 0.23528 -0.18156 0.26266 0.29576 -0.15272 -0.002723 0.12165 0.13409 -0.41354 0.30532 -0.31877 -0.18879 -0.22148 0.35009 -0.031603 0.59328 -0.0064546 0.32587 0.38415 -0.035253 0.42155 0.1613 0.049207 -0.20035 0.27283 0.33686 -0.059029 0.17205 0.059598 -0.35443 0.33481 0.016295 0.12584 0.12958 0.053602 0.33974 -0.30927 0.042231 0.40886 -0.29767 0.13561 0.46311 0.13527 0.36348 -0.11742 -0.23738 0.044073 0.39116 0.20835 0.013508 -0.29593 -0.15136 0.01409 0.098026 -0.10155 -0.18478 -0.2866 0.129 0.24185 -0.060664 -0.59085 -0.17566 -0.21034 -0.0074355 0.17337 -0.41097 0.37907 0.42024 -0.15925 -0.3218 0.047766 -0.02401 -0.09035 -0.19779 0.11691 -0.096649 0.2619 -0.047277 -0.19883 -0.25675 0.48033 -0.049441 -0.32521 0.23201 -0.52693 -0.33034 0.26238 0.17527 -0.18367 -0.0062261 0.32683 0.314 -0.55036 0.17197 -0.15085 -0.18697 -0.17198 0.087612 0.20492 -0.34439 0.30092 0.057451 -0.37225 -0.18858 0.13291 -0.088009 -0.36725 0.098656 -0.16955 0.092926 0.25717 -0.4833 -0.29801 -0.099821 0.072161 0.24628 -0.11125 -0.26204 -0.2137 0.20194 -0.98184 -0.32961 0.038063 0.41877 0.092196 -0.14387 -0.47204 0.21387 -0.412 -0.65155 -0.11113 -0.14997 0.036655 -0.32719 -0.4371 -0.091679 -0.14141 0.10057 -0.06546 0.11854 -0.0024536 -0.092068 0.50711 -0.17817 -0.05672 0.0069379 -0.027315 0.2061 0.067563 -0.19353 -0.0017687 -0.065733 -0.16989 0.50915 -0.27647 -0.2469 0.0038384 -0.23998 0.1353 -0.082164 0.1509 -0.29413 -0.25314 0.07479 0.11629 0.081642 -0.21472 -0.028903 0.015416 -0.32055 0.57746 0.14028 -0.15042 0.066845 0.27343 0.31931 0.08262 0.52921 -0.10096 -0.086906 -0.099689 -0.63067 3.0514E-4 -0.40614 0.1519 0.18137 -0.32868 0.064532 0.048591 0.15756 -0.0061884 0.21774 -0.30869 0.080269 0.12328 -0.099425 0.20624 -0.23224 -0.21655 0.34194 0.41596 -0.30906 0.31676 -0.17585 -0.078054 0.56639 0.067206 -0.081968 -0.0091744 0.23091 0.12888 0.29908 -0.031318 0.41753 -0.22647 0.058595 0.08821 -0.11866 -0.23679 -0.084005 0.20624 0.32714 -0.012959 0.39994 0.046836 -0.19921 0.12892
dollar -0.31388 0.44011 -0.15013 -0.19925 0.059577 0.55046 0.078403 -0.28996 -0.65686 -0.20778 -0.12158 -0.27916 0.66265 -0.07218 0.29003 0.49824 0.11896 0.16364 0.47356 0.33192 0.27577 0.15628 0.23253 0.050441 0.0010224 0.091286 0.040301 -0.16196 -0.31344 -0.12058 0.0070779 0.22371 0.58479 -0.56473 -0.39889 -0.19533 -0.12081 -0.081652 0.11028 -0.13599 0.067504 0.21599 0.39082 -0.69205 -0.0491 0.02992 0.035821 -0.34675 0.26838 0.21142 -0.40029 -0.30223 -0.39273 0.21264 -0.13613 0.097909 -0.15844 0.23967 0.13254 -0.32383 -0.15504 -0.12546 -0.35036 0.05053 0.40078 -0.2396 -0.689 0.032168 -0.13549 -0.082935 -0.10796 -0.26201 0.10029 -0.30874 -0.1557 0.22261 -0.075234 -0.062749 -0.36614 0.16342 -0.26994 -0.095385 -0.46226 -0.35841 -0.059188 0.17569 -0.20106 -0.0044279 0.14976 0.32089 0.37012 -0.23774 0.27966 -0.24721 -0.045716 0.011555 0.3097 -0.0047364 0.18131 -0.12373 0.49588 0.39689 -0.15405 -0.040825 0.20022 0.45701 0.59526 -0.044732 -0.28457 0.19959 0.2938 0.049005 0.1874 6.4496E-4 -0.13734 0.39533 0.2634 -0.13697 0.23378 -0.26922 -0.16936 0.32485 0.33765 -0.21582 -0.099429 0.15055 0.39601 -0.0045301 0.14589 0.042808 0.07601 0.058175 -0.17608 -0.52536 -0.22656 -0.31669 0.39139 -0.17778 0.082001 0.035458 0.35814 0.15208 -0.75638 0.26344 0.23031 0.31389 -0.30903 -0.20702 0.31385 0.16038 0.058709 -0.046251 -0.0048318 -0.077041 0.12487 -0.20452 -0.33933 0.082332 0.19676 0.064415 -0.066213 -0.47398 0.022146 0.11196 -0.52365 0.0051157 0.046143 -0.29667 -0.23087 0.10006 -0.070491 -0.0064274 -0.17884 0.12636 -0.13689 -0.12345 0.17377 0.050842 0.035223 0.31672 0.035213 0.12035 -0.13991 -0.0037265 0.32821 -0.094682 -0.16211 -0.17379 0.1499 -0.11583 -0.27003 -0.079139 -0.48607 -0.54892 -0.16269 0.25396 -0.020773 0.05804 -0.13939 0.017405 -0.20779 -0.22567 -0.13006 0.082958 -0.38624 0.38105 -0.35808 0.044939 0.37831 -0.35258 0.35274 -0.42218 -0.13679 -0.10832 0.20309 0.38507 -0.1614 -0.39981 -0.32586 0.068629 0.23576 0.42084 0.13559 0.24068 -0.3298 0.14033 0.11434 -0.045201 -0.13418 0.32844 -0.093882 0.42188 0.23525 -0.49811 0.033574 -0.4222 -0.20164 -0.013888 0.54145 -0.78364 -0.24347 -0.13012 -0.17013 0.62686 -0.49098 -0.20663 0.28792 0.16743 0.05019 0.26951 0.080774 -0.45966 -0.44263 0.33711 0.087062 -0.43022 -0.051295 0.088015 -0.28604 0.21742 -0.24443 0.31712 -0.0081833 -0.012853 0.20855 0.22149 -0.25146 -0.45834 0.087724 -0.042458 -0.21 0.60681 -0.0034603 -0.32662 -0.21029 -0.10091 -0.020197 0.31527 0.2911 -0.12651 0.63832 -0.11813 0.013603 -0.26075 0.16363 -0.14081 -0.078027 -0.21852 0.19768 0.36135 -0.60161 -0.2967 0.37959 0.04528 0.18086 0.17302 0.37411 0.2704 0.15119 -0.31261
example 0.19368 -0.23273 0.014043 0.13349 0.21036 0.33959 -0.023287 -0.067899 0.14043 -0.38119 0.11076 0.089847 -0.04712 -0.39101 0.16496 -0.063227 0.0028611 0.16545 0.0078221 0.095741 -0.15279 0.060584 -0.056089 -0.15114 -0.14759 0.078662 0.46249 0.21593 -0.40421 -0.1518 -0.15912 0.14511 0.045066 0.40981 -0.098746 -0.3772 -0.17739 -0.23076 -0.014579 -0.090019 -0.11899 -0.17646 0.069494 0.10652 -0.047763 -0.279 0.016482 -0.12136 0.11194 0.25567 -0.022722 -0.37635 -0.14326 0.19569 -0.21555 0.16177 0.26893 0.041407 -0.079193 0.089267 -0.083653 -0.047329 -0.14384 -0.095627 0.1478 -0.021377 -0.028668 0.19032 0.22321 -0.51471 0.12663 0.13975 -0.10623 6.9648E-4 -0.12008 -0.13679 0.31921 -0.37144 -0.19231 0.052035 -0.13555 0.058203 -0.21894 -0.06002 0.16778 0.0023187 -0.099664 -0.082734 -0.05136 0.023412 0.24631 -0.10975 -0.19523 0.14526 -0.051015 -0.11285 -0.090452 0.1309 0.32455 0.04026 0.5234 0.24705 -0.13182 0.10296 -0.20627 0.14975 0.092637 0.059153 0.095095 0.10421 0.43453 0.10829 -0.23212 -0.25358 0.20429 0.19606 0.34015 -0.17381 0.11062 -0.50001 -0.12971 -0.15693 0.40379 -0.087589 -0.26849 0.09777 0.12093 0.20412 0.01304 -0.23985 0.20944 -0.25772 0.010654 0.10839 -0.026693 0.0073155 0.31924 0.13686 -0.24427 -0.072558 0.0083987 -0.32301 -0.31136 -0.044405 -0.20803 -0.11046 -0.098421 -0.17062 -0.3008 0.30026 0.32184 0.092376 0.26107 -0.0051002 0.24951 -0.54731 0.081475 -0.38239 0.095324 0.13108 -0.14124 -0.08605 -0.023316 0.078578 -0.082043 0.078968 -0.03552 0.15261 -0.016927 0.013826 -0.2555 -0.062577 -0.025854 0.064622 -0.16416 -0.25183 0.10222 0.16635 -0.17919 -0.029687 -0.1355 -0.15342 -0.023498 0.0016906 -0.060908 0.04312 0.34425 0.20477 0.43847 0.097247 0.27078 0.19064 -0.2765 0.066507 0.058821 0.28826 0.043979 -0.045629 0.0738 -0.011673 0.22385 0.046689 -0.38327 -0.16024 0.084744 -0.094411 -0.051311 -0.096562 0.10258 0.033681 0.47638 -0.22561 0.2882 0.17655 0.39722 0.24444 0.043317 0.1091 0.019926 0.18047 -0.38048 -0.064975 0.071865 0.26419 0.07536 0.059368 -0.083384 0.080475 0.33045 -0.010631 -0.31232 -0.23464 0.030992 -0.18024 -0.26841 -0.063326 0.11135 0.28949 0.034683 0.26617 0.022182 -0.055866 0.1687 0.031003 -0.002312 -0.10524 0.026018 -0.14534 -0.071966 -0.0037709 0.16717 -0.18733 -0.24334 -0.32024 0.28687 -0.084372 0.094952 0.065096 -0.020442 0.32147 0.17022 -0.056289 -0.17329 -0.027455 0.063581 -0.17068 0.018846 0.045335 -0.2545 -0.13002 0.23666 0.072393 0.23126 -0.084492 0.30481 0.28607 0.065276 -0.061482 -0.40866 -0.11601 0.10115 0.16709 0.32664 0.072675 -0.22069 -0.12269 0.35665 0.45439 0.40106 0.035925 -0.22834 0.23209 -0.0091729 -0.32265 0.27752 -0.070889 -0.14403 0.076178 -0.017425 0.18215
journal 0.046315 0.38223 -0.20418 -0.24764 -0.19944 0.067798 -0.080141 0.31384 0.65072 -0.55392 -0.08464 0.0031442 0.23399 -0.52484 -0.36159 0.007798 -0.27489 0.021354 -0.24663 -0.10845 -0.12445 -0.033669 -0.068829 0.16654 -0.2005 0.40369 0.1112 0.22592 -0.84632 -0.18474 -0.37835 0.28154 0.36651 0.033329 -0.098584 -0.63203 0.063303 0.026339 -0.070735 -0.42094 0.42222 0.17652 0.0083909 -0.20032 -0.57924 0.15957 0.35568 0.21239 0.30353 0.065218 0.17601 -0.19462 0.020266 0.28636 0.11067 0.099782 -0.033192 -0.55381 -0.38902 0.08626 -0.012742 -0.30328 -0.14471 -0.27409 -0.034048 0.085833 0.26454 0.015428 -0.18166 -0.25334 0.31904 0.17427 0.27294 0.22251 -0.3792 -0.087771 0.38672 -0.18266 -0.015808 0.30516 -0.20145 -0.018785 -0.19255 -0.42967 0.14274 0.043618 0.40786 -0.0572 0.35412 0.0043671 0.029953 -0.25506 -0.032204 -0.45106 0.079309 -0.21271 0.01165 0.37565 0.42635 0.20706 -0.062008 -0.37782 0.037959 -0.52262 -0.13065 -0.0057387 0.36568 0.55848 -0.21839 0.28492 -0.11052 0.26335 0.14103 -0.19197 -0.25129 0.26093 0.15696 0.24986 0.10599 -0.22582 0.13713 0.14748 0.19648 -0.23213 -0.060879 0.09998 0.30907 0.11787 -0.36323 -0.6283 0.50861 0.40027 0.37553 -0.32555 0.42357 -0.57461 -0.18305 0.099136 -0.45701 0.3974 -0.15511 -0.029695 0.061435 -0.19107 -0.29796 0.24505 -0.44562 -0.92131 -0.4016 -0.21297 0.19921 -0.22956 -0.2834 0.071995 -0.25904 0.12861 0.18213 0.14507 0.31695 0.22308 0.060099 -0.21827 -0.48635 0.031033 -0.27995 -0.54287 0.10336 -0.16039 0.32988 -0.36236 0.10477 0.15428 -0.31934 0.22776 -0.059418 -0.27638 -0.23514 0.35881 -0.043897 0.20543 0.548 -0.34867 0.55275 0.64762 -0.19017 -0.46875 0.16124 -0.37869 -0.32786 0.0317 -0.50873 -0.30356 -0.57253 0.53665 -0.26629 0.42974 0.0033515 -0.021843 -0.28404 0.68288 0.6039 0.22469 -0.60486 -0.026662 -0.20968 0.05798 -0.020817 -0.24098 0.005091 0.099228 0.55101 -0.93976 -0.01491 -0.34874 -0.23791 -0.029672 0.09974 -0.54041 -0.42876 -0.28604 -0.26744 -0.014263 -0.48408 0.7438 0.14248 -0.10889 -0.24387 -0.31943 -0.67425 0.3011 0.16932 -0.0025491 0.063897 0.37833 0.36844 0.28459 -0.10333 0.33402 -0.031086 0.35286 0.24399 -0.26095 -0.24379 0.075106 0.069341 0.046295 -0.11633 0.3105 0.0066948 -0.44203 0.34793 -0.044478 0.040989 -0.4553 -0.057883 -0.001388 0.31185 0.46235 -0.1017 -0.16123 0.16809 -0.11329 0.26321 0.12965 0.30413 -0.46803 -0.15972 0.14414 0.19731 0.11824 0.45245 0.30817 0.1342 -0.020369 -0.098828 -0.010607 -0.063816 -0.1242 0.37433 -0.28136 -0.11397 0.22599 0.10007 0.33254 -0.13016 -0.022569 0.36378 -0.36725 -0.17506 0.068654 -0.18726 -0.097944 -0.48606 -0.034289 0.80868 -0.41511 0.14166 0.39715 0.15414 0.32747
laundering 0.12366 -0.24719 0.13795 -0.17598 -0.12114 0.23031 -0.23295 0.27753 0.005934 -0.20181 0.30653 -0.42611 0.012093 -0.24645 -0.44627 0.4357 0.16912 0.087541 -0.48977 0.46462 0.27889 0.17698 -0.75004 0.018358 -0.35152 0.09668 -0.13708 -0.094131 -0.17257 -0.52989 0.12998 0.31106 0.67979 -0.17557 0.3743 -0.62633 -0.25051 0.011734 0.020691 0.41578 -0.057025 0.25227 0.10597 0.009073 -0.12122 -0.44544 0.08714 -0.061028 -0.012667 -0.23664 -0.30444 -0.21705 -0.32182 0.12773 -0.28539 0.31702 -0.38452 -0.1367 -0.14854 -0.50165 0.29442 0.10322 0.35259 0.46117 -0.025256 -0.081112 0.011468 0.40948 -0.15253 -0.1912 0.15515 0.40898 -0.018985 -0.12056 0.20628 -0.022842 0.18013 -0.2095 0.10759 -0.042398 0.066403 -0.44938 0.026199 -0.052959 -0.21156 -0.18482 -0.23283 -0.19612 -0.058677 0.22117 0.37092 0.17114 0.054555 -0.26265 0.087205 -0.22898 0.07644 0.15877 0.11168 -0.32667 0.07935 -0.086475 0.15247 0.3481 0.13506 0.31548 0.56786 -0.10321 -0.045734 -0.15178 0.61506 0.29328 -0.018008 0.047092 -0.19195 0.10872 0.053992 -0.23398 0.017475 -0.23752 0.24901 0.4069 0.043238 -0.041756 -0.1788 0.27292 0.29851 0.24592 0.44418 -0.019727 -0.029256 -0.080768 0.22197 -0.20613 -0.19585 -0.2873 0.17589 -0.09465 -0.048836 -0.0040789 0.22708 -0.095234 -0.097393 0.11933 0.077496 0.40666 -0.20189 -0.34138 -0.018752 -0.051498 -0.20438 -0.086817 -0.18955 -0.21404 -0.32747 0.06357 0.15461 0.015896 -0.0068838 0.28235 0.12302 -0.041233 -0.056744 -0.16905 -0.076528 0.154 0.093018 -0.23006 -0.29695 0.16294 0.22765 0.22463 -0.059903 0.119 -0.25555 0.19549 0.17183 -0.19846 0.2833 0.1476 -0.15856 0.42163 -0.11883 0.40659 -0.05852 0.2195 -0.10851 -0.21609 0.17589 0.020399 0.17213 -0.3921 -0.46292 0.25911 -0.31307 -0.24997 -0.27267 -0.22331 0.21116 -0.03471 -0.032329 0.18825 -0.27265 0.51506 0.13717 0.028872 -0.10103 0.051039 -0.34482 0.016766 0.047221 0.052419 0.42251 0.33165 -0.10375 0.08435 -0.17842 -0.22597 -0.21877 -0.13583 -0.39895 -0.073789 0.027962 0.35551 -0.37443 0.065316 0.26388 -0.42574 0.073379 -0.25074 -0.36656 0.095778 0.21806 0.29301 -0.50339 -0.38531 -0.1021 0.28388 -0.06322 -0.17507 0.02962 -0.045645 -0.21195 0.35519 -0.16681 -0.23216 0.18197 0.20352 0.30987 0.51852 0.091401 0.13646 0.025154 -0.16183 0.28703 0.098204 0.54749 -0.047188 -0.26158 0.074655 0.19025 -0.12018 0.12248 0.32176 0.39758 -0.29009 -0.11893 -0.17452 -0.16221 -0.050602 -0.034908 0.049479 0.25211 -0.28357 0.23341 0.17848 -0.13694 -0.12711 -0.080356 -0.24167 -0.15388 0.029607 0.27356 -0.17939 0.17007 -0.0085834 0.17578 -0.01922 -0.1363 0.56552 0.070559 -0.46293 0.3378 0.10714 0.25305 0.30879 0.093489 -0.29933 0.11542 -0.060316
hotel 0.408 0.21166 -0.01793 -0.074182 -0.28109 0.1171 -0.1304 -0.20548 0.16791 -0.2089 0.058389 -0.23721 0.25082 0.036838 -0.083954 0.70548 0.21762 -0.08539 0.25994 0.15213 -0.21391 0.5374 -0.30899 0.11468 0.27945 0.030439 -0.35718 -0.024805 -0.37648 -0.077378 -0.21353 -0.024303 0.22522 0.20428 -0.22563 0.014552 -0.73423 0.46076 0.50515 0.26229 0.089982 0.50015 0.13619 0.031202 0.59056 -0.24263 0.52727 0.12467 0.17738 -0.22316 0.18326 -0.1088 -0.22945 0.078665 -0.011126 0.36063 0.039823 -0.015506 0.053297 0.11329 0.34971 -0.16843 0.037948 -0.27635 0.07355 0.13505 -0.20427 0.10487 0.10323 -0.16096 -0.20733 0.018694 0.097072 0.015232 0.24609 -0.11167 -0.0082413 0.04843 0.35015 -0.090679 0.32071 -0.34159 -0.34318 0.35739 0.020656 0.18545 0.37347 -0.1784 0.28758 0.29262 0.093878 0.35259 0.029647 0.35139 0.059756 0.020724 -0.097429 -0.095614 0.28724 -0.17234 0.34636 0.1892 -0.34596 0.52349 0.34445 0.30946 -0.077821 0.27133 0.015079 -0.32835 0.35696 0.31092 0.34078 0.18601 -0.12029 0.050567 -0.16558 0.13435 0.044311 0.22215 0.17493 0.45955 -0.039424 -0.22668 0.42849 -0.055181 0.31495 0.040064 0.1526 -0.0030714 0.20543 0.20826 0.088202 -0.18817 -0.085108 -0.15166 -0.2445 -0.25459 0.044193 -0.16336 -0.082935 -0.30026 -0.46669 -0.0083433 -0.20348 0.026723 -0.057379 0.15102 -0.0033387 -0.2366 -0.26704 0.20928 -0.17284 -0.024899 0.14619 -0.043438 -0.033355 -0.21945 -0.31807 0.13729 -0.16479 0.096457 0.017231 -0.098112 0.056262 -0.1987 0.050549 -0.22759 0.15233 -0.096816 -0.027148 0.046295 -0.27951 0.27687 -0.01875 0.16528 0.24893 0.24523 -0.48564 0.1011 -0.22192 -0.33084 -0.0094188 0.54968 -0.17603 -0.07938 -0.27975 0.17276 0.18085 0.54111 -0.34018 -0.29445 -0.1657 0.28378 -0.42908 0.14211 0.20703 0.36333 0.088615 -0.16926 0.21916 -0.2084 0.12441 -0.0058611 -0.18897 -0.052138 -0.47897 -0.30469 0.20763 -0.3792 -0.038099 -0.32316 -0.29053 0.48074 0.026092 0.32422 0.14484 -0.0064475 -0.021964 0.20512 -0.19997 -0.055552 0.2561 -0.065427 -0.11373 -0.49162 0.45451 0.29104 0.14978 -0.097378 -0.14278 0.01557 0.023899 -0.068533 -0.059618 -0.15127 0.30838 0.078984 0.24826 0.28644 0.23108 -0.14029 0.0040586 -0.15618 0.089001 0.072624 -0.098865 0.30059 -0.12838 -0.051092 0.20113 0.39348 -0.0054632 0.24993 0.20841 -0.10704 0.068291 0.13299 -0.21382 -0.1038 0.11069 -0.0028796 0.44561 0.28666 -0.14164 0.18136 -0.082355 -0.0795 0.32749 0.0010339 0.17904 0.15227 0.27412 0.28651 -0.031542 0.19939 -0.49724 -0.06132 0.15705 -0.45858 -0.048878 0.25312 -0.13128 -0.34631 0.26865 -0.042137 0.011095 0.33739 -0.28591 0.27401 -0.39512 -0.16587 0.43801 -0.506 0.0084406 0.16425 -0.25564 0.25998 -0.10798 0.42377
term -0.09692 -0.02628 0.081236 -0.18378 0.34438 -0.18363 0.038153 0.24771 -0.031033 -0.094153 0.35358 0.20197 0.55199 -0.20989 0.083952 -0.083307 -0.29984 0.14306 -0.011875 0.22889 0.14831 -0.03924 0.042054 0.33606 -0.24259 -0.19039 -0.11837 -0.3804 -0.14797 -0.36543 -0.34584 -0.072185 0.28289 -0.42384 -0.23096 -0.2931 -0.048591 0.1881 -0.2899 -0.16251 -0.093624 -0.08583 0.38544 -0.48663 -0.064348 -0.12682 0.42228 -0.037241 0.19775 0.03329 0.26681 -0.2152 -0.51567 0.030692 -0.63993 0.30394 0.092765 -0.33769 -0.24652 0.27583 0.43254 0.17614 -0.3945 -0.13767 -0.11587 0.35672 0.0028302 0.2291 0.18808 -0.083736 0.19335 0.037639 -0.16313 0.081874 -0.35432 -0.22233 -0.081283 -0.26705 -0.1619 -0.083384 0.37709 -0.080434 0.007565 -0.20777 0.030805 0.22654 -0.19329 -0.21677 0.34373 0.10608 0.30861 -0.5872 0.25724 -0.33666 -0.036288 -0.31886 -0.23844 0.13865 -0.075945 0.077055 0.13254 -0.26928 0.25493 0.29845 0.075221 0.34918 -0.020892 -0.15855 0.18081 -0.094764 -0.033811 0.23077 0.40883 -0.43793 -0.30594 0.050176 -0.070724 -0.1213 0.17739 0.066746 0.43331 0.096776 0.61161 -0.17491 -0.15484 -0.3685 0.47954 0.27358 0.33768 -0.21596 0.22097 -0.27967 -0.17467 -0.033311 -0.1142 0.28462 0.38372 0.24817 -0.034149 0.054931 -0.28345 -0.26401 -0.29208 -0.48293 0.025328 -0.18486 -0.077941 -0.41404 0.26027 -0.35659 0.26417 0.2994 0.20841 0.32251 -0.15276 -0.16855 -0.34283 0.13131 -0.1033 -0.128 -0.05022 -0.19303 -0.16977 -0.027071 -0.33296 0.4687 0.027344 0.098767 -0.37531 0.23453 -0.48933 0.27088 -0.45561 0.5467 -0.21296 0.33485 -0.03793 -0.15861 0.078843 -0.032384 -0.08973 -0.10792 -0.073959 0.088715 0.14063 -0.045033 0.25827 0.24784 0.36022 -0.22025 0.010893 0.021462 -0.25509 0.089219 -0.27481 0.10047 0.1498 -0.0618 -0.27513 -0.48867 -0.14845 -0.0056961 0.12617 0.35829 0.05865 0.11825 0.11279 -0.099286 0.12271 0.30272 0.046122 -0.10788 0.056022 -0.41191 -0.33563 0.48546 -0.13898 -0.07098 -0.38233 -0.29957 0.15219 -0.12038 0.027835 0.0018096 -0.23725 -0.16132 0.044995 -0.28284 0.19695 0.28087 -0.11487 -0.2165 -0.13664 0.11728 -0.28131 -0.0087183 -0.13026 0.048807 -0.21145 -0.20345 -0.21359 0.075158 -0.74815 0.35176 0.17217 -0.10255 0.40451 -0.1965 -0.12627 0.39273 0.09283 0.1087 0.29489 0.036186 -0.0023606 0.28675 0.037512 0.073642 -0.15031 0.159 -0.43851 0.10181 -0.044128 0.71317 0.055236 0.032193 -0.2974 0.24307 -0.53091 0.14494 0.2705 -0.035058 0.44759 -0.10197 -0.25837 -0.045294 0.3455 0.20172 0.58358 -0.30092 0.13779 -0.022672 0.12148 0.048539 0.141 -0.17528 -0.2255 -0.083448 0.24086 0.48407 0.34301 0.21822 0.29084 -0.021095 -0.084784 0.42384 0.14513 0.31288 -0.049105 0.29545
listing -0.080618 -0.14377 -0.10194 -0.024154 -0.12727 0.27879 0.23893 -0.31278 0.15695 -0.47519 0.17762 -0.10631 0.51863 -0.38465 -0.066347 0.16713 0.026343 0.30169 -0.028698 0.33371 -0.18057 0.058662 -0.20272 0.21729 -0.3768 0.38043 -0.51768 -0.038145 -0.62366 -0.30611 -0.29089 -0.060294 0.18578 -0.097378 -0.39711 -0.19053 -0.29552 -0.41844 0.28039 -0.052433 0.31634 0.40698 0.13032 0.1766 0.33604 -0.1379 0.089343 0.10885 0.33459 -0.0089489 0.10617 -0.65372 -0.42294 0.083553 0.026896 -0.057458 -0.22687 0.11378 0.207 -0.041012 0.37244 0.15584 -0.27928 0.29982 -0.024598 0.41796 -0.035232 0.3267 -0.025023 -0.075968 -0.082127 -0.070589 0.26998 -0.13083 0.056596 -0.042157 0.28299 -0.029144 -0.38056 -0.0045364 0.14775 0.10239 0.071328 -0.093588 0.15564 -0.22291 -0.0074598 -0.31901 -0.17007 0.074265 -0.063173 -0.20124 -0.17538 -0.16699 -0.046181 0.1454 -0.24732 0.33817 0.13754 0.17731 0.32117 0.034116 -0.0076035 0.18306 -0.18725 0.38584 0.027523 0.26708 0.2075 -0.055243 0.028486 0.33918 0.17958 -0.0032892 0.033732 -0.10036 0.22704 0.0051865 0.26944 0.11641 -0.31995 0.14318 0.32095 -0.070601 0.12194 0.044813 0.57025 0.11621 0.32213 -0.16472 -0.33885 -0.037491 -0.16065 0.072647 0.10596 0.22141 -0.26787 -0.14532 -0.092283 0.060502 0.26729 0.26755 -0.017165 0.1679 -0.28963 0.027932 -0.039316 -0.11144 0.18625 -0.046052 0.57875 0.20604 0.11301 -0.26508 -0.1501 -0.44455 0.15609 -0.22736 -0.095353 0.1929 0.024528 -0.11968 0.18608 0.037668 0.10279 0.34567 -0.073465 -0.25532 -0.36119 0.10863 0.25856 0.14101 -0.24057 0.088008 -0.3129 0.2801 -0.23012 0.038298 0.074876 0.05365 0.12437 0.29765 -0.081713 0.096245 0.1313 -0.10619 0.19533 -0.058646 0.22875 -0.064588 -0.15976 0.015823 -0.15197 0.060885 0.36661 0.30324 -0.089169 0.029756 0.018179 0.30551 -0.001586 0.064106 -0.38104 -0.24209 7.795E-5 -0.17049 -0.175 0.22773 0.040997 0.014985 0.19492 -0.14411 0.11521 0.21155 -0.065213 -0.018361 -0.050439 -0.37939 0.10913 -0.12688 -0.27018 0.12428 -0.042727 0.40032 -0.030441 -0.27763 0.21063 -0.0029565 0.057272 -0.18569 -0.017027 0.083943 0.038715 0.1942 -0.097502 0.21338 -0.12972 -0.0098663 0.44836 -0.13747 -0.034159 0.14262 0.36568 -0.40487 -0.12309 -0.35998 0.31842 0.60108 0.025032 -0.0056406 -0.028922 0.069695 -0.13291 -0.15409 0.16967 -0.19887 -0.13822 -0.26497 0.37037 0.25986 0.25453 -0.075343 0.078043 -0.051608 -0.098242 -0.25294 -0.026619 -0.062972 -0.2367 -0.037495 0.33198 -0.35309 0.23577 0.043215 0.087488 -0.12275 0.012275 0.22364 -0.10992 -0.45032 0.48514 0.13856 0.1014 -0.20564 0.25331 0.017577 -0.12343 -0.06738 -0.22653 0.2654 -0.2634 -0.10179 0.18313 -0.35652 -0.23101 0.11354 -0.15866 0.43059 0.46471 0.35687
