437 100
plane 0.20168 0.2263 0.30643 -0.042182 -0.19431 0.48844 0.36251 -0.063727 1.0679 0.65586 -0.88596 0.13527 -0.5444 0.041227 -0.46003 -0.17456 0.34273 0.26844 -0.42346 0.94968 0.10104 0.099209 -0.21729 0.32578 0.42886 -0.025828 -0.66036 -0.34144 -0.13796 -0.01004 7.6466E-4 0.36103 -0.060829 -0.19698 -0.49903 -0.28172 -0.31674 -0.19435 0.12332 -0.15539 0.22241 -0.37134 0.22322 -0.056297 0.12408 -0.23387 0.24899 -0.21886 -0.051294 -0.26073 -0.43227 0.837 -0.083594 -0.67348 -0.017936 -0.53616 0.46416 0.27041 -0.32451 -0.12631 -0.83999 0.050659 0.24179 0.35296 -0.33138 -0.099279 -0.19077 0.36545 -0.45285 0.35768 -0.38848 0.2545 0.45549 -0.1391 -0.12185 -1.1681 0.38173 -0.23814 0.28558 0.21069 -0.20323 -0.45778 -0.27361 0.29213 0.17147 -0.12005 -0.044809 0.4096 -0.068407 -0.37501 -0.19418 0.47728 0.40896 -0.50045 -0.27941 -0.58488 -0.0019272 -0.14367 0.28127 -0.52125
stupid 0.66457 -0.0071479 -0.17622 -0.27276 -0.38994 0.56711 -0.45351 0.25349 0.39687 0.10677 0.11971 0.28991 -0.44312 -0.10417 -0.25209 0.2059 0.2951 0.2684 -0.24696 0.28676 -0.15102 0.1676 -0.027755 -0.041494 0.25095 -0.013329 0.1332 -0.54946 0.24055 0.10137 -0.35883 -0.0024823 -0.38858 0.41531 -0.29374 0.65243 -0.11801 -0.12244 -0.68243 -0.19348 0.47354 0.29158 0.52852 -0.34277 -0.080634 0.37751 -0.13478 0.14439 -0.067646 0.9056 -0.46558 0.74674 0.32812 -0.44897 0.30359 -0.72669 -0.16676 -0.46669 0.83142 0.37676 -0.39752 -0.31397 0.23353 -0.010903 0.030413 -0.5002 0.085166 -0.017739 0.177 -0.085809 -0.59652 -0.0084335 1.2256E-4 -0.10176 0.32534 -0.42569 0.2391 -0.28672 0.11529 0.19649 0.17568 0.21278 -0.45287 -0.21121 -0.18395 -0.40351 0.22917 -0.09235 0.068505 -0.2832 0.61445 0.071944 0.075708 -0.45556 0.1869 -0.086118 -0.18814 -0.43889 -0.16134 -0.4294
egg 0.12402 -0.21559 -0.14889 0.096256 -0.19622 0.23662 0.12477 0.50848 0.079753 0.030027 -0.67178 -0.70705 -0.82776 -0.16937 -0.32151 0.054842 0.63417 0.27728 0.42687 1.0914 -0.34626 -0.25277 0.10468 -0.39457 0.48303 -0.27073 0.034705 0.28633 0.05089 -0.23364 -0.36593 -0.26399 -0.70879 0.64104 0.27476 0.1743 -0.51651 0.14994 -0.18049 0.14737 0.32284 0.15674 -0.059118 0.091886 -0.084221 -0.13758 -0.14224 -0.14895 0.14475 0.20697 -0.77069 0.19468 -0.13875 0.15413 0.55015 -0.8152 0.36307 -0.3673 0.46706 -0.20194 0.22968 0.45847 -0.028627 0.1285 0.29199 -0.30841 -0.53454 0.85623 0.16637 0.051956 -0.62348 0.17312 0.59684 0.33462 -0.12261 0.033095 0.29036 0.14404 0.05164 -0.30382 -0.14792 -0.011688 -0.44091 -0.07079 -0.21627 0.18076 0.87525 0.72725 -0.36558 -0.10996 0.62033 0.26915 -0.05201 -0.013294 -0.43423 -0.44699 0.10887 -0.046202 -0.42877 0.016417
year 0.31875 -0.010232 -0.1441 0.043916 0.18881 0.29424 0.1699 0.32643 -0.086368 -0.77826 -0.36401 -0.2546 -0.41346 0.093692 -0.1176 -0.26188 0.29469 0.3382 0.091393 0.27971 -0.11084 0.61967 -0.111 0.12594 -0.44979 -0.16757 0.079098 -0.21851 0.048471 0.18867 0.042546 -0.15751 -0.48459 0.39736 0.24093 0.52168 0.093438 0.02311 0.14694 0.22835 0.23086 0.035604 -0.088189 -0.015391 0.13232 0.28612 0.10707 0.24558 0.14446 0.41772 -0.85241 -0.10649 0.029444 -0.28594 0.025598 -0.07819 0.13161 -0.081892 -0.44076 0.22321 0.083408 0.11665 0.21959 0.29499 -0.14728 0.077955 0.034616 0.17259 -0.35734 0.61068 -0.30581 -0.20022 0.37329 0.014467 -0.095905 -0.24937 -0.10626 0.38807 0.18476 0.34718 -0.5329 -0.10271 0.036965 0.041458 -0.043338 -0.21233 0.14082 0.052813 0.4484 -0.6604 -0.58764 0.35276 -0.45885 -0.37288 -0.15721 -0.19758 0.075842 -0.41949 -0.32092 -0.38111
psychiatry 0.16496 0.075674 0.47078 0.16355 -0.24202 0.4883 -0.13965 0.13652 -0.26312 -0.1991 -0.25927 -0.13948 -0.31543 -0.0018671 -0.51495 0.24536 0.14122 0.10262 -0.14226 0.56995 0.47333 0.10387 0.015074 0.25258 0.042245 -0.14068 0.095021 -0.12736 0.53695 -0.02739 0.16791 -0.34554 -0.48942 -0.091963 0.3187 -0.14732 0.018496 -0.3333 -0.23203 -0.41678 0.52863 0.50815 -0.13447 -0.58702 0.24047 -0.052614 -0.3327 0.21732 0.077392 0.32167 -0.65286 0.027286 0.26289 -0.8277 0.18157 -1.1727 -0.22881 -0.10162 0.04701 0.15403 -0.012662 0.22226 0.48254 0.47311 0.0017947 -0.46928 0.12151 0.26135 -0.44873 0.053387 -0.20462 -0.13453 -0.060226 0.14587 0.19311 0.3802 0.42432 0.2516 0.70469 -0.15403 0.36042 -0.14089 0.54512 -0.24095 -0.73441 0.14575 0.21608 0.24683 -0.64987 -0.30779 -0.16763 0.011343 0.30933 0.0609 -0.29201 -0.39579 -0.254 0.0060366 -0.28176 0.65222
asylum 0.56145 0.26865 0.5342 0.1629 -0.32812 0.24816 -0.18876 -0.099664 0.3028 -0.2043 -0.86786 -0.20428 0.017032 0.12498 -0.47513 0.3073 0.67393 -0.15441 0.0855 0.54607 -0.27048 -0.26265 0.28779 -0.18536 0.035179 -0.28577 -0.21359 -0.75226 -0.50855 -0.33382 0.20947 -0.44753 0.0081758 0.18594 0.12866 -5.3608E-4 0.41457 -0.37983 -0.68383 0.019206 0.027194 0.4896 -0.09329 -0.4151 -0.27511 -0.13378 -0.051074 -0.14167 0.10093 -0.41022 -0.58627 0.45286 0.44068 -0.6059 0.041956 -0.34136 0.27243 -0.18216 -0.22524 0.48283 0.07962 -0.075624 -0.047107 0.42378 -0.17532 -0.68419 -0.52515 0.15841 -0.026366 0.064893 -0.44543 -0.095906 -0.37624 -0.5249 0.23172 -0.663 0.033824 0.5362 0.079761 0.018156 -0.46128 -0.047614 -0.57535 -0.82739 -0.62727 -0.24228 -0.057135 0.32952 -0.020395 -1.3187 -0.24918 0.64269 0.10398 -0.5856 -0.38047 -0.36904 -0.10966 -0.10613 0.36863 -0.072117
manslaughter 0.27847 0.048776 0.35505 -0.04719 0.35005 0.41866 0.41486 -0.29363 0.12602 -0.41185 -0.35122 -0.63517 -0.1824 0.4207 0.75186 0.59579 -0.05786 -0.51947 -0.17866 0.32702 0.048233 0.057107 -0.42283 0.11537 0.53574 -0.61447 0.32961 -0.36449 0.27466 -0.023296 -0.23455 -0.11177 -0.5582 0.40588 0.052527 -0.14852 0.54702 0.22615 -0.42661 0.34893 0.44953 -0.077574 0.50121 -0.66938 0.11061 -0.059234 -0.19943 -0.12614 -0.55828 0.34424 -0.52911 0.026521 -0.40526 -1.641 -0.24724 -1.0921 0.35563 -0.5253 0.39479 0.26495 0.038691 -0.61069 0.013082 0.14383 0.15578 -0.70505 -0.56211 0.55871 -0.19844 0.42356 -0.053596 -0.18041 -0.4423 -0.35628 -0.036264 -0.38964 -0.12281 0.49853 0.95942 -0.16756 -0.2021 -0.7735 0.13241 -0.51779 -0.57021 0.1231 -0.24043 0.19438 0.55034 -0.37959 0.18365 0.77751 -0.12447 -0.15093 -0.2105 -0.87991 -0.35256 0.086807 -0.021332 0.017268
music -0.089425 -0.52537 0.16928 -0.43535 -0.24252 0.55955 0.061936 0.14607 0.18209 -0.50764 -0.46058 0.094633 -0.14361 -0.32903 -0.75339 0.32812 0.20871 -0.1275 -0.49012 0.74065 -0.51005 -0.2244 -0.26567 0.53972 -0.051932 -0.39471 -0.30189 -0.061073 0.27794 0.1778 -0.12036 0.37795 -0.80743 -0.32733 -0.06591 0.27246 -0.4553 -0.64726 -0.61401 -0.082044 -0.024579 0.28277 -0.55675 -0.49332 -0.094101 -0.016395 -0.40503 0.70392 0.41146 0.32327 -0.74774 0.50824 0.08457 -0.75888 0.0051072 -0.58966 -0.19037 -0.43665 -0.13607 -0.072554 0.15245 0.10921 -0.2134 0.0041677 0.45444 -0.13005 0.44433 0.010634 -0.087829 0.2631 -0.73855 0.23737 0.095663 -0.10987 -0.29349 -0.23193 -0.58965 -0.046916 0.18841 -0.28162 -0.35948 0.10395 -0.14993 0.089685 -0.76316 0.49046 0.071549 -0.2475 -0.0055352 0.3213 -0.1832 0.21466 -0.36667 -0.01919 -0.46429 0.12826 -0.067917 0.042844 -0.24311 0.22879
record 0.34813 -0.16799 -0.025112 0.024129 -0.33336 0.31671 -0.11695 0.58776 -0.19929 -0.5538 -0.43188 0.0049242 -0.41135 -0.068569 -0.46191 -0.41838 -0.038717 0.11349 -0.10681 -0.35161 -0.51457 0.21868 0.15842 -0.051466 0.032032 0.33963 0.020163 -0.29943 0.014874 0.19052 0.20389 0.46928 -0.82391 0.57425 0.24423 0.1486 -0.32475 -0.39392 -0.42145 0.33803 -0.24841 0.14821 -0.14874 -0.39285 -0.19258 0.074109 0.17677 -0.0086628 -0.14995 0.65762 -0.62664 0.33587 -0.27175 -0.42322 0.017611 -0.15063 0.11935 0.33013 -0.3419 -0.10393 0.19788 -0.078989 0.13554 -0.30181 0.42707 0.12095 -0.059393 0.31604 -0.49527 0.68706 -0.18277 -0.5967 0.26382 0.28345 0.1607 -0.75681 -0.59611 0.38959 -0.016549 0.63936 -0.38779 -0.33412 0.12689 0.19373 -0.11416 0.0481 -0.22221 0.028171 0.33173 -0.4789 -0.25109 0.21304 -0.19399 0.097046 -0.60668 -0.065584 -0.26512 0.20177 0.11636 -0.26355
energy 0.025878 -0.97429 -0.12123 -0.035661 -0.23226 0.58693 0.20168 0.5798 0.20626 -0.29663 -1.3249 0.1463 -0.87794 -0.43476 -0.38344 -0.31373 0.51613 0.094477 0.30302 -0.050111 -0.5384 0.34394 0.12523 -0.21996 -0.17227 -0.30914 0.052909 -0.29269 0.76903 0.5735 0.19261 0.39827 -0.61705 -0.14161 -0.16787 0.01184 -0.16854 -0.41046 0.18607 0.23288 0.045457 0.27256 0.43912 0.029039 -0.21973 0.10541 0.046169 0.2517 0.14561 -0.11821 -0.55793 0.23918 0.21246 -1.0605 0.15612 -0.83561 -0.19588 0.18813 -0.0059101 -0.080978 0.13637 0.60649 0.54326 -0.15084 0.1689 -0.10357 -0.090854 0.14116 0.43367 -0.29748 0.2398 -0.2926 0.17476 -0.21712 -0.068708 -0.045419 0.28076 -0.064524 0.4206 -0.018101 -0.42863 -0.032606 0.26664 -0.16859 -0.69426 -0.019362 -0.009092 0.049781 -0.03936 -0.071648 -0.082328 0.087784 -0.20672 0.0011093 0.16569 -0.096759 0.36646 -0.48117 0.0090212 -0.45004
announcement 0.51417 0.29309 -0.31731 -0.29049 -0.099487 0.5595 1.0085 -0.059107 0.26805 -0.056701 -0.2299 -0.39908 -0.92321 0.019338 -0.53593 0.18506 0.3158 0.16371 -0.25459 0.16277 -0.5443 0.1497 0.2068 0.27577 0.19696 -0.14089 0.18375 -0.20372 -0.0099311 -0.28748 0.1042 0.084544 -0.38718 0.090925 0.12655 0.27577 0.12541 0.059586 0.16235 0.14009 0.27789 0.42728 -0.18655 0.27515 0.021513 0.24382 -0.43961 0.17499 -0.19527 0.35979 -0.51896 0.15069 0.0023229 -0.5981 0.24839 -0.04392 0.10354 0.14277 -0.60068 -0.12251 -0.2731 -0.21702 0.45685 0.39035 0.10761 0.22582 0.38711 0.1101 -0.25305 -0.11406 -0.38871 -0.53049 0.067617 -0.56745 0.32083 -0.35925 -0.27996 -0.13606 0.18918 -0.15154 -0.39311 0.11055 0.24235 0.21029 -0.30456 -0.48849 0.1796 0.11313 0.47497 -0.32967 -0.49089 0.063287 0.3932 0.12267 -0.26914 -0.14576 0.59914 -0.16606 -0.093556 -0.35443
mile 0.20018 -0.31887 -0.065405 -0.34078 0.087923 0.062465 -0.40341 0.40013 -0.15322 0.18879 -0.21088 -0.10804 -0.10282 -0.37507 -0.45818 -0.58965 0.71387 0.27596 0.48586 0.41879 -0.057071 0.12728 0.074554 -0.077124 0.53647 -0.6112 -0.1976 -0.4465 -0.12199 -0.42908 -0.32517 0.54332 0.033638 0.055062 0.032444 -0.11811 0.21709 0.057851 0.41658 0.14825 0.30166 0.15675 0.016844 -0.4216 0.2246 0.85289 0.60819 -0.24249 -0.037244 0.1401 -0.62723 0.51639 -0.22312 -0.47925 -0.19485 -0.20675 0.20573 -0.15697 0.1639 0.061933 -0.2856 -0.29535 0.10029 -0.12175 0.03502 -0.35275 -0.42546 -0.14878 -0.67417 0.33571 -0.24842 -0.031397 0.76106 -0.055448 0.097309 -0.83273 0.29183 0.045978 0.6237 -0.13999 -0.63022 -0.60822 0.63224 -0.015952 0.20375 -0.022521 0.46245 0.51801 0.21442 -0.048557 -0.5359 0.57462 -0.31945 -0.26847 0.32511 0.030277 0.043795 -0.15556 0.051291 -0.039842
airport 0.058416 0.14505 0.17339 0.11527 -0.10206 0.19316 -0.050717 -0.42787 0.86248 0.21237 -0.68887 0.15524 -0.052874 -0.14553 -0.57925 -0.0050031 0.50666 0.0913 -0.40054 1.0214 -0.11813 0.21353 -0.27385 0.40511 0.44919 -0.36621 -0.36346 -0.31214 0.090883 0.16512 0.21344 0.13556 0.030852 -0.27575 -0.19393 -0.31981 1.9001E-4 0.069282 0.18873 0.074763 -0.024184 0.080894 0.2602 0.04055 0.079428 0.011353 -0.038225 -0.11402 0.19344 -0.34453 -0.50175 0.52761 0.47387 -0.68926 0.084243 -0.61654 0.50423 0.49951 -0.20761 -0.20656 -0.68498 -0.56786 0.10815 -0.018343 0.083982 0.17357 -0.19903 0.38411 -0.52685 0.35729 -0.37548 0.20285 0.53259 -0.62936 -0.028356 -1.0431 0.03174 0.071734 0.16827 0.059482 -0.14701 -0.45863 0.23899 -0.035083 -0.48901 -0.03492 -0.12099 0.67274 0.025874 -0.67362 -0.24863 0.85891 0.30807 -0.55286 0.066713 -0.020703 0.080477 -0.38112 0.20319 -0.35837
population -0.11424 0.0092002 0.38954 0.11905 -0.74605 -0.0038393 0.020376 0.12977 -0.37836 -0.86436 -1.1123 0.065744 -0.74851 -0.063842 -1.0605 -0.029049 0.94806 0.22023 0.43678 0.46134 -0.23056 0.31499 0.43382 0.078667 -0.23936 -0.15616 -0.19772 -0.10768 -0.045336 -0.79852 -0.096445 0.34001 0.24342 0.067308 0.090772 -0.19264 0.27884 0.22921 0.044665 0.098766 0.14944 0.30969 0.42759 -0.17913 -0.21153 0.013381 0.18035 -0.17953 0.32532 0.060816 -0.61642 0.19888 0.13777 -0.39643 -0.06626 -0.43131 -0.054592 -0.053749 0.3136 0.30395 0.47102 -0.36293 -0.051103 0.11916 -0.20969 -0.67948 -0.053069 0.013486 -0.16846 0.37739 -0.59532 -0.06694 0.26625 0.262 0.1383 -0.17837 0.51165 0.36482 -0.26293 0.2238 -0.23068 -0.36027 -0.11535 -0.27682 -0.62843 0.43562 0.3585 0.1836 -0.023101 -0.60099 -0.10482 0.29366 -0.48684 -0.52235 -0.23779 -0.80003 0.054053 -0.35141 -0.17721 0.089019
planning 0.21244 0.25178 -0.012341 -0.059354 0.028789 0.62496 0.096089 -0.30795 0.44285 -0.43822 -0.91921 -0.52177 -0.42351 -0.1725 -0.44852 0.0081846 0.35286 0.18907 -0.27425 0.65278 0.14208 0.085803 0.12521 0.16971 0.10382 -0.39227 0.26759 -0.25019 0.41543 0.41398 0.41684 -0.10964 -0.33014 0.23999 0.10044 -0.39108 0.41344 -0.082537 -0.025246 -0.18927 0.19905 0.2577 0.1382 0.068301 0.32516 0.08978 -0.046928 0.1158 -0.041016 0.12363 -0.85098 0.03458 0.17412 -0.51438 0.45992 -0.31265 0.027853 -0.018003 -0.14661 0.15214 -0.027722 0.019954 0.36204 -0.015259 0.18727 -0.20053 0.30435 -0.036507 0.095529 0.049937 -0.2167 -0.069285 -0.15687 -0.38928 0.31255 -0.30088 -0.030083 -0.3314 0.39069 0.1038 -0.2804 -0.20499 -0.11958 0.41352 -0.46241 -0.24708 0.30239 0.041566 0.36787 -0.39348 -0.26741 0.44112 -0.054279 0.037497 0.13095 0.26422 0.06787 -0.20473 0.28005 -0.2085
canyon -0.099743 -0.65858 -0.22692 -0.3903 -0.12569 0.057817 -0.030235 0.18425 0.066552 -0.075211 -0.33917 -0.32792 0.20212 -0.14997 -0.9879 -0.25173 0.46261 -0.08067 0.14985 0.7182 -0.19407 0.38844 0.12158 -0.59147 0.71677 -0.34062 -0.56838 -0.17452 -0.11051 -0.57817 0.043644 0.35642 -0.082005 -0.19841 0.24507 -0.059605 -0.22582 -0.35343 0.45195 -0.081287 0.2302 -0.022039 -0.062689 -0.36449 0.10497 0.56141 0.46682 0.033172 -0.090184 0.34355 -0.56518 1.0026 -0.28063 -0.50983 -0.016817 -0.61595 0.20493 0.34015 0.0037483 -0.21767 -0.17704 -0.10987 -0.098351 0.063418 0.12528 -0.56278 0.06917 0.2704 -0.29177 -0.068549 -0.15715 0.24105 0.48686 0.014564 0.27575 -0.60989 0.57047 -0.015139 0.40991 -0.14388 -0.24431 -0.51857 0.098931 0.12074 -0.058798 0.019229 0.55863 0.1565 -0.1056 0.13948 -0.2147 0.42338 -0.13583 -0.37059 -0.23185 -0.18658 -0.15054 0.1106 0.21681 -0.25255
delay 0.72832 0.15578 -0.043354 0.23977 -0.30505 0.90352 0.52329 0.58103 0.20717 0.14589 -0.55375 -0.20787 -0.15404 0.12854 -0.59509 0.28702 0.32557 0.14485 -0.21149 0.47177 -0.36042 0.19699 0.1627 0.10951 0.17726 -0.54904 0.13151 -0.17069 0.20416 -0.15138 0.020512 -0.0048655 -0.25625 -0.096691 -0.0074248 -0.18851 0.3892 0.33164 -0.055295 0.20426 0.19926 0.3712 0.12215 0.24887 0.13605 -0.47595 -0.019943 -0.015266 0.0069056 0.55479 -0.5835 -0.065504 -0.2829 -0.87066 0.40396 -0.3868 0.51397 0.1897 -0.33596 -0.11977 -0.099036 0.23343 0.35363 0.28181 0.14231 -0.0076482 0.30841 -0.060238 0.089857 0.14113 -0.44422 -0.5261 -0.09007 -0.20393 0.3296 -0.24134 -0.42358 0.018512 0.41291 -0.31654 -0.18958 0.12905 -0.030255 0.042971 -0.0208 -0.72066 -0.0086046 0.10509 0.59843 -0.34626 0.097792 0.73805 0.42572 -0.25288 -0.060544 -0.15249 -0.080513 -0.33805 0.2636 -0.33408
size 0.11813 0.086847 0.12476 -0.12467 -0.2369 0.33914 0.31008 0.1184 0.25733 -0.6081 -0.81383 -0.37193 -0.56529 -0.24349 -0.97637 -0.043837 0.057635 0.18204 0.64282 0.50885 0.16507 -0.087894 0.11594 -0.10369 -0.14768 -0.074855 -0.46891 0.29213 0.032771 -0.25973 -0.29465 0.013816 -0.5608 -0.096439 0.033333 0.13798 -0.23714 0.25786 0.44977 0.34012 0.31562 0.5214 0.16645 0.087637 -0.013588 0.29275 0.33247 -0.39975 0.12236 0.29238 -0.40958 0.1771 0.041573 -0.12532 0.23797 -0.70984 0.41993 -0.17314 0.30171 -0.15659 0.068339 -0.069858 0.15903 0.003758 0.084347 -0.55091 0.17894 -0.060664 0.04278 0.2191 -0.52165 -0.071416 0.51282 0.35786 -0.25784 -0.64118 0.01706 -0.10675 -0.21574 0.096911 -0.2543 -0.37621 0.4788 0.3686 -0.10471 -0.10488 0.28307 0.3222 0.28436 -0.10888 0.017754 -0.073793 -0.07268 -0.39714 0.22434 -0.44043 -0.19906 -0.21892 -0.30561 -0.28361
peace 0.33426 -0.060006 0.081386 -0.45985 0.34617 0.88159 0.12639 -0.53881 0.077708 -0.2361 0.15924 -0.10105 -0.56121 -0.060408 -0.51106 0.18427 1.1202 0.21596 -0.20156 0.48544 -0.88289 -0.15205 -0.058854 -0.68558 -0.092351 0.15763 -0.54491 -0.21007 0.73699 -0.41685 0.21048 -0.45686 0.068047 0.10325 -0.061755 -0.32251 0.047783 -0.30704 -0.4298 -0.15122 -0.14992 0.61443 0.16158 -0.55792 0.41375 0.29414 -0.25086 0.5354 -0.021882 -0.025241 -0.0077131 0.45208 -0.1044 -0.85816 0.18146 -0.669 -0.0046668 0.12225 -0.16546 0.32451 0.71229 0.034819 0.46933 0.54306 0.63764 0.1247 -0.060372 0.20032 0.077156 -0.16051 -0.22362 -0.26781 0.077649 -0.29714 0.52026 -0.34864 -0.63045 0.36885 0.42168 -0.26193 -0.73916 -0.7038 -0.86836 -0.11503 -0.15825 0.29383 0.57234 0.11272 -0.31133 -0.56824 -0.035688 0.55338 0.11883 -0.1226 -0.42993 -0.42841 0.36274 -0.96013 0.31015 -0.40359
science 0.1999 -0.36831 0.19669 0.04714 -0.23209 0.5981 -0.057484 0.075137 -0.039925 -0.1328 -0.67144 -0.3442 -0.71294 -0.31361 -0.32517 -0.077759 0.26843 0.3646 -0.27111 0.56889 0.045385 -0.16861 0.096963 0.20756 -0.12968 -0.076881 -0.55195 -0.0055889 0.48465 0.15366 0.50111 -0.025686 -0.49263 -0.17064 -0.22592 0.023615 0.041392 -0.43126 -0.27493 -0.75686 0.1114 0.65789 0.091805 -0.17496 -0.065536 -0.078756 -0.42932 0.19028 0.45549 0.43183 -1.015 0.35666 0.089998 -0.70051 0.12213 -1.2119 -0.12983 -0.1989 0.24862 0.22782 0.036379 0.67176 0.45294 -0.15861 0.087665 -0.48304 -0.13073 -0.0070894 -0.41347 0.28076 -0.17064 -0.39068 0.12139 -0.15365 0.09294 0.35918 0.42817 0.19696 0.15881 -0.0011103 -0.11753 -0.21223 -0.050782 -0.2151 -0.22708 -0.30323 0.46208 0.0015949 -0.49677 -0.19039 -0.33359 -0.42175 0.1949 0.15425 -0.0065237 -0.19793 -0.82129 -0.48139 0.013762 0.27204
dawn 0.1968 0.19907 -0.19262 -0.38863 0.2088 0.02863 0.20229 -0.31715 0.29922 0.068695 -0.016254 -0.21143 -0.21581 0.039228 -0.46194 -0.29253 0.61753 -0.077325 0.017261 0.67697 -0.73389 0.34826 0.18435 0.040126 0.3388 -0.27077 0.032253 -0.24734 0.23929 -0.041024 -0.011643 -0.0089662 0.23038 -0.087873 0.1497 -0.068098 -0.17991 -0.94319 0.32613 -0.058777 0.45379 -0.40967 -0.092458 -0.092152 -0.11523 0.14347 0.15595 -0.029135 0.11783 0.28649 -0.48745 0.57409 -0.47764 -0.46607 0.049619 -0.50374 0.25186 0.2535 -0.17558 -0.016864 -0.17224 -0.16141 0.16014 -0.17507 0.15111 -0.22214 0.2516 0.15988 -0.51876 0.24485 -0.86069 0.10617 0.068716 -0.4126 0.12889 -0.42399 0.14492 0.25127 0.40083 -0.10187 -0.23218 -0.058276 0.02503 -0.25784 -0.16618 0.13695 0.87796 -0.050752 0.22459 -0.044942 -0.21551 0.85164 -0.069866 -0.28704 -0.10713 -0.40793 -0.065743 -0.44062 -0.11167 -0.57055
brother 0.53333 0.1649 7.4712E-4 -0.015966 0.38403 0.33371 0.6255 -0.18221 0.10161 0.04858 -0.31679 -0.024779 -0.25445 -0.034229 -0.15105 0.0096307 0.15788 0.34655 -0.28315 0.31044 0.25398 0.10394 -0.013839 0.045989 0.3685 0.2164 0.2432 -0.42682 0.55304 0.13259 0.12213 0.046405 -0.32641 -0.24688 -0.0023188 5.127E-4 -0.43207 -0.10815 -0.27371 0.21371 -0.039715 -0.33327 0.041096 -0.63737 0.30022 0.11385 -0.22001 0.093334 -0.02551 0.10342 -0.50777 0.20524 -0.32164 -0.53037 -0.16484 -0.51748 0.0063808 -0.84843 -0.1593 -5.7604E-4 0.36316 -0.2472 0.40973 0.6834 -0.69892 -0.6403 0.39003 0.017432 -0.48845 0.3071 -0.2265 0.19355 -0.22836 -0.026104 -0.015165 -0.83154 -0.24045 -0.3612 0.74571 0.37909 -0.063411 -0.19208 -0.13664 -0.44135 -0.62301 -0.006772 0.23292 0.41088 -0.062648 -0.071403 0.19187 0.40839 0.12936 -0.57337 -0.20198 -0.48352 0.3632 0.34109 -0.25711 0.091971
wine -0.14929 -0.8594 0.16822 0.015843 -0.080971 0.19472 0.21731 0.062047 0.045108 -0.1108 -0.28692 -0.1519 -0.4267 -0.47932 -0.41912 0.093205 0.054908 -0.10615 -0.2663 0.86929 -0.34211 0.030456 0.058388 -0.35237 -0.2786 -0.22028 -0.30774 -0.31378 -0.32094 0.20933 -0.19872 0.26016 -0.75291 0.046649 0.18864 0.22901 -0.64454 -0.14223 -0.1469 0.23042 0.4945 -0.097291 -0.55927 -0.054973 -0.24211 -0.14092 -0.058755 -0.48494 -0.13361 0.026098 -0.72388 0.22864 0.47673 -0.77072 0.1405 -0.65229 -0.1256 -0.58569 0.44536 -0.52174 0.043904 0.26383 -0.087037 -0.17161 0.52544 -0.56947 -0.036381 0.41176 -0.27928 -0.003369 -0.0032481 0.23502 0.71595 0.10319 0.025368 -0.18219 0.248 0.31262 0.016928 -0.48763 -0.19656 0.011925 -0.14828 -0.058417 -0.71416 0.58293 0.40089 0.2215 -0.23909 0.028962 -0.011246 0.64935 -0.15023 -0.14881 -0.56137 0.30857 0.43521 -0.48261 -0.39608 -0.52816
object 0.42946 -0.14689 0.042571 -0.14335 -0.11732 0.43258 -0.12286 0.3669 0.23686 0.067793 -0.47546 -0.29289 -0.60627 -0.094562 -0.36038 0.21492 -0.015881 0.086434 0.03629 0.65269 -0.10752 0.10505 0.14598 0.10065 0.17987 -0.37722 -0.53795 0.25277 0.082837 -0.266 -0.26798 0.11489 -0.55226 -0.071385 -0.10362 -0.018019 -0.14891 -0.099293 0.039137 -0.25603 0.23776 -0.087972 -0.045198 -0.15372 -0.28998 0.47656 -0.17306 -0.28992 0.11707 0.31641 -0.36041 0.52637 -0.098178 -0.55764 0.1981 -0.85084 0.4077 -0.35781 0.29927 -0.1219 -0.088024 0.045288 0.04625 -0.0016668 -0.06593 -0.37337 0.20893 0.27253 0.13427 -0.20181 -0.43785 -0.054219 -0.054742 -0.23163 0.3178 -0.78531 -0.20543 -0.009325 0.10822 0.13114 -0.25849 -0.20788 -0.20612 0.19307 0.063662 -0.32283 0.17861 -0.017418 -0.16394 -0.085257 -0.24197 -0.087794 -0.11978 -0.19851 0.15301 -0.449 -0.32302 -0.31367 0.056106 -0.14283
attitude 0.47184 -0.078429 0.10393 -0.35548 0.012852 0.65851 -0.14031 -0.066889 -0.10054 -0.082538 -0.23609 0.075357 -0.63179 -0.052885 -0.71072 -0.23797 0.34468 0.1049 -0.22872 0.31054 -0.033777 -0.089171 -0.10294 0.12166 -0.05868 -0.15318 -0.14889 -0.31212 -0.0025831 0.13875 0.089393 -0.010392 -0.18451 0.10316 -0.16747 0.48481 0.12947 -0.28771 -0.28323 -0.12273 0.38693 0.40958 -0.081602 -0.085068 -0.24769 0.47384 -0.26601 -0.09232 0.010329 0.43799 -0.38661 0.22588 0.08646 -0.64113 0.37202 -0.83824 -0.14435 -0.2392 0.24715 0.14289 -0.087212 -0.43626 0.39597 0.15256 0.27186 -0.27269 0.2021 -0.26821 -0.024755 -0.51039 -0.61616 0.019634 -0.18247 0.3251 0.92216 -0.45999 -0.14353 -0.0097086 0.016338 -0.0071667 -0.30967 -0.16038 0.098417 -0.199 -0.59714 -0.049687 -0.16119 -0.21692 -0.37661 -0.44647 0.38175 -0.15335 0.1149 -0.36839 0.17894 -0.45431 0.0036212 -0.11335 -0.54267 -0.43413
treatment 0.25497 -0.089914 0.18928 -0.15365 -0.031182 0.56297 0.27933 0.82438 0.040336 -0.14713 -0.74686 0.22318 -0.13467 -0.12514 -0.047204 0.46692 0.59842 0.083215 0.2186 0.45508 0.24834 0.23383 0.18025 0.44622 0.39808 -0.68463 -0.091556 -0.34849 -0.095347 -0.16542 0.42202 -0.25708 -0.22778 0.33913 0.34575 0.066127 0.22039 -0.24139 -0.24507 0.21316 0.48028 0.33005 -0.24636 -0.32164 -0.27209 -0.14563 -0.25324 -0.25181 -0.39837 -0.17391 -0.20245 0.13954 0.21995 -0.2835 0.78281 -1.0072 0.107 0.007658 0.034869 0.4707 -0.037338 -0.22842 0.71931 0.60823 0.14562 -0.31122 -0.031864 -0.021429 0.176 0.096267 -0.25221 -0.36799 0.08062 0.30551 0.41705 -0.076615 0.056146 0.35992 0.53345 -0.44917 0.0069195 0.0036676 0.24485 -0.22348 -0.70783 0.24138 -0.085479 0.27618 0.29408 -0.74812 -0.20344 0.47309 0.086355 -0.29394 -0.064255 -0.31915 0.10601 -0.26881 -0.0036683 0.42398
flight 0.26794 0.17244 0.55319 0.43039 -0.22155 0.81727 0.49938 -0.059989 0.89206 0.29185 -0.7908 -0.037862 -0.14765 -0.10553 -0.49759 -0.088121 0.32309 0.23186 -0.51052 0.93946 0.28604 -0.031474 -0.48441 0.28728 0.061092 -0.2898 -0.55065 -0.063235 -0.2385 0.22379 0.20757 0.18039 -0.12174 -0.2246 -0.4905 -0.41143 -0.32203 -0.21871 0.067436 -0.12719 0.34017 -0.15939 0.42305 0.010277 3.3269E-4 -0.39681 0.074063 -0.19105 0.10832 -0.02734 -0.61581 0.34234 -0.11787 -0.63713 0.056017 -0.70469 0.65968 0.48351 -0.31636 -0.12902 -0.7451 -0.12546 0.10348 0.2187 0.11697 0.33302 -0.51787 0.057378 -0.71621 0.53684 -0.57875 0.11736 0.53338 -0.41661 0.25906 -0.88631 0.088689 -0.036117 0.090212 0.10533 -0.30799 -0.21208 0.023322 0.15051 -0.0078519 -0.0036719 0.11677 0.47301 0.099173 -0.62153 0.0036285 0.48539 0.36884 -0.3825 -0.10936 -0.46025 -0.19152 0.058614 0.037785 -0.12758
forest -0.29969 -0.74036 -0.11369 -0.36106 -0.43262 -0.0055807 0.035306 -0.24194 0.27577 -0.13957 -0.92669 -0.28965 -0.12063 -0.090971 -0.9531 -0.28529 0.46528 0.22123 0.11963 0.47314 -0.2618 0.25867 0.57286 -0.95275 0.36605 -0.25567 -0.16368 0.093828 0.21912 -0.48424 0.19502 0.16602 -0.39623 -0.082752 0.15542 0.1845 0.39512 -0.38762 0.40201 -0.067651 0.22414 -0.14805 0.051214 -0.12824 0.057863 0.31197 0.53622 0.30637 0.23364 0.14044 -0.40213 0.84772 -0.11483 -0.31139 -0.010342 -0.73495 -0.0023694 0.26589 0.22004 -0.022945 0.2672 0.017939 0.2329 -0.0046924 0.18661 -0.73676 0.065185 0.43113 0.10164 -0.10415 -0.14896 0.11268 0.52089 -0.1913 0.0059001 -0.23399 0.48881 0.09694 0.46726 -0.26518 -0.37843 -0.24069 -0.33387 -0.24265 -0.40047 0.14052 0.53224 0.27319 0.044057 -0.41163 -0.13313 0.19551 -0.62628 -0.25782 -0.26816 -0.43584 -0.07212 -0.056007 0.34534 -0.18343
abuse 0.033338 0.043643 0.05103 0.32298 -0.13044 0.39532 0.090987 0.47148 0.083308 -0.4328 -0.40524 -0.33544 -0.0063544 0.23655 0.17087 0.21056 0.3779 -0.37221 -0.52456 0.34891 -0.43026 0.28985 0.18255 0.46148 0.17429 -0.49116 0.37815 -0.21581 0.048718 -0.34184 -0.27704 -0.43508 -0.19833 0.13536 -0.10276 0.12534 0.22676 -0.44505 -0.65561 0.1392 0.27734 0.59704 -0.21212 -0.095484 0.32855 0.16913 -0.30798 -0.26217 -0.0046317 0.30661 -0.12255 0.73838 -0.30157 -0.6594 0.64458 -1.4704 0.077504 -0.6117 0.20399 0.34141 -0.020823 -0.33402 0.49413 0.017565 -0.16949 -0.77135 -0.038107 0.16189 0.30999 0.19186 -0.050355 -0.20856 -0.32373 -0.067906 0.084319 -0.40713 0.078552 0.32164 0.16246 0.40829 0.11283 -0.33689 0.24177 -0.38922 -0.82267 0.40227 -0.14804 0.15147 0.20889 -1.0111 -0.19649 0.40351 -0.033996 -0.20153 -0.34883 -0.76054 -0.19619 0.21058 0.075868 -0.25441
criterion 0.44476 -0.057635 0.1919 -0.17501 -0.10111 0.68888 -0.0057665 0.37523 0.21014 -0.3954 -0.49759 -0.079279 -0.33938 -0.042803 -0.54961 0.050192 0.11647 0.070646 -0.015943 0.45155 -0.10974 0.22555 0.23982 -0.05773 -0.05494 -0.24831 -0.35415 -0.044598 0.12312 -0.029 -0.14905 -0.18538 -0.39989 0.25419 0.10709 0.047033 -0.020741 -0.07155 -0.18253 0.0077183 0.15775 0.33596 -0.010951 -0.015449 -0.08215 0.045671 -0.18212 -0.24855 0.044798 0.34469 -0.42498 0.20666 0.19981 -0.31862 0.26794 -0.70461 0.011198 -0.31288 0.11846 0.013761 -0.0098379 -0.056339 0.25892 0.16005 0.29306 -0.31037 0.14892 -0.27724 0.025963 -0.13417 -0.32358 -0.22487 -0.1955 -0.036605 0.34196 -0.20302 -0.12156 0.21896 0.17749 0.06587 -0.36977 -0.034062 -0.041396 -0.1094 -0.21261 0.011321 0.27261 0.26652 0.031585 -0.40503 -0.070552 -0.022747 0.14101 -0.034545 -0.029943 -0.036604 -0.086557 -0.19311 -0.023443 0.018937
sea -0.21062 -0.80718 -0.044541 -0.16566 -0.51325 -0.01653 0.29958 0.10143 0.19896 0.14628 -0.90386 -0.47463 -0.14212 -0.081401 -0.45294 -0.24848 0.24685 0.036362 0.41448 0.59651 -0.39369 3.6165E-4 -0.55878 -0.55016 0.21028 -0.14289 -0.62147 -0.10899 -0.13184 -0.23842 0.25931 0.25207 0.040314 0.23865 -0.03976 -0.076059 -0.3447 -0.4512 0.40007 0.23931 0.31375 -0.49571 0.27235 -0.22466 -0.05219 0.077668 0.32983 0.04684 0.18711 0.10529 -0.51088 0.7581 -0.37372 -0.58095 0.25493 -0.83028 0.033266 -0.0079652 -0.029627 0.21533 0.053884 -0.22949 0.065772 -0.11074 0.39121 -0.266 -0.095061 0.3135 -0.047526 0.066129 -0.41252 0.24964 0.70009 0.22176 0.26416 -0.64756 0.42367 0.32076 -0.015471 -0.18847 -0.67532 -0.41888 -0.1111 0.087161 -0.24722 -0.27046 0.81817 0.021684 -0.40819 -0.56762 -0.26354 0.55018 -0.19227 -0.32278 -0.30834 -0.25137 -0.46898 -0.56557 0.11497 -0.26947
dollar 0.63926 -0.10947 -0.12888 -0.20499 -0.742 -0.053255 0.42459 0.56016 -0.079091 0.036237 -0.60062 -0.39779 -0.54686 -0.4134 0.13306 -0.17211 0.057015 0.57163 0.12121 -0.17985 -0.22438 -0.020936 -0.11497 -0.2113 -0.10069 -0.17089 -1.067 -0.31887 0.12574 0.39178 -0.068762 0.079885 -0.38106 0.27008 0.34471 0.11789 -0.31919 -0.31527 -0.22978 0.97 0.42297 0.6394 0.2437 -0.77493 -0.49105 -0.0065883 0.20445 -0.40831 -0.083825 0.85321 -0.053126 0.15424 -0.10137 -0.89874 0.14932 -0.24027 -0.56787 0.92431 -0.61024 0.092742 0.13849 0.22165 -0.19904 -0.45212 0.43916 -0.16375 -0.40243 0.30033 -0.049061 -0.0043467 -0.076438 0.35804 0.16432 -0.1449 -0.06541 -0.29978 0.19114 -0.084194 -0.49715 0.55432 -0.48749 -0.034157 -0.014138 -0.12492 -0.46511 0.42747 -0.38742 0.58021 0.36789 -0.35999 -0.010637 0.34993 0.063277 -0.44618 -0.70874 -0.54814 0.82267 -0.25343 -0.36579 -1.1104
example 0.42027 -0.036837 -0.062269 -0.078607 0.012037 0.76188 0.01844 0.19309 0.11461 -0.27142 -0.5485 -0.12819 -0.68967 -0.2592 -0.62904 0.052086 0.033181 -0.016437 0.18674 0.62175 0.031301 0.40864 0.3902 0.043675 -0.032269 -0.0224 -0.079257 -0.10894 0.052483 0.089698 -0.31684 0.0025998 -0.24495 -0.25688 0.1925 0.45717 -0.031482 -0.17789 -0.20352 -0.044185 0.21235 0.011783 -0.14758 -0.065429 -0.24505 0.13815 0.17401 -0.076435 -0.044966 0.23983 -0.42243 -4.9146E-4 0.21108 -0.24584 0.14801 -0.69364 0.10979 -0.15944 0.071875 0.052479 -0.014652 0.032632 0.24942 0.10765 0.0081782 -0.2439 0.039853 -0.17169 -0.04989 -0.030672 -0.2899 -0.20092 0.15774 -0.21258 0.36412 -0.27907 -0.086791 0.12011 0.013479 0.289 0.070657 -0.11778 0.16748 0.16814 -0.32317 -0.15298 0.27352 0.16915 0.0028837 -0.62631 -0.080967 0.20911 -0.056276 -0.069548 -0.083463 0.084253 0.14818 -0.16238 -0.33457 -0.015368
journal -0.07441 -0.064647 1.0492 0.060805 -0.68853 0.67851 0.42806 0.12544 0.12228 0.39625 -0.15325 -0.33384 -0.58134 0.45251 0.20985 -0.1087 -0.24834 0.34351 0.33631 0.28811 -0.049429 -0.65337 0.55165 0.39339 -0.30034 0.06666 0.079708 -0.30646 0.99882 -0.68279 -0.20932 -0.080183 -0.5158 0.27001 0.68755 0.56077 0.0099993 -0.61574 0.19124 -0.92775 0.87534 0.39879 -0.28296 -0.35015 -0.38889 0.24938 -0.58905 0.3843 -0.025863 0.56324 -1.1797 0.31549 0.30628 -0.71243 0.71566 -0.94549 0.040608 -0.096636 -0.43902 0.085319 -0.087482 0.38785 -0.31318 0.51038 -0.28015 -0.52863 -0.17563 0.40953 -0.40867 0.21459 -0.48362 -0.47658 0.42478 0.39002 0.44185 0.70447 0.55484 0.49216 -0.45139 -0.069675 -0.16286 -0.10012 0.19292 0.28783 -0.42072 -0.049616 0.46755 0.38947 -0.27892 -0.49794 -0.47821 0.25744 0.57847 -0.26149 -0.50849 -0.5743 -0.26826 -0.13728 -0.21878 0.64087
laundering 0.18805 0.10499 0.19006 0.35608 -0.063774 0.66152 -0.025859 0.036974 0.77753 -0.40297 -0.60434 -0.84336 0.25085 -0.089079 0.42336 0.28204 -0.23046 -0.1403 -0.16236 0.35014 -0.21854 0.16952 0.22729 -0.11423 0.63104 0.014587 -0.062454 -0.52641 0.87435 0.28479 -0.50016 -0.55464 -0.42729 0.43913 0.088062 -0.25571 0.11092 -0.037885 -0.53476 0.54899 0.63014 0.46664 0.22316 -0.57511 0.06603 0.14505 0.1713 0.042018 -0.36405 0.22896 -0.48486 0.41081 0.29473 -0.63388 0.050352 -0.68509 0.084582 -0.35966 0.31341 0.16836 0.4888 -0.16397 -0.14317 -0.22227 0.0061371 -0.65418 -0.9032 0.27847 0.5229 0.73502 0.17308 -0.31332 -0.1603 -0.62161 -0.30572 -0.072256 0.0038472 0.30663 0.72141 0.36944 -0.28091 -0.42007 0.28717 -0.2658 -1.2883 0.15899 -0.4191 0.2457 0.31909 -0.70145 -0.0418 0.44372 0.0028087 -0.32004 -0.2339 -0.47001 -0.0096297 -0.48623 0.03861 -0.78535
hotel 0.013042 -0.034978 0.17374 -0.18482 0.41742 -0.15123 0.22412 -0.38404 0.47139 -0.31529 -0.45771 -0.051186 -0.16896 -0.40965 -0.4378 -0.049825 0.39573 0.012033 -0.52024 0.82806 0.30024 0.36883 -0.13825 0.071328 0.2197 -0.25569 -0.30246 -0.3925 0.22422 0.31704 0.29524 0.017414 0.0038261 -0.0053841 0.70324 -0.095549 -0.64214 -0.21635 -0.16938 0.46692 0.074938 -0.3236 -0.25903 -0.16771 0.013182 0.40503 0.075004 -0.23243 -0.047217 -0.34939 -0.64442 0.51403 0.39212 -0.60675 0.18974 -0.56929 0.13085 0.0027209 0.48207 -0.36769 -0.47086 -0.22048 0.076481 0.338 0.43686 0.094543 -0.16433 0.58874 -0.42932 -0.067775 -0.11816 0.28189 0.23351 -0.53995 0.1808 -0.86019 0.19189 -0.11353 -0.10148 -0.3137 -0.34069 -0.21184 0.44279 0.43634 -0.52577 0.20265 0.24088 0.34186 0.43296 -0.34108 -0.35515 0.62954 0.0097696 -0.36593 -0.26889 0.23543 0.024603 -0.074983 0.12308 -0.30126
term 0.57843 0.17462 -0.27896 -0.0023952 0.032873 0.48587 0.17643 0.31389 0.055703 -0.4096 -0.65366 -0.3219 -0.25133 0.050377 -0.23057 0.3271 0.51151 -0.32087 0.020015 0.25205 -0.13041 0.47564 0.19704 -0.4159 -0.51727 -0.5632 0.071826 -0.42778 0.2862 -0.53857 -0.33948 -0.5649 -0.66999 0.32016 0.0035145 -0.20684 -0.11836 0.068048 -0.084998 0.38157 0.1112 0.005141 0.33388 -0.70685 -0.30577 0.22445 -0.1835 -0.35888 -0.19555 0.28291 -1.2106 -0.11866 -0.11226 -0.21946 0.0097959 -0.1739 0.036897 0.2611 0.19513 -0.25735 0.13963 -0.065776 0.54501 0.29972 0.25031 -0.088058 -0.0019597 -0.51242 -0.03993 -0.077226 -0.35102 -0.63252 0.32457 -0.061752 0.49319 0.082544 -0.33156 0.38101 0.5137 0.63578 -0.011224 -0.027427 -0.1527 -0.3473 -0.43309 -0.055398 0.38836 -0.001018 0.27026 -0.34109 -0.15891 0.19055 0.27169 -0.35242 0.077207 -0.086481 -0.016358 -0.4289 -0.42346 -0.44552
listing 0.6323 0.1881 0.15821 -0.26599 -0.54644 0.36849 0.2236 -0.051991 0.45942 -0.60496 -0.57503 -0.73489 -0.21555 0.07387 -0.53445 0.070161 -0.2088 0.31295 -0.12169 0.36435 0.19699 0.027622 0.20733 -0.053687 0.004847 0.1321 -0.18222 -0.30365 0.21373 -0.053119 -0.22351 0.040173 -0.39986 0.12581 0.18503 -0.31763 -0.18218 -0.12613 -0.27584 -0.043015 0.15421 0.34778 -0.30444 -0.11499 -0.28654 0.17777 0.080786 -0.11271 -0.13261 0.293 -0.637 0.29304 0.19297 -0.47791 0.48336 -0.46108 0.32024 0.30902 -0.27031 -0.63513 0.030061 -0.3379 0.092513 0.33095 0.22991 -0.18488 -0.061234 -0.047724 -0.055171 -0.13532 0.099498 -0.11542 0.41057 -0.63874 0.080801 -0.14391 -0.15001 0.11773 -0.059263 -0.41118 -0.55135 0.11143 0.035665 0.17719 -0.19035 0.015218 0.32505 0.79182 0.35347 -0.57329 -0.52447 0.062844 -0.014819 0.17005 -0.28474 0.16863 0.17316 0.16652 0.04285 -0.20611
chemistry -0.19383 -0.59902 0.18022 -0.073979 -0.060865 0.7811 -0.029143 0.055466 0.061422 -0.2573 -0.38832 -0.095341 -0.64297 -0.38054 -0.42238 0.024498 -0.019036 0.18145 0.072334 0.67262 0.085624 0.14019 -0.030447 0.025393 0.033167 -0.11101 -0.29393 0.070157 0.44989 0.45829 0.30492 -0.04333 -0.81702 -0.065076 -0.024055 0.10243 -0.16216 -0.4437 -0.26132 -0.4064 0.24552 0.4013 0.013171 -0.45 -0.078011 0.026543 -0.35387 -0.04211 0.24734 0.46051 -0.94822 0.26687 -0.014543 -0.63668 0.17577 -0.87673 0.12118 -0.27578 0.14995 0.038691 0.3086 0.50783 0.8086 0.201 0.18478 -0.30894 -0.075961 0.059355 -0.20118 0.23841 -0.32895 -0.14783 0.20094 0.40439 0.11361 0.1398 0.091922 0.65279 0.36919 -0.23705 -0.21673 -0.21922 0.17448 -0.14576 -0.022528 -0.21749 0.31673 0.064243 -0.5415 -0.026186 0.014763 -0.15154 0.30494 0.19122 0.16129 -0.37018 -0.34189 -0.076602 -0.11833 0.65366
seafood 0.044266 -0.91552 -0.18331 0.13446 0.073081 0.31102 0.15315 0.1002 0.42671 -0.17802 -0.766 -0.4063 -0.39155 -0.55245 -0.53065 -0.061543 0.023716 0.076047 -0.18355 1.0424 -0.22849 0.047529 -0.12491 -0.51497 0.095637 0.24659 -0.40236 -0.45649 -0.32395 0.15479 0.018401 0.14649 -0.14493 0.20893 0.14668 0.2505 -0.40026 -0.14307 0.21031 0.32404 0.52213 0.21882 -0.20131 0.11059 -0.31607 -0.18396 0.10597 -0.17713 -0.13745 0.15577 -0.63176 0.36699 0.32139 -0.55385 0.32884 -0.76499 -0.15224 -0.095065 0.26433 -0.15431 0.028976 -0.084701 -0.089289 0.048778 0.68321 -0.54622 -0.12072 0.50804 -0.029602 0.016039 -0.25107 0.16601 0.79451 0.054646 0.25373 0.37497 0.8059 0.14655 -0.13241 -0.71754 -0.23517 -0.10658 -0.069304 -0.044515 -0.6133 0.34275 0.23973 0.41731 -0.24812 -0.23937 0.29524 0.49065 -0.20352 -0.05255 -0.39228 0.21161 0.1862 -0.20273 -0.43353 -0.19216
CD -0.1824 -0.17355 0.71623 -0.98943 -0.14975 0.6795 0.40147 0.36987 0.29565 -0.34405 -0.48926 -0.11021 -0.41213 -0.25869 -0.094783 0.14688 0.25213 -0.21386 -0.28536 0.50759 -0.44439 -0.074617 -0.48124 0.001471 -0.032024 -0.032621 -0.40426 -0.27395 0.28896 0.2306 -0.4927 0.38576 -0.94298 -0.02317 0.24481 0.52344 -0.76485 -0.46711 -0.63748 0.18529 -0.02294 0.32396 -0.34238 -0.23185 0.29573 -0.21147 -0.36713 0.70206 0.064585 0.28329 -0.75532 0.40748 0.1188 -0.32511 0.4049 -0.26573 -0.12073 0.059421 -0.004502 -0.082827 0.21253 -0.015631 -0.35444 0.0594 0.07013 -0.34974 0.0057511 0.21606 0.13456 0.23305 -0.74437 -0.13219 0.31087 -0.12632 -0.55197 -0.30648 -0.85283 -0.17882 -0.0021535 0.26013 -0.50237 0.48775 -0.026758 0.19431 -0.13964 0.57248 0.1532 0.15558 0.59877 0.22466 -0.33109 0.41724 -0.18403 -0.37404 -0.3669 0.2022 0.040982 0.7216 -0.26769 -0.072824
mind 0.6389 0.059111 -0.023031 -0.75818 -0.18094 0.6365 -0.15905 0.14419 0.06235 0.0095292 0.10047 -0.010227 -0.35491 -0.10084 -0.4531 -0.15297 0.22973 0.176 -0.17861 0.35583 0.01159 0.1354 -0.039266 -0.27493 -0.24902 -0.20283 -0.14127 -0.26692 0.13646 0.44028 0.047317 -0.11332 -0.49367 -0.06475 -0.17272 0.18963 -0.053159 -0.099088 -0.23637 0.12339 0.21496 0.12456 0.23323 -0.29602 -0.27437 0.38753 -0.26904 0.049346 -0.066837 0.24638 -0.57409 0.5273 0.18705 -0.50947 0.060791 -0.78208 0.28632 -0.26825 0.19295 -0.34949 0.28214 -0.15498 0.54597 0.10527 0.038715 -0.52727 0.28297 0.050908 -0.050446 -0.20896 -0.60272 -0.037543 0.0087833 0.12718 0.3008 -0.4367 -0.19361 -0.18063 0.21216 0.029607 -0.19462 0.15462 -0.17974 0.28009 -0.23777 -0.091517 0.47273 0.11847 -0.11008 -0.18371 0.18988 0.21569 0.14368 -0.12368 -0.18618 -0.33909 -0.20711 -0.046126 -0.12423 -0.19672
sex 0.27706 -0.18472 0.14312 0.12584 -0.21627 0.56938 -0.4762 0.22205 0.19799 -0.28677 -0.46253 -0.57343 -0.23157 -0.33378 0.17955 -0.036135 0.19784 -0.31983 -0.7698 0.43986 -0.11763 0.11535 -0.031276 0.39801 0.40781 -0.69426 0.20627 0.05096 0.047224 -0.32438 -0.18588 -0.4768 -0.26975 -0.023629 0.029161 0.050753 -0.14168 -0.2537 -0.87211 -0.055811 0.45565 0.15828 -0.027181 -0.44513 -0.17545 0.38134 -0.41902 -0.41416 0.42511 0.20498 -0.58578 0.46785 -0.10982 -0.62127 0.46684 -0.80418 -0.10816 -0.62041 0.36031 -0.0047827 -0.21055 -0.21196 0.52215 0.3151 0.28273 -0.68929 -0.44724 0.25762 0.17137 -0.035403 -0.20862 0.52287 -0.42821 0.19651 0.11155 -0.25382 -0.085232 0.6957 -0.054096 -0.04997 0.053148 -0.33023 -0.15992 -0.12047 -0.42702 0.53045 0.31424 0.28652 0.30542 -0.86529 -0.090091 0.69872 -0.1171 0.051322 -0.24941 -0.7143 -0.11833 0.2804 -0.10377 -0.18192
food 0.279 -0.50904 -0.1981 0.25372 -0.078465 0.34571 -0.23152 0.18983 -0.022203 -0.13542 -1.0738 -0.072077 -0.64013 -0.13647 -0.36766 -0.24897 0.4628 0.17892 -0.44144 0.95808 -0.19885 0.21431 -0.024893 -0.33596 -0.38978 -0.0018317 -0.12689 -0.37262 0.021436 0.20458 0.15175 0.43603 0.08956 -0.043535 0.020114 0.41046 -0.36437 -0.33621 0.13702 0.51469 -0.029985 0.55356 -0.081399 0.33448 0.13043 -0.25924 0.14034 -0.023198 -0.12082 -0.014389 -0.55364 0.22637 0.29064 -0.72376 0.83599 -0.98038 -0.24059 -0.36677 0.087336 -0.090842 -0.037255 0.086935 0.069505 -0.15835 0.2229 -0.29973 -0.40213 0.63292 0.39299 0.29258 -0.061587 -0.0042113 0.62484 -0.10719 -0.20802 0.095875 0.35566 0.17281 0.19308 -0.61448 -0.2465 0.11781 -0.20789 -0.20427 -0.56455 0.51823 0.43132 0.26754 -0.020113 -0.36062 0.17039 0.44729 -0.062732 -0.19994 -0.44517 0.037497 -0.01185 -0.43468 -0.44121 -0.15523
precedent 0.36838 -0.016835 0.097937 -0.21276 -0.18942 0.81588 0.12408 0.25024 0.23005 -0.53853 -0.40299 -0.1277 -0.46277 0.41887 -0.66374 0.22914 0.17995 -0.099597 -0.15616 0.31433 -0.44378 -0.085695 0.38659 -0.4291 0.14494 -0.22732 -0.38348 -0.33048 0.12735 -0.065236 -0.1222 -0.29706 -0.41147 0.0049733 0.080351 0.0038917 0.58876 0.048485 -0.27549 0.059026 0.1226 0.22087 -0.17874 -0.052209 -0.66095 0.21432 -0.13874 -0.21902 0.0042438 0.42705 -0.49301 0.28661 0.042077 -0.75015 0.31972 -0.86461 0.10766 -0.067268 0.24612 0.11459 0.12459 -0.16183 0.089062 0.2412 0.17831 -0.33772 0.32519 -0.25161 0.10961 -0.13287 -0.35595 -0.21802 -0.28814 -0.44306 0.34906 -0.55439 -0.19534 0.22712 0.36115 0.10746 -0.3094 0.020882 -0.38806 0.0070847 -0.39406 -0.35677 -0.2708 0.0073211 -0.089456 -0.33031 -0.0025482 0.14236 0.30499 0.08086 -0.34271 -0.043864 -0.30522 -0.38892 -0.12303 -0.4138
series 0.21342 -0.15131 -0.006178 -0.25893 0.35749 0.70794 0.23307 0.45205 0.18397 -0.52299 -0.68167 0.27848 -0.362 0.29288 -0.48224 -0.13242 -0.10028 -0.16164 -0.78973 0.38922 -0.1371 -0.11984 0.12674 -0.066949 0.20561 -0.15856 -0.18444 0.18765 0.61224 0.3519 -0.014637 -0.30483 -0.31459 0.049521 0.40414 0.30197 0.086486 -0.097127 -0.43638 -0.10363 0.15777 0.38307 -0.23051 0.085278 0.087636 -0.028686 -0.34288 0.31153 0.022946 0.44323 -0.32692 0.39073 -0.57811 0.30448 0.47112 -0.11956 0.46252 0.19802 -0.046463 0.14441 -0.15561 0.12494 0.43929 0.38938 -0.034879 -0.12586 0.20822 0.11889 -0.10296 0.63629 -0.40111 0.30057 -0.14276 -0.13539 0.84539 0.044109 0.15272 0.31457 0.12175 0.41828 -0.1493 -0.25191 0.19476 0.50867 -0.35896 -0.28191 0.52686 0.065147 0.60629 -0.076217 -0.47558 0.4839 0.031036 0.1406 -0.19243 -0.28633 -0.38372 -0.10182 -0.11281 -0.55354
kilometer -0.079813 -0.60779 -0.068063 -0.1029 -0.047866 0.21848 -0.05587 0.34378 0.11959 -0.073892 -0.46109 0.052557 -0.27488 -0.32425 -0.61998 -0.36201 0.44689 0.22557 0.35491 0.46496 -0.19235 0.27862 0.24346 -0.085534 0.36367 -0.31867 -0.41401 -0.25356 -0.061869 -0.45126 -0.053253 0.3495 -0.3285 0.27342 0.083813 -0.047904 -0.029342 -0.030928 0.5796 0.31944 0.45004 -0.0051312 0.08133 -0.31059 0.11792 0.11798 0.54075 -0.32292 0.056668 -0.0014192 -0.25443 0.36228 -0.04465 -0.1794 -0.23196 -0.22417 0.22015 0.11315 -0.066306 0.077228 0.059406 0.023462 -0.16489 -0.097323 0.26443 -0.40772 -0.18628 -0.05418 -0.66291 0.46313 -0.041529 0.065992 0.55133 -0.065281 0.052762 -0.53538 0.20791 0.18052 0.28523 0.031449 -0.49715 -0.48369 0.44298 -0.23131 0.20795 -0.19217 0.40793 0.33812 0.40801 -0.039612 -0.5885 0.57382 -0.13515 -0.25598 0.1351 -0.30102 0.032575 -0.41637 0.51911 -0.21531
grocery 0.27573 -0.12077 -0.11823 0.075332 0.16192 0.097009 -0.23596 0.079883 0.15495 -0.51874 -0.59759 -0.25137 -0.3275 -0.33621 -0.43268 -7.3483E-4 0.49334 0.059817 -0.36191 1.1273 -0.035428 0.41178 -0.08253 0.20283 -0.13333 -0.21959 -0.059885 -0.50228 0.40798 0.20707 -0.24566 0.34609 0.054781 -0.15773 0.16754 0.34701 -0.59792 0.096885 -0.14135 -0.059994 -0.072403 0.32504 -0.27099 0.24956 0.20747 0.27679 0.2794 -0.18144 -0.81937 0.10384 -0.75076 0.25296 0.42883 -0.7223 0.1839 -0.63958 -0.29873 -0.030672 0.018377 -0.35183 0.054825 0.079757 -0.2521 -0.0096253 0.41821 -0.60295 -0.16004 0.78755 -0.080717 0.31409 -0.30472 0.16302 0.56497 -0.21087 -0.44132 -0.14301 0.37704 -0.15055 0.23066 -0.50911 -0.044444 0.054253 0.10894 0.17629 -0.57767 0.35084 0.59414 0.59762 0.12954 0.09593 0.078932 0.30825 -0.090925 -0.32897 -0.19675 0.22344 0.77947 0.15503 -0.4018 -0.39554
wizard 0.10733 -0.10765 -0.03127 -0.31594 -0.048839 0.58762 0.052559 0.035803 0.32938 -0.27253 -0.36795 -0.35372 -0.44108 0.11104 -0.2421 -0.029729 -0.32759 0.044876 -0.53413 0.32906 -0.038687 -0.22558 -0.20852 -0.31741 0.17017 -0.16308 -0.47702 -0.15158 0.45427 0.12042 0.020872 0.22789 -0.59778 0.008638 0.2144 0.3428 -0.078378 -0.38983 -0.77625 -0.2049 0.2986 -0.0044582 -0.12274 -0.38865 0.12781 0.28523 -0.21004 0.2603 0.39526 0.19954 -0.61646 0.34183 -0.35722 0.0010762 0.20207 -0.53447 0.24991 -0.72526 0.19055 -0.15389 0.020801 0.13849 0.13126 0.29443 -0.052095 -0.61841 0.2493 0.025723 -0.33311 0.24522 -0.57751 0.20813 -0.017904 0.096736 0.34175 -0.42698 -0.1617 -0.43152 0.38241 0.46642 0.038618 -0.042822 -0.08747 -0.012292 -0.39243 -0.023101 0.57551 -0.11421 0.10946 0.1777 -0.089537 -0.095186 -0.44671 -0.049305 -0.24958 -0.48236 0.047139 -0.07229 -0.40807 0.21677
information 0.43512 -0.24479 0.55212 -0.053767 -0.54671 0.8227 0.33699 -0.012876 0.23843 -0.10393 -0.62077 -0.45684 -0.3043 -0.53658 0.17893 0.32555 0.46205 0.13372 -0.14885 0.41692 -0.34548 0.44727 0.6625 0.11976 0.046538 -0.076323 0.19299 -0.59792 0.14296 0.086248 -0.12158 0.10055 -0.12815 -0.025743 0.023778 0.13731 0.057751 -0.26728 -0.080945 0.030115 0.41839 0.35938 -0.16186 -0.10756 0.15138 0.28943 -0.18562 0.14322 -0.61636 0.32753 -0.020297 1.2436 0.76902 -0.7246 0.11393 -0.6863 0.47171 -0.54251 -0.35736 -0.4301 0.032106 -0.046409 0.19012 -0.042106 0.095194 -0.20333 -0.75047 -0.082231 -0.064323 0.18471 -0.24684 -0.39158 -0.16824 -0.27741 0.71226 0.014216 -0.15985 -8.1363E-4 0.43592 -0.3028 0.051558 0.50741 0.20367 0.27897 -0.48046 0.16775 0.24447 0.36705 0.3962 -0.58999 -0.47353 -0.57223 0.23837 0.095267 -0.21246 0.36603 0.033106 0.10603 0.41138 0.25809
Israel 0.70519 -0.12152 0.3854 -0.082072 0.52543 0.63844 -0.11425 0.26299 -0.58239 0.3426 -0.39786 0.057555 -1.1151 0.10201 -0.65586 0.27146 0.90388 0.13991 -0.60783 0.028614 -0.81799 -0.16194 -0.34236 -0.21345 0.1932 0.15501 -0.42016 0.081732 0.29639 -0.072082 -0.66235 -0.81132 0.12477 0.26567 -0.16373 -0.66214 -0.24824 -0.27977 -0.051856 -0.0035443 0.061726 0.12432 -0.038829 -0.26548 0.40759 0.35675 -0.12096 0.24521 -0.29853 -0.12569 -0.096409 0.52492 0.62197 -0.52286 0.47157 -0.69128 0.23183 0.17281 -0.38584 0.61258 0.68735 0.1665 0.0043938 0.447 0.51295 -0.46399 0.32971 0.23383 0.16576 -0.23341 -0.37196 -0.4605 0.0084376 -0.56268 0.50641 -0.45914 0.05795 0.66399 -0.34527 0.32567 -0.17221 -0.46614 -0.52898 -0.0030372 -0.55516 -0.26497 0.024477 0.66998 -0.070025 -0.12396 -0.53421 0.79645 -0.11783 -0.18085 -0.18528 -0.47151 -0.017677 -0.83523 0.36757 -0.092066
brandy 0.018207 -0.57929 -0.32852 -0.16992 0.21722 0.31769 0.15613 0.1674 0.31985 0.17096 -0.2653 -0.18586 -0.33888 -0.37982 -0.41504 -0.25445 -0.045872 -0.17183 -0.07904 0.91819 -0.2729 0.10564 -0.20417 -0.35512 0.21648 -0.1972 -0.081686 -0.21447 -0.20969 0.037845 -0.24216 0.062103 -0.79136 0.32068 0.1689 0.42451 -0.48621 -0.17196 0.019478 0.24259 0.51461 -0.08954 -0.30085 -0.21534 -0.013132 -0.17431 0.0047663 -0.37489 0.043126 0.027483 -0.29668 0.22496 0.052126 -0.20708 0.32791 -0.61286 0.084971 -0.50234 0.41984 -0.0089538 0.064954 0.16806 -0.070841 -0.068716 0.39253 -0.61265 0.1 0.52354 -0.08676 0.024597 -0.35857 0.10757 0.81146 0.13289 0.18132 -0.23824 0.33518 0.0077636 0.19314 -0.30861 -0.15798 0.074949 -0.11282 -0.12009 -0.4774 0.19091 0.54133 0.37297 -0.32655 0.030869 0.24255 0.57451 0.046972 -0.39676 -0.16139 -0.16383 0.36771 -0.16259 -0.28531 -0.25039
interview 0.6719 0.1844 0.25576 -0.077251 -0.23648 0.33532 0.54607 -0.47661 0.22028 -0.05167 -0.070362 0.58154 -0.56861 -0.086575 -0.20541 0.14921 0.15839 -0.15936 -0.18595 0.022346 -0.055245 -0.2612 0.12023 0.33031 0.34466 -0.034133 0.40624 -0.26754 0.33548 -0.3408 -0.059017 -0.41267 -0.33246 0.069915 -0.37076 0.36759 -0.37683 -0.25379 0.069111 0.13685 0.45884 0.34661 -0.57413 -0.47565 -0.0052304 0.084998 -0.34083 0.15946 0.14299 0.057428 -0.90445 0.43814 0.25184 -0.70465 0.23387 -0.22481 0.22426 -0.14878 -0.075341 0.14123 -0.33551 0.2129 0.40707 0.88751 -0.4805 0.10799 0.39675 0.26827 -0.40599 0.20754 -0.38318 -0.44095 0.17776 -0.50176 0.37566 -0.29388 -0.16355 0.1128 -0.011052 -0.12296 0.094436 -0.083104 0.37395 0.49732 -0.79075 0.030676 0.44585 -0.1633 0.10452 -0.40645 -0.049656 0.15533 0.37917 0.095125 -0.057548 -0.3995 0.19523 -0.01935 -0.16138 -0.45059
prominence 0.24728 -0.020158 -0.22511 0.031079 0.046609 0.48474 0.09819 0.16556 -0.089205 -0.42082 -0.47011 0.13301 -0.60311 -0.13473 -0.52583 -0.27036 -0.033328 -0.14885 -0.11916 0.12678 -0.34019 0.28507 0.1463 0.039231 -0.37971 -0.054839 -0.24039 -0.21497 0.18473 0.27849 0.1321 0.082938 -0.35493 0.02718 0.22959 -0.1528 -0.069394 -0.38151 -0.50934 -0.21036 0.023046 0.26908 -0.4924 -0.56596 -0.13135 0.16169 -0.19267 0.0093857 0.12409 0.28986 -0.57741 0.18427 -0.31146 -0.3682 0.14536 -0.28081 0.026106 -0.31316 -0.30045 -0.03416 -0.016392 -0.016931 0.206 0.099822 0.03407 0.095168 0.3496 -0.051778 -0.16574 -0.16291 -0.46483 0.015573 -0.15773 -0.098123 -0.023515 -0.27004 -0.20596 0.15612 0.32457 0.49553 -0.48506 -0.3758 0.14284 -0.2155 -0.74524 -0.087907 0.40097 0.1725 -0.082808 -0.31121 -0.41682 -0.13531 -0.11277 -0.19194 -0.52224 -0.53787 0.057855 -0.034366 -0.2802 -0.34715
bed 0.2569 -0.08911 0.017015 -0.42883 0.12089 -0.096426 0.18357 0.40127 0.084664 0.1961 -0.14605 -0.22352 0.087298 -0.32889 -0.13797 -0.44404 0.52203 -0.14843 -0.22697 0.76027 0.16882 0.095075 -0.21698 0.13315 0.58997 -0.46938 0.12818 -0.057983 0.32589 -0.16131 0.33823 0.24343 -0.15567 0.096773 0.087081 0.56243 -0.73184 -0.43014 0.041415 0.28476 0.29611 -0.25947 0.056615 -0.50904 -0.026545 -0.079067 0.13067 -0.061573 0.085366 -0.10883 -0.67328 0.51011 0.044596 -0.43522 0.38944 -0.85056 0.21677 -0.1908 0.50855 -0.071519 0.21296 0.082585 0.30713 0.50859 -0.0063752 -0.53896 0.03469 0.76624 0.09982 -0.069221 -0.25723 -0.048307 0.26517 0.13365 0.098702 -0.87884 0.22426 -0.03716 0.21937 -0.17395 -0.41499 -0.11787 0.11908 0.055845 0.050974 0.32147 0.75703 0.27588 0.20428 -0.19218 0.18582 0.44545 0.35327 -0.66245 -0.22773 -0.089975 0.13102 0.008481 -0.047557 -0.016734
furnace 0.041561 -0.6351 -0.37425 -0.29849 0.041248 0.08558 0.063807 0.20111 0.38811 0.12522 -0.74221 -0.069758 -0.38429 -0.063415 -0.43812 -0.15305 0.34184 -0.063465 0.17948 0.76688 -0.20576 0.39297 -0.029684 -0.22427 0.35393 -0.50093 -0.010043 -0.042287 0.30826 0.16126 -0.15474 0.33894 -0.48172 -0.055504 -0.060096 0.045595 -0.49619 -0.1792 0.21758 0.1066 0.065878 -0.18018 0.079163 -0.14799 0.10294 0.10244 0.11318 -0.11307 -0.091116 0.21436 -0.3628 0.48006 -0.046993 -0.43261 0.48618 -0.75741 0.59397 0.21126 0.19034 0.003334 0.14894 0.42291 0.18388 -0.17059 0.058197 -0.52243 0.22276 0.11102 0.085182 0.21492 -0.20728 -0.16882 0.38121 0.019864 0.0016498 -0.18087 0.26802 0.055372 0.30563 -0.16455 -0.29786 -0.32316 0.28035 -0.15443 0.076 -0.068814 0.18092 0.42302 0.15259 0.19399 -0.21463 0.20224 0.095086 -0.34193 -0.070329 -0.20158 0.20171 -0.10995 0.072481 -0.017243
evidence 0.32267 -0.16227 0.35184 -0.01956 -0.27662 0.55549 0.56832 0.11578 0.059426 0.11643 -0.4238 -0.39093 -0.73675 -0.16993 0.14291 0.011765 0.18364 -0.53445 0.14819 0.52583 -0.1806 0.055441 0.27057 -0.11809 0.1251 -0.35068 -0.13851 -0.35499 0.1716 0.24801 0.29837 -0.2469 -0.19232 -0.19574 0.15558 0.12078 0.33185 0.045051 -0.11663 -0.01985 0.29899 0.32945 -0.33761 -0.25067 0.16989 -0.064208 -0.28656 -0.51807 -0.48024 0.52361 -0.57695 0.75194 0.19054 -0.72307 0.37391 -0.74689 0.15883 -0.29839 0.092849 -0.031315 0.0051707 0.17405 -0.13666 -0.282 -0.31419 -0.68066 0.21124 0.3806 0.35909 0.19667 -0.39526 -0.61974 -0.67547 -0.14465 0.22187 -0.55435 -0.029333 0.6863 0.31016 -0.27448 -0.45492 -0.015432 -0.041932 0.39231 -0.51738 -0.11745 0.32757 -0.044606 -0.036973 -0.70398 0.098278 -0.094839 0.28255 0.22074 -0.16519 -0.60644 -0.5224 -0.13442 0.055826 -0.0069313
sprint 0.24076 -0.56308 -0.084218 -0.032109 0.0085672 0.66197 -0.22947 0.33015 0.12584 -0.13902 0.18493 0.2945 -0.088736 0.38294 -0.20024 -0.26135 0.23565 0.30534 0.0053957 0.050217 -0.070285 0.04641 -0.013014 -0.27254 0.19638 -0.89194 -0.34349 -0.53247 0.21574 -0.019757 0.27137 0.47576 -0.76142 0.85603 -0.0049798 0.062107 0.063488 -0.18638 0.08797 0.21986 0.17489 0.52654 -0.16401 -0.45918 -0.44123 0.049847 0.20507 -0.29651 0.50876 0.2349 -0.50563 0.19991 0.0090978 -0.054997 -0.37131 0.11838 0.11548 -0.069226 -0.4795 -0.017279 -0.45573 0.28928 0.22435 -0.0775 0.67308 -0.49069 -0.42305 -0.3998 -0.77475 0.29594 -0.58473 0.2006 0.028345 0.0048492 0.1611 -1.1449 -0.085083 0.073891 0.85593 -0.20432 -0.39508 -1.0053 0.099941 0.20382 -0.50349 -0.36746 0.51872 0.32146 0.0074548 -0.17937 0.024625 0.56605 0.16943 0.45469 -0.014024 -0.77574 -0.09449 -0.078996 -0.059065 -0.039649
emergency 0.73964 0.10685 0.24114 -0.32874 -0.50816 0.13679 -0.070129 0.17302 0.43387 -0.21061 -0.90935 -0.26897 -0.17886 -0.10992 -0.50989 0.36306 0.41427 -0.014298 0.20268 0.86584 -0.0081879 0.52442 0.080634 0.22083 0.25158 -0.071291 0.12252 0.36254 -0.2915 -0.23934 0.21333 -0.18914 -0.067497 0.060425 0.39051 -0.07383 -0.1352 -0.39317 0.28738 0.61663 0.078434 0.57512 0.10212 0.44015 0.05906 -0.75278 0.13392 0.25671 -0.2702 -0.16923 -0.088648 0.2042 0.17453 -0.66694 0.50877 -0.87065 0.069709 0.45588 -0.12504 0.082349 -0.44435 0.12691 0.43583 0.61489 -0.079242 0.20584 0.28716 0.28756 -0.028037 0.33863 -0.20781 -0.34413 0.053983 -0.28833 0.12779 -0.68528 0.054197 -0.30489 0.91389 -0.040617 0.20936 -0.074179 0.20708 -0.45698 -0.48301 0.14798 0.17096 0.10111 0.42956 -0.039217 -0.43709 0.65025 0.34877 -0.27523 -0.4738 -0.073638 -0.13942 -0.34905 0.30528 -0.71341
Jackson 0.7162 -0.070804 -0.063025 -0.0034632 0.08985 0.72343 0.41813 0.45519 -0.06487 -0.53881 -0.17945 -0.025926 -0.12534 0.028324 -0.55746 0.28791 0.32149 -0.10187 -0.59332 -0.26904 0.39823 0.12701 -0.22494 -0.041156 1.0559 -0.017499 -0.37307 0.10649 0.044983 0.22563 0.0017074 0.10464 -0.9598 0.017845 0.53945 -0.080514 -0.50337 -0.18523 -0.41435 -0.098138 -0.2048 0.48141 -0.10509 -0.16045 0.45379 0.052498 -0.15028 0.13046 0.33831 0.38703 -0.22993 0.49817 -0.16204 -0.59609 0.59653 -0.43221 0.19439 -0.42681 -0.38095 -0.080679 0.33121 -0.34533 -0.076654 0.054788 -0.48004 -0.19664 0.58924 0.35805 -0.5716 -0.21165 -0.20868 -0.21666 -0.18085 0.0066037 -0.44383 -0.61434 -0.16202 0.1764 0.82715 -0.35523 0.19943 -0.00688 0.34845 0.13284 -0.32989 0.47133 0.3322 -0.12557 0.36282 -0.073747 -0.36888 0.63378 -0.13923 -0.18761 -0.25694 -0.28088 -0.1112 0.23525 0.002456 0.22296
institution 0.3668 0.17011 0.368 -0.16724 -0.10796 -0.0045258 -0.10909 0.18075 0.16219 -0.48736 -0.38587 -0.63918 -0.47285 -0.25549 -0.71927 0.19585 0.38219 0.20206 -0.28659 0.60074 0.24172 0.12134 0.27567 -0.1803 -0.13271 -0.14239 -0.24197 -0.042881 0.23735 -0.35776 -0.3083 -0.5075 -0.44901 0.025698 0.37966 -0.15476 0.11116 -0.037146 -0.19083 -0.26912 0.061051 0.32195 -0.1697 -0.18192 -0.14176 0.12154 -0.413 -0.19291 0.14963 0.14534 -0.79132 0.41826 0.38565 -0.3715 0.13784 -1.1685 0.0053533 0.050658 0.2023 0.1315 0.068952 -0.049973 0.40838 0.35562 0.29131 0.15414 -0.0035282 -0.5142 -0.068217 0.22661 -0.17218 -0.2402 -0.41077 -0.20112 -0.013339 -0.20269 0.1142 -0.14578 0.22062 0.38841 -0.37275 -0.36729 0.14892 -0.14926 -0.52863 0.41173 -0.19375 0.10857 -0.14597 -0.12536 -0.28314 -0.12804 -0.18887 -0.093271 -0.55694 -0.10715 -0.037847 -0.45556 -0.59812 -0.086133
bird 0.35725 -0.34879 -0.080801 0.028511 -0.61971 0.20746 0.19469 0.043529 0.1489 -0.14985 -0.59549 -0.538 -0.70598 0.12273 -0.23124 0.085565 0.13997 0.25942 0.13528 0.81042 -0.001972 0.15461 -0.042168 -0.19197 0.37204 -0.14594 -0.40564 0.40489 -0.13117 -0.068705 0.21921 0.014987 -0.15295 0.23697 0.24649 0.0065462 -0.24544 -0.063928 0.30168 -0.061559 0.37787 0.040647 0.30081 -0.081704 -0.44082 -0.1162 0.36022 0.28591 -0.036474 0.34873 -0.42575 0.87414 -0.061163 0.012367 0.33211 -0.68464 0.48016 0.31745 -0.016901 0.1658 -0.30055 -0.13396 -0.17589 -0.20477 0.21085 -0.87636 0.22052 0.6293 -0.24079 0.23017 -0.55535 0.48204 0.55595 0.24335 0.57491 -0.36427 0.36034 -0.12429 -0.20782 -0.14385 -0.10404 -0.16361 -0.53785 -0.076995 -0.20166 0.20924 0.77717 0.5678 -0.31781 -0.57206 0.057834 0.055471 -0.59365 -0.23274 -0.80458 -0.48607 0.045753 -0.090647 -0.037992 0.30032
Brazil 0.13981 -0.68791 -0.081099 0.59056 -0.087077 0.50245 0.26376 0.45065 0.34312 0.0010391 -0.5237 -0.02311 -0.7367 -0.25351 -0.99137 -0.12724 0.11306 0.43707 -0.49377 0.50168 -0.45924 0.12774 0.050931 -0.66453 -0.19826 0.02741 -0.11645 -0.14184 0.31836 0.37264 -0.039522 -0.40835 -0.16696 0.12368 -0.16058 0.28785 0.10584 -0.70617 0.38108 0.23169 0.83814 0.19074 -0.058351 0.081833 -0.69454 -0.1259 -0.059966 0.19694 -0.063168 -0.56888 -0.48652 0.53778 0.16075 0.053683 -0.059651 -0.28679 -0.23803 0.12688 -0.30897 0.063728 0.034014 -0.045878 -0.023337 -0.039808 -0.22422 -0.4889 0.26588 -0.088128 -0.42426 -0.16848 0.17126 0.32515 0.15198 0.14433 -0.20066 -0.7355 -0.0082704 0.6877 0.18641 0.29093 -0.17056 -0.5772 -0.34458 -0.42393 -0.5282 -0.172 -0.31465 0.50197 0.70252 -0.65083 -0.13166 0.22494 -0.0082538 0.17921 -0.092592 -0.31488 0.30538 0.15364 0.054967 -0.62527
warning 0.31246 -0.082301 0.055532 -0.34534 -0.37454 0.5693 0.27934 0.19931 -0.040529 -0.044566 -0.68402 -0.45655 -0.36851 0.12275 -0.26757 0.10656 0.19637 0.094042 -0.29234 0.57572 -0.39313 0.36142 -0.20158 -0.26305 -0.0097189 -0.11678 0.35031 -0.29082 -0.035836 -0.38377 -0.0099767 0.097604 -0.1106 0.17022 -0.33835 -0.2107 0.042537 -0.26491 0.15239 -0.31106 0.46854 0.21291 -0.16501 0.34396 0.073645 0.038779 0.32072 -0.11876 -0.30567 0.60444 -0.25325 0.40003 0.032246 -0.39278 0.56304 -0.57731 0.0066498 0.32642 -0.302 0.015514 -0.70684 -0.43003 -0.0094386 0.11117 0.25938 -0.24984 0.62029 0.41472 0.50776 0.38327 -0.59211 -0.49069 -0.16918 -0.35138 0.55332 -0.72949 -0.18384 0.17361 0.16333 0.1967 -0.044002 0.16473 0.34115 -0.053704 -0.46589 -0.53253 0.42655 -0.36105 -0.049229 -0.334 -0.39062 0.24595 0.38187 -0.15154 -0.46794 -0.12416 0.28891 -0.37048 -0.30038 -0.38693
implement 0.4483 0.33383 0.54478 -0.32945 -0.32606 0.7194 -0.089342 0.22773 0.65818 -0.59562 -0.67038 -0.65394 -0.15803 -0.13575 -0.4086 0.084811 0.54051 -0.0031134 -0.031324 0.56984 -0.21604 0.10308 0.46595 -0.22352 -0.16851 0.035004 -0.14115 -0.2248 0.68134 -0.03266 0.16957 0.022539 -0.53069 -0.0048047 -0.12647 -0.14623 0.37212 -0.04124 0.03587 0.42971 0.1704 0.59117 0.021217 0.29859 -0.074425 0.20763 0.026143 0.38921 -0.11748 0.17125 -0.028361 -0.10261 0.61628 -0.65793 0.38445 -0.58308 0.11721 -0.01657 -0.091364 0.25751 -0.052386 0.30714 0.45378 0.48142 0.57076 -0.02395 0.19072 -0.33116 0.14628 0.10941 -0.18299 -0.52882 0.068362 -0.047067 0.57232 0.14061 0.12152 0.14767 0.63004 0.11948 -0.20188 -0.3752 -0.20125 -0.28271 -0.30295 -0.29812 0.12323 -0.05267 0.24368 -0.59242 0.015752 0.17647 0.34836 -0.07411 0.32564 0.047459 0.14501 -0.3168 0.18217 -0.47811
train 0.50142 -0.27954 0.15026 -0.3445 0.032758 0.38266 -0.52686 -0.095133 0.7541 -0.22839 -0.44981 0.068488 -0.14501 -0.04121 -0.31282 0.22945 0.6559 0.55468 -0.082964 0.97317 -0.0065337 0.24612 -0.093952 0.5322 0.040246 -0.56635 -0.20105 0.028832 0.23464 0.27346 0.09629 0.41917 -0.17435 -0.28641 -0.2635 -0.35414 0.10601 -0.32722 0.17625 -0.040391 0.09424 -0.2778 -0.28706 -0.17059 0.38096 0.085842 0.247 0.24064 0.2354 -0.31087 -0.30996 0.56284 -0.14401 -0.57005 0.093173 -0.60997 0.27983 0.19867 -0.24156 0.25721 -0.75321 -0.23876 0.016151 -0.172 0.30729 -0.2796 -0.29198 -0.023001 -0.47246 0.40059 -0.38446 0.14286 0.14011 -0.33068 0.42124 -0.78757 0.19002 0.13462 0.41477 0.37361 -0.3531 -0.5838 0.18338 0.071795 -0.055981 -0.20952 0.2595 0.32906 0.27871 -0.0033701 0.21941 0.54568 0.42153 -0.2594 -0.19504 -0.033478 0.30063 -0.19402 -0.33283 -0.056749
area -0.059301 -0.18518 -0.070157 -0.12094 -0.14265 0.12771 -0.18927 -0.19257 -0.03473 -0.24061 -0.57992 -0.0049847 -0.087438 -0.66357 -0.48651 0.13782 0.53131 0.11194 0.051903 0.87691 -0.28711 0.27848 0.1421 0.056553 0.098104 -0.19274 -0.40588 -0.51739 0.52302 -0.44284 0.10925 0.075098 -0.091716 -0.30874 0.28697 -0.054188 0.078192 0.01741 0.65565 -0.075555 0.029622 0.070691 -0.17846 0.061503 0.12223 0.30466 0.30125 -0.34746 -0.35647 0.049289 -0.33812 0.60501 0.035829 -0.5664 0.19133 -0.30334 0.65438 0.2317 0.21672 0.20319 -0.086028 -0.67304 0.24688 0.22336 -0.047945 -0.41773 0.24255 0.11776 -0.16033 0.013059 -0.42584 0.13925 0.17704 -0.26416 0.1535 -0.448 0.41702 0.33062 0.39268 -0.16976 -0.20826 -0.29518 0.37245 0.11714 -0.4582 0.11757 0.30964 0.025843 0.071276 -0.23841 -0.51098 0.1418 -0.36058 -0.27873 -0.28063 -0.13609 -0.090667 0.08128 0.038323 -0.18138
image 0.34878 -0.4207 0.28755 -0.038585 0.12937 0.41784 -0.21248 -0.27516 0.28277 -0.011048 -0.74214 -0.022274 -0.60135 0.0024965 -0.37803 -0.16416 0.077271 -0.24848 -0.14512 0.42428 -0.20771 0.4245 0.21696 -0.025976 0.32469 -0.37441 -0.57392 -0.18481 0.092521 -0.21388 -6.0141E-4 0.049445 -0.54597 -0.02337 -0.15986 0.32165 -0.33386 -0.098483 -0.33666 -0.39441 0.13191 0.013825 -0.15796 -0.3115 -0.2286 0.23667 -0.53463 0.27416 -0.2003 0.19392 -0.13302 0.6494 0.2476 -0.13707 0.52431 -0.67037 0.1469 -0.17787 0.026726 -0.39273 0.26871 0.064926 0.1636 0.1897 -0.14626 -0.25515 0.15835 -0.024208 -0.1344 -0.066992 -0.87827 -0.13522 -0.14093 0.21661 0.473 -0.57719 -0.32921 -0.46094 -0.098957 0.37715 -0.34108 -0.56795 0.05075 0.16637 -0.57573 0.20817 0.32114 -0.15366 0.04934 -0.48022 -0.27854 -0.5177 0.035921 -0.21907 -0.042492 -0.47338 0.09306 -0.11876 -0.34911 -0.29165
murder 0.28216 0.12004 0.22482 0.18061 0.35256 0.40762 0.46278 -0.47739 0.23764 -0.53811 0.16113 -0.5032 -0.67928 0.18817 0.25535 0.78098 0.063998 -0.61403 -0.28013 0.4064 0.038866 -0.10826 0.12185 0.070719 0.36741 -0.60603 0.31924 -0.36809 0.63193 -0.051132 -0.37565 -0.11488 -0.35417 0.028579 -0.14337 0.12236 0.37361 -0.24097 -0.52932 0.30361 0.12402 -0.057363 0.24462 -0.71052 0.1559 -0.201 -0.39402 -0.16038 -0.76814 -0.22966 -0.46216 0.41665 -0.36085 -1.3313 -0.44786 -0.84989 0.16294 -0.45454 0.42395 0.29617 0.28681 -0.56768 0.076926 -0.14796 0.033627 -0.80721 -0.42693 0.62167 -0.17967 0.67122 -0.35787 0.10808 -0.37684 -0.38581 -0.072229 -0.23081 -0.13077 0.091861 0.56684 0.16634 -0.49205 -0.70624 -0.25637 -0.26977 -0.63079 -0.12724 0.49628 0.21934 0.011257 -0.40001 -0.16049 0.6749 -0.18938 -0.2079 -0.45704 -0.83345 -0.48857 -0.029073 -0.031637 -0.059598
journey 0.48063 -0.30937 0.34202 -0.039635 0.12162 0.81359 0.0061066 -0.16198 0.10462 0.033264 -0.089692 0.071509 0.11946 -0.026546 -0.68251 -0.20089 0.55192 0.28256 -0.2136 0.87198 -0.082072 -0.49 0.20529 -0.18561 0.29661 -0.60842 -0.34348 -0.094558 -0.23826 0.066659 0.034995 0.27703 -0.067293 -0.25668 -0.31946 0.11349 0.25043 -0.30413 -0.12112 0.21096 0.27772 -0.1533 -0.19198 -0.29613 -0.14361 0.082126 0.0076796 0.28814 0.26724 0.026881 -0.83505 0.22895 -0.42248 -0.51177 0.17791 -0.45635 0.20945 0.13852 -0.26312 -0.025609 -0.19915 -0.42353 0.49139 0.062529 -0.1353 -0.04477 -0.52251 -0.3354 -0.75975 0.1701 -0.57241 -0.16366 0.38338 -0.035177 0.68406 -0.59707 0.05916 -0.21083 0.45835 0.018475 -0.49821 -0.57226 0.033866 0.20068 0.10094 0.17459 0.54361 0.12027 0.079827 -0.42621 -0.22083 0.76804 -0.1648 -0.20052 0.17577 -0.39281 0.29573 -0.36811 -0.16111 0.18671
minister 0.70265 -0.11379 -0.79619 0.10425 0.33966 -0.00278 0.76212 -0.45475 0.3263 -0.062015 -0.74722 -0.018647 -0.61859 0.11156 -0.054769 0.17372 0.38449 0.0080259 -0.18455 0.5746 -0.70838 -0.32072 0.049935 -0.12653 0.17578 0.4619 0.47379 -0.19978 0.42872 -0.22042 -0.0079488 -0.30529 -0.47256 0.13005 0.11217 -0.10719 -0.055112 -0.11684 -0.15271 0.029773 -0.12975 0.44786 0.1242 -0.44174 -0.084047 -0.10861 -0.31815 -0.056276 0.73527 -0.011715 -0.3184 0.25894 0.80551 -0.73484 -0.41694 -0.22354 -0.091167 -0.47286 -0.32444 0.13825 0.10965 0.13697 0.71267 0.23818 0.13091 -0.13446 0.38658 0.19315 -0.08759 -0.28017 -0.33942 -0.51671 -0.51977 -0.29044 0.43307 -0.3629 0.65917 -0.071342 0.18798 0.42775 -0.03946 -0.66189 -0.044311 -0.86156 -0.95841 -0.3358 0.32487 0.17334 -0.26238 -0.57509 -0.27224 0.61036 0.54369 -0.73248 -0.33582 -0.24763 0.39999 -0.20093 0.47922 -0.49296
planet 0.29327 -0.99169 0.19702 0.028812 -0.41228 0.76936 0.28416 0.28549 -0.0066463 -0.26844 -0.34659 0.15598 -0.69528 0.12128 -0.40272 -0.43796 0.78807 0.20601 0.15526 0.45691 -0.13833 0.051837 0.077887 -0.74857 0.30565 -0.12591 -0.62135 0.0022426 0.39867 -0.1975 0.18255 0.32777 -0.28805 -0.088659 -0.34098 0.037155 -0.36069 -0.26658 0.22936 -0.17336 0.49297 -0.36583 0.81584 -0.088234 -0.33038 0.37436 -0.14117 0.21723 0.51451 0.42778 -0.70152 0.64122 0.15245 -0.25381 0.020865 -1.0724 0.54482 -0.07962 0.17248 -0.071674 0.24903 0.14691 0.22943 -0.30475 -0.25337 -0.28454 -0.13867 -0.12061 -0.24651 -0.11906 -0.34148 -0.012415 0.28805 0.050478 -0.21194 -0.46341 0.08477 0.024912 -0.16065 0.0020812 -0.18128 -0.42739 -0.35738 -0.23602 -0.10234 0.12404 0.54291 0.049701 0.075143 -0.40901 -0.15533 -0.19899 -0.5906 0.021157 -0.12875 -0.26334 -0.40595 -0.59618 -0.016247 -0.24676
article 0.68755 0.080992 0.67349 -0.43154 -0.3199 0.56172 0.114 -0.23745 0.3753 0.37355 0.14349 0.26796 -0.95534 0.30942 0.071064 0.31559 -0.28142 0.32865 0.11798 -0.065559 0.0082417 -0.23155 0.13376 0.80722 -0.036181 0.49838 0.16559 -0.87431 0.74409 -0.79482 -0.3726 -0.2835 -0.98514 0.31488 0.093256 0.915 -0.067898 0.080984 -0.16113 -0.0021131 0.68384 0.27397 -0.20073 -0.10089 -0.69227 0.23727 -0.31409 0.501 -0.2018 0.41879 -0.96513 0.55457 -0.032067 -1.135 0.77384 -0.51204 0.042198 -0.19841 0.16449 -0.13498 -0.087172 -0.35361 -0.36054 0.0738 -0.11992 -0.19932 -0.32141 -0.2305 -0.63199 0.10109 0.28918 -0.2737 0.15816 -0.096143 0.45555 0.14702 0.66773 0.24995 -0.48209 0.40408 0.0514 0.18959 -0.057327 0.3254 0.057855 -0.53923 0.60278 0.21106 0.2031 -0.18306 -0.31533 0.2205 0.051326 -0.57306 -0.20418 -0.41151 -0.018193 -0.30251 -0.26104 -0.034025
anxiety 0.22782 -0.34749 -0.041515 0.016396 -0.402 0.68978 0.043953 0.68481 -0.30728 -0.15112 -0.14331 0.01676 -0.47638 -0.034092 -0.65694 -0.21073 0.4372 0.20157 -0.10342 0.47948 0.087151 0.47294 -0.14968 0.24195 -0.23107 -0.75051 -0.12051 -0.39632 -0.040929 0.060559 -0.15632 -0.14755 -0.01685 -0.098291 0.080828 -0.12831 -0.21723 -0.43407 -0.17403 0.14112 0.34988 0.50526 0.020724 -0.099786 0.1542 -0.055614 -0.45566 0.037183 -0.222 0.79727 -0.29446 0.082298 -0.26616 -0.76202 0.37213 -1.2207 -0.14996 -0.22969 -0.23078 -0.13528 -0.13879 -0.35521 0.67505 0.0090999 -0.19218 -0.1321 0.039785 0.24359 0.39345 -0.22239 -0.2179 -0.13206 -0.42667 0.26546 0.57477 -0.28642 0.10555 0.14171 -0.28927 -0.084518 -0.24594 0.13218 0.41464 -0.024815 -0.71747 0.16024 0.24506 0.088224 -0.023182 -0.092258 0.072697 0.2705 0.40351 -0.64628 -0.30116 -0.80269 -0.028589 -0.24791 -0.18438 0.08617
month 0.41144 0.082156 -0.25268 0.12455 0.29825 0.37593 0.15254 0.19933 -0.026014 -0.48077 -0.44771 -0.22328 -0.5679 0.087467 -0.05475 -0.35179 0.25581 0.13644 0.05411 0.26994 -0.088822 0.34373 -0.1056 0.18618 -0.42802 -0.25347 0.29222 -0.22664 0.01679 -0.015744 0.013141 -0.33683 -0.28686 0.17094 0.45088 0.35723 0.16525 -0.0028412 0.3446 0.17354 0.29772 -0.018169 -0.0037826 0.11204 0.14938 0.27929 0.1045 0.15452 -0.06502 0.26468 -0.7578 -0.02306 0.163 -0.58203 0.14992 0.037727 0.082285 0.065038 -0.36464 0.12745 0.02964 0.27227 0.13996 0.49549 -0.28212 0.085994 0.29472 0.32958 -0.33243 0.64677 -0.35975 -0.22673 0.20704 -0.50481 -0.037714 -0.36735 -0.29935 0.21501 0.09493 0.19281 -0.64742 -0.07833 0.11626 0.08791 -0.10472 -0.164 0.23557 -0.0099539 0.42299 -0.69167 -0.73333 0.56199 -0.14472 -0.27328 -0.13044 -0.25116 0.14291 -0.10295 -0.47661 -0.44953
carnivore 0.27434 -0.40882 -0.018727 -0.019344 -0.18093 0.28223 0.02618 0.18436 0.17725 -0.16455 -0.35947 -0.18038 -0.4549 -0.094075 -0.68632 -0.053669 -0.024583 0.10637 0.017212 0.4364 0.056135 0.13037 0.063098 -0.2498 0.21916 -0.057031 -0.26122 -0.085209 0.18368 -0.030736 -0.058892 0.098174 -0.24324 0.16646 0.10594 0.12722 -0.13365 -0.23787 -0.050019 -0.11333 0.23209 -0.15287 -0.068966 -0.25959 0.020295 -0.061411 0.0032527 -0.16358 -0.06664 0.2772 -0.25923 0.2759 0.023155 -0.09059 0.13796 -0.52621 0.12122 -0.22666 0.12526 -0.003826 0.083086 0.11912 0.014159 0.091726 0.02254 -0.48695 0.26359 0.059888 -0.087702 -0.076608 -0.32549 0.20017 0.23515 0.077463 0.19231 -0.10809 0.11921 0.042919 0.12739 -0.062902 -0.17957 -0.14257 0.11791 -0.044986 -0.20522 -0.034056 0.43823 0.18441 -0.04442 -0.25 -0.19911 0.11059 -0.09454 -0.061779 -0.121 -0.17614 -0.030511 -0.11164 -0.098192 0.20431
party 0.58076 0.10382 -0.17773 0.28184 0.40484 0.44974 0.25039 0.30573 0.15278 -0.46426 -0.34272 -0.090466 -0.42533 0.11504 -0.13237 -0.45614 0.4446 0.12495 -0.23388 0.63439 -0.23958 0.35871 0.34124 0.25281 -0.23871 0.24745 -0.12441 -0.035681 0.42498 -0.42927 0.010547 -0.17958 -0.50609 0.484 0.3433 -0.33065 -0.26342 0.45536 -0.39375 -0.26541 -0.29907 0.19876 -0.13659 -0.10926 0.13961 0.074386 -0.78808 -0.03081 0.31976 0.03387 -0.6362 0.56385 0.060046 -0.69262 -0.51909 -0.21103 -0.13516 -0.38389 0.19626 -0.23317 -0.31041 0.0034286 -0.12741 0.16486 0.44472 0.014794 0.29851 0.085436 0.32033 -0.30525 -0.67535 0.20602 -0.13298 -0.19635 0.07406 -0.54595 0.17456 -0.23728 0.41755 -0.13299 -0.51714 -0.4627 -0.46902 -0.033671 -0.73866 -0.06836 0.57288 0.2904 -0.031382 -0.21979 -0.19553 0.17145 0.30817 -0.61678 0.22388 -0.075259 0.15415 -0.2463 0.082593 -0.58689
production 0.13697 -0.30528 -0.18601 0.027024 -0.041538 0.20691 0.57855 0.3866 0.67992 -0.32595 -1.0523 0.28941 -0.77511 -0.15176 -0.49666 0.26675 0.29362 -0.36839 -0.21271 0.60922 -0.39644 0.17983 -0.19962 -0.19167 -0.13987 -0.55596 -0.23593 0.21407 0.26561 0.87429 0.010431 0.63212 -0.63066 -0.071903 -0.097815 -0.050894 0.33768 -0.13937 0.11237 0.44261 0.077362 0.326 -0.17705 -0.25369 0.3634 0.0699 -0.25949 0.61172 0.23358 0.016077 -0.84768 -0.12555 -0.077203 -0.38948 0.657 -0.24857 -0.11624 0.34054 -0.16748 0.02779 0.17772 0.078873 0.36873 0.2899 0.13527 -0.78641 0.22561 -0.10776 -0.031253 0.3683 -0.11335 0.0063497 0.64464 0.37538 -0.20833 0.2803 0.35172 0.5818 0.089421 -0.13297 -0.62619 -0.13573 0.068181 -0.071891 -0.32109 -0.26858 -0.26422 0.059067 0.2222 0.16144 -0.24021 0.10965 -0.36741 0.12794 0.058373 -0.52709 0.62161 -0.07104 -0.050979 -0.19375
importance 0.57799 -0.19006 0.16045 0.066726 -0.26741 0.77373 0.26057 -0.20255 -0.062051 -0.18511 -0.61152 0.058151 -0.2168 -0.55573 -0.62334 -0.22747 0.19785 0.17721 0.026786 0.52364 -0.46815 -0.15727 0.25065 0.20835 -0.35808 0.1678 -0.1232 -0.33872 0.48238 0.18745 0.042937 0.012162 -0.1801 0.037221 0.1143 0.063254 0.27503 -0.030099 0.26248 0.099642 0.2765 0.78966 0.056814 0.13711 -0.23465 0.18282 -0.42324 0.042673 -0.0987 0.51766 -0.1819 0.36217 0.086307 -0.53332 0.50312 -0.92004 -0.08842 -0.15006 -0.27201 -0.17463 0.23322 -0.13221 0.7509 0.19257 -0.033449 -0.34782 0.30597 -0.019698 -0.23744 -0.48662 -0.16441 -0.50802 -0.26174 0.28207 0.46092 -0.28472 -0.16532 0.20972 0.10952 0.30622 -0.41007 -0.22132 0.045883 0.21829 -0.38327 0.23623 0.36609 0.19427 -0.38625 -0.26522 0.18914 -0.16385 0.1074 0.10041 -0.20557 -0.28456 -0.30177 -0.31943 -0.28401 -0.16759
inmate 0.38937 0.21379 0.26785 0.18166 0.15363 0.25423 0.20025 0.24716 0.001916 -0.3862 -0.80158 -0.16955 -0.3436 0.25044 -0.23972 0.74494 -0.02448 -0.4746 0.17584 0.18932 0.16255 0.28094 -0.1298 -0.10999 0.6585 -0.55841 -0.062726 -0.0046298 -0.027268 -0.5203 0.067058 -0.59594 0.066138 0.18491 0.32398 -0.069727 -0.086124 0.18709 -0.38783 0.14696 0.072993 -0.13839 0.26418 -0.30311 0.11159 0.05983 -0.067743 -0.29356 -0.032641 -0.16832 -0.6041 0.53875 -0.039775 -1.1031 0.083311 -0.85015 0.42711 0.14702 0.23329 0.28871 0.23012 -0.079431 0.0058152 0.20522 0.0089203 -0.60657 -0.37964 0.34815 -0.058079 0.65039 -0.35811 -0.14421 -0.031351 -0.088688 -0.12827 -0.52263 -0.25127 0.17777 0.77761 0.27208 0.040081 0.0455 0.1024 -0.54869 -0.49593 0.1135 0.44654 0.33989 0.036477 -0.31468 -0.075572 0.66446 0.060417 -0.28583 -0.34084 -0.48055 0.041599 0.35353 -0.36776 0.29807
Harvard 0.14054 0.38992 0.36714 0.058951 -0.11555 0.32472 -0.030463 0.098511 -0.23053 0.043694 -0.13048 -0.44437 -0.48702 -0.42229 -0.65656 0.18991 0.037676 0.3995 -0.13574 0.11996 0.39623 0.25617 0.0051381 0.27895 -0.18595 -0.0331 -0.15922 -0.061501 0.64465 -0.067745 -0.11901 -0.62717 -0.47484 -0.062602 0.62085 0.078134 -0.35838 -0.33354 -0.3519 -0.93907 0.4993 0.71621 -0.14834 -0.66332 -0.045896 0.21529 -0.26225 0.16269 0.32754 0.2605 -0.87472 0.014011 0.20671 -0.70779 -0.085011 -0.79251 -0.35824 -0.28118 -0.10476 0.035582 -0.21937 0.72264 0.21047 0.38262 -0.1894 -0.17361 -0.27766 0.41187 -0.55797 0.43433 -0.044267 -0.29247 0.14779 0.21513 0.08606 -0.030578 0.30038 0.53307 0.49357 0.46443 0.50746 -0.071693 0.49428 -0.38934 -0.4723 -0.46868 0.30742 0.12189 -0.65968 -0.15836 -0.12261 -0.0048884 0.35885 -0.053744 -0.40473 -0.088453 -0.29225 -0.18896 -0.41123 0.23752
psychology -0.091282 -0.15558 0.32572 -6.481E-4 -0.33661 0.5825 -0.31942 -0.089251 -0.38936 -0.22608 -0.21148 -0.2132 -0.44213 -0.25736 -0.6447 0.19604 0.091243 0.19937 -0.027611 0.53845 0.3784 -3.8167E-4 -0.043229 0.17386 -0.11874 -0.18421 -0.10306 -0.14605 0.56116 0.18895 0.14808 -0.22333 -0.52935 -0.34471 0.09709 0.063561 0.2068 -0.47723 -0.38007 -0.63945 0.25929 0.71934 -0.16349 -0.60478 -0.1237 0.07151 -0.36631 0.045884 0.15792 0.56329 -0.95376 0.18493 0.055082 -0.97102 -0.017683 -1.1466 -0.45002 -0.19956 0.2433 -0.010753 0.11341 0.33407 0.60777 0.12404 0.12956 -0.50528 -0.083947 0.10128 -0.42569 -0.0054391 -0.23542 -0.10463 -0.15585 0.063637 0.36728 0.19662 0.40922 0.3127 0.23653 0.018384 0.099272 -0.13384 0.55919 -0.15012 -0.56204 -0.060877 0.12604 -0.06848 -0.78209 -0.17444 -0.024911 -0.24066 0.28889 0.045014 -0.17532 -0.59821 -0.44606 0.02726 -0.33084 0.34575
medal 0.067091 -0.018203 0.093444 0.54366 0.15666 0.43199 0.11354 -0.13793 0.05036 -0.17591 0.107 0.51157 -0.22357 0.34512 -0.23378 -0.24373 -0.21132 0.49127 0.10437 0.011936 -0.050907 -0.13762 -0.13915 -0.47099 -0.31461 -0.4853 -0.29399 -0.51415 0.30323 -0.24867 -0.042035 0.74997 -1.3669 1.0272 -0.036237 0.10083 -0.41033 -0.21088 0.24038 0.20749 -0.034019 0.86623 0.25498 -0.67199 -0.85001 0.31247 -0.35202 -0.51581 0.18296 0.10472 -0.20893 0.6648 0.049249 0.056893 -0.034957 -0.098369 -0.055624 -0.115 -0.47499 0.20928 -0.098144 0.33877 0.22641 0.20368 0.74138 -0.36798 -0.86789 0.30379 -0.76796 0.44979 -0.31673 -0.058575 -0.14615 0.24821 0.071296 -1.3268 0.0056456 0.21184 0.92531 -0.042934 -0.76165 -0.65107 -0.2348 0.30969 -0.56299 -0.233 0.35255 0.66712 -0.11272 -0.46887 0.12881 0.51065 0.0067194 0.34077 -0.69107 -0.59857 -0.12631 -0.41206 -0.17051 0.21334
company 0.54682 0.13982 0.072301 -0.17942 -0.27718 0.13564 0.53431 0.15693 0.8779 -0.28891 -1.0648 -0.16452 -0.43857 -0.065421 -0.53239 -0.021822 0.11187 0.21034 -0.36001 0.56384 0.092885 0.24538 -0.041123 0.012169 -0.02374 -0.044489 0.012994 -0.15091 0.28964 0.15644 -0.052597 0.08388 -0.35406 0.30864 -0.11187 -0.13997 -0.045124 9.5856E-4 -0.24578 3.3384E-4 0.013643 0.015705 -0.17372 0.033093 0.11581 0.49035 -0.0086002 0.25621 -0.33961 0.35847 -0.63376 0.087338 0.43563 -0.52799 0.034135 -0.41478 0.32159 -0.032055 -0.23726 -0.034318 0.23457 0.36409 0.12178 -0.023258 0.15967 0.0069831 0.073501 -0.099849 -0.169 0.090984 -0.065056 -0.26685 0.32398 -0.12171 -0.14716 -0.087235 -0.044341 0.29588 0.093671 -0.3871 -0.058396 -0.30341 0.23218 0.2904 -0.51233 0.042144 -0.29713 0.38582 0.28548 0.071081 -0.49078 -0.074787 -0.10748 0.03568 -0.34474 -0.039665 0.67055 0.0051581 -0.49835 -0.10189
live 0.74213 -0.075964 0.23595 -0.21937 -0.33296 0.097689 0.26267 0.18418 -0.32974 -0.74205 -0.24579 0.27461 -0.034824 -0.44173 -0.89784 0.052002 0.67438 0.2587 0.11524 0.41662 -0.20285 0.1736 0.23724 -3.8614E-4 0.13053 -0.24566 -0.17436 -0.046192 0.33026 -0.16172 -0.086108 0.21506 -0.12623 -0.069418 -0.45423 0.16139 -0.31734 -0.33206 0.054287 0.054444 0.2327 -0.10222 -0.11462 -0.43255 -0.083103 -0.065562 -0.31984 0.4021 0.11589 0.10915 -0.52313 0.79054 0.057968 -0.092749 0.37959 -0.33202 0.14955 -0.43117 0.55035 0.33003 0.29963 -0.14911 0.38394 0.50532 0.16459 -0.25592 0.15921 0.088453 -0.16267 0.47332 -0.66337 0.26968 -0.080066 -0.68037 0.28624 -0.19502 0.05164 0.26887 -0.14841 -0.49428 -0.25227 -0.24832 -0.051135 -0.003167 -0.39114 0.41764 0.47887 0.028692 0.58582 -0.39366 -0.040237 0.51013 -0.27907 -0.048558 0.17913 0.068792 0.009161 0.0037393 0.095626 0.24881
holy 0.10847 -0.30478 -0.55012 -0.18328 0.32757 0.69512 -0.19496 -0.29597 -0.23946 0.16452 -0.27343 0.14013 0.014279 0.16487 -0.30079 0.10815 0.70691 -0.051745 -0.31524 0.55373 -0.63974 -0.16626 0.62472 -0.2376 -0.049042 -0.05791 -0.36457 -0.13831 0.3429 -0.45217 -0.37805 -0.30803 0.17869 0.086461 0.19814 -0.4092 -2.6489E-5 -0.44245 0.060168 -0.267 0.36855 0.16411 -0.024625 -0.77823 0.40151 0.45469 -0.21972 0.03293 -0.40283 0.44492 -0.59487 0.72743 0.15726 -0.43071 0.97411 -0.85611 -0.017542 -0.55743 0.072197 0.19857 -0.062349 0.2933 0.16018 -0.2803 0.58066 -0.30663 0.49319 0.094282 -0.93257 0.26974 -0.40506 -0.44734 0.40626 -0.48707 0.39238 -0.39055 -0.028153 -0.070837 0.15137 0.61279 -0.52536 0.40418 -0.58992 -0.41139 -0.15498 0.35794 0.65022 0.44836 0.10854 0.0027019 -0.24892 0.88713 -0.54474 -8.4691E-5 -0.34892 -0.45736 0.48263 -0.72637 0.17573 0.15788
ticket 0.52731 0.087701 0.20025 0.044399 -0.28319 0.48564 -0.4174 0.31126 0.33673 -0.40112 -0.50783 0.26061 -0.26504 -0.23786 -0.14604 -0.015349 0.10844 0.52901 -0.46096 0.45787 -0.33978 0.64138 0.061489 0.19347 -0.12324 -0.32277 -0.69361 -0.17072 -0.16062 0.51781 -0.43606 0.41461 -0.69197 0.31836 0.096068 -0.065377 -0.3423 0.3761 -0.22169 -0.11491 -0.19096 0.42983 0.13123 -0.10862 0.1835 0.037701 0.054436 -0.12157 -0.013107 -0.17052 -0.9358 0.50391 -0.1504 -0.50154 0.064288 0.22336 -0.2865 -0.17626 -0.10514 -0.62506 -0.28491 -0.42734 0.038123 0.1474 0.49111 0.021083 -0.35351 0.74433 -0.34219 0.18945 -0.36814 -0.069327 0.52149 -0.47154 -0.014871 -0.80494 -0.50832 -0.16622 -0.0013842 0.065662 -0.21195 -0.19387 -0.053934 0.42079 -0.12864 0.066251 -0.047248 0.58421 0.21865 -0.60008 -0.054935 0.32247 0.055031 -0.52333 -0.074201 0.25635 0.17491 -0.10252 -0.12079 -0.59636
victory 0.21521 0.0053743 0.17842 0.050197 0.54489 0.74314 0.48251 0.27366 -0.24808 -0.23197 0.076974 0.46611 -0.085992 0.1996 -0.64026 -0.74217 0.059969 0.6369 0.23548 -0.077582 -0.38732 0.33567 0.33354 -0.37869 0.42813 0.089606 -0.0043836 -0.85528 0.068812 -0.21846 0.20239 0.40339 -0.73495 0.36827 0.41443 -0.09343 0.73779 0.25676 -0.37198 -0.15706 -0.15929 0.63335 -0.086376 -0.042921 -0.38313 -0.29304 -0.5343 -0.38526 -0.34904 0.24466 -0.21704 0.77841 -0.39913 -0.21305 -0.11341 -0.0089169 0.028383 0.16025 -0.053945 0.10097 -0.10621 0.16768 -0.05928 0.71722 0.62633 0.24395 -0.31141 -0.01601 -0.60155 0.2101 -0.89258 -0.40149 0.12781 -0.29556 0.50323 -0.71434 0.041329 0.11725 0.4761 0.21156 -0.19247 -0.73847 0.15996 -0.02255 -0.49981 -0.35673 0.39216 -0.023416 0.11093 -0.15647 -0.11235 0.43447 0.3315 -0.12199 0.0047018 -0.79231 0.24198 -0.097867 -0.39204 -0.49378
football 0.11135 -0.51882 -0.37495 -0.18286 -0.40377 0.34175 0.22803 -0.36452 0.16017 -0.46579 -0.037334 -0.096162 -0.1414 0.12346 -0.49456 0.090028 0.054903 0.86276 -0.38254 0.20612 -0.018893 0.16073 -0.52928 0.13918 -0.24213 -0.17369 -0.55069 0.38854 0.43749 0.1947 0.10591 0.063224 -0.52371 0.12898 0.22392 0.32848 -0.2767 -0.35606 -0.10725 -0.37538 0.0092157 0.57196 -0.055196 0.28838 0.047102 0.3175 -0.52892 -0.41429 0.045418 -0.27782 -0.82328 0.71002 -0.38247 -0.32943 -0.13296 -0.66915 -0.070152 -0.66377 0.4794 0.32636 0.18877 -0.025128 0.49962 -0.021802 0.6542 -0.36452 0.2301 -0.20839 -0.56149 0.45143 -0.57504 0.032441 0.22539 -0.049004 0.11505 -0.72114 -0.21007 0.26878 0.40898 0.26058 -0.0046965 -0.44832 0.22124 -0.11951 -0.79304 0.32472 0.040967 -0.23894 0.14219 -0.40546 0.015688 0.24939 -0.040027 0.11845 -0.2251 -0.077438 -0.1862 -0.010603 -0.19432 -0.45251
seepage 0.25106 -0.36496 -0.14719 -0.09294 -0.14106 0.40963 -0.013416 0.22362 0.2681 -0.15553 -0.49497 -0.13131 -0.28681 -0.06391 -0.63672 -0.10106 0.13033 0.031291 0.067202 0.47358 -0.1232 0.28547 -0.005787 -0.19111 0.19804 -0.19767 -0.23121 -0.097776 0.1583 0.035512 -0.11741 0.046001 -0.26332 0.066826 0.074101 0.079275 -0.11174 -0.19731 0.094592 0.0036173 0.10361 0.029642 -0.048268 -0.030076 0.11972 0.011555 0.033385 -0.10134 -0.12026 0.20898 -0.30047 0.30813 -0.038511 -0.30386 0.39769 -0.67926 0.16642 0.0098394 0.14923 -0.053029 -0.0043166 -0.0082124 0.12314 0.091417 0.042116 -0.37619 0.21635 -0.01584 0.19775 0.086326 -0.21211 -0.029976 0.19925 -0.0093815 0.22538 -0.20664 0.18653 0.16316 0.25487 -0.080187 -0.25804 -0.10987 0.30905 0.01076 -0.24915 -0.099745 0.23744 0.17752 -0.053753 -0.21317 -0.14879 0.2517 0.015146 -0.17131 -0.024661 -0.14683 -0.076141 -0.11542 0.045893 -0.039519
rook 0.39347 -0.17679 0.025726 -0.18598 -0.039289 0.28291 -0.15682 0.24031 0.12412 -0.06321 -0.13695 -0.27806 -0.33691 -0.087458 -0.45396 0.019859 -0.017378 0.006248 -0.023091 0.38572 -0.10635 0.14158 -0.10259 -0.23368 0.12276 -0.20594 -0.14361 -0.12572 0.14637 -0.050357 -0.013097 0.021422 -0.5009 0.27916 0.084614 0.25806 -0.16912 -0.091948 -0.16453 -0.10875 0.021351 -0.094005 -0.032759 -0.25427 0.17182 -0.14151 -0.066161 -0.023867 0.020092 0.14889 -0.24911 0.40138 -0.12616 -0.28445 0.032295 -0.52918 0.17449 -0.10105 0.075241 -0.12083 0.0050262 -0.046999 0.036715 0.12132 0.14652 -0.38204 0.16949 0.012753 -0.16354 -0.013971 -0.28989 0.13541 0.13127 -0.070594 0.2311 -0.2552 0.010433 0.048391 0.24877 -0.0075478 0.0034657 -0.060386 0.081073 -0.060977 -0.14793 0.032716 0.42652 0.2472 -0.054404 -0.31289 -0.041694 0.18178 -0.035182 -0.10756 0.1172 -0.10172 0.032157 0.060713 -0.2352 -3.4944E-4
stroke -0.15319 -0.050138 -0.10238 7.8143E-5 -0.13089 0.28501 0.78846 0.78871 -0.62682 0.15278 -0.0018304 0.30218 -0.31231 -0.1284 -0.45203 0.32665 0.23972 0.58242 0.072943 0.30448 0.40843 0.41231 0.021325 0.22124 0.25838 -0.57169 -0.073729 -0.36174 0.12159 0.015062 0.25412 -0.091796 -0.80284 0.40473 0.35715 -0.31426 -0.36081 -0.3088 -0.5523 0.14208 0.3557 0.073637 0.12314 -0.0088987 -0.12406 -0.39775 0.31518 -0.15304 -0.33396 0.18844 -0.1479 -0.099584 -0.090692 -0.38114 0.01998 -1.1271 -0.07048 0.14528 -0.19935 -0.045601 -0.54582 -0.028649 0.34696 0.96656 0.01117 -0.55061 -0.12722 -0.077731 -0.12238 0.20036 -0.71349 0.020207 -0.10552 0.55856 0.37761 -0.38307 -0.099748 0.36948 0.29342 -0.48387 -0.17847 -0.61193 0.17744 -0.2497 -0.44932 -0.16868 1.0411 0.15699 0.3099 -0.23793 -0.36792 0.1105 0.022849 -0.57997 -0.62868 -0.67115 0.083074 -0.14106 -0.0068277 0.16747
environment 0.28758 -0.66271 0.013181 -0.076982 -0.39659 0.52307 -0.042124 -0.13428 0.18674 -0.462 -1.0117 -0.02159 -0.35233 -0.14856 -0.48912 -0.30796 0.48436 0.015317 -0.3318 0.56966 -0.26642 0.24755 0.20643 -0.48141 -0.052267 -0.044747 0.057159 -0.62795 0.60444 0.10749 0.30316 0.0074714 -0.19936 0.26119 -0.25726 0.28722 0.096814 0.11296 0.50839 0.0047673 0.1234 0.10436 0.2384 -0.084718 -0.1119 0.044809 -0.094933 0.234 0.47281 0.52055 -0.61854 0.23998 0.42772 -0.63438 0.38541 -1.0581 -0.21454 0.079864 0.15116 -0.06112 0.25662 -0.0081891 0.79999 0.079968 0.35276 -0.034895 0.2387 -0.065305 0.13523 -0.25924 -0.31231 -0.17905 -0.11143 -0.046842 0.4656 0.039555 0.199 0.14023 0.099256 -0.38868 -0.10302 -0.35933 0.14388 -0.13175 -0.46494 0.14966 0.032747 -0.079385 -0.063516 -0.61602 0.059904 -0.45015 -0.19496 -0.30254 -0.03061 -0.14728 -0.17038 -0.0028408 0.10505 -0.12036
coffee -0.043477 -0.29341 -0.2316 -0.062911 0.18165 0.13392 0.094629 -0.019583 0.16731 -0.048487 -0.21882 -0.043061 -0.27083 -0.56564 -0.49165 -0.25138 0.20738 -0.030469 -0.22796 0.97559 -0.28024 0.066106 0.15065 0.11556 -0.015826 -0.3888 0.0023487 -0.65034 0.056372 0.11335 -0.095188 0.12141 -0.23975 -0.14283 -0.16225 0.27415 -0.83019 -0.20639 -0.12614 -0.026765 0.44632 0.084485 -0.36298 -0.059408 -0.093181 0.077044 0.020703 -0.34017 -0.16283 -0.14711 -0.59999 0.33671 0.2014 -0.65508 0.2571 -0.77486 -0.15796 -0.41712 0.33325 -0.34681 -0.065369 0.31452 -1.0941E-4 -0.11049 0.576 -0.31886 -0.025675 0.67713 -0.0040787 0.18773 -0.40382 0.17985 0.88238 0.013594 -0.11531 -0.20442 0.13473 0.16266 0.090603 -0.55727 0.070202 0.069061 0.0072848 0.0025399 -0.63012 0.38981 0.54073 0.5853 0.011764 0.01404 0.23001 0.43376 0.11461 -0.16973 -0.24178 0.16988 0.72581 -0.15983 -0.44913 -0.46741
baby 0.69005 -0.14483 0.052953 0.20536 0.048927 0.14761 0.40947 0.28548 0.20355 0.046906 -0.64604 -0.52661 -0.58789 0.078332 0.020928 -0.048412 0.50459 0.060626 0.080677 0.99045 0.19906 0.25785 -0.44091 -0.016498 0.42782 -0.17504 0.2234 0.11865 0.1972 -0.46746 0.11738 0.27991 -0.19605 0.12366 -0.40599 0.55734 -0.59349 -0.33961 -0.39279 -0.08529 -0.17518 0.023989 0.43415 0.050466 -0.14506 0.072274 -0.066355 -0.11931 -0.15404 0.10708 -0.52398 0.05295 -0.19272 -0.17863 0.70306 -0.88849 0.0082178 -0.40184 -0.088898 -0.014278 0.28287 0.17074 0.19294 0.36245 -0.16803 -0.68631 -0.12775 0.56187 -0.17927 -0.1827 -0.38858 0.49423 -0.016294 0.44542 -0.12852 -0.49298 0.076952 -0.17202 0.40845 -0.43392 -0.30078 0.0053831 -0.30721 0.037365 -0.12721 0.36904 0.54325 0.57706 0.1851 -0.41318 0.34296 0.77262 0.022537 -0.49148 -0.21593 -0.66425 0.24528 0.18037 -0.4617 0.14799
personnel 0.14718 0.18082 0.079919 -0.18882 -0.18036 0.10858 0.16379 -0.066434 0.75403 -0.5306 -1.1785 0.01872 -0.13307 0.14028 -0.4844 0.3707 0.2765 0.20613 -0.14603 0.47154 0.057348 0.26791 0.018159 0.58907 -0.46184 -0.036589 -0.40978 -0.17771 -0.16748 0.24148 -0.067789 0.21515 -0.056199 0.40324 0.22493 -0.25839 0.23487 -0.45278 0.37647 0.19128 0.22526 0.039324 0.13757 0.2833 0.77755 0.29626 0.015764 -0.10065 0.034262 -0.066484 0.26167 0.77472 0.45176 -0.93324 0.35965 -0.61743 0.29402 0.14424 -0.45972 0.6747 0.11482 -0.10891 0.41955 0.38279 0.13752 -0.44018 -0.2442 -0.059128 -0.30522 0.45241 -0.30177 -0.1352 -0.070795 -0.030134 0.081729 -0.55911 0.096699 0.26538 0.55788 0.046253 0.17762 -0.048233 0.37335 0.010938 -0.46658 0.0161 0.15165 0.47418 0.17675 -0.48846 0.0025105 -0.098867 0.11586 -0.28704 -0.21044 -0.16677 -0.45126 -0.24651 0.24979 -0.32365
family 0.73624 0.10023 0.21586 0.11974 0.12281 0.17601 0.39141 -0.12231 -0.043438 -0.16661 -0.6968 -0.089342 -0.0047732 -0.13067 -0.7295 -0.09076 0.38495 0.27177 -0.4028 0.69684 0.32819 -0.14219 0.1709 -0.027947 -0.01596 0.078601 -0.0026739 -0.20772 0.20319 -0.045687 0.16085 -0.03436 -0.21905 -0.14013 0.096414 -0.062392 -0.21482 -0.073961 -0.16178 0.10102 -0.031621 -0.2971 -0.16078 -0.14114 0.23777 0.31718 -0.36481 -0.1287 -0.19298 0.21002 -0.60046 0.38574 -0.29972 -0.51778 -0.1388 -0.70001 0.048484 -0.54983 0.14282 0.11253 0.14886 -0.058185 0.58385 0.27976 -0.31476 -0.49502 0.035903 0.37606 -0.13903 0.15387 -0.019778 0.24629 -0.31152 0.041222 0.12096 -0.5924 0.012955 -0.18249 0.42672 -0.13719 -0.16145 0.10123 -0.25767 0.19186 -0.50119 0.38524 0.28442 0.36648 0.044057 -0.21698 -0.23197 0.38615 -0.2789 -0.31173 -0.25929 -0.19164 0.45674 0.32755 -0.063239 -0.025957
hypertension 0.025226 -0.36543 0.29837 0.050533 -0.50428 0.67323 0.14816 0.77852 -0.068109 -0.20976 -0.41062 0.058442 -0.44598 -0.04842 -0.27315 0.060497 0.38439 0.089438 0.22348 0.67558 0.39971 0.45704 0.14883 0.23924 0.12431 -0.44743 -0.1884 -0.13531 0.34181 -0.21814 -0.11537 -0.095059 -0.39175 0.17678 0.32461 -0.081688 -0.20528 -0.11947 -0.054767 0.12484 0.5921 0.21069 0.16814 -0.3946 0.14296 -0.29859 -0.032303 -0.18105 -0.36548 0.47245 -0.24105 -0.29007 0.18652 -0.45554 0.45833 -1.146 -0.28978 -0.26298 -0.14094 0.1651 -0.071287 -0.26198 0.47794 0.37909 0.067804 -0.53371 0.091456 0.18547 0.10419 0.079582 -0.26245 -0.047281 -0.0039347 0.76612 0.26646 0.17061 0.16691 0.61782 0.21019 -0.27135 -0.099617 -0.07727 0.2787 -0.43475 -0.57414 0.23763 0.31635 0.58217 0.17651 -0.34811 -0.14885 0.33461 0.33205 -0.40116 -0.3282 -0.84444 -0.029389 -0.10942 -0.058106 0.40238
president 0.38511 0.60183 0.27617 0.32221 0.069283 0.32229 0.56544 -0.078271 0.46984 -0.02709 -0.4134 -0.0018318 -0.46106 0.29719 -0.78793 0.084394 0.34151 0.033559 -0.30287 0.43139 0.015498 0.50576 -0.08357 -0.016194 -0.35523 0.03047 0.27857 -0.30936 0.38639 -0.039357 -0.2018 -0.022072 -0.21807 0.15448 0.18992 0.078921 -0.19797 -0.052073 0.15305 -0.29428 -0.1703 0.24102 0.14335 -0.14224 -0.074699 0.26742 -0.1334 0.15906 -0.027721 -0.1714 -0.37727 0.36719 0.34539 -0.81441 -0.14845 -0.062552 -0.56594 -0.10032 0.094873 -0.35641 -0.032161 0.12964 0.62924 0.81159 -0.088677 -0.26559 0.56293 0.010843 -0.33274 -0.11172 -0.50904 -0.3928 0.29798 -0.08435 0.084527 -0.21234 -0.3927 0.037221 0.64942 0.40649 0.094226 -0.49034 -0.19411 -0.18317 -0.90461 -0.22107 -0.060689 -0.13945 -0.18876 -0.37217 -0.059169 -0.11258 0.57608 0.21763 -0.03427 -0.00317 0.41115 -0.68497 -0.45995 -0.42631
atmosphere -0.14789 -0.68392 -0.1923 -0.091093 -0.085883 0.7392 0.32376 -0.14262 0.22637 -0.24787 -0.097094 0.39662 -0.65399 -0.15146 -0.56716 -0.60518 0.67895 -0.12658 -0.28283 0.28095 -0.62177 0.50073 0.25257 -0.26163 -0.015319 -0.48854 -0.35616 0.12019 0.18503 0.13976 0.19744 0.10791 -0.50455 -0.17273 0.051792 0.13155 -0.30215 -0.11735 0.50189 0.034537 0.47993 -0.33838 0.18457 0.031619 -0.24004 0.22342 -0.25932 -0.16066 0.62675 0.18655 -0.66403 0.64542 -0.2057 -0.76812 0.4855 -1.0411 0.27943 -0.010698 0.50687 -0.045037 0.047321 -0.060948 0.18619 -0.16653 0.15113 0.38184 0.017578 0.24911 -1.0305E-5 -0.010067 -0.4907 -0.098969 0.19788 -0.10408 0.50883 -0.26526 -0.0097933 0.25607 0.0016629 -0.37575 -0.66427 -0.42901 0.24858 -0.074378 -0.38133 0.012484 -0.010918 -0.14114 -0.33531 0.064189 -0.082607 0.092071 -0.29523 -0.26792 0.20236 -0.39476 -0.3439 -0.32721 0.21629 -0.18347
practice 0.38373 -0.050771 -0.25145 -0.37923 0.0018733 0.57887 -0.029396 0.10847 0.0018634 -0.042799 -0.28218 -0.21614 -0.050833 0.22298 -0.63372 0.018471 0.34665 0.26391 -0.42789 0.31015 0.20817 -0.03305 0.26876 0.53003 0.038501 -0.17798 -0.17354 0.11854 0.30956 0.27369 0.29982 -0.45549 -0.18904 0.59516 0.33502 0.1253 0.20749 -0.071993 -0.11046 -0.139 0.24052 0.30188 -0.51602 -0.10103 -0.29956 0.19237 0.050602 -0.39443 -0.097052 0.49628 -0.46226 0.38533 0.29378 -0.74955 0.36072 -0.89005 0.27635 -0.085406 -0.21092 -0.041616 -0.26447 0.19215 0.5824 0.3516 0.41609 -0.34605 0.32493 -0.42314 -0.059555 0.10609 -0.53695 -0.15595 -0.01765 -0.060377 -0.010248 -0.18714 0.14237 0.55253 0.59718 0.0042381 -0.13018 0.12186 0.35612 -0.1519 -0.24006 0.28542 0.030778 -0.095042 0.1457 -0.4445 0.15214 0.23257 -0.10388 0.21011 -0.11073 -0.15827 -0.1469 0.30085 -0.044239 -0.22301
movie 0.20663 0.044453 0.16098 -0.060219 7.9662E-4 0.44166 -0.025702 0.12664 0.70511 -0.43215 -0.34922 0.44809 -0.70231 0.029342 -0.30883 0.3503 0.12174 -0.21309 -1.0065 0.17687 -0.39851 0.13175 -0.11587 -0.15502 0.13427 -0.45506 -0.96685 -0.037788 4.7699E-4 0.16177 -0.082292 0.46465 -0.42938 -0.27409 0.093231 0.3499 0.010213 -0.2982 -0.74576 0.031726 -0.026698 0.15789 0.024131 -0.51602 -0.14822 0.60531 -0.44859 0.39281 0.47204 0.25422 -0.84715 0.40238 -0.30013 -0.15129 0.21326 -0.35016 -0.020902 -0.089537 0.18545 -0.18007 -0.099591 0.014737 0.43614 0.44178 0.14356 -0.59608 -0.046847 0.42892 -0.36963 0.23413 -0.42566 0.40278 0.24602 0.097821 -0.099932 -0.33598 -0.057037 0.10888 0.074193 -0.087152 -0.059443 0.13476 -0.16649 0.24866 -0.57443 -0.13939 0.37483 -0.019144 0.38812 0.21107 -0.52092 0.36672 -0.42773 -0.24198 -0.42501 0.084117 0.10224 -0.17653 -0.32679 -0.012239
popcorn 0.15453 -0.39747 -0.32148 -0.11054 0.046061 0.52938 0.1079 0.49783 0.44851 -0.18003 -0.25721 -0.035166 -0.40516 -0.1843 -0.29094 -0.15354 0.016028 -0.10056 -0.18078 0.7679 -0.11783 0.39671 -0.092005 0.024091 0.26719 -0.31764 -0.51315 -0.13275 -0.13515 0.2028 -0.25889 0.41134 -0.57854 0.053129 0.090652 0.49918 -0.74231 -0.12024 -0.10329 0.063612 0.46569 0.013407 -0.036863 -0.069389 0.0057356 0.1288 -0.075652 -0.15501 0.04368 0.32642 -0.50056 0.34765 0.09904 -0.19281 0.49408 -0.75084 0.10054 -0.33576 0.31352 -0.18982 0.039826 0.3386 0.1721 0.21646 0.38258 -0.48393 0.058519 0.86066 0.095396 0.33612 -0.33435 0.12244 0.68642 0.29783 -0.14967 0.10575 0.18876 -0.063217 -0.028172 -0.56511 0.054337 0.31762 -0.12669 0.030507 -0.35343 0.053242 0.61459 0.46732 0.13265 0.2837 0.35839 0.46788 -0.16277 -0.18697 -0.21965 -0.077216 0.34549 -0.08579 -0.39414 -0.11527
recommendation 0.71137 0.59122 0.2246 -0.42609 -0.33237 0.69 0.40002 0.39176 0.25929 -0.40569 -0.56033 -0.35289 -0.64857 0.074692 0.0018574 0.1129 -0.058485 -0.12585 -0.11045 0.34345 0.033052 -0.235 0.19752 0.033301 -0.2117 -0.12234 0.043462 -0.27903 -0.22265 -0.10423 0.11033 -0.24445 -0.49104 0.28573 0.068994 0.098535 0.055415 0.04158 0.342 -0.0091813 0.52039 0.3061 0.12692 0.26523 0.20664 0.0759 -0.117 -0.24731 -0.039585 0.22775 -0.5589 -0.24122 0.30794 -0.71731 0.38382 -0.62628 0.062465 -0.070193 -0.23598 0.02378 0.0079006 -0.11305 0.070572 0.37843 0.14239 -0.20225 0.37986 0.011757 -0.079447 -0.031129 -0.22226 -0.55485 0.13073 -0.15156 0.40769 -0.34182 -0.20719 0.33257 0.50651 -0.12801 -0.30965 0.1439 -0.046405 0.050061 -0.15988 -0.19869 0.23257 0.40302 0.028712 -0.38676 -0.069795 0.041169 0.44744 0.20071 -0.15438 0.2443 0.21081 -0.039819 -0.14968 -0.24577
focus 0.54409 0.060672 0.066125 -0.25838 -0.20352 0.66109 0.10303 0.48679 0.095589 -0.27354 -0.46056 -0.11816 -0.23863 -0.50262 -0.64442 -0.17393 0.2648 0.041728 -0.2417 0.45995 -0.30812 0.090576 0.33274 0.11125 -0.10274 0.016296 -0.29663 -0.20687 0.66771 0.34513 0.16426 0.052995 0.09934 -0.038054 -0.061561 0.13229 0.29955 -0.20728 0.24123 -0.058632 0.27601 0.53115 -0.21212 0.097215 -0.039506 0.25053 -0.48032 0.19836 -0.15964 0.29203 -0.43154 -0.064151 0.32771 -0.6851 0.44462 -0.49968 0.14246 -0.13476 -0.27776 -0.22825 0.17829 0.090537 0.69154 -0.052877 0.083133 -0.39821 0.11607 -0.21955 0.0083853 -0.27786 -0.33155 -0.0088171 -0.021847 0.044558 0.25981 -0.06231 -0.034748 -0.017112 0.36899 0.10774 -0.2992 -0.34227 0.23135 0.33903 -0.55531 -0.049797 0.35032 0.056519 0.34775 -0.31108 0.096889 -0.095758 0.11627 -0.085875 0.011014 -0.45608 -0.3512 -0.16991 -0.32374 -0.39455
attempt 0.44513 0.1571 -0.19787 0.33778 0.064926 0.90646 -0.11734 0.14295 0.30748 0.013663 -0.46043 -0.46869 -0.59608 -0.041372 -0.43803 0.23166 -0.061942 0.20179 -0.10539 0.35947 0.01705 0.07609 0.20372 -0.058948 0.19882 -0.55309 0.035491 -0.59336 0.27465 -0.0051461 0.13877 -0.34471 -0.22986 0.40442 0.067943 0.0047819 0.37895 -0.37328 -0.3174 -0.13677 -0.23552 0.053795 -0.050022 0.1395 0.10727 -0.065628 0.17631 -0.071013 0.078578 0.15794 -0.23706 0.18363 0.0049904 -0.44691 0.61705 -0.57926 0.47691 -0.20831 0.02126 -0.096157 -0.25533 -0.14828 -0.052024 0.23205 -0.081195 0.46724 0.044985 -0.014118 0.041722 0.12731 -0.64756 -0.4393 0.05476 -0.013012 0.16058 -0.66462 -0.084381 0.071395 0.33221 0.44243 -0.42942 -0.5869 -0.37148 0.21239 -0.5234 -0.4333 0.61811 -0.20649 0.18017 0.22486 -0.23262 0.16078 -0.27924 -0.22495 0.04474 -0.4164 0.19697 0.071216 0.3553 -0.6416
approach 0.44651 0.12864 0.14726 -0.55444 -0.032647 0.73334 0.059838 0.44486 0.31554 -0.34257 -0.46486 -0.24739 -0.64171 -0.39844 -0.57879 -0.095784 0.2384 0.06703 -0.29213 0.41054 -0.099923 -0.15969 0.37509 0.16412 0.23695 -0.17607 -0.18819 -0.35381 0.34983 0.15018 0.33473 -0.27586 -0.15934 0.04335 0.086613 0.19486 0.25902 -0.083047 0.012962 -0.14282 0.41622 0.33327 -0.33088 0.10119 -0.34483 0.38297 0.20127 -0.010631 -0.080882 0.28397 -0.24338 -0.13565 0.24079 -0.60956 0.38071 -0.62603 -0.01527 0.085156 0.085084 -0.0044318 -0.19315 -0.048857 0.32467 0.30152 0.33138 0.039504 0.18478 -0.42953 -0.024884 -0.34353 -0.454 -0.42061 0.050578 0.39898 0.85308 -0.32627 -0.12727 -0.043937 0.24582 -0.042031 -0.034081 -0.37552 0.076684 -0.012383 -0.28374 -0.31495 0.14857 -0.11656 -0.25898 -0.2108 0.025676 -0.25356 -0.12431 -0.34577 0.036281 -0.21455 -0.1205 -0.30149 -0.30144 -0.35687
number 0.096994 0.12652 -0.056147 -0.28588 -0.20572 0.37598 0.18095 0.3202 -0.26658 -1.1446 -0.98852 -8.184E-4 -0.35176 0.091015 -0.66226 0.21997 0.18981 0.28345 0.073296 0.64698 -0.49922 0.27614 0.28251 0.33195 -0.22336 0.025318 -0.041396 -0.21074 0.14295 0.098448 -0.21471 -0.19995 -0.41086 0.24058 0.12323 0.079554 -0.29393 0.1427 -0.42723 0.1378 0.08929 0.059477 -0.25808 0.21936 0.25565 -0.02124 0.25012 -0.1287 0.17572 0.18056 -0.12148 0.20964 0.29377 -0.078427 0.15613 -0.40628 0.22937 0.16866 -0.44502 -0.034871 -0.28903 -0.30398 0.067405 0.12889 -0.29363 -0.634 -0.027938 0.36541 -0.094078 -6.353E-4 -0.097153 -0.098314 0.021379 0.026171 0.316 -0.6036 -0.26641 0.44856 -0.18208 0.0062491 -0.38517 0.068524 0.1965 0.10088 -0.17146 -0.36229 0.38962 0.24378 0.57288 -0.41309 -0.032109 0.21122 -0.1221 -0.03868 -0.35038 -0.36599 -0.37187 -0.18032 -0.1699 -0.089227
property 0.19921 0.0049381 -0.065817 -0.2921 -0.24422 -0.25661 0.13203 -0.21631 -0.072703 -0.29723 -0.96881 -0.63822 -0.15537 -0.18554 -0.25246 -0.041401 0.27237 0.074961 -0.017137 0.55977 0.16135 0.18541 0.013971 -0.4213 0.12728 -0.40585 -0.41087 -0.51534 0.54102 0.14194 -0.45703 0.058553 -0.49072 0.21147 0.49163 -0.49565 0.0056302 -0.17109 -0.40995 -0.075853 -0.36365 0.10003 -0.040052 -0.18604 -0.13894 0.33004 0.14006 -0.069106 -0.42378 0.54277 -0.37363 0.42095 -0.059783 -0.63778 0.0018209 -0.56638 0.03889 -0.11773 0.37462 -0.4383 0.36593 -0.20164 0.40248 0.073384 -0.078309 -0.5737 -0.014897 0.14484 0.2629 -0.29091 0.24082 -0.029468 7.3821E-6 -0.60513 -0.12441 -0.52177 0.22918 0.31174 0.11219 -0.37533 -0.41987 -0.23456 0.22971 0.30195 -0.57381 0.27094 -0.26039 0.27758 0.48437 -0.50108 -0.59453 0.18515 -0.42003 -0.62517 -0.30476 0.27805 -0.12863 0.24504 0.18433 -0.62345
fingerprint 0.26241 -0.28271 0.46551 -0.01406 -0.3069 0.57507 -0.056679 -0.027907 0.50176 -0.16288 -0.81897 -0.47339 -0.34512 0.11804 -0.073411 0.27017 -0.13427 -0.21471 0.13636 0.69503 -0.052796 0.14021 0.28084 0.20834 0.33962 -0.38495 -0.24492 -0.090761 0.45138 0.069645 -0.11987 -0.24426 -0.52987 0.020399 0.032377 0.06656 -0.13746 -0.32066 -0.1388 0.013025 0.38205 0.16363 -0.17688 -0.13054 0.11221 0.015712 0.030063 -0.23001 -0.29811 0.22169 -0.30024 0.59154 0.47767 -0.16934 0.36912 -0.76301 0.60598 -0.29304 0.1213 -0.11519 -0.04411 0.23657 -0.032853 0.051007 -0.069308 -0.80645 -0.0066112 0.22315 0.16504 0.3544 -0.60769 -0.18567 -0.038516 -0.053129 0.23575 -0.2911 -0.34688 0.39095 0.23162 -0.049959 -0.26584 0.025244 0.16782 0.05186 -0.10573 -0.048951 0.34376 0.34407 -0.035468 -0.47442 -0.4709 -0.067184 0.20193 -0.16903 -0.1037 -0.35006 -0.29009 0.2545 0.084902 0.34593
reservation 0.40265 -0.04157 0.22716 -0.23613 -0.16245 0.43235 -0.14682 -0.077119 0.46611 -0.30689 -0.45076 -0.24296 0.070602 -0.32783 -0.73392 0.26023 0.3147 0.27104 -0.25238 0.97609 -0.26921 0.24256 0.13653 -0.060981 0.35441 -0.21471 -0.18342 -0.12791 -0.152 -0.14787 -0.22948 -0.068284 -0.074873 0.14601 -0.05631 -0.19135 -0.24097 -0.046501 0.099409 0.062856 0.068149 0.085824 -0.072158 0.12152 0.0071284 0.21525 0.35842 0.048629 -0.29418 -0.036643 -0.55968 0.81199 0.14413 -0.47143 -0.056193 -0.49869 0.083589 -0.036437 0.02787 -0.16402 -0.24952 -0.37426 0.046061 0.31192 0.28256 -0.37096 -0.13076 0.019647 -0.29933 0.029626 -0.16519 -0.02346 0.3062 -0.49278 0.26629 -0.42311 0.063341 0.089026 0.045688 -0.048323 -0.249 0.074751 0.11814 0.21064 0.017924 0.12109 0.14308 0.52964 0.25639 -0.27909 -0.2231 0.41429 -0.0083059 -0.22077 0.038301 0.44363 0.1192 0.2367 0.10543 -0.20651
block 0.65197 0.065823 -0.10831 0.042368 -0.0763 0.18827 -0.40932 0.70237 0.17637 -0.34389 -0.24209 -0.31957 -0.1658 -0.47942 -0.45494 0.2834 0.18733 -0.19284 0.24345 0.65427 -0.32956 0.381 0.01357 0.10333 0.38094 -0.42187 -0.35238 -0.66549 0.72612 -0.53237 0.082118 -0.072276 -0.35841 -0.25531 0.37652 -0.38419 0.049787 -0.011947 -0.062177 -0.23503 0.070768 -0.017744 -0.51747 0.11958 -0.36093 0.26593 0.20026 0.19831 -0.052189 -0.068018 -0.038819 0.36342 0.076111 -0.51543 0.40104 -0.44712 0.65434 0.0054769 0.49832 -0.29629 0.15986 -0.027867 -0.035251 0.32744 0.15538 -0.29362 0.64808 0.081022 0.071889 0.20929 -0.12863 -0.029989 0.066823 -0.41118 0.011067 -0.52372 -0.13959 0.12483 0.51926 -0.24946 -0.40623 -0.20082 0.1913 -0.087438 -0.14865 -0.72149 0.24254 0.37565 0.29155 0.060695 -0.13366 0.33575 -0.10909 -0.062602 0.1082 -0.0056015 0.30043 -0.089368 0.26998 -0.30474
fear 0.34984 0.0034026 -0.36001 -0.034362 -0.54704 0.51304 -0.14419 0.32135 -0.28773 -0.1128 -0.41665 -0.1488 -0.51008 0.011658 -0.65271 0.045524 0.44882 0.34464 -0.15952 0.55121 -0.01249 0.58621 0.0045834 -0.25204 -0.27713 -0.59444 -0.030722 -0.31822 0.2972 0.083163 -0.017127 -0.024652 0.24601 0.079835 0.16042 -0.14783 0.3018 -0.18817 -0.063421 -0.090591 0.081453 0.061339 0.11262 -0.29797 0.0078036 0.40797 -0.48064 0.12226 -0.13973 0.4194 -0.26795 0.72239 -0.010663 -0.49304 0.41079 -0.80733 0.13789 -0.38713 0.08755 0.041831 -0.24305 -0.26457 0.20972 -0.1592 -0.043935 -0.3676 0.1351 0.33731 0.51134 -0.10585 -0.40536 -0.067755 -0.43423 -0.065574 0.38828 -0.50309 -0.1735 0.15793 -0.12706 0.12271 -0.43857 0.21257 -0.21724 -0.18337 -0.56094 -0.35911 0.13095 -0.1737 0.02949 -0.094838 0.18395 0.21286 0.38731 -0.34892 -0.29397 -0.30534 -0.12093 -0.49265 -0.070008 -0.26029
surface -0.20639 -0.69787 -0.22948 -0.25423 -0.32785 0.6451 0.23077 0.45233 0.27377 0.16031 -0.45954 0.041925 -0.15432 0.038246 -0.39753 -0.60072 0.40848 -0.023267 0.43734 0.46276 -0.36856 0.21778 -0.17856 -0.34816 0.54884 -0.22903 -0.57023 0.14496 0.025723 -0.16437 0.039306 0.14376 -0.72453 -0.06153 -0.14185 0.07013 -0.34078 -0.32427 0.55956 0.15525 0.46302 -0.22262 0.086216 -0.17082 -0.17353 0.37621 0.10202 -0.14752 -0.0071514 0.47911 -0.41704 0.59385 -0.14395 -0.59803 0.5461 -0.6328 0.60025 0.039771 0.088884 -0.19713 0.24909 0.22506 0.10163 -0.11629 0.04156 -0.40665 0.014485 -0.21197 -0.034572 0.014114 -0.47215 -0.10674 0.45699 0.19009 0.3009 -0.41382 0.21118 0.42238 -0.0099577 -0.18357 -0.50253 -0.57272 0.073723 0.17748 -0.046688 -0.20413 0.53456 0.30526 -0.053783 -0.047987 -0.33069 -0.15104 0.15857 -0.1855 -0.15271 -0.39116 -0.64199 -0.12845 0.0069759 0.086573
